-0.448646187782288
0.271071672439575
0.671366333961487
0.667137622833252
0.464857935905457
-0.408405542373657
-0.973307490348816
-0.84952449798584
0.866895079612732
-0.670669317245483
-0.518059134483337
-0.720640659332275
0.496356844902039
0.892605543136597
-0.0628641843795776
0.978715896606445
0.703462958335876
0.855759859085083
0.794254899024963
0.667612552642822
-0.643988728523254
0.240400075912476
-0.886521220207214
0.790507316589355
0.245627760887146
0.296648263931274
-0.730558753013611
-0.151501178741455
0.994016528129578
0.784392118453979
0.107479214668274
0.930576324462891
-0.540790200233459
0.754534959793091
0.59988272190094
0.744869709014893
0.641817927360535
-0.169754266738892
0.00214493274688721
-0.850100517272949
0.0912793874740601
-0.0117909908294678
0.509212136268616
-0.814173221588135
-0.187889218330383
-0.160125017166138
0.411733746528625
-0.394296646118164
0.670156836509705
-0.587290525436401
-0.247687697410583
-0.0932784080505371
-0.701159596443176
-0.568556070327759
0.481753468513489
-0.138535499572754
-0.494587540626526
-0.90067458152771
-0.884683966636658
-0.450844287872314
0.177202105522156
0.379366636276245
-0.111038088798523
-0.113090515136719
-0.312133431434631
0.775595903396606
0.415606141090393
-0.339019298553467
0.803641200065613
0.614307165145874
-0.15863311290741
-0.941985130310059
0.0895894765853882
0.825309991836548
-0.498184561729431
-0.303701877593994
-0.184147000312805
-0.776820421218872
0.0782262086868286
-0.842992782592773
0.363901495933533
-0.711493253707886
-0.74617326259613
0.0154595375061035
-0.867217183113098
-0.550852060317993
-0.129952311515808
-0.627636909484863
-0.0546270608901978
0.861475229263306
0.582772850990295
0.885066509246826
0.954625964164734
-0.308373689651489
-0.98141086101532
-0.701190948486328
-0.950175881385803
-0.103245496749878
-0.568963408470154
-0.522029399871826
0.762827754020691
0.50627875328064
0.856858372688293
-0.062678337097168
-0.325674653053284
-0.596866369247437
-0.227749228477478
0.873273372650146
0.320083498954773
-0.394980669021606
-0.750886797904968
0.695127487182617
0.597196936607361
0.0456516742706299
0.611298203468323
-0.943673610687256
0.67033851146698
0.856012105941772
-0.409138560295105
0.385703086853027
0.37800920009613
-0.854402303695679
0.984311699867249
-0.0812687873840332
-0.861211895942688
-0.716328859329224
-0.191139101982117
0.228775024414063
0.357582449913025
-0.319489240646362
0.958674073219299
0.258339405059814
0.331877589225769
0.0686604976654053
-0.638880610466003
0.850319862365723
-0.342013001441956
-0.715820074081421
0.633018136024475
0.779252529144287
-0.862697720527649
-0.452105760574341
0.236894726753235
-0.717435836791992
0.182543158531189
-0.753355741500854
-0.862773299217224
-0.908177852630615
-0.275992512702942
0.214536428451538
-0.0433052778244019
-0.036015510559082
-0.384178757667542
-0.485807180404663
-0.367567420005798
0.712649822235107
0.54218852519989
-0.281998872756958
0.572277188301086
-0.260692596435547
0.423641562461853
-0.310635328292847
0.311018586158752
0.0645871162414551
-0.676709294319153
-0.136047601699829
-0.3333500623703
0.859509468078613
0.853074431419373
0.0309488773345947
-0.603382468223572
-0.523264408111572
0.0800093412399292
-0.385695695877075
-0.645929217338562
-0.0181827545166016
-0.0675598382949829
0.453984498977661
0.144112229347229
0.184446811676025
0.106289744377136
0.0872209072113037
-0.719952464103699
-0.830292701721191
0.471309065818787
-0.470239400863647
-0.160364508628845
-0.670677661895752
0.977327227592468
-0.442883729934692
-0.37866199016571
0.892906188964844
0.0605014562606812
-0.514183759689331
0.800570130348206
0.959213733673096
-0.450432896614075
0.454654455184937
0.0859500169754028
-0.972609519958496
0.0720876455307007
-0.79405951499939
-0.624451041221619
-0.971777439117432
0.960704684257507
0.36674952507019
0.913141369819641
-0.144613265991211
0.659387946128845
-0.769827604293823
0.944454789161682
0.396700382232666
-0.370314717292786
-0.963434457778931
-0.126580119132996
-0.934628486633301
-0.243027329444885
0.754801034927368
0.918420433998108
-0.168751239776611
0.256704211235046
-0.636483430862427
-0.731456637382507
0.752071380615234
0.0806621313095093
0.632365465164185
-0.260171294212341
-0.995280742645264
0.823206782341003
0.403266668319702
0.931519627571106
0.416462898254395
0.127526640892029
0.371654748916626
-0.117687582969666
-0.503786563873291
-0.408111691474915
0.367729902267456
-0.773393511772156
-0.0342273712158203
-0.824113488197327
-0.862292051315308
0.850754380226135
-0.208917140960693
0.106694102287292
-0.374929666519165
0.0493117570877075
0.71347713470459
0.285312056541443
0.751814126968384
0.181287407875061
0.280929088592529
0.192819476127625
-0.300297975540161
-0.173606753349304
0.379302978515625
-0.703376412391663
0.6915123462677
0.441294312477112
0.263603687286377
0.956709742546082
0.272289037704468
0.515858769416809
0.0892267227172852
-0.168108582496643
-0.909408330917358
0.229407906532288
0.94320821762085
-0.213939785957336
0.179745435714722
0.606966137886047
-0.62452507019043
0.294435858726501
-0.260908842086792
-0.824488997459412
0.430094242095947
-0.650183796882629
0.415235280990601
0.120223164558411
-0.82347583770752
0.868827223777771
-0.916700124740601
0.940736413002014
0.74086332321167
0.598173022270203
-0.871827363967896
-0.392612338066101
0.837100982666016
0.520885825157166
-0.774243116378784
0.217466950416565
0.798367023468018
-0.23742401599884
0.624221563339233
-0.848532557487488
-0.891818046569824
-0.00231802463531494
0.925251245498657
-0.270664572715759
-0.56829309463501
-0.644279599189758
0.365296125411987
-0.63327968120575
-0.853006362915039
0.82753598690033
0.596822023391724
-0.768775343894959
0.376234531402588
-0.828448414802551
-0.0304396152496338
0.398654103279114
-0.482987403869629
0.320018172264099
-0.688241720199585
0.509267449378967
-0.726448535919189
-0.714735150337219
0.21142840385437
0.924026608467102
-0.812034606933594
0.565948843955994
-0.202400922775269
0.380846619606018
0.671509265899658
-0.946694493293762
0.021564245223999
-0.849154353141785
0.535828590393066
-0.562601685523987
-0.561866521835327
-0.305405020713806
-0.975790500640869
0.11336886882782
-0.513118028640747
-0.181630969047546
0.342828750610352
-0.412313103675842
-0.726599454879761
0.330395340919495
-0.307996273040771
-0.615599751472473
0.850545644760132
-0.802895426750183
0.797442436218262
-0.548615097999573
0.999689340591431
0.19938051700592
-0.0585064888000488
0.0665949583053589
-0.488030672073364
0.0888100862503052
0.494396209716797
0.244312644004822
-0.0304610729217529
0.243933320045471
-0.0544695854187012
0.641398310661316
-0.973182916641235
0.826493382453918
-0.565333366394043
0.963540434837341
0.191738367080688
-0.562313437461853
-0.216784000396729
-0.128494381904602
0.107002973556519
0.274412274360657
0.0254802703857422
-0.612611413002014
-0.668673276901245
-0.214476943016052
0.439901828765869
-0.199137806892395
-0.379308938980103
0.82807457447052
0.0803136825561523
-0.924572587013245
-0.290406942367554
-0.676424384117126
0.807189464569092
0.754663348197937
-0.407704591751099
-0.585761904716492
-0.181106567382813
0.36847722530365
-0.695923566818237
-0.880772948265076
0.682930469512939
0.339354395866394
0.20248007774353
0.490910649299622
0.867196083068848
-0.611391663551331
0.748565912246704
0.2711101770401
-0.228773593902588
0.442630648612976
0.788159132003784
-0.95264995098114
-0.742551803588867
-0.960858941078186
0.333100557327271
0.909107804298401
0.68242883682251
0.233437418937683
0.842496633529663
-0.395935893058777
0.428126335144043
0.0046457052230835
-0.996030569076538
-0.805647253990173
-0.0668606758117676
-0.838029980659485
-0.985093355178833
-0.787189364433289
0.223957061767578
-0.249057412147522
-0.636288404464722
0.319227814674377
0.94620943069458
-0.0403262376785278
0.111053228378296
0.456597447395325
-0.104083061218262
-0.474897980690002
0.67111611366272
-0.492634177207947
-0.949259281158447
-0.360756039619446
0.0928504467010498
0.449682354927063
-0.898767471313477
-0.644555687904358
-0.158777952194214
-0.986350417137146
0.48208475112915
0.494625926017761
-0.921537637710571
-0.162426829338074
0.903380393981934
-0.948460221290588
0.445318460464478
-0.87578809261322
-0.618156909942627
-0.898985028266907
0.342303037643433
-0.202972292900085
0.772087097167969
-0.795791268348694
-0.289055585861206
-0.843564391136169
0.797867298126221
-0.68514358997345
-0.684963464736938
-0.963946223258972
-0.416670799255371
0.185521483421326
-0.478111028671265
0.458953499794006
-0.315741062164307
-0.726154446601868
0.583576917648315
0.793909192085266
0.619333267211914
-0.85120165348053
-0.581808805465698
-0.588351607322693
-0.098630428314209
0.396927714347839
0.891088247299194
-0.158898234367371
0.568575859069824
-0.97139036655426
-0.403859853744507
0.425653100013733
-0.784199237823486
0.384298205375671
0.136984586715698
-0.520610690116882
0.525783538818359
-0.459224343299866
-0.0917251110076904
0.943350434303284
0.300404071807861
0.217402338981628
0.376929998397827
0.541779637336731
0.99193286895752
0.182366728782654
0.863384485244751
0.438373208045959
-0.265718936920166
-0.84106457233429
0.822838544845581
0.392530560493469
0.874250411987305
-0.768296837806702
0.626507997512817
-0.58439576625824
-0.997216701507568
-0.247157216072083
0.84287428855896
-0.0728501081466675
0.486212730407715
0.748355269432068
0.0189344882965088
0.411176323890686
-0.502487659454346
0.82431972026825
0.961451292037964
0.572395443916321
0.54754638671875
-0.426856637001038
-0.481796979904175
0.992472290992737
-0.483680248260498
0.479811549186707
-0.140766382217407
-0.713724970817566
-0.81577205657959
0.328137755393982
0.258102655410767
0.758124947547913
-0.736692905426025
-0.892986416816711
-0.626864671707153
-0.441953539848328
0.928483963012695
0.416658759117126
-0.971327543258667
0.338017106056213
-0.151174068450928
0.374871134757996
-0.503679513931274
0.408217549324036
-0.281208992004395
-0.976723313331604
-0.723798513412476
0.393281579017639
0.289477825164795
0.233579516410828
-0.621796846389771
-0.611453890800476
-0.100124359130859
0.113811850547791
0.103228807449341
0.61630117893219
0.508114337921143
-0.0854159593582153
0.324447393417358
-0.417960047721863
-0.777285575866699
-0.56466543674469
-0.731456518173218
0.730708718299866
0.333837032318115
0.930580019950867
0.796967267990112
0.602956891059875
-0.155466079711914
-0.483834862709045
0.187184572219849
-0.508612990379334
0.501997470855713
0.0755127668380737
-0.586073160171509
-0.403195261955261
-0.671189308166504
0.665873885154724
0.93044114112854
-0.315531134605408
-0.345802783966064
0.424577593803406
-0.0502598285675049
0.240341305732727
-0.354728698730469
-0.0247188806533813
-0.774147748947144
-0.872662901878357
-0.661712169647217
0.334219813346863
0.335071325302124
-0.25842559337616
0.169892311096191
0.316457152366638
-0.542793035507202
-0.331375479698181
-0.991629123687744
0.442134737968445
-0.343165636062622
-0.160238146781921
0.684900283813477
-0.657277703285217
-0.335455656051636
0.18821394443512
-0.975202083587646
0.667267680168152
-0.841806650161743
-0.194588541984558
0.378771781921387
0.488646864891052
0.544153451919556
-0.402761816978455
-0.345829486846924
-0.790186047554016
-0.761437654495239
-0.55971896648407
0.846233367919922
-0.0299488306045532
0.448573350906372
-0.161919951438904
0.0693402290344238
-0.448781132698059
0.45360541343689
0.0773783922195435
-0.911738395690918
-0.215994477272034
0.386593103408813
0.884372353553772
-0.650591373443604
-0.545822262763977
0.515236616134644
-0.419038653373718
0.512083053588867
0.708830237388611
-0.97674822807312
-0.259002089500427
-0.520272731781006
-0.03736412525177
-0.708379983901978
-0.653462290763855
-0.0688257217407227
-0.69590437412262
-0.320161581039429
-0.555910468101501
0.351897716522217
0.401788592338562
-0.192830324172974
-0.699134707450867
0.565261840820313
0.910622000694275
-0.666107892990112
0.0610300302505493
0.763771533966064
-0.621918797492981
-0.757450342178345
0.901951909065247
-0.959677696228027
0.650479674339294
-0.380798101425171
-0.309547781944275
-0.580549716949463
-0.220790982246399
-0.0653259754180908
0.139055371284485
0.388582229614258
0.426988959312439
-0.174193143844604
-0.537761092185974
-0.0707144737243652
-0.225882649421692
0.376706838607788
0.532683491706848
-0.951481819152832
-0.0752798318862915
-0.100003957748413
0.537522912025452
-0.190121173858643
-0.18699848651886
0.218062162399292
0.134594082832336
-0.135143280029297
-0.390506386756897
-0.555691480636597
-0.891312956809998
-0.515918254852295
-0.372693181037903
-0.735595941543579
0.52779495716095
-0.911425590515137
-0.271620392799377
0.717533349990845
-0.600635886192322
-0.719004154205322
-0.770271420478821
0.477646589279175
-0.173456072807312
-0.623102188110352
-0.690301537513733
-0.365290403366089
0.664436936378479
0.435972690582275
-0.0857878923416138
0.975953817367554
-0.323651194572449
0.793303489685059
-0.836979508399963
0.767126321792603
0.190038323402405
0.090613842010498
-0.744047284126282
-0.966260194778442
0.25396740436554
-0.192481994628906
0.879166007041931
0.342322587966919
0.293551087379456
0.292770862579346
0.111395716667175
-0.918331384658813
-0.732592463493347
0.295517921447754
-0.169794678688049
-0.75591254234314
-0.676391959190369
0.996545314788818
-0.381763577461243
0.70665431022644
0.955927014350891
0.539529800415039
0.169458746910095
0.0124599933624268
0.660091996192932
-0.937711238861084
0.195420145988464
-0.348139047622681
-0.909966349601746
0.228030204772949
-0.168503403663635
-0.156270742416382
-0.285864233970642
-0.743397235870361
0.543142199516296
0.816702604293823
-0.0285147428512573
-0.544254302978516
-0.467860817909241
-0.409565687179565
0.928122162818909
-0.747661113739014
0.642847895622253
-0.743156671524048
-0.566710352897644
-0.276347160339355
-0.231543183326721
0.761364221572876
0.775683999061584
0.628598690032959
0.757232546806335
-0.815802812576294
-0.160295367240906
0.93897819519043
-0.181230187416077
0.521558046340942
0.761704087257385
-0.129266262054443
0.430241465568542
0.966928243637085
-0.913761973381042
0.41519832611084
0.742648482322693
0.692304849624634
0.422315239906311
-0.629654407501221
-0.512930035591125
0.129450559616089
-0.400352358818054
-0.127960205078125
0.380913138389587
0.75114369392395
0.324900269508362
0.425285816192627
-0.965836644172668
0.352428197860718
-0.662058711051941
0.435479164123535
0.355634093284607
0.831863641738892
-0.931908011436462
0.2396559715271
0.459216952323914
0.472775220870972
0.790376782417297
-0.36225700378418
-0.929868340492249
0.724503755569458
0.281773209571838
0.923807621002197
0.431176066398621
-0.516344308853149
-0.0225380659103394
0.41730785369873
0.708976149559021
0.875353097915649
-0.372923254966736
0.49434232711792
-0.0997639894485474
-0.465516328811646
-0.549045443534851
0.118900299072266
0.237987875938416
-0.613049268722534
-0.203614592552185
-0.125888347625732
-0.90215790271759
0.930923223495483
-0.706137537956238
-0.506503105163574
0.404237151145935
-0.981914281845093
-0.486667990684509
-0.10778284072876
0.536689639091492
-0.865111589431763
0.1204434633255
-0.301675796508789
0.73604428768158
0.183797121047974
0.532799363136292
0.284010410308838
0.0107239484786987
-0.235456705093384
0.0762053728103638
-0.703141212463379
0.542979598045349
-0.044625997543335
0.640920281410217
0.691092967987061
-0.404859662055969
-0.40569806098938
-0.162093997001648
-0.741172790527344
-0.0841366052627563
-0.939644575119019
0.655077576637268
-0.338683605194092
0.646384119987488
-0.445171594619751
-0.386446833610535
-0.0397939682006836
0.726765990257263
0.882530450820923
-0.576095938682556
-0.351217746734619
0.80215060710907
-0.266963243484497
0.142404675483704
0.183221817016602
-0.370992302894592
0.461938142776489
0.827282547950745
0.0138421058654785
0.981385111808777
0.372091054916382
-0.305031657218933
0.116351127624512
-0.942841172218323
-0.505132436752319
0.77634584903717
0.0230975151062012
0.384282946586609
0.871405363082886
-0.926998019218445
0.354320526123047
0.227039694786072
-0.666142225265503
0.213476777076721
-0.150599956512451
-0.507710576057434
0.786643743515015
0.609513401985168
0.898106575012207
0.135720610618591
-0.0123021602630615
0.112308144569397
-0.428148746490479
-0.931900143623352
0.829720258712769
-0.831239581108093
0.154935836791992
0.561521887779236
-0.878573179244995
0.477722764015198
0.175802707672119
-0.844340443611145
-0.131201028823853
-0.85374915599823
-0.0617151260375977
-0.935986161231995
-0.943666219711304
-0.654146552085876
0.552855968475342
0.080163836479187
-0.0717060565948486
-0.531257510185242
0.467880249023438
-0.0159832239151001
-0.230042219161987
-0.215916991233826
0.500862598419189
-0.551941990852356
-0.81113076210022
0.594243168830872
-0.630301475524902
-0.556398987770081
-0.103912115097046
0.89104425907135
-0.276075839996338
-0.852962613105774
0.987438917160034
-0.48798930644989
0.675966262817383
0.346086859703064
-0.275236845016479
0.796620011329651
0.83239221572876
0.346047282218933
0.817167043685913
0.742552876472473
-0.174839973449707
-0.623955368995667
0.202272653579712
-0.338056921958923
0.342868328094482
0.495283007621765
-0.672532320022583
-0.662372469902039
0.662006378173828
-0.000705361366271973
-0.0688445568084717
0.679396271705627
-0.32179594039917
0.326189875602722
-0.675995111465454
-0.119757533073425
0.437481880187988
-0.537092804908752
0.17020058631897
-0.927387595176697
0.167500972747803
0.851463198661804
0.7686927318573
-0.515344500541687
0.808813095092773
-0.204797387123108
-0.165552854537964
-0.903525710105896
0.0461106300354004
0.365048289299011
-0.220304727554321
0.796374440193176
0.839476585388184
0.805751204490662
0.495184183120728
-0.96288526058197
-0.544365406036377
-0.557859539985657
-0.368573427200317
0.992157101631165
-0.00080108642578125
-0.914626717567444
-0.620049238204956
0.211916565895081
-0.556075572967529
-0.0608149766921997
-0.245449304580688
0.780011296272278
-0.836043357849121
-0.993860840797424
0.372535943984985
-0.0304874181747437
0.965081691741943
-0.00612270832061768
0.735981702804565
-0.600805163383484
-0.384023666381836
-0.27863085269928
-0.987021207809448
0.689785599708557
-0.120542049407959
-0.974837422370911
-0.681116342544556
-0.379784464836121
0.0437345504760742
0.16563355922699
-0.502431631088257
0.783868432044983
-0.0463452339172363
0.733236193656921
-0.597329378128052
0.744831204414368
-0.458042144775391
0.0547527074813843
-0.32115626335144
-0.305856108665466
-0.139476299285889
0.0995434522628784
-0.956993341445923
-0.393950343132019
0.61162281036377
0.885796904563904
0.065593957901001
0.894244790077209
0.179166316986084
0.38677966594696
-0.548194169998169
-0.431871294975281
0.159955978393555
0.937086462974548
0.822858095169067
0.88905394077301
0.394934177398682
0.138890147209167
-0.00276780128479004
-0.473423838615417
0.500433921813965
0.268191695213318
0.771925210952759
0.214704155921936
-0.100571155548096
0.1810702085495
-0.796300172805786
0.908149838447571
0.352783203125
-0.280067086219788
0.390334367752075
0.438578248023987
0.990501880645752
0.619765162467957
-0.248127222061157
0.670857548713684
-0.15701961517334
-0.0856195688247681
0.811874628067017
-0.840690970420837
-0.127745151519775
-0.157329678535461
-0.521334886550903
0.303957104682922
-0.496747970581055
0.254854559898376
0.826585054397583
-0.993220686912537
-0.344960689544678
-0.481269001960754
0.377240896224976
0.827956318855286
-0.727925300598145
-0.074074387550354
-0.119245290756226
0.642121911048889
-0.644543170928955
-0.401857495307922
-0.402985811233521
-0.205386996269226
-0.505825042724609
0.893413901329041
-0.923077344894409
-0.24228036403656
0.896358966827393
-0.687649846076965
0.443649053573608
0.286934971809387
-0.0794706344604492
0.90438973903656
0.173877954483032
0.0772053003311157
0.106847286224365
0.174049258232117
-0.620940446853638
-0.0808199644088745
0.708364486694336
0.487173438072205
0.586659669876099
0.355461716651917
-0.277726650238037
0.977185130119324
-0.978590250015259
-0.163143992424011
-0.578843116760254
-0.0486646890640259
0.38655686378479
-0.621378302574158
0.384238719940186
0.796953082084656
-0.854886293411255
-0.283279299736023
0.0286331176757813
0.387695670127869
-0.698891401290894
0.964068055152893
-0.359405040740967
-0.0102015733718872
-0.319164514541626
0.76678192615509
-0.0932302474975586
0.668324828147888
-0.285896062850952
0.960433602333069
0.945443630218506
-0.806583523750305
-0.284510850906372
0.726297497749329
0.837793350219727
0.446543097496033
-0.334418058395386
0.24760115146637
0.659136295318604
0.326752543449402
0.492238759994507
0.865775227546692
0.0101804733276367
-0.843079209327698
-0.148168325424194
-0.263296484947205
-0.951725482940674
-0.409998059272766
0.410498380661011
0.98697292804718
-0.981342315673828
-0.984721779823303
0.625392198562622
-0.629876494407654
-0.714290142059326
0.464609980583191
0.0259320735931396
0.422898411750793
0.864201545715332
0.0186856985092163
0.995052576065063
-0.878506064414978
0.450543880462646
0.713271975517273
-0.949546098709106
-0.962190508842468
0.954038619995117
0.945463538169861
-0.37414813041687
-0.00430238246917725
0.528128147125244
-0.62006676197052
-0.647772073745728
0.227213978767395
0.101645469665527
0.35518205165863
-0.160920858383179
-0.971132636070251
-0.589935779571533
-0.210210919380188
-0.0443317890167236
-0.0821303129196167
-0.473251342773438
-0.411338448524475
0.612273454666138
0.288385987281799
-0.105796337127686
0.549284815788269
0.0414388179779053
-0.432215571403503
-0.144675254821777
-0.232027649879456
-0.420776128768921
-0.127113699913025
0.684648036956787
0.546115756034851
-0.0535461902618408
-0.833783984184265
0.119600296020508
0.796434760093689
0.0299694538116455
0.912251114845276
-0.608251094818115
-0.0507727861404419
0.163877248764038
0.233672261238098
0.758051872253418
0.358619093894959
-0.0892007350921631
0.567613244056702
-0.467892169952393
-0.79118549823761
0.343123197555542
0.821910977363586
0.615406036376953
0.920345664024353
0.824252367019653
-0.968644499778748
-0.471423625946045
0.0563229322433472
0.289855718612671
0.5139399766922
-0.0573606491088867
0.728684782981873
-0.970882177352905
0.527110695838928
-0.289743900299072
0.504447817802429
0.965988874435425
-0.575982928276062
-0.603021621704102
0.811956763267517
0.440434694290161
0.309761643409729
-0.687501430511475
-0.152865529060364
-0.510313272476196
-0.802349925041199
-0.958100318908691
-0.0202680826187134
-0.370507955551147
-0.334558844566345
-0.523094654083252
-0.340421795845032
0.135363340377808
0.0115967988967896
-0.652870178222656
-0.177169442176819
0.823828935623169
0.911532044410706
0.251327991485596
0.798224329948425
-0.666317224502563
-0.426134943962097
0.188645362854004
-0.286677002906799
0.90723443031311
0.396667122840881
-0.410131931304932
0.400768160820007
0.67155909538269
0.123712658882141
-0.151327133178711
-0.195470452308655
0.419747591018677
-0.499270796775818
0.352877140045166
0.886155009269714
-0.107843637466431
-0.568352580070496
0.0156888961791992
0.0310205221176147
0.557657480239868
-0.365148901939392
-0.693043231964111
0.954580187797546
-0.105111360549927
-0.200572848320007
0.784420013427734
-0.891383767127991
0.173503160476685
-0.758584380149841
0.124958515167236
0.587489008903503
-0.264580011367798
-0.939940333366394
-0.344157218933105
-0.465613007545471
0.776073694229126
0.794055581092834
0.385983943939209
0.0475767850875854
-0.374335527420044
-0.422197222709656
0.53718376159668
0.586653113365173
-0.469591856002808
-0.202346205711365
0.575384616851807
0.878788828849792
-0.066213846206665
-0.751835703849792
0.74191951751709
-0.675015091896057
0.257795572280884
-0.211656928062439
-0.915237903594971
0.906320452690125
0.184199094772339
0.497902035713196
-0.010223388671875
-0.409797310829163
0.4357750415802
-0.666493773460388
-0.788032054901123
-0.763383030891418
0.0575673580169678
-0.714976191520691
-0.593268394470215
-0.995623230934143
0.198135614395142
-0.968223929405212
0.16110372543335
-0.742626309394836
0.390805006027222
0.0987874269485474
0.52501106262207
-0.0291725397109985
-0.665083646774292
0.513035416603088
0.0425209999084473
-0.362464070320129
0.177076101303101
0.959700703620911
0.28309154510498
0.674125075340271
0.292406320571899
-0.561582922935486
0.87282133102417
-0.672701001167297
-0.434205293655396
0.419521450996399
0.0256996154785156
0.0800899267196655
-0.826855421066284
0.500303864479065
-0.425143718719482
0.55810821056366
0.862624883651733
0.561257481575012
0.503811836242676
0.935792326927185
0.735920190811157
0.422328591346741
0.97772741317749
-0.157341122627258
-0.470519304275513
-0.000833392143249512
0.874654769897461
0.76955258846283
-0.604227781295776
0.959374070167542
0.816786289215088
0.974896311759949
-0.815473794937134
0.878756642341614
-0.298295021057129
0.890941023826599
0.223989725112915
-0.102426886558533
0.733634471893311
0.0300158262252808
0.60217547416687
-0.123214602470398
-0.0453109741210938
-0.609222054481506
-0.0518882274627686
0.0543085336685181
-0.723876476287842
0.364462733268738
0.713092565536499
-0.798739314079285
0.00958347320556641
0.141133666038513
-0.0480725765228271
0.278213143348694
0.898355007171631
-0.38406765460968
-0.395808458328247
-0.408559679985046
0.648614883422852
-0.204671502113342
-0.724524259567261
0.449169754981995
0.960680484771729
0.703369975090027
-0.481363534927368
-0.682167887687683
0.0602598190307617
0.787932753562927
-0.384954214096069
0.47831118106842
0.729701519012451
0.826970934867859
-0.144158601760864
-0.817806124687195
0.839244842529297
0.334766745567322
0.323176622390747
-0.691979765892029
0.378269672393799
0.468180537223816
0.171470403671265
-0.482466578483582
0.986546516418457
-0.567099213600159
-0.591342687606812
-0.088070273399353
-0.0145134925842285
0.389694094657898
-0.822562456130981
-0.811891436576843
0.909391403198242
-0.139344811439514
0.536526918411255
0.294922471046448
0.536703586578369
0.635456919670105
-0.258093118667603
0.58942711353302
0.421256065368652
-0.822399735450745
0.0280745029449463
0.493131279945374
0.923522472381592
-0.469335675239563
-0.110707521438599
0.648246884346008
-0.258132934570313
-0.27544367313385
-0.139160871505737
-0.426061034202576
0.943794727325439
0.681761622428894
-0.19974160194397
-0.177424311637878
0.497200965881348
-0.376406311988831
0.668609857559204
0.6359783411026
0.301621913909912
-0.0235558748245239
0.811718702316284
-0.89832866191864
0.719484329223633
-0.221967339515686
0.741425752639771
-0.190867781639099
-0.39264440536499
0.583657145500183
0.416837453842163
-0.993958353996277
-0.152806282043457
0.872443556785584
-0.974424123764038
-0.745466589927673
-0.622402667999268
-0.0464040040969849
-0.734971284866333
0.587444424629211
-0.274944305419922
0.372646689414978
0.123599290847778
0.164564728736877
-0.96480131149292
0.817705988883972
0.161956548690796
0.428887486457825
-0.395953178405762
-0.474287629127502
-0.70571494102478
-0.237141013145447
-0.0907387733459473
0.188682436943054
-0.93046498298645
-0.355371356010437
-0.858606338500977
0.359960913658142
-0.547327756881714
0.304298996925354
0.23513650894165
0.360470652580261
0.105928182601929
0.880175709724426
-0.599427223205566
0.684962630271912
0.170049905776978
0.0750175714492798
0.154426097869873
-0.0917340517044067
0.545550107955933
-0.687713503837585
-0.148689270019531
-0.908462166786194
0.673957109451294
0.392397522926331
0.714981555938721
0.68851363658905
-0.180935144424438
-0.351031184196472
-0.630415916442871
-0.0482431650161743
0.848182916641235
0.605071663856506
0.870904445648193
0.838909029960632
0.513386487960815
-0.870519518852234
-0.762380599975586
0.41893994808197
0.232766389846802
-0.907077193260193
0.482546329498291
-0.221602559089661
-0.628320932388306
0.524329304695129
0.143893241882324
-0.57234251499176
-0.976003408432007
0.267083764076233
-0.683491230010986
-0.792825818061829
0.293356657028198
-0.864726901054382
-0.816867828369141
0.693729758262634
-0.92558741569519
-0.430062651634216
0.0456433296203613
0.106684565544128
-0.665916681289673
-0.204680323600769
0.85631275177002
-0.285772919654846
0.892803430557251
0.475116372108459
-0.750948429107666
-0.26037609577179
-0.294226884841919
-0.131273150444031
0.0706615447998047
0.767469763755798
0.644208192825317
-0.51249635219574
0.412085056304932
0.649937510490417
0.77659010887146
0.251002430915833
-0.860344886779785
-0.0869718790054321
-0.850084066390991
-0.856768012046814
0.926345348358154
-0.33717930316925
-0.929051637649536
0.368904232978821
0.78302001953125
-0.0082775354385376
0.887465715408325
-0.990315794944763
-0.910315990447998
0.884718775749207
-0.730488061904907
-0.819559931755066
-0.87326717376709
-0.374376893043518
0.990646600723267
0.685493111610413
-0.893797397613525
0.703327059745789
-0.790805101394653
0.174867749214172
0.703020095825195
0.218050360679626
0.249497652053833
0.800541520118713
0.0862526893615723
0.787590861320496
0.883161306381226
0.372695088386536
-0.549641609191895
0.953574538230896
0.110307931900024
0.0159622430801392
-0.953564167022705
-0.912294507026672
-0.559174776077271
-0.674320101737976
-0.286525726318359
-0.201984047889709
-0.324383497238159
0.0241380929946899
-0.0903964042663574
0.835116267204285
0.187850713729858
0.116829991340637
-0.756655693054199
0.49844491481781
0.704212427139282
0.548701882362366
0.504857540130615
-0.457481503486633
-0.413848161697388
0.360403180122375
0.197195053100586
-0.416818261146545
0.611134767532349
0.344536423683167
-0.432450771331787
0.00385749340057373
0.253892660140991
-0.798092722892761
0.138503074645996
-0.638203263282776
-0.53232741355896
0.197774529457092
-0.260719776153564
-0.705671429634094
-0.0345127582550049
0.318100094795227
-0.963005065917969
0.925110220909119
-0.998635053634644
-0.0742009878158569
0.567902088165283
-0.229622960090637
0.651599645614624
0.91698944568634
0.268647193908691
-0.854807496070862
-0.403999090194702
-0.622757315635681
-0.492483615875244
0.0696982145309448
-0.600856065750122
0.737833142280579
-0.384313583374023
-0.324636101722717
-0.708380460739136
-0.56801164150238
0.918474674224854
0.111237406730652
-0.548715829849243
-0.948861002922058
0.266589164733887
-0.0498052835464478
0.784509897232056
-0.998831152915955
-0.932621479034424
0.0951899290084839
-0.792565584182739
-0.34133517742157
-0.183917999267578
0.185505270957947
0.427211046218872
0.0271669626235962
-0.872920513153076
-0.496998906135559
-0.77674126625061
-0.106581568717957
-0.734858512878418
0.378365874290466
-0.771487951278687
0.483615517616272
0.176679134368896
0.0973662137985229
-0.789328813552856
-0.380342364311218
0.0209941864013672
-0.692903161048889
-0.14654803276062
-0.624602675437927
0.201529026031494
0.92223060131073
-0.962164163589478
0.232890248298645
0.897116661071777
-0.46873152256012
-0.376680135726929
-0.261354804039001
-0.906769275665283
-0.697210431098938
-0.270833253860474
-0.340125918388367
-0.886764526367188
0.391701102256775
-0.484345197677612
-0.359258055686951
-0.350364208221436
-0.154511570930481
0.465327978134155
-0.641383051872253
-0.704672813415527
-0.989534974098206
-0.835754156112671
-0.819679617881775
0.574845790863037
-0.561977505683899
-0.416766405105591
-0.681623339653015
0.475618362426758
-0.709119439125061
-0.140867948532104
-0.512736678123474
-0.520787715911865
0.249337077140808
-0.423952341079712
-0.940338969230652
-0.907414436340332
0.917518019676209
-0.453397512435913
-0.277296423912048
-0.120663166046143
0.72962749004364
0.093184232711792
0.634227871894836
-0.00904464721679688
0.356197714805603
-0.170803785324097
0.0790239572525024
0.198071002960205
0.610339045524597
0.940307378768921
-0.37491500377655
-0.578295707702637
-0.146010041236877
0.965702295303345
0.779857277870178
0.764516353607178
-0.0958329439163208
-0.920668840408325
0.146490216255188
0.0420589447021484
0.439215064048767
0.871159791946411
-0.919913649559021
0.814024448394775
-0.0949431657791138
-0.371580362319946
-0.156048655509949
-0.0845041275024414
0.921443343162537
0.116857767105103
0.265843987464905
-0.511803150177002
0.188203692436218
0.861986875534058
0.89422619342804
-0.488258361816406
0.891495108604431
0.930335283279419
0.654513001441956
0.834885120391846
-0.389947056770325
-0.789303064346313
-0.994677424430847
0.706772804260254
-0.278559327125549
0.19538140296936
0.594726204872131
0.808190822601318
-0.691700100898743
0.26146388053894
0.416498303413391
-0.217184066772461
-0.435399651527405
0.452035188674927
-0.533633589744568
0.268465518951416
-0.298110127449036
-0.242548227310181
0.898261189460754
0.428347587585449
0.355544447898865
0.896585702896118
0.680566430091858
-0.0176892280578613
-0.508981823921204
0.598074674606323
0.752369046211243
0.738094329833984
0.810093283653259
0.381572008132935
0.679709076881409
-0.377421855926514
0.657130122184753
-0.161003351211548
-0.188170313835144
0.213032722473145
-0.574682831764221
0.415783166885376
-0.0625728368759155
0.768369197845459
-0.537078976631165
-0.307868242263794
0.440900921821594
0.76038932800293
-0.520463585853577
0.164258241653442
-0.0413964986801147
-0.0949645042419434
-0.547663807868958
0.525644063949585
0.535090565681458
-0.30635929107666
0.0323213338851929
-0.551713705062866
0.279370903968811
-0.575821399688721
0.450570940971375
-0.136052370071411
0.521156430244446
0.732513427734375
0.924492239952087
-0.25459361076355
-0.532887816429138
0.623650074005127
-0.435929417610168
-0.612293481826782
0.357106328010559
-0.997015953063965
-0.221880555152893
-0.810592412948608
0.120460152626038
0.7075514793396
0.180530428886414
-0.0661652088165283
0.532198071479797
0.0372791290283203
0.996523261070251
-0.429671049118042
-0.130702376365662
-0.213765621185303
0.968895792961121
0.495496511459351
-0.933060526847839
0.77387523651123
0.764274001121521
-0.665540456771851
0.374757409095764
-0.12369966506958
0.879361987113953
-0.777894258499146
0.513088345527649
0.557498931884766
0.0471919775009155
0.584338426589966
0.329222321510315
-0.0993990898132324
0.14337432384491
0.419326543807983
0.953652501106262
0.139126777648926
-0.407652497291565
0.0787546634674072
0.456325173377991
0.68823766708374
-0.726371884346008
-0.450927019119263
-0.997110247612
0.675985336303711
0.92806088924408
0.232747316360474
0.510948777198792
-0.0254378318786621
0.0640686750411987
0.229509115219116
0.806307911872864
0.731551170349121
-0.636097550392151
0.117605447769165
0.279225945472717
-0.598824024200439
0.589891314506531
-0.76495099067688
-0.959335207939148
-0.724449157714844
0.990692496299744
0.460868120193481
0.578539490699768
-0.484069347381592
0.207541346549988
-0.503643274307251
-0.0860317945480347
0.683960914611816
-0.319498658180237
0.646324396133423
0.257522225379944
0.772927761077881
0.55471408367157
-0.899653673171997
0.165475964546204
-0.260992050170898
0.0866492986679077
-0.285986661911011
-0.803943037986755
0.532518863677979
0.550354838371277
0.290181875228882
0.0656958818435669
0.629168510437012
0.643706679344177
-0.639775991439819
-0.69472348690033
0.0613055229187012
-0.605341076850891
0.465277433395386
0.416385769844055
-0.0508308410644531
0.567493796348572
0.937495470046997
-0.472436308860779
-0.467860698699951
-0.430928349494934
-0.818702936172485
-0.449446558952332
-0.300013542175293
0.855080962181091
0.454616785049438
0.836551308631897
-0.975878238677979
-0.163711667060852
-0.849845170974731
0.332456707954407
0.288846969604492
-0.715211510658264
-0.423372983932495
-0.762877821922302
-0.477395534515381
0.240254282951355
-0.759985208511353
-0.84239661693573
-0.470772743225098
-0.583813309669495
0.624815225601196
0.765409111976624
-0.0808110237121582
-0.893835186958313
-0.524708986282349
0.952751278877258
-0.359146118164063
-0.4099041223526
-0.423279523849487
0.488794922828674
0.0117268562316895
0.040465235710144
0.0366475582122803
0.175908207893372
0.249703407287598
-0.0714136362075806
-0.933868169784546
-0.49408757686615
-0.495680332183838
0.930850863456726
0.260998487472534
-0.18366801738739
-0.611997604370117
-0.665021538734436
-0.616911649703979
-0.0533555746078491
-0.99268102645874
0.946267008781433
-0.358492136001587
0.394530415534973
0.494227409362793
0.493842482566834
-0.526120901107788
-0.0278762578964233
-0.962673664093018
-0.463091015815735
0.827589750289917
0.962261319160461
-0.586894989013672
0.870998740196228
-0.0589568614959717
0.774733185768127
-0.98280668258667
-0.565777897834778
0.624908208847046
0.102532505989075
-0.604388236999512
-0.286482453346252
0.0433695316314697
-0.421894431114197
0.276021480560303
-0.349098324775696
0.9953773021698
0.929601788520813
0.0989742279052734
-0.950280785560608
0.695897340774536
0.637123703956604
-0.9508376121521
0.480893015861511
0.0571610927581787
0.0889769792556763
0.586668968200684
0.689174056053162
-0.530084371566772
0.23792040348053
-0.521782398223877
0.499391436576843
-0.915326356887817
0.757415890693665
0.328422546386719
-0.777297616004944
-0.407036542892456
-0.302121520042419
0.611038684844971
-0.4371577501297
-0.491420984268188
-0.357073664665222
0.200211524963379
-0.977625489234924
0.948829889297485
0.365630745887756
-0.598272800445557
-0.191059231758118
-0.0842087268829346
-0.0152338743209839
-0.515737533569336
-0.75848925113678
-0.922446012496948
0.621060013771057
-0.289365291595459
0.656632304191589
-0.950525522232056
0.553443074226379
0.869051933288574
0.81468141078949
0.175424814224243
0.875299096107483
-0.695637226104736
-0.193887829780579
0.809042692184448
0.650714993476868
-0.550693511962891
-0.542293190956116
0.0949814319610596
0.570730805397034
0.855762958526611
0.238825678825378
-0.749840021133423
-0.890410304069519
-0.27399730682373
0.667657256126404
-0.654987096786499
-0.819012045860291
0.943936824798584
-0.78253185749054
-0.415259599685669
-0.705675005912781
0.606367111206055
0.722853064537048
0.0905582904815674
-0.78904664516449
-0.945764064788818
-0.714015126228333
-0.81905198097229
0.100428700447083
0.403876304626465
-0.317135453224182
-0.847093343734741
-0.803240180015564
0.578261852264404
-0.730428814888
0.563196897506714
0.954658627510071
-0.1617431640625
0.388512015342712
-0.990402936935425
0.705790162086487
-0.186133861541748
-0.725327610969543
0.412151098251343
0.815022587776184
-0.96451473236084
-0.538134217262268
0.794418573379517
-0.663322806358337
0.965150356292725
-0.311016201972961
0.564724683761597
-0.829221606254578
0.527788162231445
0.306246161460876
-0.702589750289917
-0.280696272850037
-0.857533931732178
0.181450724601746
-0.985918283462524
-0.957566142082214
0.253642082214355
0.106223464012146
-0.0351388454437256
0.514802575111389
-0.637585163116455
0.702268481254578
0.909636259078979
-0.0182532072067261
0.557773590087891
0.827618002891541
-0.100689649581909
-0.58444344997406
-0.452151775360107
0.482882380485535
-0.442947626113892
-0.928274989128113
-0.808840751647949
0.21750009059906
0.859546899795532
0.145198464393616
-0.472132205963135
-0.964012265205383
-0.581755876541138
-0.0733736753463745
0.311025619506836
0.804190039634705
0.260609865188599
-0.541388869285584
0.0378251075744629
-0.844470143318176
-0.888624429702759
-0.308041453361511
-0.519150733947754
0.897258162498474
0.17378830909729
0.141927361488342
-0.280678272247314
-0.0832959413528442
0.410860776901245
0.0444794893264771
0.670356750488281
-0.412475228309631
0.326621294021606
0.0125299692153931
0.120209217071533
-0.324044346809387
-0.752636194229126
0.19219696521759
-0.744475364685059
-0.252939820289612
-0.897102117538452
0.919051766395569
0.694589138031006
-0.929020047187805
0.707798719406128
-0.125631213188171
-0.981420516967773
-0.970815300941467
0.542657136917114
-0.25862443447113
-0.197186946868896
0.0207222700119019
0.0353295803070068
0.361502766609192
-0.852002143859863
0.868468642234802
-0.657811880111694
-0.609365820884705
-0.288517475128174
0.725377917289734
-0.370629549026489
-0.54464328289032
-0.761493682861328
-0.519267678260803
-0.145970106124878
-0.190789580345154
-0.406550884246826
0.666392207145691
0.0455853939056396
0.488938450813293
0.291081428527832
0.863046050071716
-0.913028478622437
0.970737099647522
0.527814388275146
-0.393539547920227
0.995888471603394
-0.673494219779968
-0.287050247192383
-0.206269860267639
-0.29394793510437
-0.119902968406677
0.499929904937744
0.58952796459198
0.348443746566772
-0.636433482170105
0.317587852478027
0.83235490322113
-0.967439413070679
-0.426576972007751
-0.598602771759033
0.940790057182312
-0.872334718704224
0.526878476142883
-0.675277709960938
-0.680259346961975
0.0440361499786377
0.118097901344299
0.0300679206848145
-0.733307957649231
0.514217138290405
0.274449467658997
-0.639670372009277
0.377957701683044
0.374267816543579
-0.387245535850525
-0.909956455230713
0.454929232597351
0.845013380050659
0.595537304878235
-0.543363571166992
-0.089673638343811
-0.686705350875854
-0.812724471092224
0.191675662994385
0.674446940422058
0.613218069076538
-0.989350199699402
0.052119255065918
-0.398583054542542
0.807405710220337
0.00279390811920166
0.851565837860107
0.37544047832489
-0.531754732131958
-0.428455233573914
-0.00849533081054688
-0.082950234413147
0.459140062332153
0.251692414283752
-0.507434368133545
-0.710644841194153
-0.784240961074829
-0.1387699842453
-0.474230766296387
-0.895704865455627
0.527286767959595
0.157603859901428
0.443776607513428
-0.571113705635071
0.817673444747925
-0.00603663921356201
-0.687860488891602
0.191473364830017
0.926884889602661
0.975411057472229
0.940550327301025
0.0879791975021362
-0.607847452163696
-0.384747385978699
-0.585907936096191
-0.0118452310562134
0.229223489761353
-0.00875318050384521
0.124488353729248
0.841829180717468
-0.786389589309692
0.90185558795929
0.301353454589844
0.0851596593856812
0.661841630935669
-0.477506041526794
0.0434422492980957
0.546881556510925
0.712711095809937
-0.438219904899597
-0.150099754333496
-0.145441651344299
-0.89147162437439
-0.0822147130966187
0.651513576507568
0.340831637382507
-0.52363133430481
-0.165716052055359
0.341958999633789
-0.550328850746155
0.109322786331177
0.557003617286682
0.809053897857666
0.642624735832214
-0.752252817153931
-0.510125041007996
-0.533993721008301
0.805068373680115
0.860513925552368
0.851281762123108
-0.717335224151611
0.152456164360046
0.926260709762573
0.830310940742493
-0.683231353759766
0.636570334434509
0.214640855789185
-0.756997466087341
-0.254802227020264
0.851771235466003
-0.432426691055298
-0.311400294303894
-0.604777336120605
-0.558752655982971
-0.319507360458374
0.205798745155334
-0.224245548248291
-0.996734738349915
-0.616400957107544
0.428999066352844
-0.39140510559082
0.497419714927673
0.423108339309692
-0.755446791648865
-0.140313625335693
0.150883555412292
0.742501974105835
0.947016835212708
-0.72963809967041
0.864657759666443
0.263777017593384
-0.104601263999939
0.388595104217529
0.119821429252625
-0.831303834915161
-0.330589175224304
0.100250244140625
0.383781790733337
0.6800377368927
0.725718140602112
0.660332202911377
0.0165241956710815
0.342845678329468
0.554188847541809
-0.775763511657715
0.676862120628357
-0.194320440292358
0.334144234657288
-0.12100076675415
-0.771312832832336
-0.898135423660278
0.0906087160110474
0.17454719543457
0.147219061851501
-0.569258451461792
0.350559830665588
0.154947757720947
0.425255656242371
0.438916921615601
0.299178242683411
-0.11034107208252
0.979422926902771
0.00151276588439941
0.436097741127014
-0.49522066116333
0.556424975395203
0.503416776657104
-0.268344759941101
-0.285701751708984
0.139294028282166
-0.379467725753784
-0.716859221458435
0.851345539093018
-0.14635956287384
-0.398971796035767
0.471047520637512
0.399441719055176
0.373902678489685
-0.953410863876343
-0.384678244590759
-0.97625207901001
0.829597353935242
-0.806334733963013
-0.86831668771019
-0.897544279142991
-0.788459514662538
0.69518369420503
-0.812427117938636
-0.242256001312293
-9.37452384227952
0.901319268239479
-0.142922553723025
0.386354028552892
-0.0381061330979397
-0.362782696415399
-0.206344506888365
0.696027930951913
-0.724384617129648
-0.507100805325126
-0.672011153582273
-0.774308075862607
0.711092920990459
0.59779748447635
0.234507166474494
0.38077914899298
-9.75281145392475
-0.0952880210094835
-0.24869483174793
-0.0369668054621047
-0.673614986038884
0.96617621120001
-0.638034916215463
-0.734373191273313
-0.371752889091207
13.0414531732378
0.050461374545966
-0.542959009576954
0.551408782451778
-0.215536788587548
-0.899205330690067
0.711501541284628
0.708981411289032
0.701319747980782
-0.0347423436632403
-0.152564512247134
0.622405411411175
0.742000558715604
-0.734584464313979
-0.00295563100263419
0.0828404605096675
-0.838784807073784
0.773449288389638
-0.25319596486935
0.903995089749545
-0.841465064809192
0.872800208757565
-0.68880942346264
0.792079238316657
-0.174058531733347
13.9482223920455
-0.767653099384512
0.391017224714003
-0.824563162675165
0.893377336719472
0.720646372216977
-0.610266760505098
0.935353611403023
0.616388680771102
0.315657633775115
0.847686228970598
0.240919243307932
-0.684113749748423
-0.860554719465132
-0.0459551932250991
0.358495633187036
-10.6761708834077
-0.740271289498328
-0.157885178541319
0.820709176887343
0.143790030380803
-0.459569094401455
0.808729963264081
0.686137692019547
0.391774475361848
1.20306443433043
-0.218756901249829
0.904355914854417
0.578380432210174
-0.271126514512678
-0.442886754706425
-0.126821242555575
-0.1526344564053
0.6418466920872
0.378821211421919
-0.898917940900097
-0.498680369774388
-0.654311068901778
0.0160610631892026
-0.679232065914889
-0.349102750160355
-16.7409160829024
-0.985546421473129
-0.288791454129129
-0.815948030680251
-0.986989411274099
-0.565536611845648
0.500851743716965
0.910698378183289
-0.217276231381744
-3.60010690678295
-0.252931884151929
-0.179824363216961
-0.628299215674099
-0.730077586209629
0.0479576293895459
0.437235460788808
-0.078684914916533
-0.493725393885613
-0.59684674892661
0.520302290506915
-0.375363759891298
0.189129629583022
0.718970485148649
0.88672684642366
-0.193114314334072
-1.05990797493215
0.415272830714323
0.579784418813879
-0.73361892712719
-0.756967804955421
0.547557026810586
-0.62447629930179
-0.313774003330649
-0.124284363831105
-14.4619607494343
0.113667055714741
0.486973070535617
0.72695809615508
-0.36572969656154
0.432497823297922
0.40260658613389
0.802346290034064
0.39113424096576
-0.473390593059308
-0.532418183326256
-0.779167963726174
-0.745772452876175
-0.673736804778998
-0.556321749987431
-0.521286960657057
10.3397868248675
0.126058349318489
-0.865923169407309
0.561294957268739
0.827723182117927
0.76179389063812
-0.3086060962286
0.218626994518629
0.681379974129412
-5.80406005753123
0.5566304898381
0.92071435343891
0.942503353301408
-0.0344948956334396
0.367908856452372
0.188401351268882
-0.46138752629602
-0.730301761608907
-0.433426504488446
-0.287442130821387
0.352255430165762
-0.281805279007886
0.22086092301237
0.326742589897343
0.951214597869814
11.0187775282551
-0.0827060692152138
0.532846174039794
0.948110713191437
-0.703838255667479
0.340379749528239
0.374629989605751
0.738354037618194
0.696483508708089
0.114204753201813
0.495769204505947
0.789271014338051
-0.451748881672595
-0.779339972236663
-0.24177169211808
-0.578473030527036
-0.998905516805175
-0.737959875449936
0.823738695926609
-0.856574004302987
-0.155066487868569
-0.222009349913951
0.804579508941721
-0.838114017982588
0.0589602642926755
-5.60455593333761
0.0468198800896444
-0.786872725255145
-0.925145030021667
0.293097496032715
-0.422299027442932
0.780897378921509
0.375287652015686
0.855178356170654
-0.99867832660675
-0.319554567337036
0.665413022041321
-0.48150634765625
0.910301566123962
0.756728410720825
-0.473103880882263
-0.836951732635498
-0.210373997688293
-0.820209741592407
-0.425394892692566
-0.43076229095459
-0.576891541481018
0.223190546035767
-0.887138724327087
-0.550901889801025
0.799640536308289
-0.454745531082153
-0.708310961723328
0.977556228637695
0.519441962242126
-0.029677152633667
-0.236934065818787
0.823679447174072
-0.299689412117004
0.770002126693726
0.837172627449036
-0.318074226379395
-0.616127610206604
-0.555585622787476
0.138642907142639
0.303393840789795
0.441831469535828
0.00344729423522949
-0.237186312675476
0.0270729064941406
-0.0177799463272095
-0.251995801925659
-0.0680249929428101
-0.188907146453857
0.255648493766785
0.551254034042358
-0.848379969596863
-0.236025810241699
0.0615552663803101
0.639881372451782
0.866695046424866
-0.824121952056885
0.654456973075867
0.875336408615112
0.617849469184875
-0.950143814086914
0.150198340415955
-0.464915037155151
-0.302314162254334
-0.866899013519287
0.432202219963074
-0.406141519546509
-0.692990183830261
-0.551804542541504
0.557719588279724
0.50490403175354
-0.788919806480408
0.324363231658936
0.664079546928406
0.481234312057495
0.895858883857727
0.928718566894531
0.374939322471619
-0.723122358322144
-0.775739073753357
0.297516345977783
-0.293465733528137
-0.531872034072876
0.59240448474884
0.867402076721191
0.473927855491638
0.234794855117798
-0.414139151573181
0.506661891937256
0.197261691093445
-0.358546495437622
0.135904431343079
-0.953527450561523
0.508005499839783
-0.581305265426636
-0.82423722743988
-0.687848567962646
0.0552071332931519
0.244374990463257
0.796866536140442
0.654406547546387
-0.0882574319839478
-0.475133657455444
0.905099511146545
0.980586528778076
-0.519434094429016
-0.323693513870239
0.37704861164093
-0.714069366455078
0.900959372520447
0.905848741531372
0.716253876686096
0.684818744659424
-0.0452166795730591
0.49291205406189
0.209458470344543
-0.057978630065918
-0.527273774147034
0.570430994033813
0.582858681678772
-0.496050357818604
-0.759445309638977
0.406105756759644
0.158353924751282
0.0299053192138672
0.405363440513611
-0.81634783744812
-0.490203261375427
-0.576669216156006
0.38182532787323
-0.715948343276978
-0.380757212638855
0.363059043884277
0.25844132900238
0.0668013095855713
0.533200860023499
0.334563732147217
0.703790545463562
0.151163816452026
0.518882870674133
0.161209106445313
0.372780203819275
0.197417497634888
-0.279546141624451
-0.964499950408936
0.812895655632019
0.188106298446655
0.315281987190247
0.0503320693969727
-0.129549622535706
-0.790710210800171
-0.829811453819275
0.230241298675537
-0.403164029121399
-0.268206834793091
0.997697949409485
-0.937345504760742
0.654772162437439
0.392457246780396
0.0122877359390259
-0.470860958099365
-0.775443196296692
-0.724611520767212
0.0866385698318481
-0.363347053527832
0.410315871238709
-0.306791067123413
-0.592115759849548
0.448794841766357
0.14625346660614
0.468306303024292
-0.366138339042664
0.617053985595703
-0.397098183631897
0.714083909988403
-0.450639128684998
-0.587939739227295
0.0933712720870972
-0.883789300918579
-0.77762496471405
0.254834175109863
0.479600310325623
-0.286128759384155
0.660350441932678
0.748036861419678
-0.921394467353821
0.181015729904175
0.966436505317688
-0.792779922485352
0.0687316656112671
0.607609987258911
-0.004264235496521
-0.307923793792725
0.395901560783386
0.780885457992554
0.511553883552551
-0.462311744689941
-0.820133805274963
-0.0334107875823975
0.841649651527405
-0.614220142364502
-0.379545331001282
-0.809766054153442
0.0344849824905396
-0.284034729003906
-0.596175789833069
0.0183479785919189
-0.484525084495544
-0.123000621795654
-0.391289830207825
-0.160274744033813
-0.756762385368347
-0.381972312927246
0.112676024436951
-0.35332465171814
0.365844368934631
-0.880163669586182
-0.501636624336243
0.31627345085144
0.377069592475891
-0.473897933959961
-0.540258049964905
-0.608389616012573
0.772640824317932
-0.025357723236084
-0.291640400886536
0.363042593002319
-0.793511271476746
-0.871335029602051
-0.620407700538635
0.449442148208618
0.146997094154358
-0.791981220245361
0.938894152641296
0.879446744918823
0.0332528352737427
0.520442962646484
0.588047385215759
-0.327290296554565
0.931295990943909
0.492817401885986
-0.828587651252747
0.921149969100952
0.690369725227356
-0.797587394714355
-0.417822480201721
0.570202112197876
-0.400829672813416
-0.591860294342041
0.668609499931335
0.700066328048706
-0.457902789115906
-0.91819953918457
-0.359696984291077
0.306958436965942
-0.344497084617615
0.439337253570557
0.974430918693542
0.584359884262085
0.483943104743958
-0.52791690826416
-0.178005814552307
0.704267740249634
0.636426568031311
-0.0219883918762207
-0.0859280824661255
0.0984447002410889
-0.0573347806930542
0.092987060546875
-0.0319286584854126
-0.76033091545105
-0.890675902366638
-0.677985668182373
0.593977808952332
0.922984838485718
-0.123728632926941
0.0704889297485352
-0.299395203590393
0.0469515323638916
-0.327171683311462
-0.3245530128479
0.401843905448914
-0.105105638504028
0.774019360542297
0.93681526184082
-0.577085137367249
0.916154146194458
-0.0431779623031616
-0.851338863372803
0.00661551952362061
0.00733733177185059
0.656417012214661
-0.36955738067627
-0.680428147315979
0.293565988540649
-0.377561926841736
-0.24174165725708
0.358487963676453
-0.590272188186646
0.0752221345901489
-0.503902435302734
0.356396079063416
0.281726121902466
-0.637940764427185
0.427090167999268
-0.31109344959259
0.407729864120483
-0.886557459831238
-0.715243339538574
-0.719542145729065
-0.360576391220093
-0.100681662559509
-0.0157418251037598
0.510566592216492
0.463257551193237
0.3853360414505
0.153646469116211
-0.37992250919342
0.781697511672974
0.989098191261292
0.165113925933838
0.617413401603699
-0.805525064468384
0.0364104509353638
0.666243553161621
0.684825301170349
0.779836893081665
0.417531609535217
0.611258983612061
0.0846422910690308
-0.62420392036438
0.743423581123352
-0.207725524902344
0.565521597862244
0.361380815505981
-0.997998595237732
-0.129455089569092
0.268698573112488
-0.062114953994751
0.714383244514465
-0.0922842025756836
-0.865763306617737
0.910118341445923
-0.408859610557556
0.397073268890381
0.80727756023407
0.967655897140503
0.688547253608704
-0.205205917358398
-0.955709099769592
-0.533911466598511
0.0648313760757446
-0.448804378509521
0.619324564933777
0.708272695541382
0.936423420906067
-0.358014106750488
0.730254530906677
-0.274419546127319
0.33420717716217
0.599513530731201
0.905034899711609
0.559149503707886
0.259769558906555
0.0440177917480469
-0.592052102088928
-0.958866834640503
-0.658349394798279
-0.285121440887451
0.145853877067566
0.0759503841400146
0.991593480110168
-0.998133659362793
0.0744413137435913
-0.578464269638062
0.060794472694397
0.976392269134521
-0.895523190498352
-0.0294106006622314
-0.00384700298309326
0.922758102416992
0.508055090904236
0.531827211380005
0.496521592140198
-0.630593776702881
-0.175150990486145
-0.888769388198853
-0.33104407787323
-0.379830360412598
0.268359541893005
0.693296670913696
0.684964776039124
-0.214478015899658
0.632165789604187
-0.477711915969849
0.936760067939758
-0.686172485351563
-0.3038250207901
-0.116516828536987
-0.306493163108826
0.0225911140441895
-0.867127537727356
-0.61557412147522
0.257573246955872
-0.370291709899902
0.913571715354919
0.736175775527954
0.62078058719635
-0.215284824371338
-0.785335659980774
0.0345580577850342
0.62065327167511
0.600038528442383
0.823870062828064
-0.458586454391479
-0.403331160545349
-0.31775426864624
0.0464867353439331
0.965848684310913
0.546507954597473
-0.336705207824707
0.111640334129333
-0.754514455795288
0.782304406166077
0.231784343719482
-0.921465039253235
0.827711820602417
-0.913104891777039
0.664231086943885
0.242873312236034
0.448179839922087
-0.629923621601171
0.856018779583712
-0.961174097346379
-21.4248660900345
0.83171634563395
0.850255226839961
0.464140667859216
0.413504938869695
0.581970213858544
0.885828832889772
0.947759553072996
-0.27794862008322
0.874369285391705
-0.108165411661372
0.804705577001128
0.0573868230245479
0.677507196307863
0.553164337658274
-0.902725454548965
-9.12864308429446
-0.118295227046257
0.833306985360578
-0.926782213699927
0.944814754850567
-0.0639995796119936
0.000275488283016445
0.0565682416002835
-0.96462934384437
-27.010719393474
-0.83726753862984
-0.144643619179434
0.306614299977122
-0.317139063214495
0.275452106137505
-0.31439632815006
-0.241146285717331
-0.994979555622684
-0.26371121014374
-0.458224782834765
0.0248412392408307
-0.727721701802546
0.337822579865893
0.124762266844701
-0.403449628357842
-22.7866765513159
-0.147267976034767
-0.738852678229385
-0.377555099980206
-0.9659818947015
0.0395406614723558
0.787710685821827
-0.726882579716061
-0.00612815502420179
-13.0190726958756
0.154765309991444
-0.648753871012549
-0.484193409270319
-0.838996399859605
-0.590862189472605
0.696663256614488
-0.760513129585769
-0.129573346574701
-0.612818702351291
-0.961357231979175
-0.0550400696238717
0.373129932085482
0.885731468441927
-0.0627938366081894
-0.890427187715113
-24.0551296656942
0.947572656425306
-0.813362620340252
-0.0528737604936502
0.190595631203487
0.546124032504028
0.21733149565229
-0.482436413858999
-0.439954068967611
-13.7851254756641
0.0572652693495405
0.0169337509126824
0.264036420199904
0.939304589155915
0.894852359808951
-0.844763896798771
0.991046562898827
-0.388699703396198
0.0560655814225114
0.695745277732209
-0.243995605708072
0.880165915064325
0.428083776462162
-0.514081400844811
-0.179947071495268
-33.8268733851554
0.126573445419665
-0.465161247159193
-0.883374482425114
0.411467914185359
-0.429603168004087
-0.541155848135862
0.72503245344294
-0.483381178685933
-13.5167826230716
0.213052141259636
0.542126846119895
0.0857960017657595
0.157009242895849
0.567788203276663
0.0332791587355922
1.04136563848325
0.281998343288068
0.954005621057218
-0.853177380234405
-0.656920014620735
0.173016290239802
-0.23769879437677
-0.28003935239053
0.78284377532938
-32.8349969021919
0.885196926216476
-0.0687904786121344
0.281168565131393
0.703529096869247
0.666730360105205
0.12291176353593
-0.738403923939375
-0.771333209585119
-25.4217768730534
0.905031434944855
0.135493593358701
-0.77917660589407
0.379750093049194
0.992032690946771
0.00485667665459455
0.234587039516469
0.727011541829504
-0.531047144222004
0.413519822422974
-0.0423807765372762
0.458273511339133
0.418940086269515
-0.392545675306154
0.430414211409476
-40.2176899662189
0.851089606589088
-0.105172847492182
-0.323142393809493
0.0279570030842192
0.0384025178013892
0.35232936231767
0.463624775987798
-0.580854363868995
-30.3193376527959
-0.258572888319794
0.177394305124967
0.922521870458718
-0.164198632608935
-0.682540119323716
-0.173604568151658
-0.247600980792861
-0.889073639999024
-0.118398473253395
-0.672541871371427
0.117777702700057
-0.87179967948881
-0.66864398008281
0.977999170717704
-0.626671560070144
-21.9995100175811
-0.553454319476633
0.261035528960349
-0.502043708544911
-0.319738466772043
0.109687169557675
-0.0711193195136911
-0.262244998830623
-0.539597578476234
-29.6590503917867
0.283392477090057
0.358016763582914
0.836098831022378
-0.896262522112419
-0.637349427375779
-0.481173714307968
1.06609766861357
0.371856778969179
-0.632268831720496
0.437306508717379
-0.0414793516288611
0.470107225685445
-0.411771922168076
0.734604676661002
0.39684688303746
-23.5750702297164
0.563240965366811
-0.884094270882485
0.19648052676166
0.193924706456486
-0.323232084105776
-0.644808273862753
-0.897237992948769
1.01381972783177
-18.4076719852978
0.313289389215413
0.972683714550566
-0.808197236500827
0.292930583186177
0.306688289740019
0.952006328066304
0.474121455159019
-0.146076517266453
1.02494694493788
-0.896849269318429
-0.19157716875978
0.758773662866134
0.625018799015241
-0.122481328037315
0.587475054488867
-22.1740390503362
-0.366321894768755
-0.312671384917498
-0.471403138244595
-0.0373079997920563
0.445676173923748
0.693534833303386
0.478945329905434
-0.505777608103455
-13.4893084692732
-0.435856293241985
-0.529941589424562
-0.280798108102025
-0.141184989785457
0.0377684490247928
0.84400216645471
0.416535772846888
0.536839538051449
-0.680723643373838
-0.404133932869607
-0.904460247835375
-0.00468833116615519
-0.501664626926745
-0.115604556553232
-0.441561448430315
-39.0222799101526
-0.156312032042266
-0.591127180727326
0.202094424167887
-0.0566482692615968
0.668435361779216
0.0695353333201183
-0.90491289456985
0.818654199826256
-25.9227717352463
-0.573386702364368
0.573503140786852
-0.0265192246144726
-0.0441650039856904
-0.968133718454085
0.639777517832131
-0.305158832335575
-0.393712401968824
-0.0211887238744176
0.572745531274196
0.289092125406162
-0.301289486309675
0.851884032638699
-0.825048050649779
-0.935704237049727
-38.0441083299694
0.0706196724574986
-0.0847174526209781
0.141681350219141
-0.931230233781636
0.826098276909612
-0.205906753156803
0.53278098154474
0.283734389447255
-25.5368164527239
-0.665958782755206
0.812377378821666
-0.72729049090118
0.523100700045391
0.789156644482844
0.29121857243893
-0.248176534359299
0.846667830928219
0.99967670832855
0.636621227373367
0.335273911741441
0.806068171320623
0.591189288621385
0.0504531562032216
0.0121046566915986
-21.3612202658393
-0.189994254339821
-0.0616015776892255
0.213186527465126
0.781065584422312
0.77842724211325
0.0448615155753436
-0.664918663195829
-0.408615675257756
-21.5517796375503
0.120171831931556
-0.23825576330286
0.899107232037679
-0.899695534915707
0.046473978964745
-0.582389493678832
0.0765356265288063
-0.336640121700652
0.567533633994
-0.238927988718257
-0.149198098078217
0.457672067012585
0.360928808093754
0.350067471050607
0.665061239024033
-9.20749144626345
-0.255285297389274
-0.135117334860371
-0.383946537971497
-0.100273370742798
0.817139744758606
-0.365397453308105
-0.151892304420471
-0.915088415145874
0.117541909217834
-0.334475040435791
0.458953738212585
-0.358466386795044
-0.219804644584656
-0.81999397277832
0.908186316490173
-0.184191465377808
-0.808547377586365
-0.356011867523193
-0.0770217180252075
0.051217794418335
-0.854130625724792
0.29880428314209
0.904330611228943
0.769758462905884
0.502454400062561
0.192428112030029
-0.166677594184875
0.653193235397339
-0.659080386161804
0.710723876953125
-0.322639107704163
-0.5756995677948
0.617930054664612
0.608696460723877
-0.703568577766418
-0.871876001358032
0.323353886604309
-0.458258628845215
0.849347472190857
-0.0867764949798584
0.136512398719788
0.0968947410583496
-0.299999356269836
0.312924146652222
0.582430005073547
0.32408332824707
0.823610663414001
0.026566743850708
0.688084244728088
0.767374515533447
-0.287024617195129
-0.799242258071899
0.138655781745911
-0.00377368927001953
-0.215279221534729
0.210619211196899
-0.0662215948104858
0.63673734664917
0.285550951957703
-0.0589611530303955
-0.456210970878601
-0.0971031188964844
0.698498129844666
0.567919969558716
0.565977692604065
0.627834796905518
-0.35082733631134
0.839431524276733
0.880837559700012
0.795071601867676
0.312013030052185
-0.142741918563843
-0.691685080528259
-0.43023157119751
0.316535830497742
-0.642150163650513
0.76405918598175
-0.170022964477539
0.15358579158783
0.493672609329224
-0.0843271017074585
-0.802110195159912
0.0815857648849487
-0.885542154312134
-0.661038279533386
-0.428910255432129
-0.467213273048401
-0.451547384262085
0.174184441566467
-0.846199512481689
-0.980482220649719
0.88366961479187
-0.717697024345398
0.988136291503906
0.540436148643494
-0.250862836837769
0.901232361793518
-0.0146479606628418
0.486777186393738
-0.403850793838501
0.802090764045715
0.457093238830566
-0.951395630836487
0.479515314102173
0.945449471473694
0.146646022796631
0.12105929851532
-0.661189317703247
0.637582898139954
0.760187149047852
-0.289388298988342
0.779626131057739
0.186718583106995
0.998034000396729
0.841309428215027
0.354818105697632
-0.940712809562683
0.0858945846557617
0.961028456687927
0.345758676528931
0.53617250919342
-0.193882465362549
-0.152277112007141
0.0435855388641357
0.868961453437805
-0.971057891845703
0.0156749486923218
0.530452013015747
0.936194062232971
0.743748188018799
-0.378255009651184
-0.0392229557037354
0.399613499641418
-0.409693717956543
-0.128378510475159
-0.657504796981812
0.360416054725647
-0.109972476959229
0.926071047782898
0.818306684494019
0.515501141548157
0.177213668823242
0.307188391685486
0.446927309036255
0.813721299171448
0.230307102203369
-0.195353627204895
-0.515661478042603
-0.38786780834198
0.603140830993652
0.881945967674255
0.165037393569946
0.332242608070374
0.656188488006592
0.582666277885437
-0.0167133808135986
0.616264462471008
-0.912185668945313
-0.0632854700088501
0.474364519119263
-0.0166372060775757
0.965523242950439
0.866576075553894
0.49581503868103
-0.0140942335128784
-0.742789268493652
-0.406435608863831
0.0086977481842041
0.8657146692276
0.862412929534912
0.544071078300476
0.358837842941284
0.71031391620636
-0.856443405151367
0.755815863609314
-0.941923856735229
-0.890818953514099
0.95720911026001
0.784096598625183
-0.934480905532837
-0.690003275871277
0.185328483581543
0.108039259910583
0.568788766860962
0.874894738197327
-0.233486652374268
-0.963152050971985
-0.734727144241333
0.836712002754211
0.227252960205078
-0.883945107460022
-0.856625318527222
-0.644761443138123
0.71317720413208
0.0337704420089722
-0.236236810684204
-0.126532435417175
0.520306587219238
-0.973066926002502
0.0406229496002197
-0.226154685020447
-0.873697757720947
0.787559390068054
0.52290415763855
-0.465478777885437
0.721715927124023
-0.131005883216858
0.175572633743286
0.385597825050354
-0.75875997543335
-0.407839894294739
-0.339140176773071
0.465380787849426
-0.105042457580566
-0.548191666603088
-0.880487203598022
-0.52337110042572
-0.800407886505127
-0.977232098579407
0.452044248580933
-0.157195925712585
-0.490242004394531
0.366196036338806
0.0999825000762939
0.364321351051331
0.0492100715637207
0.93582808971405
0.327121496200562
0.374798893928528
0.442093849182129
0.984227538108826
-0.999229192733765
0.397307991981506
0.744195461273193
-0.530964016914368
-0.126994371414185
-0.699376940727234
-0.0258083343505859
0.45922315120697
-0.638083219528198
-0.0445283651351929
-0.855100154876709
0.0413368940353394
-0.167139291763306
-0.609215617179871
0.794528007507324
-0.27424681186676
-0.620290517807007
-0.550054907798767
-0.982075214385986
0.352926135063171
0.106100797653198
-0.0529593229293823
-0.00217056274414063
0.499637961387634
0.90668797492981
0.323111176490784
-0.963878154754639
-0.614750981330872
0.748389959335327
-0.197600245475769
0.0850725173950195
0.277947783470154
0.451641321182251
0.0486027002334595
-0.221407413482666
0.40100085735321
0.971642255783081
0.321119427680969
-0.0365161895751953
-0.660997033119202
0.179608583450317
-0.86869752407074
0.730688571929932
-0.0558730363845825
0.14402174949646
0.398707509040833
-0.0534601211547852
-0.257626175880432
0.911878824234009
0.107343316078186
-0.715988636016846
0.83982264995575
0.789942502975464
-0.538078188896179
0.75396728515625
0.328880667686462
-0.874008893966675
0.544108033180237
-0.263587474822998
-0.805466771125793
-0.409931421279907
0.468770146369934
0.51174259185791
-0.279406189918518
-0.0442655086517334
0.0402294397354126
0.291993618011475
-0.604045987129211
0.381314039230347
0.908510327339172
-0.247907638549805
-0.679166436195374
0.191148042678833
-0.774409651756287
0.0611062049865723
-0.886969685554504
-0.843157052993774
-0.198349833488464
0.413493156433105
0.314170241355896
-0.721479177474976
0.761323571205139
0.0603518486022949
0.295957446098328
-0.933930635452271
0.699947476387024
0.840671539306641
0.666424155235291
0.320391893386841
0.33981192111969
0.212582111358643
0.176180720329285
-0.585342645645142
0.686410069465637
0.784604072570801
0.12466561794281
-0.924449682235718
-0.315311789512634
0.346898555755615
0.266395449638367
0.664520978927612
-0.624704241752625
0.402517318725586
-0.782785058021545
0.959035158157349
-0.449164748191834
-0.801347255706787
-0.639453053474426
-0.566175699234009
-0.0878876447677612
-0.742112159729004
0.253642439842224
0.04213547706604
0.724385857582092
-0.590553760528564
0.533830523490906
-0.503018617630005
-0.0263823270797729
-0.679557800292969
0.324768424034119
0.0523903369903564
-0.977277159690857
0.527130603790283
0.142691493034363
0.784656286239624
0.76781952381134
-0.0338430404663086
0.302663207054138
-0.626411199569702
0.294479012489319
0.00580739974975586
0.824825167655945
0.383763074874878
0.0339757204055786
0.977258682250977
-0.159352898597717
0.0457699298858643
-0.58046281337738
0.205828189849854
0.499176859855652
-0.462534189224243
-0.957405924797058
-0.457776069641113
0.373290419578552
0.765222787857056
-0.690969824790955
-0.594023619311756
-0.642274962477366
0.645918971921671
-0.399908328504517
-0.743632397242022
0.0771311644899812
4.49466035890637
0.083626083305717
0.656780923266059
0.948939333422005
0.266378971104384
-0.963431111609455
-0.883196764908666
-0.737398351370773
0.415229257611474
-0.825673407398299
-0.665757314061289
0.878463868980799
0.101511217446356
-0.796407534669869
0.548041298101357
-7.93759670161094E-05
-11.4468950156636
0.14397750136336
-0.7922433190238
0.321735771639973
0.0119511545004668
-0.496675478321041
0.328610081764518
-0.521333697231625
-0.982516013415008
-13.3856854878906
0.266932787599171
0.602756391476769
-0.87776228267578
-0.116175521830729
-0.260667596996716
0.835107799499315
-0.437931719177749
0.313937305013736
0.947884694445889
0.30782652294178
0.40852682967575
-0.205925258000882
-0.687039484736479
-0.789671406760467
-0.249223188195768
-23.7354555314397
0.383691855224441
0.317854978574848
0.359747856823552
-0.841092462935615
0.147658041483829
0.518320289025393
-0.577175254915825
-0.955420162984635
-12.7146793420505
0.898783313821281
-0.541189718440041
-0.335885163929429
0.686945318106415
0.433302243269945
0.320770241880738
-0.223207220327187
-0.467984252155658
0.085056923013393
-0.639641832977935
-0.867595015765145
-0.23475362820197
-0.645004273426449
0.0837227878835183
-0.483979754867765
-34.2579149834755
0.0741171856921869
-0.146049303914259
-0.700939804347416
-0.430147643485234
-0.396821924679808
0.961696710953799
-0.962114091013542
-0.761174943753984
-12.040701132555
-0.0182929162278517
0.270463776394861
0.922879937503367
0.204473255995519
0.874248703040152
-0.607659957742376
-0.746144160520362
-0.59949081438863
0.455528758149808
-0.303913783699679
-0.341209827662419
-0.0396172003226381
0.321710466373051
-0.0977935018274799
-0.22031467479727
-33.8312588564994
0.0161947032016475
-0.263419551755142
0.394963011122909
0.3974240792072
-0.395789547846151
0.877976370202493
-0.581112392376569
0.114336141038962
-24.0264167608633
0.186846606186617
-0.988638443804081
-0.945720924093228
-0.378795663290833
0.667206092779351
-0.0942719272806472
0.377798046634692
0.884902934537329
0.857705435467022
-0.215018190081598
-0.144925918711042
0.855386476922933
0.584168572330612
0.167066718073059
0.210683476584343
-39.8108170976811
0.0124290087878824
0.389934922473943
0.879156366604624
0.483194510904349
0.111288627153501
0.942875135823831
0.889375150781801
-0.32526857418852
-30.0596057640249
1.00776367192954
0.86678794468948
-0.485869009172319
-0.293396110903305
-0.106837332878099
0.159956017823989
0.694710425342702
0.0800126494068033
0.711281135091637
0.252603873905977
-0.775213244069661
-0.215165706367167
0.553470702114761
0.360605319437487
0.203659407832991
-23.799951163478
-0.0987861552233966
0.361996856513145
0.925174847859201
-0.166701753171882
-0.5285001196803
1.00567399351274
-0.85431927384741
0.94670825438662
-30.1232169138128
0.316639113480744
0.461035643473356
-0.456234175836443
-0.944434399973442
-0.0923210984802112
0.807203213067823
0.0555811442986922
-0.035436421523677
-0.468860909929421
-0.752502217593351
-0.748298289884174
0.544299392013876
0.129445524159129
0.944570501741874
-0.108905084392656
-23.3052508508636
0.121092399120781
-0.534577283081888
-0.300905317817459
-0.870756731327768
-0.879082803967064
0.393048409845784
-0.483750570816312
0.350223251513281
-29.701113758397
0.966753830376828
0.543167284985782
-0.939237110624888
-0.431976376642777
0.0614250354820303
0.719460587394608
1.16765208508934
0.384190635208697
-0.22441260401746
-0.561596950007605
0.140392422488349
0.372452715096444
0.104253514393578
0.123640860475896
0.929911909407468
-29.7035872302538
0.476903711400366
0.958644734437931
-0.567901358766908
-0.279042918207822
0.894010633637144
-0.191555958341508
0.928063654237511
-0.517260994977051
-18.1489024731213
0.0403988214358714
-0.218898488360811
0.29731109098331
-0.115879555516217
0.309974174597196
0.111582267244771
0.987092856373621
-0.160088377160252
-0.00772450663069332
0.925286179137382
-0.330346795377212
0.692172386468429
-0.226446903041646
-0.914275628116657
0.501432173476905
-23.0316330635503
-0.946371886376422
0.3859746836555
0.0571703747864099
0.00343630486492642
0.944048728702799
0.836600762716227
0.635196760416909
0.769120444112125
-13.04495965717
0.923968364198199
0.811971157004883
0.929303496359642
0.0209906655795329
-0.326199923320182
-0.931768497760378
-0.153124890757849
-0.563260502384343
0.546822571683535
-0.368510859291727
-0.666114624819019
-0.255369731465227
0.357313167720473
0.486661278255116
-0.285956609105364
-39.8763014593775
-0.932626290617709
-0.747047686251008
-0.395859376991238
0.294044114885373
-0.847330365421042
-0.655594962724752
0.585782960177346
-0.129635225481692
-13.332701437451
1.11422007222891
-0.86486306864972
0.653043478010948
0.645058806563112
0.790731395916579
-0.374969682033139
-0.171299658252051
0.409598761035762
-0.75176010138928
-0.457748191635781
0.931553426900647
0.836757949313278
-0.19946538242754
0.873183452136652
-0.219082701062456
-39.8812444725687
0.87016661614346
-0.644318008097016
0.159549568863718
0.0570415374617891
0.228834263488468
-0.0134498446553834
0.259837015451426
-0.286275620832519
-25.7042534669409
-0.504496549799393
0.661749469016245
0.213172066573504
-0.380154893389957
-0.740883863570502
-0.89666899490713
0.148941157736199
0.657337201836522
0.0647646292254612
-0.586659635222074
-0.512214124609792
0.312749506663054
0.68746198486336
-0.596164908636125
0.534284282532109
-31.1201865376002
-0.767953738134465
0.838364402921338
-0.490259383942344
0.398727537394724
0.903468726946014
0.235655029827053
0.564946887799044
-0.00495060949237473
-21.5425599910965
-0.0681316386800154
0.308588242281855
0.812774434033529
0.196705202846747
-0.25493526557261
0.858459333683229
-0.355874136807375
0.790179012057892
-0.801693298531635
-0.664938597391352
0.22990794669107
-0.482868723545276
0.0922191485173372
-0.0728074564701438
-0.879302259663711
-10.6354361064502
-0.288345848078972
0.414747910958721
0.114406943321228
-0.539181470870972
0.465407013893127
-0.80482816696167
-0.849713444709778
0.726714849472046
0.0471125841140747
0.811871528625488
-0.285261750221252
-0.71029257774353
0.0890918970108032
-0.00693750381469727
0.749778628349304
0.9487464427948
-0.680505633354187
0.179296493530273
-0.941247582435608
-0.0812022686004639
-0.781577467918396
0.5552659034729
0.212582468986511
0.112092733383179
0.174182057380676
-0.418946266174316
-0.0439802408218384
0.919378519058228
0.13953173160553
-0.976616382598877
0.113893389701843
-0.508832216262817
-0.212066531181335
0.486869812011719
0.997360587120056
-0.481011152267456
0.169802308082581
0.445267200469971
0.3101567029953
0.516635656356812
0.868756413459778
-0.227278709411621
0.554845213890076
-0.398582220077515
0.657867074012756
-0.224981784820557
0.939067721366882
-0.224589586257935
0.655908703804016
0.720834732055664
-0.21820604801178
0.706704378128052
-0.0163911581039429
0.872988224029541
-0.580428242683411
0.0106561183929443
-0.0801018476486206
0.0196866989135742
-0.38722288608551
-0.968862295150757
0.558160424232483
-0.494221210479736
-0.548135876655579
-0.878213167190552
-0.0375174283981323
0.764003753662109
-0.236384987831116
0.42725682258606
-0.176095366477966
0.346241474151611
0.0173901319503784
-0.835533380508423
-0.383330225944519
-0.54523754119873
-0.268622040748596
-0.596149206161499
-0.745525717735291
-0.026522159576416
0.37884509563446
-0.649390459060669
0.246717572212219
0.999189376831055
-0.205613732337952
0.125958681106567
-0.64524781703949
-0.127160549163818
-0.919825673103333
-0.95162034034729
0.748133778572083
-0.289238929748535
0.0122102499008179
-0.585130453109741
0.660871148109436
-0.564072132110596
0.946573138237
0.782191038131714
0.547676205635071
0.3092041015625
-0.774329781532288
-0.251877546310425
0.740213990211487
0.960594654083252
0.0844868421554565
-0.767292261123657
0.603352665901184
0.92049503326416
0.0568364858627319
0.259506464004517
-0.808586478233337
0.650941371917725
0.881610751152039
0.236843824386597
0.404420971870422
0.0768604278564453
-0.0909706354141235
-0.260939359664917
0.644352555274963
-0.382680416107178
-0.993109822273254
-0.212236642837524
0.971388936042786
-0.283223152160645
-0.033180832862854
-0.366925954818726
-0.239836096763611
0.876330852508545
0.410520434379578
-0.965119600296021
-0.143985629081726
0.184970855712891
0.196026206016541
-0.955914258956909
0.23123037815094
0.350826740264893
0.323946833610535
-0.716140985488892
0.141305088996887
-0.767580986022949
0.34372079372406
-0.269115209579468
-0.218815207481384
-0.130091190338135
0.259864687919617
0.996613264083862
-0.558481097221375
-0.983652114868164
0.938223242759705
-0.891489744186401
-0.835090041160584
0.168928623199463
-0.987780690193176
0.791307210922241
0.902163624763489
-0.899765968322754
0.289103865623474
-0.75174880027771
-0.831461310386658
-0.110512256622314
-0.343793988227844
0.442354917526245
0.199997067451477
-0.546195983886719
-0.512817025184631
-0.122353315353394
-0.390546202659607
0.579437732696533
0.548270106315613
-0.119579553604126
0.54302704334259
-0.546965599060059
-0.595469117164612
-0.619514226913452
0.336288094520569
-0.307119846343994
0.326106905937195
0.192417860031128
-0.329488635063171
0.880151748657227
-0.305532097816467
-0.203192472457886
0.22892439365387
-0.409833431243896
0.908661723136902
0.621511220932007
0.852957844734192
0.923632621765137
-0.208435654640198
-0.177098989486694
0.198495507240295
0.537898540496826
0.496129870414734
-0.432885408401489
-0.10787570476532
-0.821796417236328
-0.0883594751358032
-0.188694715499878
0.187384247779846
-0.291072368621826
0.569956660270691
-0.41510796546936
0.121018528938293
0.644841194152832
0.0517667531967163
0.770809412002563
0.169223427772522
0.182355403900146
0.892837405204773
0.386757612228394
-0.596101641654968
0.730772018432617
0.990263342857361
-0.63354754447937
-0.851104140281677
-0.0564665794372559
0.50871741771698
-0.159124612808228
-0.863728404045105
0.249472618103027
-0.71329939365387
0.919523477554321
0.162534356117249
0.884063243865967
0.742792010307312
0.971659421920776
-0.755103945732117
0.420669555664063
0.281898856163025
0.407561540603638
-0.722478270530701
-0.198203563690186
0.201506495475769
0.959773778915405
-0.812220454216003
-0.129660606384277
-0.902071595191956
-0.535644292831421
0.592490792274475
-0.599165439605713
-0.227443814277649
0.142132520675659
0.954179883003235
-0.369291305541992
-0.361890435218811
-0.620054960250854
-0.762675642967224
-0.708470821380615
-0.375113606452942
-0.988100290298462
0.0646048784255981
0.140254020690918
-0.412987351417542
0.100618600845337
0.373155236244202
0.990481853485107
0.20869243144989
-0.781510591506958
0.570812344551086
0.243701934814453
-0.589542031288147
-0.771084547042847
0.192366242408752
0.920544147491455
-0.744580388069153
0.567565679550171
0.0558100938796997
0.192028999328613
-0.644484162330627
-0.976375341415405
0.918590188026428
-0.589182376861572
0.777763247489929
0.0210425853729248
0.633855938911438
0.642461776733398
0.450506567955017
-0.600214719772339
-0.193290114402771
-0.303346157073975
0.0696686506271362
0.697084188461304
-0.0495423078536987
-0.341523170471191
-0.494999527931213
0.928686380386353
0.142858147621155
0.919654369354248
0.706331133842468
0.870104551315308
0.18237316608429
-0.290199279785156
0.109817862510681
-0.162132978439331
0.244417786598206
-0.872329235076904
-0.455803990364075
0.970767736434937
-0.962389826774597
0.672410011291504
-0.362970948219299
-0.98888373374939
0.460021615028381
0.274804592132568
-0.279041409492493
0.58598780632019
0.755426526069641
0.828531265258789
0.239954352378845
0.988473176956177
0.169552445411682
-0.778592586517334
-0.344435811042786
-0.541071176528931
-0.893669962882996
-0.133358955383301
-0.146835923194885
0.966226816177368
0.784143090248108
0.734080791473389
0.0482081174850464
0.489004850387573
0.392078518867493
-0.118534088134766
-0.807521462440491
-0.203083753585815
0.746176362037659
0.485676288604736
0.880335688591003
0.731879949569702
0.445679783821106
0.373982429504395
0.754968047142029
0.989330530166626
0.529285073280334
0.055295467376709
0.414642214775085
0.399468183517456
-0.368608355522156
-0.74858283996582
-0.181047081947327
-0.291491270065308
-0.361647963523865
-0.0717101097106934
0.195073008537292
-0.140066385269165
-0.155278086662292
-0.17275333404541
-0.555996537208557
-0.224260091781616
-0.390489935874939
0.496261119842529
0.0468233823776245
0.637690305709839
-0.487571597099304
-0.178802490234375
-0.529060006141663
0.6685631275177
-0.989858031272888
-0.942939281463623
-0.923661351203918
0.413402318954468
0.592518925666809
0.359246253967285
-0.478167176246643
0.520767450332642
0.438880562782288
0.81479024887085
0.671314120292664
0.0239837169647217
-0.425748705863953
0.97361946105957
2.26497650146484E-06
-0.877608060836792
-0.474391341209412
-0.120198726654053
-0.499304890632629
0.462598562240601
0.478133320808411
0.582163107243696
-0.928402209646779
0.91896260869618
-0.0682918344729934
0.261824832437808
0.520565615690633
13.4363782705616
0.0320324540830626
0.59642690867485
-0.19381594416039
0.0221191360727687
0.384983845918917
0.888429813697647
0.141806919063791
0.592415380669753
-0.184976416505761
-0.28497142593219
0.748265207470679
-0.819815225820155
-0.490646575373683
0.593412182007768
0.298404062493382
-21.2259014630846
0.896505071159901
-0.879575684351606
-0.424109332790485
0.774136011629359
-0.855697498495204
-0.861956060847878
-0.621853590706938
-0.159946676238613
7.95629986674665
-0.56007562556255
-0.394839133062167
0.00974812196714454
-0.928543537864125
0.145661678166044
-0.755769594486648
0.959885371693042
-0.251156210141691
-0.718440896449661
0.890089663332404
-0.603177691607912
0.0967827046648769
0.0978557819149468
-0.723122914828898
-0.216416199261124
-13.0797364412095
-0.571222084256098
-0.684900382487634
0.472676937573757
-0.989214536348711
-0.478490062064358
-0.876726978464927
0.953326351242651
-0.0786496997096103
9.62290575929081
-0.389633714452745
0.269268727357939
-0.144021045297251
-0.224030714894745
-0.307903805663975
0.502576945184808
0.866323203673489
0.862485358299266
-0.180067419713212
0.475345687905846
0.313542946471707
0.116380008902265
0.113754594909545
-0.128741400238624
-0.541869100771984
-22.5469037637289
-0.396282517338155
0.446480750672674
-0.492116956913316
0.667761085565204
0.953353741554389
0.611828802813268
0.598263357850476
0.611246716585171
0.946858430514289
0.255323399180473
0.23122083395303
-0.363511179727692
0.97059376065015
-0.601860874341407
0.922442915042542
0.756380687119027
0.283443254019629
-0.859644945015195
0.810455975440901
-0.172781990643977
0.14656243995808
-0.890990553306551
0.896170349647107
0.440265952652532
-18.0100346145663
-0.0191460834844049
-0.93667299202329
0.266979885929165
0.858254344460763
-0.219595727506983
-0.64779586289869
0.517509813270278
0.792561144551019
-11.2506011107337
-0.0472673871620668
0.710501617622898
0.710274171464023
-0.389104416324301
0.817664701586368
0.380213354694339
-0.664967150767757
-0.571209925705594
0.724127000176406
0.880878407666007
-0.419567126362257
-0.11552940486958
0.262264976164987
0.111947546945043
0.994118538788289
-14.9175369307358
-0.491136846985876
-0.619117093797744
0.630437419464307
0.138867533570491
0.211867718695795
-0.88611231037472
0.481399830059809
0.0970401357397849
-16.6449218443378
0.716936648353311
-0.654820598512936
-0.98482020903531
-0.271158212914756
-0.771730920027747
-0.768934427074934
-0.589058362745335
0.697915457775837
0.299477629093318
0.3884388774314
-0.684077326166759
-0.652415347360752
-0.271392849966908
0.529099585921036
0.163127944629773
9.97005831767822
-0.514888685802362
0.836088429180455
0.994091808078414
0.233479986292296
0.261669460525976
0.410948671357496
-0.709610694356606
-0.817148591041019
-16.7623832984495
0.963772537582158
0.203065494751202
-0.992840405328878
-0.0903866863187177
0.597289547888353
0.336855414140278
-0.0756512288699687
-0.532266845995937
-0.66924363973227
0.206645837979794
0.859329401067819
0.101726649885635
-0.244961038473917
0.564528949629427
-0.900823482743201
3.98110142055734
-0.190438476580639
0.333061724623858
0.494371414071003
-0.276026107978295
0.253746699634627
-0.130844302185558
0.0475447646742888
-0.598408744587044
9.73827592007596
-0.52002560381254
-0.931356460685799
0.134015083010714
-0.746324723976916
-0.298750763213502
-0.874027640819108
-0.578913519643387
0.921254464125209
-0.193407450114134
-0.374310250707049
-0.134637130904229
-0.362522335399893
0.31588792435786
0.801184164581481
0.613279824499333
4.69310182664387
-0.23779483085077
-0.831985120783772
0.133254894438925
-0.860887084365359
-0.426820542262474
0.477777996707248
0.272291154801298
0.784241780467407
11.8488175066704
0.741691971454562
-0.549873250289562
-0.642361779099052
-0.0120600646572192
-0.369662759464339
0.774811986633447
0.65756599057608
-0.632612665463541
-0.672559963158688
0.738971539373341
0.372704748242009
-0.280174921264265
0.712718724170284
-0.380897234205559
0.336272441683142
-7.88670345327151
0.220219315154393
0.165514167007463
0.384202904152534
-0.470414256641524
0.339990985812658
0.240972147907336
-0.826756140950525
0.409216563850655
13.8214016974019
0.683163831752599
0.234250231315847
0.0445057838306434
0.0684917864798811
0.854807015952472
-0.919404282685575
0.677063343277962
-0.124262940436888
-0.0199711124293164
0.586561910718026
0.187480939757907
-0.509920058585715
-0.357827794408604
0.476238243855179
-0.2876962564891
-18.4275616670568
-0.97605360038006
0.687388216274947
0.889156909606852
-0.824989293404517
-0.203626025423394
-0.946115904312124
0.0384402042078362
-0.727523729937369
-9.1426459827128
-0.0549151927153801
-0.404068689068619
-0.0667310126045771
0.321448157577665
0.69348513653404
0.611133541254917
0.311217110981086
0.167061553684301
-0.123769122493544
-0.53603843460576
-0.752678900721439
-0.863407006274973
0.603730104947965
0.762981621087126
0.716667045523218
-27.1109293254403
0.685219129498121
0.075827948331997
-1.01851693968535
-0.000189848467017018
0.376275992893519
0.953893474139376
0.629694726198099
0.261567769746874
-7.82679714418642
1.08379965543676
-0.110745666350698
-0.185922148632177
0.793062581070123
-0.194949041022564
-0.999647592913787
-0.24751887840881
0.46413862712465
0.101543227951306
0.754155188113059
0.994191137867347
0.915185152133547
-0.981597532884747
-0.463680185477103
0.208075567088694
-20.7156230077718
-0.674441450741058
-0.61702790593404
-0.74322769525216
-0.920980809925832
0.598433612657684
-0.556759158557958
-0.435251953295925
0.627970132542537
-22.8382948734512
-0.490009022865806
0.00146648858922887
-0.0475985861385889
-0.376960892886897
0.430418490378318
-0.590668340419554
-0.329291895749025
-0.827165367367157
0.163132808493512
-0.397795824716791
-0.556383652582612
-0.669404081974231
-0.211944307445798
0.930991505169261
-0.664624925831924
-9.45769076419558
0.213086093907111
0.306448178750469
-0.248682141304016
0.114050626754761
-0.68618381023407
-0.274372100830078
-0.168132424354553
-0.636875867843628
-0.405572295188904
-0.699702739715576
0.358347773551941
0.53221869468689
0.341538548469543
0.795781135559082
-0.838553071022034
0.754268884658813
0.281345009803772
-0.341509342193604
-0.973068356513977
0.296974897384644
0.735746502876282
-0.452272415161133
0.101896643638611
-0.65594744682312
-0.721404433250427
-0.633065700531006
0.80101478099823
-0.723516702651978
-0.108052134513855
0.794943809509277
-0.78721296787262
0.453764200210571
-0.377687811851501
0.317229747772217
-0.994207501411438
0.495157957077026
-0.263099551200867
-0.242843627929688
-0.165061593055725
-0.939057111740112
-0.620122313499451
-0.692771434783936
0.247710108757019
-0.866337060928345
-0.271387934684753
-0.939658164978027
-0.909578919410706
0.799377679824829
0.649924874305725
-0.958967685699463
-0.585537075996399
-0.471087694168091
-0.143659472465515
-0.263273239135742
0.882555365562439
0.959107637405396
0.562336564064026
-0.871007442474365
0.674996256828308
0.174070119857788
-0.359406352043152
0.224787712097168
0.895911574363709
-0.513578176498413
0.278245568275452
-0.912289142608643
0.47950541973114
0.718550443649292
-0.866870760917664
-0.630748748779297
-0.403689980506897
-0.0161406993865967
-0.00996530055999756
-0.659961223602295
0.559435725212097
0.968017339706421
-0.0830448865890503
-0.578906059265137
-0.769178986549377
0.710209131240845
-0.0786632299423218
0.215077877044678
0.927482485771179
-0.115615129470825
0.106329083442688
-0.962457656860352
0.827764868736267
-0.419489622116089
-0.672965407371521
0.948179721832275
0.877591013908386
0.585817098617554
-0.653241038322449
0.282073020935059
-0.803288102149963
-0.833947896957397
-0.506739020347595
0.680945873260498
-0.0150433778762817
-0.653271913528442
-0.18499743938446
-0.375587463378906
-0.0715175867080688
-0.305626630783081
0.737398743629456
-0.538772106170654
-0.893975377082825
0.597781896591187
-0.780932307243347
0.940537452697754
0.395146727561951
0.0492632389068604
-0.591919302940369
-0.756872653961182
-0.621509671211243
-0.0741074085235596
-0.201787829399109
0.512674331665039
0.750025153160095
0.770760774612427
0.885189652442932
0.886995792388916
-0.778700947761536
-0.925775766372681
-0.677056193351746
0.0292997360229492
0.927688002586365
-0.944844961166382
0.579858422279358
-0.840565204620361
-0.665353894233704
0.942190885543823
0.0950204133987427
-0.414859771728516
-0.356044411659241
-0.245014905929565
0.934469819068909
-0.266704082489014
-0.300023198127747
0.585456609725952
-0.052550196647644
0.681172370910645
-0.604101777076721
0.379040002822876
0.422656655311584
0.187680721282959
0.579986453056335
0.215935468673706
-0.755510210990906
-0.77537727355957
-0.538163781166077
0.0923588275909424
0.549301743507385
-0.992059230804443
-0.481379628181458
0.201791524887085
-0.118351817131042
0.52896785736084
0.901339888572693
0.716230630874634
0.850537896156311
0.585677623748779
0.341073870658875
0.0674388408660889
0.285682797431946
0.313934326171875
-0.444770455360413
-0.27180552482605
-0.106252074241638
0.218742847442627
0.153792262077332
-0.506458520889282
0.414601445198059
-0.294501304626465
-0.954424500465393
-0.737960577011108
0.277564644813538
-0.8887619972229
0.344470858573914
-0.682986497879028
0.757661938667297
0.23588752746582
-0.224301934242249
-0.892195463180542
-0.368129134178162
-0.626485347747803
-0.417945027351379
0.531018972396851
-0.664627909660339
0.84357738494873
-0.069832444190979
-0.288221120834351
-0.382200598716736
-0.97782564163208
0.816739916801453
-0.715028047561646
0.699489712715149
0.873294830322266
0.474804282188416
-0.823498487472534
0.927733063697815
0.980068683624268
0.27997100353241
-0.115463495254517
0.933022618293762
-0.923983573913574
0.156678557395935
0.260761499404907
0.285304665565491
0.0762991905212402
0.484443545341492
-0.208373308181763
0.6502286195755
0.608968734741211
0.50411069393158
-0.620402097702026
-0.554602980613709
0.0462174415588379
-0.775897145271301
0.624406576156616
-0.00338447093963623
0.0356283187866211
0.826671004295349
-0.395700216293335
0.194142937660217
0.531424999237061
0.574144244194031
-0.84270977973938
-0.351058840751648
0.325721740722656
-0.784820199012756
-0.337593793869019
-0.651074767112732
0.0797734260559082
-0.108986973762512
0.320941686630249
-0.184786677360535
-0.144774436950684
-0.458292603492737
0.937706232070923
-0.241623282432556
-0.854635715484619
0.81240451335907
0.202275037765503
-0.765310168266296
-0.593633651733398
0.459574103355408
0.470238924026489
-0.697619795799255
-0.911450862884521
0.257264018058777
-0.955545663833618
0.177878499031067
-0.832379341125488
0.403350234031677
-0.0437066555023193
-0.10793149471283
-0.824070453643799
-0.574213147163391
0.246893644332886
-0.553462862968445
-0.266284942626953
0.588856101036072
0.748408555984497
0.469824433326721
-0.419642925262451
0.799418330192566
-0.634742975234985
-0.626326441764832
-0.894373893737793
0.0131620168685913
0.855373620986938
0.00928080081939697
0.380933284759521
-0.859146237373352
-0.888541460037231
0.823545575141907
-0.309419631958008
0.454588294029236
-0.0577723979949951
0.515320420265198
0.563009738922119
0.494038462638855
0.353662252426147
0.19166100025177
-0.697945594787598
-0.527294754981995
0.330259561538696
0.0240761041641235
-0.981812000274658
-0.815832257270813
-0.883717775344849
0.404777646064758
0.159774780273438
-0.5916668176651
-0.0029914379119873
-0.397069334983826
-0.455680370330811
0.817686915397644
-0.42001748085022
-0.0790966749191284
-0.110281944274902
0.383542418479919
-0.423736333847046
0.35051691532135
-0.154493808746338
-0.717708706855774
-0.918322801589966
-0.27070415019989
0.524110794067383
-0.698346734046936
-0.641936063766479
0.396717667579651
0.53209924697876
-0.253073811531067
-0.885469675064087
0.350463032722473
-0.498570442199707
0.847236037254334
0.288698434829712
-0.0973342657089233
0.120700359344482
-0.338213086128235
0.327955961227417
0.836162686347961
0.666400909423828
0.486111044883728
0.970706224441528
0.0607439279556274
0.0341610908508301
-0.241681218147278
-0.472381830215454
-0.230597376823425
-0.729998588562012
-0.534651398658752
0.66287636756897
0.0945850610733032
-0.398416996002197
-0.950782895088196
0.6754310131073
0.264440655708313
0.969457626342773
-0.186730980873108
0.280247926712036
0.259071946144104
-0.9416823387146
-0.171572804450989
-0.110441446304321
0.966784596443176
0.828246116638184
-0.660557389259338
-0.605890035629272
0.852491796620641
0.537579310125467
0.674635775638193
0.449067846273534
-0.946055610076162
0.280239561305354
27.0955412299391
-0.596606964980209
-0.926526438087755
-0.84525752492793
-0.559338935637935
-0.216637125257428
-0.771713409649939
0.507071843328449
0.0739703762832576
-0.329884735712981
0.554308546399216
-0.294085335950016
0.254062801366083
0.462028157282155
0.749754646943631
0.0848746437980113
0.304458177387821
0.270935667481275
-0.521938239069129
0.18385982036187
0.532557480239193
-0.758298218884217
0.353259467787226
0.338130375468629
-0.228423745567037
12.0289462114153
0.335540853763495
0.35912677152046
0.0731787829095411
0.0350711787891616
-0.598783139070194
0.153496685175014
0.85321082336789
0.35798698049421
0.227189552546476
0.865839017873715
-0.345402835201371
0.883218267303251
0.628383503673082
0.048277183786184
-0.991268140106782
-1.35522853647442
-0.960910929658457
0.300958908024938
0.688901250356039
0.965261939366926
-0.526367731398773
0.945250756100808
-0.922641032142054
0.904354989507007
8.23358407445347
0.224254191621781
-0.285163545553133
-0.217418562501536
0.831244844530606
-0.853979507377536
0.906551120637994
-0.51784053362357
-0.843299796997059
-0.362882852261735
-0.450695319136085
-0.35987211834
0.116239461149885
-0.699666535270812
-0.621949689385043
-0.136829194270219
-22.9132686004217
-0.718452655697227
0.301785111062383
-0.632267276641905
0.228618001964147
-0.386399311779469
-0.894144900507432
-0.258011823434281
0.879178856587553
-3.90065583821778
0.426724379624625
0.80846879998279
0.82159719119728
0.627665141858022
-0.507706954979645
-0.317154774376348
1.04882876245971
0.618576747644231
-0.810146749590515
-0.0625014390800172
0.685587243797407
0.22250584133735
-0.347363725638935
-0.797522018007452
-0.871838084819752
-28.9328916533099
-0.987766102491364
-0.0909905950674182
-0.462393449909153
0.748156578538217
-0.369649109426843
-0.631595678076607
-0.60421085838347
0.502083511074762
-10.7872492649925
-0.0880797603233834
0.410209244919348
0.00433976613717947
-0.825866630031271
-0.083352368230223
-0.657824303043393
0.797412424007939
0.621851545279819
0.529342001282668
0.93703516215972
0.121557336719103
0.757313026198839
0.280090222022226
-0.225585807814173
-0.0161085453715615
-15.1933742329438
0.380930723700464
0.256013201955737
0.65604750876637
0.734034335976803
0.535376100539365
-0.558663823092921
0.73013346977691
0.282601911900979
-17.8718952587589
0.0337211494290558
-0.38776687517767
0.186796941271394
0.420655375227639
0.157833198357567
0.552358569331621
-0.257893406652502
0.944288753559834
-0.534246750446172
0.298425492612369
-0.0154776013971671
0.27110676739297
-0.204923061415578
0.943581821829543
-0.296993567783251
11.1254472689798
0.318871218105413
0.560028444019628
-0.226769401977343
0.172890341645442
-0.777407736779055
0.243335149799842
0.108194168286127
-0.32875303518917
-17.2313118628009
-0.432584702507285
-0.980182327181149
0.813042320719329
-0.630077833428675
0.701024035264001
-0.875187574200178
0.293665922380396
-0.142151928851358
0.89536338272491
-0.126269164713375
0.541199144017567
0.128298210836268
-0.483162430807972
0.273295047194228
-0.896118595439807
10.127778406637
-0.427990358928584
0.395217667309117
0.357231437442424
-0.477520933049746
-0.2405816876979
-0.676536165220874
-0.164441340871498
-0.800801182746341
-16.2669919295835
-0.655702350265742
0.961392502044902
0.532471541540019
-0.567201433175408
-0.769629492791579
0.329702379930072
-0.230461657489353
-0.0390269663877807
-0.735389059806733
-0.335640558046817
0.208356557897656
0.388141273146133
-0.604693189505412
-0.354809753526093
-0.647201904526649
4.23342027965768
-0.486945835131663
-0.658763855973064
0.600994615392712
-0.557951980667914
0.41869503194051
0.962381244618605
-0.605019988537315
0.875004580378478
-13.1701892732389
-0.234110766182613
-0.171608664051808
-0.694509556196436
-0.801652890241278
0.552888006275905
-0.123902863529665
0.46262309324295
0.250276227296826
0.164583624281421
-0.934269101297704
-0.407252694578813
-0.136868763183518
0.962447198944693
0.34305651228172
0.933410297082979
-11.4916182562453
0.497011743354102
-0.689726861560728
-0.191678152851655
0.880323264336793
-0.156489576109577
0.848392263394202
-0.882395674372163
-0.0928786834458449
0.187125314038605
0.912505568870571
0.382567780619178
-0.0121567586409792
0.993436393043488
0.915241008916466
-0.725536524255674
-0.779638863744261
0.0200116497423247
0.0525096672248278
-0.300943558822638
-0.797787902434611
-0.61635487184083
0.705145371597361
0.0576005034254932
-0.670419628056568
-6.53970727191488
-0.0278530573035441
0.82752694629942
-0.211382355294739
0.0862413319356187
-0.13433697519042
-0.441244602936525
-0.99581042026739
-0.96530006513947
-9.23873958048779
-0.740116644383047
-0.61422995906514
-0.503805522860933
0.576478085920541
0.207387210177288
-0.145117299106233
-0.650824225180268
0.368179716536066
0.449730550641831
0.874629059955317
-0.151799002454615
0.548080799198334
-0.157084193428714
-0.741672968606913
0.707997766095362
-17.9465712413548
0.834234621631694
-0.774000393232851
0.86798104824821
-0.047106240578587
0.819658409848821
-0.586769991378775
0.172804809157787
0.732175423962778
-9.61012235066328
1.11265062988594
0.297823686877426
0.713822328307289
0.821096728592067
0.170613642240824
0.751525367884555
-0.325290400157828
0.222580180851048
0.771686714756212
-0.908441102605028
0.922634572026364
-0.0636638307683825
0.227449797178188
-0.677025111853548
0.243230213095236
-27.8102477344063
0.642061075146315
0.128641955137416
0.553021508648386
-0.404746599718237
0.159770465397182
-0.606062599621611
-0.562019083768942
0.951455293398
-7.74069799638981
-0.141782944203138
-0.03214239868102
-0.12729835789121
-0.766109572402777
0.132469763146136
0.568388963330109
0.897492546609504
0.981741070819719
0.1908257406161
-0.939961881131326
-0.144649060649496
0.495279966434085
-0.712604632036359
-0.798490919272267
-0.703996137775805
-20.7298961744283
-0.880157107021576
0.245724531657515
-0.569249453321976
-0.235276283451705
0.413064041006956
-0.0975982472526698
0.00941515713666389
-0.6436876693145
0.618377509479914
-0.630345299354672
-0.337132750656249
0.695740071932382
-0.371396433965745
-0.758712416431946
0.0323921262574534
0.143467384440164
0.235034652967019
-0.938270323999023
0.112561746810079
-0.322338810162572
0.718183172119162
0.860899318441986
-0.502913650471672
-0.2117057816073
-9.7640128778248
-0.682730501822903
-0.291007778086948
0.895316481590271
0.128832101821899
0.429139733314514
0.40065336227417
-0.756197094917297
0.316282987594604
0.668056607246399
-0.219905853271484
-0.683093667030334
-0.0373046398162842
0.631651520729065
-0.319186687469482
0.74023711681366
