0.391624808311462
-0.812241315841675
-0.391194701194763
0.792320728302002
-0.723191380500793
-0.406757593154907
-0.290751338005066
-0.95969295501709
-0.615099549293518
-0.787185430526733
-0.481010794639587
0.105714321136475
-0.795208096504211
-0.795199632644653
-0.311948657035828
-0.336530685424805
0.836702704429626
-0.106459379196167
-0.631587386131287
-0.117360591888428
0.898430705070496
0.0506417751312256
0.370253682136536
0.957682609558105
-0.068398118019104
0.676225900650024
-0.181791663169861
-0.860302448272705
0.307920336723328
-0.719819307327271
-0.692386507987976
-0.732326507568359
0.635418295860291
0.663409471511841
0.56075918674469
-0.200259685516357
0.664706110954285
0.199081182479858
-0.416861414909363
0.344418525695801
0.69522225856781
-0.386119604110718
-0.680302023887634
-0.308130741119385
-0.518516659736633
-0.730742692947388
0.811086773872375
0.345144271850586
0.639334082603455
0.942677736282349
0.849907517433167
-0.448564052581787
-0.447802662849426
-0.891126871109009
0.136965870857239
0.833327293395996
0.777324080467224
0.72109055519104
-0.0624793767929077
0.0200419425964355
-0.0479565858840942
-0.507657289505005
-0.762466311454773
-0.221305847167969
0.200012564659119
0.676657915115356
0.399920105934143
0.645538806915283
-0.962533116340637
0.350330114364624
-0.67920196056366
0.557221412658691
-0.220530152320862
-0.806831121444702
0.0857387781143188
0.882028102874756
-0.553836941719055
0.769749402999878
0.126016736030579
0.951135635375977
-0.830983757972717
0.310662508010864
-0.12514054775238
-0.910138607025146
-0.902922749519348
-0.00623536109924316
0.923697590827942
0.148913383483887
-0.196777939796448
0.725427865982056
0.678414940834045
-0.464359760284424
0.190404772758484
0.421789884567261
-0.48440158367157
-0.254718780517578
-0.102092385292053
0.790004014968872
0.438788056373596
-0.607783794403076
0.207590937614441
0.60948920249939
-0.765272974967957
0.741215705871582
-0.549856781959534
-0.486819982528687
-0.870388388633728
-0.261309146881104
0.911331057548523
0.268776655197144
-0.0546587705612183
0.543943405151367
-0.761750817298889
-0.44000506401062
-0.244231581687927
0.560415744781494
-0.65442955493927
-0.732183694839478
-0.957051157951355
-0.0330591201782227
-0.17820417881012
0.251737833023071
-0.646608710289001
-0.251007556915283
0.835504412651062
0.631022214889526
0.454307675361633
0.229934692382813
0.541603446006775
0.565947771072388
-0.0101369619369507
0.102272510528564
-0.012421727180481
-0.460941553115845
-0.362574458122253
-0.0410985946655273
0.519742369651794
0.136413812637329
-0.236183524131775
0.324357509613037
-0.310512661933899
0.328839063644409
0.581560254096985
0.186067581176758
-0.340467095375061
0.253175020217896
-0.194865584373474
0.0255990028381348
0.110176920890808
-0.506471872329712
0.807219624519348
-0.650090217590332
-0.354454636573792
0.862520456314087
-0.725050330162048
0.722598552703857
-0.30015766620636
0.682539701461792
0.366161465644836
0.295154571533203
0.943600058555603
-0.433010816574097
0.365645051002502
0.838207721710205
0.189928889274597
-0.298462152481079
0.84139358997345
-0.727221488952637
-0.199232697486877
0.625370264053345
-0.699146628379822
0.701528072357178
-0.406868100166321
-0.487563371658325
0.347173810005188
0.940008163452148
-0.754632592201233
-0.0472972393035889
-0.664542555809021
-0.452088832855225
-0.796603322029114
-0.766599893569946
0.529009938240051
-0.639679908752441
0.0869706869125366
0.120275735855103
-0.244409918785095
0.518958568572998
0.595918536186218
-0.861157655715942
-0.43634021282196
-0.996559143066406
-0.0836025476455688
-0.644371747970581
0.878634095191956
-0.337478160858154
0.627142786979675
-0.340572595596313
-0.840868830680847
-0.254652976989746
0.105718016624451
0.54254937171936
-0.946777701377869
0.932702541351318
0.434764742851257
0.38206934928894
-0.445318102836609
-0.131734848022461
0.808252692222595
0.221078157424927
-0.340762495994568
-0.810147762298584
0.437729716300964
-0.950067758560181
0.520819783210754
-0.939328193664551
-0.0414282083511353
-0.412496328353882
0.107812523841858
-0.799427509307861
-0.663766980171204
0.562430143356323
0.359302639961243
-0.582706451416016
0.272495627403259
-0.505635023117065
0.841330170631409
0.637714862823486
-0.888280034065247
-0.0247728824615479
0.903138279914856
0.439106941223145
0.247094511985779
-0.549548864364624
0.333423256874084
-0.919619083404541
0.0268858671188354
-0.499762773513794
0.516584515571594
0.0333385467529297
-0.839311242103577
0.620801210403442
0.0889745950698853
-0.986077785491943
-0.374323964118958
-0.494375467300415
-0.904850840568542
-0.48653507232666
0.0728486776351929
0.826704263687134
-0.355883002281189
0.829940319061279
-0.266714215278625
-0.484196901321411
-0.934409976005554
0.599212646484375
0.824394583702087
-0.45430064201355
-0.433766722679138
-0.173713207244873
-0.543839573860168
-0.788563013076782
0.385914921760559
0.416558265686035
-0.962603211402893
0.911575555801392
0.453956246376038
-0.7929368019104
0.181995272636414
-0.570559740066528
-0.454618334770203
0.49772834777832
-0.884824395179749
0.714371919631958
-0.0628312826156616
-0.917378902435303
0.579735636711121
-0.837023019790649
0.564498066902161
-0.21880054473877
-0.757698655128479
-0.599622488021851
-0.322996497154236
-0.53043794631958
-0.400423169136047
0.561461210250854
-0.00497806072235107
-0.388301849365234
0.384594321250916
-0.927868604660034
0.365843415260315
-0.709262371063232
-0.52703583240509
-0.0694429874420166
-0.0800389051437378
0.740200996398926
-0.710875153541565
0.488422632217407
0.727321267127991
-0.62475061416626
0.712592959403992
0.732178449630737
0.953573346138
0.323934555053711
-0.51578676700592
0.0642902851104736
0.516319870948792
-0.541551113128662
-0.887591481208801
0.584489583969116
-0.758633494377136
0.926375389099121
0.279429793357849
0.871023416519165
-0.481027960777283
-0.818062305450439
0.747606158256531
0.26190447807312
-0.539901614189148
-0.482749938964844
-0.234405159950256
-0.363838911056519
0.552660584449768
-0.906432628631592
0.974631190299988
0.695087194442749
-0.182223200798035
0.472535133361816
-0.185221314430237
-0.256507635116577
0.466018319129944
-0.352560520172119
-0.56882107257843
-0.0290482044219971
-0.946340441703796
0.574457168579102
-0.919698357582092
0.233056306838989
-0.861071944236755
0.203905582427979
-0.963805317878723
0.332662343978882
-0.561745524406433
0.0114927291870117
-0.00326597690582275
0.801141977310181
0.48252260684967
0.0295672416687012
0.989873766899109
-0.820367097854614
-0.226680636405945
-0.621631622314453
-0.220103859901428
0.800288438796997
-0.560815215110779
-0.702723979949951
-0.226338505744934
0.0675275325775146
0.391862034797668
0.676060676574707
-0.573141694068909
0.239284753799438
0.982547402381897
0.0861334800720215
0.150253176689148
-0.291739702224731
0.158140301704407
0.311796188354492
0.715940833091736
0.783169984817505
-0.882506728172302
-0.618508815765381
0.163594126701355
0.969995260238647
-0.53233802318573
0.0990514755249023
-0.793285965919495
0.753233194351196
-0.119844794273376
0.0749506950378418
0.138879656791687
-0.122853517532349
-0.752815127372742
0.257553100585938
-0.7600017786026
0.127013444900513
0.337916016578674
-0.0356364250183105
-0.317444920539856
0.61037802696228
-0.0452831983566284
0.413277626037598
0.937863707542419
-0.461700201034546
-0.41059148311615
0.753831386566162
0.682315707206726
0.506603956222534
0.57951557636261
0.598451614379883
-0.796369194984436
-0.722868680953979
-0.235484480857849
-0.94629430770874
0.307106852531433
-0.941011667251587
-0.357910990715027
0.251551628112793
0.721869826316834
0.289797067642212
-0.975630164146423
-0.619411945343018
0.00712382793426514
0.916945219039917
0.194194912910461
-0.782695770263672
0.958401083946228
-0.821163892745972
0.561354279518127
-0.84266996383667
0.513811945915222
0.886138677597046
0.818841099739075
0.746685981750488
-0.839705109596252
-0.79696249961853
-0.400898337364197
-0.286966800689697
0.839866518974304
0.9284827709198
0.630285382270813
0.496923446655273
-0.644128441810608
-0.722559690475464
0.392494797706604
-0.7169508934021
-0.720767140388489
-0.837858438491821
0.274035573005676
-0.468506813049316
-0.645298600196838
0.973333597183228
-0.77233350276947
0.00897932052612305
0.407106280326843
0.861529111862183
0.926849484443665
-0.679878234863281
-0.252395272254944
-0.481743574142456
-0.578000426292419
0.938675403594971
0.0799320936203003
-0.542690515518188
-0.703265070915222
0.738785743713379
0.906651854515076
0.795997858047485
0.324126839637756
-0.973761081695557
0.435405611991882
-0.463603258132935
0.622949719429016
-0.930288314819336
-0.0148369073867798
0.346596956253052
0.313931107521057
0.132021427154541
0.892472147941589
-0.158045053482056
-0.323998332023621
-0.998623847961426
-0.0822912454605103
0.366342782974243
-0.197454810142517
0.0226244926452637
-0.848672986030579
0.273398160934448
-0.242351412773132
-0.371494293212891
0.420109152793884
0.70777440071106
0.232351899147034
-0.629100322723389
0.193415522575378
0.886390447616577
-0.299101710319519
-0.54792308807373
0.989434599876404
-0.120319128036499
-0.923015952110291
0.755948543548584
-0.71856701374054
0.892845869064331
0.870008587837219
-0.620683670043945
-0.0959945917129517
0.0471012592315674
0.84132444858551
-0.336877346038818
0.959324717521667
-0.33907151222229
0.160487294197083
-0.276299476623535
-0.776608109474182
0.0313246250152588
0.061505913734436
-0.515976428985596
0.0522860288619995
-0.284947633743286
0.999092221260071
-0.7950439453125
-0.211585640907288
0.309890031814575
0.304911255836487
0.516502857208252
0.666762232780457
-0.264118432998657
0.343831181526184
-0.0509405136108398
0.221143126487732
0.0165865421295166
-0.829826712608337
0.964662075042725
-0.809551358222961
-0.439669847488403
-0.316038012504578
0.488237380981445
-0.0751014947891235
-0.058546781539917
-0.712825179100037
-0.0611472129821777
-0.707709431648254
-0.818437814712524
0.0399924516677856
0.760966300964355
0.084250807762146
-0.469220876693726
-0.682951331138611
0.455676555633545
0.922483325004578
-0.251008272171021
0.963680386543274
-0.888027191162109
0.665020346641541
-0.112896680831909
0.95217764377594
0.437984943389893
-0.687527775764465
0.568282842636108
-0.461966395378113
-0.707766532897949
-0.58572256565094
0.769214868545532
-0.0838054418563843
-0.285120487213135
-0.0250474214553833
0.101349592208862
-0.622690081596375
-0.541025161743164
0.860342383384705
-0.407847166061401
0.963982224464417
-0.978288173675537
-0.296130299568176
0.966356039047241
-0.372982859611511
-0.824326515197754
-0.687214493751526
0.42720627784729
0.881673455238342
-0.999916553497314
-0.425581097602844
0.937716245651245
-0.0360869169235229
0.412055969238281
-0.137572884559631
-0.998085737228394
-0.513348937034607
-0.802154064178467
-0.0569545030593872
-0.053905725479126
-0.40399444103241
0.544098854064941
-0.618662476539612
-0.299934148788452
0.627547860145569
-0.930899143218994
-0.552555203437805
-0.921595811843872
0.262552380561829
-0.645971298217773
-0.477162957191467
0.561700105667114
-0.81575334072113
0.974199771881104
0.00656211376190186
-0.422189950942993
-0.765938639640808
0.0303220748901367
-0.278504014015198
0.283106088638306
0.0678802728652954
-0.820255756378174
-0.179407238960266
-0.156274080276489
0.31229031085968
0.167705535888672
0.193134665489197
-0.783177137374878
-0.779168486595154
0.858585834503174
0.370982050895691
0.43181586265564
0.830247044563293
0.767155647277832
0.934823393821716
0.371639490127563
0.616733193397522
-0.910173892974854
-0.579574704170227
-0.946006059646606
0.652189373970032
-0.764101028442383
0.724882483482361
0.41259503364563
-0.739531874656677
-0.141183376312256
0.01286780834198
-0.421575784683228
-0.826374888420105
0.387412071228027
0.12288224697113
0.660978555679321
0.188169121742249
-0.942841053009033
-0.526495099067688
-0.970479249954224
0.321312069892883
-0.558578491210938
0.469642996788025
0.0943291187286377
-0.532781004905701
-0.517295360565186
0.408781886100769
0.587947607040405
-0.446741938591003
-0.976096153259277
0.887235045433044
0.346435785293579
-0.803749442100525
-0.160444736480713
-0.293605923652649
0.590618848800659
0.858720898628235
0.167085647583008
-0.721021294593811
0.707337617874146
0.505146622657776
-0.261937618255615
-0.464713215827942
-0.469301462173462
-0.241791605949402
-0.690556526184082
-0.670555710792542
-0.876676321029663
0.555040001869202
0.694827556610107
0.34565532207489
-0.942399263381958
0.303478360176086
-0.704296112060547
-0.495547890663147
-0.803066968917847
-0.461686491966248
-0.867297649383545
-0.131054997444153
0.976989507675171
0.0775386095046997
0.376843452453613
0.0510724782943726
-0.813045263290405
-0.321400046348572
-0.619211673736572
0.117851138114929
0.250778913497925
-0.805353045463562
-0.789911270141602
-0.00237429141998291
-0.991572141647339
0.230782151222229
0.674437046051025
0.386319041252136
-0.00286698341369629
-0.699688792228699
-0.141083717346191
0.153682112693787
-0.767358541488647
0.480992913246155
0.155250072479248
0.249544024467468
0.490465879440308
0.57128918170929
0.793052673339844
0.110062003135681
0.0871345996856689
0.746615052223206
-0.128921031951904
0.563971400260925
0.161441564559937
0.715588688850403
-0.111525535583496
-0.761164307594299
0.45569634437561
-0.623718619346619
-0.223974704742432
0.467296481132507
0.59697413444519
-0.0275324583053589
-0.572591781616211
-0.306676506996155
0.878365755081177
-0.250125288963318
0.730440616607666
0.378464579582214
-0.459772348403931
0.112433552742004
-0.901669502258301
-0.591904282569885
0.551431894302368
-0.721472144126892
-0.499073505401611
0.997671008110046
-0.109383821487427
-0.562755465507507
0.995967864990234
-0.901027321815491
0.327433824539185
0.404623627662659
-0.239665508270264
0.306361079216003
0.703803777694702
-0.220091700553894
0.621296882629395
-0.736975312232971
-0.284839391708374
-0.398205161094666
-0.912233829498291
0.567230105400085
0.191704511642456
-0.495317339897156
-0.11845588684082
-0.821427941322327
-0.120348691940308
0.374924302101135
-0.0314269065856934
-0.675776600837708
0.722482442855835
0.507075428962708
0.0901861190795898
-0.0948148965835571
0.642194986343384
0.260144829750061
0.794356822967529
0.402536273002625
-0.179448366165161
-0.786155581474304
0.966949462890625
-0.716315865516663
-0.5196692943573
-0.175160765647888
0.862968921661377
0.908614039421082
-0.833423852920532
-0.417002558708191
-0.362189292907715
0.936139464378357
0.527847528457642
-0.332359671592712
-0.62148904800415
0.230152010917664
-0.402529954910278
0.103792309761047
-0.36500358581543
-0.734128594398499
-0.425215482711792
-0.581569075584412
0.451334476470947
-0.963904500007629
0.106397390365601
0.796736836433411
-0.10301685333252
0.457450270652771
-0.932569265365601
0.738343834877014
0.0980410575866699
0.276639819145203
0.842772245407104
0.213588833808899
-0.231502532958984
-0.523303627967834
-0.891674757003784
0.319761872291565
-0.758517742156982
0.18323028087616
0.112258672714233
0.437356114387512
0.000515937805175781
-0.929319977760315
0.456257104873657
0.886317849159241
0.71075963973999
-0.731437802314758
-0.623229265213013
0.0822964906692505
-0.249734878540039
0.76772153377533
-0.473734617233276
0.192894577980042
0.241224765777588
-0.673419117927551
0.254472494125366
-0.706082224845886
-0.418778419494629
-0.122608780860901
-0.610360860824585
0.0256248712539673
-0.525520801544189
0.432481646537781
-0.48022198677063
0.748977780342102
0.463111877441406
0.490509390830994
0.773917436599731
-0.798108458518982
0.958374500274658
-0.0572901964187622
0.103351354598999
0.655484318733215
0.771912574768066
0.479146361351013
-0.937110662460327
0.570327401161194
-0.852987766265869
-0.50503933429718
0.0921065807342529
-0.247304797172546
-0.710149765014648
0.496622443199158
-0.703406095504761
0.0108152627944946
-0.599256038665771
0.00817954540252686
-0.270792245864868
0.311118245124817
0.205401420593262
0.977507948875427
-0.828679800033569
-0.56551206111908
0.986171245574951
0.682561755180359
0.414068937301636
-0.867488741874695
0.113292694091797
-0.862376809120178
0.0396072864532471
-0.216271758079529
0.0761456489562988
-0.000447392463684082
-0.297645807266235
0.549882054328918
-0.985499382019043
-0.0259615182876587
-0.0897557735443115
0.032168984413147
0.749768733978271
0.721847414970398
0.305977582931519
-0.572511553764343
-0.683748245239258
-0.734925866127014
0.448270082473755
0.184692978858948
-0.00760793685913086
0.893391489982605
-0.906896829605103
0.16083824634552
0.832022666931152
0.570300459861755
-0.0250260829925537
0.277433037757874
0.695617198944092
0.839380145072937
0.0881450176239014
-0.323310732841492
-0.218460083007813
0.23053777217865
0.467894792556763
-0.622228026390076
0.657295703887939
0.166258692741394
-0.52823281288147
0.433049321174622
-0.209219932556152
0.367856383323669
0.560821771621704
0.5843425989151
-0.418470859527588
0.761722445487976
0.580883741378784
-0.58082377910614
0.891969680786133
-0.114423394203186
0.543793916702271
0.0270277261734009
0.0786690711975098
-0.205283284187317
0.908658742904663
-0.844422221183777
0.523585319519043
-0.531731247901917
-0.636899709701538
-0.133039832115173
0.665317058563232
0.715436816215515
-0.895493745803833
0.694011807441711
0.530353546142578
0.581753134727478
-0.378720045089722
-0.703477263450623
0.76432466506958
0.255328059196472
-0.0259096622467041
0.617486119270325
0.163250923156738
0.473100066184998
0.57712197303772
-0.460651755332947
-0.295206546783447
-0.572914242744446
-0.52067494392395
0.040258526802063
-0.920495986938477
-0.829370141029358
-0.854334592819214
0.850319504737854
-0.27792501449585
0.524655222892761
-0.261625528335571
-0.392163157463074
0.342589378356934
0.483912825584412
0.898199319839478
-0.48443067073822
0.957770824432373
0.123231768608093
0.0256526470184326
0.496978878974915
-0.577766418457031
-0.996230721473694
-0.937737226486206
0.852480530738831
0.459732532501221
0.0792607069015503
-0.228176355361938
-0.584307551383972
-0.805586814880371
-0.897730469703674
-0.478355169296265
0.209685921669006
-0.817938327789307
0.530437350273132
-0.436198472976685
-0.396764636039734
0.941354751586914
-0.0672661066055298
-0.183615446090698
-0.0329316854476929
0.985109806060791
0.895707011222839
0.144750356674194
-0.169884562492371
-0.648465156555176
0.42973268032074
0.142771005630493
0.535760521888733
-0.364521503448486
0.875265002250671
-0.585915803909302
-0.601909518241882
-0.480319976806641
0.309086203575134
0.35334324836731
-0.641854643821716
-0.193980693817139
-0.549443364143372
-0.572532892227173
-0.859831690788269
-0.0532331466674805
-0.932135224342346
0.956890344619751
-0.0921443700790405
0.075833797454834
-0.11572277545929
-0.603186845779419
0.420606732368469
-0.459978103637695
0.984388709068298
0.118451356887817
0.68977415561676
-0.0697264671325684
0.720372080802917
0.69028639793396
0.134913563728333
0.612921714782715
0.118228316307068
0.659315347671509
0.240033745765686
0.760940074920654
0.78403651714325
-0.167699098587036
-0.290153384208679
-0.11480712890625
-0.689796090126038
-0.942978620529175
0.126017212867737
0.865684986114502
0.181715846061707
-0.496479272842407
0.103413701057434
-0.51718807220459
-0.817614197731018
0.445358514785767
-0.0536426305770874
0.448609828948975
-0.698894619941711
-0.459140062332153
0.804872632026672
-0.0619945526123047
-0.861905694007874
-0.385634183883667
0.330937027931213
0.620066165924072
-0.188849568367004
-0.0625174045562744
0.834731221199036
-0.810750007629395
0.361899733543396
0.0103323459625244
-0.0591109991073608
0.396655559539795
-0.337953686714172
-0.157197237014771
-0.255252718925476
-0.418727874755859
0.819622397422791
0.735797166824341
0.46859610080719
-0.298770427703857
0.0852383375167847
0.562484502792358
0.617928624153137
0.865048408508301
0.25833261013031
-0.450450658798218
-0.362308859825134
0.362889766693115
0.593421816825867
0.558441877365112
-0.931466937065125
-0.802194595336914
-0.793649315834045
-0.133372068405151
0.203056931495667
-0.883012294769287
-0.0194579362869263
0.448838949203491
0.242068409919739
0.143019676208496
-0.0267530679702759
-0.24167799949646
0.950826287269592
0.605124950408936
-0.678205609321594
0.00808978080749512
-0.184707522392273
-0.329582214355469
-0.350158333778381
0.952170610427856
-0.301617980003357
0.375153064727783
0.973624110221863
-0.833141565322876
0.99621307849884
-0.844023704528809
-0.891794800758362
-0.168037176132202
0.294356942176819
-0.118826389312744
-0.426273465156555
-0.987941026687622
-0.475911974906921
0.381921768188477
0.00165784358978271
0.437737703323364
-0.38136613368988
-0.516461849212646
-0.958953022956848
0.786855459213257
0.669425129890442
0.536730766296387
-0.235230088233948
-0.534215688705444
0.582345604896545
-0.551151752471924
-0.424219250679016
0.890661954879761
0.23398220539093
-0.784870147705078
0.613361716270447
-0.731358289718628
-0.872125029563904
0.949955463409424
0.659373164176941
-0.12085747718811
-0.449232935905457
-0.581904411315918
0.544503569602966
0.855098962783813
-0.771145224571228
-0.934038639068604
0.0545195341110229
-0.535788774490356
0.484037518501282
0.552854537963867
0.336515784263611
0.89019513130188
-0.109832167625427
-0.217782497406006
0.80516517162323
-0.485967874526978
0.429301381111145
-0.567116737365723
0.54896867275238
0.695219278335571
0.147946953773499
0.990325450897217
0.236505389213562
-0.946980714797974
-0.686683535575867
-0.722091674804688
0.522682547569275
-0.752289533615112
0.0695749521255493
-0.511863231658936
0.954985499382019
-0.738163232803345
0.594090580940247
0.713906288146973
-0.620272278785706
0.181457757949829
-0.246315360069275
-0.0202469825744629
-0.151699185371399
0.477398633956909
0.260881543159485
0.773103713989258
-0.976575493812561
0.786500215530396
0.330158829689026
0.0755257606506348
-0.914603352546692
-0.807131052017212
-0.165802836418152
-0.106022834777832
-0.861656785011292
-0.990873098373413
0.960130333900452
-0.707943439483643
-0.88353168964386
-0.942338228225708
-0.634204745292664
0.921253204345703
0.190304160118103
0.451876878738403
-0.164018034934998
0.0521969795227051
-0.327038884162903
-0.122558832168579
0.43868362903595
0.105908393859863
0.426377654075623
-0.626460790634155
-0.818653464317322
0.685048580169678
0.767570376396179
0.614121198654175
-0.832879900932312
0.105169296264648
0.874884009361267
-0.310847043991089
0.251106858253479
0.425962924957275
-0.305758595466614
0.385865926742554
-0.803387522697449
0.982512474060059
0.345393538475037
-0.0299928188323975
0.331395745277405
0.416541576385498
0.0281695127487183
-0.532910585403442
0.70391857624054
-0.792335510253906
0.428726553916931
0.443640947341919
-0.260403990745544
0.704636096954346
0.625800013542175
0.288455724716187
-0.602953791618347
0.656601905822754
0.496953368186951
-0.00615668296813965
0.824340462684631
-0.755651950836182
0.624828219413757
0.43687891960144
-0.484746813774109
-0.388448715209961
0.703394293785095
-0.839346647262573
0.965511918067932
0.896028995513916
0.444199442863464
-0.344476938247681
0.829047322273254
-0.239010810852051
0.982619643211365
-0.859639883041382
-0.425756812095642
0.426280498504639
0.784108996391296
0.843802213668823
-0.359813570976257
-0.800357818603516
0.0504497289657593
0.785502672195435
-0.907082915306091
-0.492045879364014
-0.373997807502747
-0.942619562149048
-0.218321681022644
-0.571513175964355
0.403954863548279
-0.395129919052124
-0.00483357906341553
-0.279848575592041
-0.767425656318665
0.508171796798706
-0.382219195365906
0.35474967956543
-0.678544640541077
0.763501405715942
-0.214125990867615
-0.451776027679443
-0.852229237556458
-0.435659646987915
-0.955998301506042
-0.70809268951416
-0.137478470802307
0.0826857089996338
0.00117266178131104
-0.616226673126221
-0.803213238716125
-0.249699831008911
0.487098813056946
-0.040313720703125
-0.132026314735413
-0.96003794670105
-0.791554808616638
0.524651050567627
0.486067652702332
0.746715307235718
-0.0949200391769409
-0.515936851501465
0.959882140159607
-0.230880498886108
0.0063244104385376
0.1749587059021
0.403308749198914
-0.609500169754028
-0.212797045707703
-0.60273551940918
-0.458432793617249
0.060197114944458
0.0246931314468384
0.445047855377197
-0.382544636726379
0.674817800521851
0.153975605964661
0.63776683807373
-0.202400803565979
0.359483957290649
0.924684166908264
-0.64847993850708
-0.921297192573547
0.749083280563354
-0.442844271659851
0.550296783447266
0.693798422813416
0.769519090652466
-0.601319670677185
-0.182773113250732
-0.98150360584259
-0.0810396671295166
0.0797511339187622
-0.114169120788574
0.977235198020935
0.0490915775299072
0.170314431190491
0.67126989364624
-0.0504685640335083
-0.353636980056763
0.3360196352005
-0.198404312133789
0.17622983455658
0.613240480422974
0.994469285011292
-0.350999355316162
-0.334246754646301
-0.450544595718384
0.471469044685364
0.861067771911621
-0.399647355079651
-0.466745138168335
-0.342722296714783
0.392020702362061
0.242357134819031
0.40265154838562
-0.837142825126648
0.0339736938476563
-0.659576058387756
-0.463326215744019
0.976122498512268
-0.551818370819092
-0.964211583137512
-0.863384485244751
0.618191838264465
-0.303709983825684
-0.731485962867737
0.00728631019592285
-0.200363516807556
-0.728415012359619
-0.31625759601593
-0.161738634109497
-0.423269152641296
0.630243301391602
0.0379432439804077
-0.0148684978485107
0.00770246982574463
-0.777417659759521
-0.894835591316223
0.750753164291382
0.308982014656067
-0.975689888000488
0.0832818746566772
-0.833501577377319
-0.48854672908783
0.567775249481201
0.500249743461609
-0.726495027542114
-0.383296847343445
-0.526782989501953
0.620350241661072
0.903926134109497
-0.746728301048279
-0.519984722137451
0.350443720817566
0.962180852890015
-0.167097926139832
-0.022059440612793
0.646218657493591
-0.793796300888062
0.206790566444397
0.0384039878845215
-0.581558346748352
0.528694868087769
-0.178163409233093
0.945707321166992
-0.0607925653457642
-0.261629819869995
0.376892685890198
-0.771707057952881
-0.251811146736145
0.841211080551147
-0.02098548412323
0.189993858337402
0.0588868856430054
0.821714639663696
-0.200289130210876
-0.0587162971496582
-0.335119366645813
-0.0758564472198486
-0.768806338310242
-0.0694732666015625
-0.6539226770401
0.433776140213013
-0.457372069358826
-0.0247721672058105
0.774962306022644
-0.0418436527252197
0.0363818407058716
-0.206717491149902
-0.0771509408950806
-0.791656255722046
0.70427668094635
-0.965773105621338
0.966129183769226
0.280163526535034
-0.61616313457489
-0.189512252807617
0.692522406578064
-0.564543485641479
-0.585460066795349
-0.27136754989624
-0.592673420906067
0.383329153060913
-0.205933451652527
-0.579380989074707
0.339667677879334
0.0614035129547119
-0.165449500083923
0.575046062469482
-0.451250195503235
0.917067289352417
0.318828701972961
0.468402862548828
0.330105185508728
-0.311276197433472
-0.843308806419373
0.99631929397583
0.121844172477722
0.687041997909546
-0.458868861198425
0.204815864562988
-0.0890947580337524
-0.42379355430603
0.604594826698303
0.321553707122803
0.139304995536804
-0.3448326587677
0.575231671333313
0.287084579467773
-0.889611840248108
0.638890504837036
0.433144211769104
0.7861008644104
-0.104922413825989
-0.0603926181793213
0.0666381120681763
-0.221314430236816
-0.261875748634338
0.448065042495728
0.92847216129303
0.531562328338623
-0.0356427431106567
0.814776182174683
-0.807891726493835
0.149345397949219
0.384933829307556
0.231269121170044
-0.592038512229919
0.605789661407471
0.2035893201828
-0.288662195205688
0.659649968147278
0.275040626525879
-0.577112793922424
-0.127708196640015
-0.779754996299744
-0.0371155738830566
0.750469088554382
-0.783793687820435
-0.291478991508484
-0.562002182006836
0.00530469417572021
0.911172151565552
0.745205521583557
0.463198184967041
-0.976058125495911
0.0725457668304443
-0.890770792961121
0.326693534851074
-0.93324339389801
-0.455800771713257
0.393975853919983
-0.126667499542236
0.724202990531921
0.179770231246948
0.163532376289368
0.0358543395996094
0.323063254356384
-0.37608790397644
-0.391061186790466
0.866138935089111
0.832697749137878
-0.406456232070923
-0.295561671257019
-0.93354320526123
-0.728705048561096
-0.340900182723999
-0.136272788047791
0.020719051361084
0.61212146282196
-0.474219560623169
-0.903795123100281
0.325727462768555
0.189772009849548
-0.185198545455933
-0.33677613735199
0.822424411773682
0.606419444084167
-0.65535569190979
-0.765660166740417
0.127142906188965
-0.861935257911682
0.912306070327759
-0.456438422203064
0.662856578826904
-0.3592129945755
-0.425450563430786
-0.454398989677429
-0.8095703125
0.956993460655212
-0.570847272872925
-0.927876830101013
-0.160132884979248
-0.178330540657043
0.896159887313843
0.987996220588684
-0.35843563079834
0.268628478050232
0.499130487442017
-0.152458548545837
0.557557582855225
-0.463237881660461
-0.853610277175903
-0.949216723442078
0.0127735137939453
0.476290106773376
0.912278413772583
0.499699234962463
-0.0737204551696777
0.455010294914246
0.318403005599976
0.754469990730286
0.242533683776855
0.764548659324646
0.114885568618774
-0.310270667076111
0.962634563446045
0.526609301567078
-0.438386201858521
-0.349185824394226
0.675571441650391
-0.900775551795959
-0.790508985519409
-0.88998544216156
-0.410525798797607
0.983004450798035
0.181686162948608
0.822823643684387
-0.937136650085449
-0.77261221408844
-0.0451161861419678
0.484187722206116
-0.364099979400635
-0.663108944892883
0.640534162521362
-0.115243792533875
-0.438364028930664
-0.322641015052795
-0.233896970748901
0.567131638526917
-0.162736415863037
0.382214426994324
-0.443678140640259
-0.0178803205490112
-0.264634132385254
0.758708357810974
0.71443772315979
0.144979119300842
0.835166454315186
-0.805830121040344
0.703463315963745
0.791671872138977
-0.446220397949219
-0.437743782997131
0.527426958084106
-0.964887022972107
0.177460193634033
0.129202723503113
0.012622594833374
-0.47857940196991
0.392853736877441
0.960072875022888
-0.411140203475952
-0.913833975791931
-0.681753635406494
-0.174991726875305
0.570713758468628
-0.0893763303756714
0.0348148345947266
0.605478644371033
-0.0612246990203857
-0.82197892665863
0.617876529693604
0.200531840324402
-0.379099130630493
-0.770211100578308
-0.331860542297363
-0.0669561624526978
0.273462533950806
0.221810936927795
0.342952251434326
-0.544031262397766
-0.437402009963989
-0.71932590007782
0.887554168701172
-0.841411232948303
0.945460557937622
0.159918427467346
-0.333674907684326
-0.927235722541809
0.95146918296814
-0.603712916374207
0.694035530090332
0.279183745384216
0.963558435440063
0.965976357460022
-0.332903385162354
0.813613772392273
-0.500571489334106
-0.559114336967468
0.494810104370117
0.0731490850448608
0.99279522895813
-0.355132460594177
0.330618381500244
-0.27753746509552
-0.925359964370728
0.809977650642395
-0.896645545959473
-0.89994490146637
0.354460000991821
-0.767275214195251
-0.451508045196533
-0.875494122505188
0.701517820358276
-0.569679141044617
-0.260604858398438
0.700722098350525
0.0260918140411377
-0.203069090843201
0.118568897247314
-0.373810887336731
-0.439274072647095
0.759923100471497
-0.971091270446777
-0.00277960300445557
-0.358520269393921
-0.563881278038025
0.744950771331787
0.115207552909851
-0.0108215808868408
0.788042187690735
0.00412178039550781
0.892870306968689
0.490662813186646
-0.719828963279724
-0.962010860443115
0.760506510734558
0.480039358139038
-0.964814066886902
-0.896489143371582
-0.927757859230042
0.519930124282837
0.490220665931702
0.514285564422607
0.0122812986373901
0.682722806930542
-0.446887850761414
-0.828197479248047
-0.998843789100647
-0.668179273605347
-0.741349577903748
-0.403308391571045
-0.398022770881653
0.402892827987671
-0.0751713514328003
0.459973335266113
0.926682829856873
-0.814876317977905
-0.190906882286072
0.614308834075928
-0.457710385322571
0.602463483810425
0.264593243598938
-0.374750137329102
-0.122857689857483
-0.00512194633483887
-0.603568434715271
0.802488803863525
-0.872836232185364
0.399598836898804
0.217913746833801
0.731108665466309
0.662104964256287
0.332372903823853
-0.693201422691345
-0.697166919708252
-0.0682049989700317
0.0687129497528076
-0.0384520292282104
0.247276306152344
0.872391104698181
0.425147294998169
-0.142423033714294
0.163193225860596
0.812628626823425
0.0404698848724365
-0.796496272087097
0.0497293472290039
-0.119928956031799
-0.84300971031189
-0.602600455284119
-0.662329196929932
0.907359957695007
-0.0982162952423096
0.183038830757141
0.420694351196289
-0.161534905433655
-0.932059049606323
-0.693850874900818
-0.313382625579834
0.634934306144714
-0.604181528091431
0.670661091804504
-0.951352119445801
0.682143568992615
-0.645711660385132
0.994958519935608
-0.0233654975891113
0.695546984672546
-0.578011751174927
0.968128323554993
0.0283164978027344
-0.873073220252991
0.868571519851685
0.906210541725159
-0.119426250457764
-0.929356694221497
-0.964042901992798
0.908448338508606
0.860676765441895
-0.330114960670471
-0.880420446395874
-0.486461997032166
0.977536678314209
0.0229185819625854
0.449639081954956
0.855878949165344
-0.54704475402832
-0.410661339759827
-0.727648496627808
0.321823716163635
-0.247125148773193
-0.903681874275208
0.031198263168335
0.705927968025208
-0.88137149810791
-0.0551420450210571
-0.851823568344116
0.867200493812561
0.598189830780029
0.116037249565125
-0.694951295852661
0.885353207588196
-0.422576904296875
0.577263236045837
0.2245934009552
-0.282948851585388
0.811333179473877
0.188521265983582
-0.0481455326080322
-0.647837519645691
-0.0446844100952148
-0.891375184059143
0.635391473770142
-0.529991507530212
-0.40359354019165
0.701465487480164
0.808529615402222
0.595613598823547
-0.21546745300293
-0.0577369928359985
0.170609712600708
-0.244044661521912
-0.936238765716553
0.323815226554871
0.868238210678101
0.636214375495911
0.00355052947998047
-0.737251877784729
-0.723462820053101
0.236024498939514
-0.77000093460083
0.00576579570770264
0.280394315719604
0.0257226228713989
-0.0429039001464844
0.0359004735946655
0.0557129383087158
-0.397401213645935
-0.982028484344482
-0.0212374925613403
-0.649338006973267
0.847146153450012
0.396145820617676
-0.991209626197815
-0.733073949813843
0.579311013221741
-0.74321985244751
0.755500674247742
-0.459044694900513
-0.28525722026825
0.477926254272461
-0.29026186466217
-0.674784421920776
0.921043992042542
-0.318223476409912
0.129925608634949
0.469438314437866
0.774020314216614
0.765913963317871
-0.551685929298401
-0.698129415512085
0.413930535316467
-0.0654377937316895
0.177232623100281
0.91052508354187
0.701736569404602
0.229835510253906
0.315338492393494
-0.0755698680877686
-0.124646544456482
0.562988758087158
0.253867030143738
-0.205120325088501
-0.294100642204285
-0.754332542419434
0.182881712913513
0.576683282852173
0.153945565223694
0.0211577415466309
-0.00247585773468018
-0.790583848953247
0.525766491889954
0.595636367797852
-0.295735955238342
0.298669099807739
-0.870410323143005
-0.330579280853271
0.327149271965027
-0.602701425552368
-0.568154215812683
0.468218803405762
-0.685944199562073
0.786676645278931
0.71341860294342
0.774379253387451
0.442937731742859
-0.242058992385864
-0.774104952812195
-0.541858673095703
0.228077292442322
-0.606755018234253
-0.152184844017029
-0.491115093231201
0.826334834098816
-0.152992486953735
0.240922093391418
-0.433619499206543
-0.556601166725159
0.127163171768188
-0.493587851524353
-0.0479607582092285
0.240035891532898
0.376412153244019
-0.658815264701843
-0.799837112426758
0.738340735435486
0.653470277786255
-0.305907607078552
-0.910806179046631
0.727986216545105
0.214318990707397
0.92219078540802
0.172965049743652
-0.327526688575745
-0.706544637680054
0.446988701820374
-0.188049793243408
0.615381121635437
-0.614857912063599
-0.0893019437789917
0.704513549804688
0.58661687374115
0.0246574878692627
0.832483887672424
-0.0818400382995605
-0.491334080696106
0.0695455074310303
0.764714360237122
0.420784950256348
-0.397158265113831
-0.519134283065796
-0.0507892370223999
-0.888075351715088
-0.704464077949524
-0.395556688308716
0.47349750995636
-0.645994186401367
-0.375531792640686
-0.0478808879852295
-0.0729478597640991
0.00359582901000977
-0.855063557624817
-0.517000436782837
-0.442444682121277
0.942652702331543
-0.663933396339417
0.384706735610962
0.927140831947327
-0.890224933624268
0.507062792778015
0.354628324508667
-0.931354403495789
-0.968547821044922
0.203457236289978
-0.618832349777222
0.141859650611877
-0.14668607711792
0.113360285758972
-0.975006341934204
-0.410223841667175
0.871380805969238
-0.526289582252502
0.20029091835022
0.794841408729553
-0.436686038970947
0.976524233818054
-0.54399037361145
0.235204815864563
0.119665145874023
-0.824853539466858
-0.242884397506714
-0.859031081199646
0.47512674331665
-0.609500050544739
-0.234159708023071
-0.349560618400574
-0.160218238830566
-0.882664322853088
-0.377069234848022
-0.53362500667572
0.730353832244873
-0.0695172548294067
-0.771100282669067
-0.987762331962585
-0.498542785644531
-0.108901619911194
-0.974724531173706
-0.911557555198669
-0.623153209686279
0.45291793346405
-0.724148035049438
-0.971392512321472
-0.0193319320678711
-0.131495118141174
-0.152061223983765
-0.644195914268494
-0.631292819976807
-0.904499173164368
0.493611097335815
0.938806653022766
0.559640884399414
0.20287549495697
-0.369040250778198
0.648342728614807
0.566286563873291
-0.722823262214661
-0.374658823013306
-0.486657023429871
-0.0731477737426758
-0.17121946811676
0.570627450942993
-0.622808814048767
0.736186504364014
0.698140978813171
0.570456266403198
0.0539742708206177
-0.822971343994141
0.462040305137634
0.51948094367981
0.984732270240784
0.551258563995361
0.339838862419128
-0.615379571914673
-0.606291651725769
0.81114673614502
-0.400274872779846
-0.013690710067749
0.944598793983459
0.590604305267334
-0.53503429889679
-0.720252275466919
0.896803021430969
-0.263566970825195
-0.479844689369202
-0.863848447799683
-0.23832643032074
0.339575290679932
0.617466807365417
-0.37599778175354
-0.541233897209167
0.266364097595215
0.282901167869568
0.790296792984009
-0.027910590171814
-0.810226917266846
0.62253749370575
0.941797971725464
0.506355404853821
-0.87933349609375
0.728783011436462
-0.573715925216675
-0.856770873069763
-0.560950756072998
-0.413376927375793
-0.0862009525299072
0.997578740119934
0.42531681060791
-0.520128846168518
0.177902460098267
0.873725533485413
-0.708494663238525
-0.102581143379211
0.376919507980347
0.421693921089172
0.712541580200195
-0.0605140924453735
-0.164808988571167
-0.206538558006287
-0.142507076263428
-0.776129841804504
0.324323415756226
-0.200791239738464
-0.0791826248168945
-0.707802414894104
-0.155561208724976
0.563569664955139
0.153613567352295
-0.483827710151672
0.905424833297729
0.681881070137024
0.394870758056641
-0.496173501014709
-0.691815137863159
0.87643301486969
0.102718830108643
0.00577056407928467
-0.574112176895142
0.152718663215637
-0.114321708679199
0.32144296169281
-0.0147817134857178
0.455684304237366
-0.466089725494385
0.205360293388367
0.347626447677612
-0.174020648002625
0.550466537475586
0.273367285728455
-0.709421873092651
0.0562063455581665
-0.817460536956787
0.908886790275574
0.288804769515991
0.847170948982239
-0.0472879409790039
-0.330830216407776
-0.70444655418396
0.464131951332092
-0.309792041778564
-0.808454632759094
-0.976163148880005
0.893051266670227
0.0621414184570313
-0.400329232215881
-0.272316694259644
-0.503156065940857
0.604767322540283
-0.590218663215637
0.483386754989624
-0.82837188243866
0.254731178283691
0.936940550804138
0.970756769180298
-0.997024893760681
-0.619680881500244
0.201290011405945
-0.245631456375122
-0.577840685844421
0.312707901000977
-0.665700554847717
-0.935187101364136
-0.13759171962738
0.377214908599854
-0.514983296394348
0.0799462795257568
0.915152668952942
-0.575451850891113
0.226317763328552
0.706140756607056
0.986276268959045
-0.137943744659424
-0.538843274116516
-0.140465974807739
-0.54763400554657
-0.815021514892578
-0.171184182167053
0.247279405593872
0.316961884498596
-0.992305278778076
-0.388844609260559
-0.35120415687561
0.366807103157043
0.594975471496582
0.138863921165466
0.697017908096313
-0.171902060508728
0.893231868743896
-0.302291989326477
-0.840354204177856
-0.477266192436218
-0.938234329223633
-0.0652176141738892
0.72039532661438
0.524567246437073
-0.495980739593506
0.76475989818573
0.260247945785522
0.315653920173645
-0.601174354553223
-0.22385847568512
-0.361299276351929
-0.557497382164001
0.731658458709717
0.137506365776062
-0.0249836444854736
0.672325253486633
0.825881958007813
-0.996238350868225
0.429473161697388
0.649286866188049
-0.625998973846436
0.422392725944519
-0.515384912490845
0.0507556200027466
-0.0310888290405273
0.739713072776794
0.726501703262329
0.243552803993225
0.135148525238037
0.507114291191101
-0.874041795730591
0.440202832221985
-0.139860153198242
0.887316107749939
-0.180174589157104
-0.644816756248474
0.625452518463135
0.560616374015808
-0.607790231704712
-0.638825297355652
0.938044548034668
-0.868858933448792
-0.344266653060913
-0.854689002037048
0.361514568328857
-0.96690571308136
-0.067216157913208
0.865429043769836
0.0473518371582031
-0.062991738319397
-0.163235425949097
-0.193681120872498
-0.233813762664795
-0.344006657600403
0.553344488143921
0.53597366809845
-0.560961723327637
-0.448011994361877
0.621708154678345
-0.438160300254822
-0.831430912017822
0.442008852958679
0.215805768966675
0.487066388130188
-0.229669570922852
-0.995599389076233
-0.0743968486785889
-0.333243727684021
-0.195985317230225
0.685086131095886
0.0383317470550537
0.364215016365051
-0.895295143127441
-0.896183609962463
0.319738626480103
-0.592798590660095
0.814124584197998
-0.0395795106887817
0.295336484909058
0.34417736530304
-0.0881118774414063
-0.558944344520569
0.0316536426544189
-0.899442076683044
0.246750354766846
-0.875542759895325
-0.582515954971313
0.134961247444153
0.0678567886352539
-0.611811280250549
-0.0548627376556396
-0.904541373252869
0.0559935569763184
-0.685108304023743
0.99168848991394
-0.0241755247116089
-0.145162582397461
-0.901464104652405
0.600228548049927
0.771786332130432
-0.897794246673584
0.950669169425964
0.761113882064819
-0.362725138664246
0.961306571960449
0.506667494773865
-0.806783437728882
-0.459326148033142
0.151988506317139
0.731984972953796
-0.374825716018677
-0.578929781913757
-0.518009185791016
0.328403830528259
0.576640367507935
-0.155496001243591
0.878193378448486
0.640284419059753
0.639533758163452
-0.839781641960144
0.917866706848145
-0.939184784889221
0.259289026260376
0.156909584999084
0.859921932220459
0.938262820243835
0.0161063671112061
-0.781022906303406
-0.82383918762207
-0.0177780389785767
-0.593798398971558
-0.0172265768051147
0.582525730133057
-0.830134510993958
0.123056173324585
-0.507145762443542
-0.42965030670166
0.152194380760193
-0.161332845687866
0.858228325843811
0.437606334686279
-0.839712262153625
0.484797239303589
0.408607602119446
-0.179840087890625
-0.588447213172913
-0.96577525138855
-0.649342894554138
-0.276984691619873
0.0159748792648315
0.781993627548218
-0.0757550001144409
-0.948431968688965
-0.617632508277893
-0.873336553573608
0.0586925745010376
-0.3571457862854
-0.875377774238586
-0.148440599441528
0.529024243354797
0.79680061340332
0.467958807945251
-0.093977689743042
0.612217545509338
0.307474613189697
-0.844824910163879
0.686658620834351
0.243453145027161
-0.00566577911376953
0.852897047996521
-0.181409597396851
0.672364830970764
-0.26652193069458
-0.942171216011047
-0.563294649124146
-0.380710482597351
-0.0111045837402344
-0.496997475624084
0.966906785964966
0.931517243385315
0.843716144561768
-0.93597137928009
0.407363653182983
0.739541172981262
-0.468539237976074
-0.834654450416565
0.109760522842407
0.113307595252991
0.46729040145874
-0.313530087471008
-0.939452409744263
-87.4827795966991
-0.249480469053779
80.0692838000467
-99.9038778945625
-0.136707319885712
22.2643054797521
201.640648468587
41.0185015570719
-3.96423713149663
7.96459924328526
-3.01305643972033
40.4748240198758
4.79545259560953
70.3481290633779
8.3993029953815
130.231115194176
-127.576623975469
40.7736554942688
6.97242819445215
0.263696250665112
50.1011831974279
-3.84287882805817
-84.1195153675994
35.4408675114883
46.1072730242804
34.8200260184989
-0.980382142346557
34.794284307167
-45.4490187897257
-1.102751550305
49.7740130800332
-69.2505086824657
42.6402226219941
13.1791672051735
87.5999210443897
38.0181183884482
80.3908804915934
2.97316918366865
-25.6817773729915
57.3720862144733
83.1950605213029
20.7685218946414
90.0007959636023
35.9305252182507
-0.41145583047411
60.0037186909813
34.2188965463815
-197.38803949327
35.2928526990676
-57.9665622210397
-7.34321487579955
30.0245301628096
-28.8103238704215
-76.354078147821
18.524096719769
91.3872404117739
-130.047713918199
37.0983617317502
29.2818756353996
23.1764321888389
39.559849632207
80.5142242701931
1.43464550167861
-147.361205403281
55.7675488034205
118.150242321651
25.3335151486712
28.5070814956102
1.82968605134229
18.9065618379156
63.2188482295736
32.2258523298542
-209.665651248323
36.5553117953107
9.19079951511653
57.6818697316637
31.1914363852299
-4.25726504189757
-28.1205432484793
21.2760677252987
109.529346502581
-76.6358601809925
35.4951089286142
-84.188142032226
62.2364733875109
40.1292417903004
101.099177699887
37.8819306433334
-101.813407578882
-52.3959661816393
181.043593850369
54.3741074619907
-30.4151934064313
38.1596150716883
20.0330037376018
-51.9856564486617
34.7098426428665
-174.36721017929
35.4935587638745
17.5862760221707
-45.6848577506092
31.914296506348
64.805308705799
55.040723024099
21.532290826293
-6.46727928201696
-70.892141383463
36.2167802789864
-77.848718424207
79.4909002484012
39.166773355432
110.672241511515
40.5826704782899
-86.272020148148
-51.9534496272471
206.57127024918
55.2736495758281
-88.5503043883023
-5.25212786854011
21.4346688079467
4.94995341109633
56.6481258254505
-116.228251903994
35.6564433226841
-38.1014216136164
-64.6506113242281
31.142046517546
154.287870513153
108.797440687709
20.5868597381539
-135.714330445152
73.3814313616034
38.6152827483876
41.8757256551537
32.2397225521579
39.1353990681793
43.0942789565427
44.912627731643
-259.411015597243
58.5554124818516
-35.3742864737233
-63.1225892448789
-105.619749197134
47.9283504095
19.1086342056777
5.11792687512733
-68.9473796316594
-308.289038650577
36.208302410692
77.4457700650196
-65.5966514935778
0.94340683284909
16.148621979363
43.7159834779108
0.607931928995094
-164.567967439142
53.8785090447088
-0.271823346669108
6.67591679711242
-35.3370822675684
-1.16340604237597
4.46168372006746
59.5228336681899
37.8859605309153
-0.146398269538332
-55.9117687213257
-1.58400489695478
-86.6872300433025
-10.2747889884578
0.177888354057447
-37.4001431094948
-70.4279500302283
-27.5410146829976
0.723494041202983
0.782953663166363
37.7033400058
-0.491110573959318
-53.7933842081376
-38.5137725846303
-1.0724604739859
-49.1599177329586
48.7337704355492
-0.0401911215255982
1.47585004067113
-50.7573824175667
-1.20990953705776
-6.31468891228469
57.3726941235319
21.1207507449111
0.0486166950056774
-79.0002330363202
-0.606603184116657
-30.5166907758331
34.2818897980993
0.837753635351339
-94.7593576960442
-91.1283780168131
-85.0446615931662
0.858044527635721
55.2182387413517
0.808192372322083
-0.969414710998535
-0.447262406349182
0.293287515640259
-0.474382758140564
0.341689586639404
-0.270712018013
-0.0659534931182861
0.592109799385071
-0.3240966796875
0.625572562217712
-0.951584577560425
0.339335083961487
-0.336768627166748
-0.523423314094543
0.556438207626343
0.132161259651184
-0.16593074798584
0.816113829612732
-0.518325567245483
-0.975090384483337
0.650453090667725
0.383075594902039
-0.767550706863403
0.917604565620422
0.0373096466064453
-0.472318291664124
0.383103609085083
0.212223649024963
0.413706302642822
0.117730021476746
-0.0447561740875244
-0.0310524702072144
0.224101066589355
-0.055153489112854
-0.801007986068726
0.562409996986389
-0.0304074287414551
0.630735278129578
-0.125764131546021
0.837947964668274
0.739170074462891
0.0334285497665405
-0.968121290206909
-0.23214852809906
-0.759036540985107
-0.846463322639465
0.295089483261108
0.607613682746887
-0.666506767272949
-0.45950186252594
-0.359447240829468
-0.447819113731384
0.0569205284118652
-0.801170468330383
-0.320281267166138
0.892202496528625
0.164297103881836
0.994375586509705
0.440053224563599
0.670281052589417
-0.847184658050537
-0.439440846443176
0.646287679672241
0.837222218513489
0.795058250427246
0.704631209373474
-0.49833083152771
-0.0917152166366577
-0.829750537872314
-0.686079144477844
0.969210386276245
0.119430661201477
-0.804496765136719
-0.237914681434631
0.552939653396606
-0.916425108909607
-0.342925548553467
0.815359950065613
0.579150915145874
-0.0531643629074097
0.741608619689941
-0.961191773414612
-0.0223462581634521
0.0447841882705688
0.0673918724060059
0.702571749687195
0.563023328781128
0.0586949586868286
-0.784399032592773
0.188120245933533
-0.184149503707886
-0.32820451259613
0.761553287506104
0.894501566886902
0.163991689682007
-0.274483561515808
-0.194043159484863
0.644591689109802
0.763818979263306
0.875741600990295
0.00616025924682617
-0.408655285835266
-0.218529939651489
0.74905788898468
0.107402801513672
0.624042868614197
-0.825901746749878
-0.400994658470154
0.974064350128174
0.274546504020691
-0.0288774967193604
0.462327122688293
-0.879084587097168
0.123544096946716
0.0554773807525635
-0.184780478477478
0.744367122650146
0.706802248954773
0.444863080978394
0.729581952095032
0.253721237182617
-0.0785843133926392
0.0729954242706299
0.529266953468323
-0.697579860687256
-0.06794273853302
-0.929144144058228
0.946330189704895
0.319296836853027
0.57722795009613
0.547941446304321
0.777280449867249
0.539824962615967
-0.724493145942688
0.873514890670776
-0.960670351982117
0.537368774414063
-0.568198800086975
0.457854509353638
0.626642823219299
-0.745566844940186
-0.656403660774231
-0.966495752334595
0.466588139533997
-0.466086387634277
-0.392794251441956
-0.563476324081421
0.175986886024475
0.150346279144287
-0.975978970527649
-0.112262010574341
-0.782636523246765
0.341157913208008
-0.993238091468811
0.773988008499146
0.555195450782776
0.837915897369385
0.485726237297058
-0.0706198215484619
0.812163472175598
-0.602421760559082
-0.684960007667542
0.416536569595337
0.925401329994202
0.833743572235107
0.17890727519989
0.807844877243042
-0.697254061698914
-0.452098846435547
0.997860312461853
-0.0332915782928467
-0.521012663841248
0.560680866241455
-0.164990544319153
0.328796148300171
0.2721186876297
-0.956896781921387
0.302293181419373
-0.316707372665405
0.439586281776428
0.347829341888428
-0.533271908760071
-0.545851945877075
-0.165460467338562
0.540410995483398
0.256658911705017
-0.518671751022339
-0.937919020652771
-0.569459438323975
0.368008494377136
-0.697935342788696
-0.364483714103699
0.103301048278809
-0.329472184181213
-0.0678956508636475
0.632604241371155
0.950416088104248
0.114045977592468
0.146960020065308
-0.14819324016571
0.201499938964844
0.134720206260681
-0.736840009689331
-0.531461119651794
0.955307483673096
-0.438714146614075
0.419498205184937
0.191418766975403
0.710984230041504
-0.978693604469299
0.35828423500061
-0.0814822912216187
-0.600683689117432
-0.152576565742493
-0.29340672492981
0.893610119819641
-0.0860195159912109
0.483606696128845
-0.242483854293823
-0.637576460838318
-0.857205867767334
-0.608595967292786
-0.248590707778931
-0.271111369132996
-0.501034736633301
0.456191420555115
0.657144784927368
-0.788610816001892
0.952342510223389
0.893422961235046
-0.546639680862427
0.999012112617493
-0.439334869384766
-0.345119118690491
-0.0902907848358154
-0.0922025442123413
0.500813007354736
0.334925532341003
-0.131889581680298
0.536988377571106
-0.399943351745605
0.576745390892029
-0.976001501083374
-0.0747188329696655
-0.632692813873291
-0.0213929414749146
-0.792426347732544
0.707075238227844
-0.47563362121582
0.500105261802673
-0.834948301315308
0.768723130226135
0.0371766090393066
-0.631587147712708
-0.160085916519165
-0.595219492912292
0.64707088470459
0.484530806541443
0.154157876968384
-0.025743842124939
0.902022838592529
0.329538226127625
-0.710454225540161
-0.943138003349304
0.687896728515625
0.370842337608337
-0.5311439037323
0.109263062477112
-0.740302562713623
-0.0315715074539185
-0.762867212295532
-0.378672480583191
0.772820472717285
-0.218889832496643
-0.757064580917358
-0.227623343467712
0.31430196762085
-0.327221035957336
0.519589185714722
-0.412565112113953
0.43406867980957
-0.881345391273499
-0.733565092086792
0.593479752540588
0.176187992095947
0.111534953117371
0.130079030990601
0.975691914558411
0.61011791229248
0.568045973777771
-0.0143563747406006
0.233705163002014
0.86195707321167
0.234891772270203
0.218016386032104
0.337856411933899
0.645694732666016
-0.904895424842834
-0.496899366378784
-0.614564299583435
-0.705539226531982
0.27429473400116
-0.910934686660767
-0.243063807487488
-0.708224296569824
-0.553099274635315
0.577594995498657
0.772304177284241
0.30280065536499
0.742439150810242
0.205139875411987
-0.15281093120575
-0.294412612915039
-0.84824526309967
-0.375834226608276
0.149193406105042
-0.377671718597412
-0.566729664802551
-0.815595865249634
0.754122853279114
0.450606346130371
-0.480763077735901
-0.285897970199585
-0.697763800621033
0.894645214080811
0.421983599662781
0.80127215385437
-0.845504641532898
0.496559143066406
0.640167593955994
-0.425057172775269
-0.951184630393982
0.667603015899658
-0.934975743293762
-0.013592004776001
-0.743685603141785
0.219422340393066
0.386617064476013
0.590477228164673
0.237563729286194
-0.604696750640869
-0.99991238117218
0.826725721359253
-0.201162219047546
0.401422500610352
-0.588094353675842
-0.199255704879761
0.748364090919495
0.438097476959229
-0.853881001472473
-0.434610605239868
-0.947426676750183
-0.768963813781738
0.150603652000427
0.902033090591431
0.49234926700592
-0.937412738800049
0.703313708305359
-0.398186922073364
-0.180721163749695
-0.697010040283203
-0.181468605995178
-0.753117322921753
0.411902070045471
-0.558375835418701
0.153117060661316
0.491660833358765
0.431962132453918
0.618260383605957
-0.587240815162659
0.844082117080688
-0.519344687461853
-0.345690250396729
0.258224368095398
0.946846723556519
-0.245118975639343
-0.415925979614258
0.711607336997986
-0.641329526901245
-0.296508193016052
0.685995578765869
-0.937419056892395
-0.164465188980103
0.18354332447052
0.0139074325561523
-0.725353837013245
-0.888063192367554
-0.883455634117126
-0.571716785430908
0.891382098197937
-0.817860841751099
0.644706845283508
0.127487182617188
-0.55730402469635
0.0814201831817627
0.787195801734924
-0.320975780487061
-0.648926854133606
-0.83267617225647
-0.403620600700378
-0.449210166931152
-0.662172913551331
0.900909662246704
-0.1859210729599
-0.857679843902588
0.329349398612976
-0.871997117996216
0.0278187990188599
0.316041946411133
-0.136640191078186
-0.139555692672729
0.327076554298401
0.42852258682251
0.995156168937683
0.557340383529663
0.459532856941223
-0.138279914855957
-0.296135544776917
-0.0936868190765381
0.487321496009827
0.0542330741882324
0.798688769340515
0.104750394821167
-0.0567206144332886
51.5435945548459
0.612263629918229
-105.392042081397
69.8685249529721
0.461695521027263
-20.9060911620029
-122.999573301874
-0.980222529340736
50.045337407834
36.1121170722657
0.739293232115459
-142.505058916787
-1.89395378513207
7.36850627336059
8.24362124054947
-100.060326113464
-101.780279201627
-0.431877021641392
1.28748600224869
0.354576174781724
15.3457594912893
0.185763875642037
143.163897709949
0.286116260570339
10.6059845076078
-31.4597241157975
1.08559476431236
-56.2180813934332
-14.3551883915794
1.44434934353383
27.7130061250422
27.6135102563469
-0.0442363691838543
49.9403352815421
-36.639704533165
0.191964775265923
-145.403332102217
-0.761841934964877
63.9349140417002
7.73230622328769
-239.087080028842
-102.470194614584
42.217477686132
-22.9731311870085
0.0213597054141326
18.0867573372332
30.6494900052305
209.889241045251
0.541340934523055
-6.69549484702401
3.63503341953946
-0.135081834516129
-21.4645946774754
-58.2817522042694
0.314065573342047
75.8151370525181
-42.8678962103522
41.6433316526669
64.1535294671153
52.6949653515568
38.4853666195629
-66.161872587262
2.37032132733994
38.5089803080825
65.6284032152347
-155.723657605302
-82.1879218091835
129.98553038649
13.7201147353209
0.243288341111287
78.1657022159206
64.5815885512762
12.0349731860823
35.8277651534423
-66.187411572649
-38.5331599054841
30.3602737003154
-84.9672903565898
-90.2122756202873
20.1764857046832
118.244109737958
-101.679720319682
37.8474758207115
78.9117774099757
-14.3758061043968
39.0109378520302
-67.1160253372878
1.44221691872637
-82.1354946048361
65.32037363957
-120.862100873619
-75.72974866166
70.9753621755166
-19.3206210151447
19.8487691976724
81.1151218774988
64.5956349032914
-0.893793087097876
35.9333362415677
2.77166887536025
-38.5020883617905
30.2464291864222
-83.6888671664729
-89.4832141359504
20.1713080876101
118.088622081364
-101.825195826464
37.4947177707466
80.212605270808
-12.630950819706
39.7093553963951
-65.6352281656951
2.14667598988573
-83.3144235761266
64.9288158268792
-120.527393255859
-76.3389740540016
69.9933459697289
-21.0704952493442
18.5611604549585
80.4646424415781
64.4619902032411
-1.36260996350931
35.3240398004895
2.52179940953231
26.4514892685912
31.6781493088364
-60.5811289441808
-41.4610806991634
22.6995733245546
136.975575946676
-49.3690768190243
34.4222433756612
-32.340470277219
27.6504319889209
40.1982188183739
-46.0591768089077
38.8721321940098
-36.8555334703867
-43.7047924084555
-57.5133127575684
-46.2919163056544
11.4457177313532
15.4533648737544
20.6521957651366
-34.7728026243833
63.9622821481811
35.6344848034909
34.4236498939008
10.1612138857943
-76.3311341525549
31.2009433403244
9.92490479115627
41.3400204542438
21.6256472518123
21.7013312770387
-44.488302147624
35.3201494481708
-25.7919578668624
43.564213536548
40.8978230420444
-34.8927411291463
38.5539868933157
-22.041182038951
-44.230093637419
-32.1354056649403
-46.2833983045184
-46.4953248186633
-27.6035716432867
19.6784064096698
22.7222759815602
87.422842685959
93.1045602319548
34.3993353369571
-44.8833434339831
-77.1396741391654
31.9921638860931
8.82944139603756
41.6668159130374
22.8990450551188
20.9947853280564
-43.3346066834897
35.6318902042057
-26.6706615802794
43.9057690127367
39.1318236056659
-34.4957437965733
39.4409978252844
-21.0612236239196
-43.7179425153258
-33.1529381327824
-47.4125635963046
-46.6875408573672
-27.9127877849874
20.1386476082095
22.1187740656284
86.7766833946916
92.7880332229445
34.9889310124256
-46.197174405701
-105.166544549544
31.4661638677057
-69.8479507086936
-45.5429288430062
19.6927981421011
-46.3643911246078
-49.6184159887945
36.5837008892264
86.7592654618184
-48.3247323155611
38.5894735000992
-62.3593769460854
60.8828066675435
-45.4207332764582
64.0563851810513
-174.787516316785
-77.3085422053129
-17.1302961695971
-30.5167230510116
18.5604098739268
44.1693015829452
-5.3720035949161
-29.1705629752499
36.6685770469537
2.97095812125981
-1.91246340859532
31.3056080049342
-139.520532934554
-129.354882571716
20.5807760813748
69.3732155235615
-54.3558293301623
36.9053690297447
80.8530558030029
-64.8184982896865
38.8390510715489
-71.7510435580822
59.2597014055698
-60.3105029417654
63.7554508772542
-200.279246108006
-77.9480042200443
39.8708147493312
15.1082993749193
18.8350684558494
-12.99376556174
-28.282455938343
-87.6793907211423
36.2244317593082
57.4250453654305
-36.4949454865499
31.2274953409911
-173.341763190323
-84.5827541552202
19.9973640870249
20.6931777490853
14.7662800994119
-4.67525514635723
65.9818718770578
-152.417724343918
1.80489390765667
-153.416965629876
57.0911113606571
-36.0958455009487
6.20485268558522
-284.064174698005
-97.0607292291957
-48.3709692303997
-21.5184890374155
19.2279762745437
-73.6098467567267
-61.7752646761155
110.123365135081
0.0434712835986148
116.497787658301
-32.1280769581284
-0.080001005569839
-55.9593311931616
-13.1673276642693
1.23843317722829
26.5077565770839
27.948253040847
-0.955447144559219
51.6449148732932
-36.4162851052932
0.760231882275812
-146.573709595121
0.396019059374114
63.7711455118082
9.54416845358858
-238.23433664162
-100.643415010626
41.8321095773826
-21.8519389701354
-0.987480617080375
17.2990693203417
30.70518100903
209.894287174478
0.259845124967999
-7.80193515273385
50.8786828078671
0.792057464604508
-104.986599366706
71.3177241526487
1.61751589074772
-21.3838061774142
-123.03566653689
-0.964227980543128
49.7742092301912
35.0949351989442
0.782538070830059
-142.10989108918
-1.15416429920067
8.87325890931638
8.05700005143204
-100.983372702362
-101.062408966183
-0.931679134220736
1.32546655873673
0.124911849067612
15.8819204371817
-1.46422286828497
143.73836966048
-0.810834747272678
11.5174429998868
0.154566645622253
0.721687078475952
-0.961241602897644
0.907246589660645
0.217675566673279
-0.586292028427124
0.818652749061584
0.499692440032959
-0.856048703193665
0.0240409374237061
-0.679826617240906
0.49757194519043
-0.857011437416077
0.548901796340942
0.679672837257385
0.116827487945557
-0.308039784431458
-0.818228006362915
0.441706776618958
0.34879207611084
0.941867232322693
0.0946485996246338
0.215283989906311
-0.0085606575012207
-0.376211285591125
-0.280705690383911
0.830116391181946
0.180633544921875
-0.544868111610413
-0.47151255607605
-0.00713098049163818
-0.578620433807373
0.0458821058273315
-0.682728052139282
0.443410038948059
-0.880927085876465
0.304852843284607
0.984207391738892
0.611060738563538
-0.3892502784729
0.345935702323914
0.812618970870972
-0.229154467582703
0.69633674621582
-0.105649590492249
0.251847505569458
-0.300258040428162
0.669901371002197
-0.807105183601379
-0.801500558853149
0.832930684089661
-0.14909839630127
0.408194899559021
-0.222303152084351
0.920045495033264
0.61543607711792
-0.463045239448547
0.624327421188354
0.181423306465149
-0.0725059509277344
0.812206625938416
-0.335705518722534
0.964354157447815
0.370205402374268
-0.39043915271759
-0.604233026504517
-0.100668787956238
-0.322909355163574
-0.146544098854065
0.670429468154907
0.556300759315491
0.76331090927124
-0.0765916109085083
0.974732160568237
0.6009122133255
0.256917953491211
-0.93973696231842
-0.788859128952026
-0.549231886863709
-0.469895839691162
0.272442698478699
0.979387044906616
0.431674122810364
0.230452537536621
-0.257801651954651
0.357717752456665
-0.566110968589783
0.312186717987061
0.731859087944031
0.18414568901062
0.0683747529983521
0.567420959472656
-0.00991785526275635
0.837699174880981
-0.676953673362732
-0.342589855194092
0.658102869987488
-0.480327844619751
-0.280978083610535
-0.356200218200684
-0.324015259742737
0.0348742008209229
-0.0331271886825562
0.0198760032653809
-0.31113064289093
-0.927119493484497
0.122873425483704
0.241815567016602
-0.546773552894592
0.989281892776489
-0.754748702049255
0.759935855865479
0.743103861808777
-0.913065195083618
-0.449562907218933
0.549944877624512
-0.243622422218323
-0.602788686752319
-0.93068540096283
-0.855808734893799
-0.978998303413391
0.961249113082886
0.803470730781555
-0.837085723876953
-0.198741555213928
0.611201524734497
0.381445527076721
-0.654506206512451
-0.995991826057434
0.251487493515015
0.214982151985168
0.081700325012207
0.584939360618591
0.640041589736938
0.155276894569397
-0.557054996490479
-0.545181393623352
-0.330435991287231
0.649229168891907
-0.286470413208008
-0.114259362220764
-0.851229429244995
0.395691514015198
0.421896457672119
0.417378306388855
0.0836427211761475
0.50171959400177
-0.128121376037598
-0.736767411231995
0.458677530288696
-0.861177802085876
-0.826050281524658
0.216882586479187
-0.481862306594849
0.699211239814758
0.776473999023438
-0.9417644739151
0.547301530838013
-0.547948241233826
-0.503043651580811
0.459776759147644
0.15371298789978
-0.300288081169128
0.0532922744750977
-0.607180237770081
0.0484316349029541
0.43401300907135
-0.904982089996338
-0.966243863105774
-0.672717332839966
0.49247944355011
-0.265439987182617
-0.829694390296936
-0.747893095016479
0.214588761329651
0.57848596572876
-0.892233967781067
0.532010793685913
-0.401978373527527
-0.741246223449707
-0.924736618995667
-0.895383596420288
0.954911828041077
0.463962078094482
0.132001757621765
0.417311429977417
0.0680962800979614
0.470600128173828
0.573513388633728
0.208499193191528
-0.152634978294373
0.17429780960083
0.837908625602722
-0.211151361465454
0.485711216926575
0.621075630187988
0.912125945091248
-0.17745566368103
0.115581154823303
-0.961405277252197
0.238181948661804
0.6085364818573
-0.034875750541687
-0.632593154907227
0.119421362876892
0.861790895462036
0.014443039894104
-0.7077956199646
0.626767039299011
0.994539022445679
-0.848156809806824
-0.226929664611816
0.00496995449066162
0.897527933120728
-0.16991651058197
-0.923271656036377
0.578859210014343
0.221270322799683
-0.777374148368835
-0.692207336425781
-0.840407967567444
-0.842705488204956
0.879885315895081
-0.559981822967529
-0.0490962266921997
-0.280605554580688
0.885480046272278
0.847550392150879
-0.0446420907974243
-0.475120306015015
0.512481331825256
-0.663824558258057
0.880596041679382
0.0758254528045654
-0.620336413383484
-0.325429916381836
-0.45441210269928
-0.459677457809448
-0.892245650291443
0.625551700592041
0.786881327629089
0.0337274074554443
-0.524315714836121
0.477328300476074
0.86485230922699
-0.600087881088257
-0.923162817955017
-0.925251483917236
-0.630045056343079
-0.507485628128052
0.475299954414368
0.350551605224609
-0.371028542518616
0.95618748664856
-0.137887358665466
-0.643382549285889
-0.388737797737122
0.507850408554077
-0.788481593132019
-0.20478343963623
-0.664984345436096
0.717937707901001
0.937213540077209
0.050260066986084
0.77349841594696
0.291649580001831
-0.951402544975281
-0.281450271606445
0.261305212974548
0.850201845169067
0.80702269077301
0.641027927398682
-0.599391102790833
0.21207594871521
0.882044911384583
0.434027671813965
0.467410445213318
0.174268960952759
0.00767290592193604
0.520522594451904
0.3177889585495
0.793543577194214
0.138618588447571
0.661376953125
0.794151663780212
-0.832321882247925
0.106546998023987
-0.013404369354248
-0.368516087532043
0.716716527938843
-0.223673701286316
0.52657413482666
-0.136400818824768
0.964218378067017
0.702277779579163
-0.756651401519775
-0.270610928535461
-0.181491136550903
-0.715574145317078
0.561845779418945
-0.920926690101624
0.353928804397583
0.424748063087463
-0.598866939544678
0.280449748039246
0.0920846462249756
-0.316574931144714
0.705668449401855
-0.374855637550354
0.783098459243774
-0.0649093389511108
-0.523449420928955
-0.765138745307922
0.686857938766479
0.525081753730774
-0.697231292724609
-0.532367348670959
-0.645733594894409
0.92568838596344
-0.607547283172607
-0.175931096076965
0.908492803573608
0.892403721809387
0.104123115539551
0.35360848903656
-0.173778295516968
-0.879825949668884
0.977941036224365
-0.439231991767883
-0.781096696853638
0.399648785591125
-0.733041763305664
0.811392188072205
-0.385996580123901
-0.726569533348084
0.968367099761963
-0.761096119880676
0.236253499984741
0.192324757575989
0.354750633239746
-0.849445939064026
0.78890061378479
0.171590447425842
0.00533246994018555
-0.0663281679153442
-0.265042543411255
-0.0528105497360229
-0.662773132324219
0.461914420127869
-0.921547651290894
-0.367963194847107
-0.363311290740967
0.00151717662811279
-0.354320764541626
0.87225067615509
-0.409636497497559
-0.382456421852112
0.866447687149048
-0.496597647666931
-0.683462619781494
0.0801352262496948
-0.944667100906372
0.706766247749329
0.896387100219727
0.270761847496033
0.192925691604614
0.66556990146637
-0.594769954681396
0.0884712934494019
-0.792917490005493
0.721243977546692
0.443774223327637
-0.143860459327698
-0.245824575424194
0.0296722650527954
-54.9285903186409
0.31693565081627
-129.134088065389
25.0052953867134
0.350217775696896
-7.89913890830514
-195.398947764867
-0.484183984283053
45.6334730061307
55.2104208745047
-0.572555756640351
-123.54906107478
12.8654719510592
12.1340088124907
5.7894443299385
-201.677381215064
-38.5460400962193
-1.30227614288358
2.00796896749087
1.27675882135376
37.3592160815612
31.1083127505526
63.9497027187581
-0.0364148910903408
27.073525383377
4.33115046303466
-0.397627300939162
-22.5293752703938
-58.4051594489517
1.26253437770148
75.3599894285023
-41.0482297054923
41.9466612396496
64.5815534014797
51.5218554625263
37.2968105444667
-65.3475471354111
2.80637329209977
38.6887394528655
66.2503806636982
-153.94835459913
-81.8125368823875
129.880493770164
14.5968700921095
1.05308574730788
78.0411195676433
64.1659077851705
11.2753016172117
35.2519214616165
-65.2703053018589
-38.7282043037918
30.9015836530513
-85.334750488235
-90.2543044050392
19.8607995980014
118.141485440816
-103.097799576693
37.9045700370583
79.456925424998
-14.5355421416512
40.1880219403557
-66.1159055319518
2.97274129178087
-82.6947190911871
64.0260012001853
-119.437845860153
-76.5009267879951
70.4091358123345
-19.857659699036
18.7920385696588
80.4138538006022
63.938819016794
-1.51648507604287
36.2058311537152
2.86592730298018
-39.8950931368378
30.8811319881266
-84.3350410012736
-89.1934963424857
19.8735658400286
118.392615425671
-102.344475664073
37.9994566976341
79.4826902479579
-13.6691110245934
39.1325518313698
-66.7059649315566
1.38732867028276
-81.9967087657552
64.4816528410775
-119.578848634392
-76.3807749105919
70.8322495160622
-21.1027088180317
19.3293099500833
81.7706675890162
62.8374938624897
-0.744858245941871
36.3629965618497
2.3532933832643
27.2369145739577
31.1071517130494
-60.0989711177571
-41.5900492956218
22.2589644654924
137.404946469175
-49.8548202224591
35.0973690937779
-32.8945339550068
27.5236825925968
40.0702882964089
-44.5258491102001
37.9485406994496
-38.4889337913935
-43.4670670313727
-56.6140621310044
-46.7019484587839
10.4376550110545
17.3170305737132
20.1677660480727
-35.5142156216292
65.3956275852307
35.8321291564038
33.9626748429746
10.2732650151354
-76.2296654702658
31.7086710825195
9.59032019738339
41.9029783371249
21.8841612984813
21.2086260510941
-44.2336972119779
35.3518668677952
-25.6487068054229
42.544250391292
39.353342360625
-35.3211887333257
39.6499986511663
-22.6362241484404
-42.8989468011382
-31.6419076972202
-46.599707637366
-46.913950531058
-26.6200333732901
20.6698082012423
22.5470208021549
87.6767576382371
92.7833671329329
35.1662593605854
-45.9691496845553
-77.4021528483863
30.9642923965683
10.4839787161745
41.6154353979388
22.4414922644771
21.8275267077943
-43.0880798461408
35.2830567624714
-26.671402466014
42.6747153027528
39.6498138371799
-35.8992017958029
39.3248337370352
-22.1081171013594
-43.2661048564437
-31.8169227891163
-47.3701945882404
-47.3408929987475
-27.248996009284
20.6610662264117
21.1351363750843
87.6017419741365
93.8154209611723
36.0240773680546
-45.5295421835254
-39.267962217548
31.2203405884018
-45.9299943906219
2.96578663456688
21.2596082723103
-27.8379449859646
4.90384533927866
36.6089421103672
-25.7253846692622
-8.08334255464862
39.9524664558457
-41.418165362476
96.8001357068274
-0.149522223071441
-42.9280042565994
-112.72963713342
-47.117245746562
-75.6875448360585
8.01671124696803
20.930583987587
-73.5791438778369
-5.06795851238785
8.85301651960964
34.6255005349115
9.47812967950725
-105.367449872573
30.3027665555414
-69.5594189284507
-47.3035437149851
21.1597013517874
-45.8202765349167
-48.585232414118
36.9875681339469
86.537409821407
-49.1284036755769
38.9082024238968
-61.5387082487282
60.590234169222
-45.5513165627436
64.9730373836577
-175.612179955853
-77.1104301943571
-17.3969954837145
-29.1995352649093
18.55757698437
43.8316088453659
-5.82035116342807
-27.941242925964
36.8277848678461
2.45183075233281
-2.73056958306427
30.3863913720912
-139.142277567275
-129.851465079803
19.6559728243862
68.891277638277
-53.6409727055591
36.4536702496849
80.6295388619323
-63.9121076227249
38.9123595394139
-72.8484103679272
58.6841260538547
-61.4807495428701
65.4571086493186
-200.456973330448
-76.6965608339664
41.4616994348476
13.8000007871202
19.8668978129966
-13.9100544144317
-28.571187036518
-86.2004044578672
35.4490940632327
58.2661951724068
-1.66382394421692
30.3676730102366
-138.755678145774
-129.627596352119
19.7083656647717
69.9371020468083
-54.5124547202151
36.6451426608406
80.1990425269027
-63.6773813129486
39.2534686960225
-72.6326020955655
59.194294010207
-61.1090317322393
64.5102901783637
-199.746522800396
-77.5628977756854
39.6406663146922
14.3982319835237
19.0418087159736
-13.4686005999252
-28.4191080503501
-87.2109627054334
36.5187326731189
57.8183877411858
-73.7459056696188
31.4255155714751
-119.351274647354
-44.2288138097408
21.014859660994
69.2563557130622
-32.8823869435362
-4.89004578104196
65.5299625187978
-101.374169536367
1.59228364166725
-147.757728730607
0.213788221202745
-57.6547733546243
6.3369404650287
-204.319593850939
-96.2865725010344
-18.4237493369825
-55.3815547588624
19.3874967995775
20.1564299656921
29.9711124175408
195.407741708373
1.07012586217933
61.0739001370801
50.6918384589596
-0.140085269923079
-104.212143819373
70.5602754794003
0.692108004242594
-21.5143207991489
-124.423907827936
0.0398513613452981
49.7439047982759
35.74004771344
0.68460287109251
-143.828292521218
-2.46233890933861
7.6879194584802
8.44260824769059
-101.128966822388
-102.159318012357
0.460122223048551
0.34683983067887
0.970460001991196
15.1162720721609
-0.980266054472709
143.225464062793
-0.589012485462376
10.3026598082059
0.946865439414978
0.400943040847778
-0.667466521263123
-0.46870756149292
-0.670575261116028
0.626800298690796
-0.965643763542175
-0.212359428405762
0.974931120872498
0.94662880897522
0.805827736854553
0.780354976654053
-0.424598813056946
0.90937876701355
0.125097393989563
-0.300012588500977
0.684179663658142
0.480015993118286
-0.777732253074646
-0.51876974105835
0.622189402580261
-0.679228067398071
-0.764355540275574
0.334166526794434
-0.115818619728088
0.572393655776978
0.86798632144928
-0.224480152130127
-0.955015301704407
-0.864606142044067
-0.457244753837585
-0.840095520019531
-0.834243416786194
0.451300859451294
-0.939633727073669
0.711075305938721
0.70023238658905
-0.216091394424438
-0.245562434196472
-0.946822166442871
0.900975584983826
0.000526666641235352
-0.851959586143494
-0.758001804351807
-0.274372220039368
-0.146769762039185
-0.890050768852234
-0.703786849975586
0.24315869808197
0.760110139846802
-0.489108443260193
-0.771359920501709
-0.459883809089661
0.0865228176116943
0.379798054695129
0.577486991882324
0.12687623500824
0.926340341567993
0.560052514076233
0.437602519989014
-0.156107068061829
0.383200407028198
0.865741848945618
-0.00827407836914063
0.267948508262634
0.35175633430481
-0.262093901634216
-0.458262920379639
-0.381596684455872
0.798927068710327
-0.599211573600769
0.0399065017700195
0.163445830345154
-0.454852819442749
0.518085122108459
-0.879854679107666
0.12634265422821
0.545616865158081
-0.650804400444031
-0.370744705200195
0.0916885137557983
0.671551942825317
-0.59452760219574
0.658178806304932
-0.0883437395095825
0.99143385887146
-0.393528819084167
-0.926751136779785
0.112246870994568
0.552259683609009
0.936200737953186
-0.452560901641846
-0.20046055316925
0.660792112350464
-0.400627017021179
-0.90838623046875
-0.934058785438538
-0.335190534591675
0.677652955055237
0.085777759552002
-0.103562474250793
0.234355688095093
0.285908818244934
-0.18967342376709
-0.425158143043518
-0.857009649276733
0.228461861610413
0.477296352386475
0.590045809745789
-0.450961351394653
-0.844663500785828
-0.238386154174805
-0.957730889320374
-0.223158597946167
0.218510270118713
-0.167653560638428
-0.450690388679504
0.598005056381226
-0.771836161613464
0.883952140808105
0.652793288230896
-0.987348318099976
-0.691069006919861
-0.832470417022705
0.724424242973328
0.530668973922729
0.0561486482620239
-0.477931976318359
0.372234702110291
-0.0470397472381592
-0.80789315700531
0.405697345733643
-0.653164982795715
0.652694463729858
0.722298741340637
-0.573061943054199
-0.0523363351821899
0.356556177139282
-0.408329367637634
-0.624048709869385
0.929237246513367
-0.574004411697388
0.840871930122375
0.755788803100586
-0.0925995111465454
-0.361521482467651
-0.737494826316834
0.813642978668213
0.265576243400574
-0.531263589859009
-0.442623972892761
-0.927903175354004
0.561015486717224
-0.12998366355896
0.990743279457092
-0.639626026153564
0.431047320365906
0.555330991744995
0.548568844795227
0.345588684082031
0.999328970909119
0.778708696365356
0.593767762184143
0.563995838165283
-0.217904210090637
0.616443395614624
-0.97754180431366
-0.0477590560913086
0.0944112539291382
0.748344659805298
-0.0797885656356812
-0.121389865875244
0.956416964530945
0.738987684249878
0.718301892280579
-0.325719833374023
-0.500417351722717
-0.181036710739136
-0.15004289150238
-0.335431575775146
-0.127043843269348
0.166127920150757
0.906607747077942
0.700182914733887
0.649413466453552
0.686853647232056
-0.705862402915955
0.188472270965576
0.731908679008484
-0.702721834182739
-0.61086642742157
0.624675750732422
-0.240275979042053
-0.295445203781128
0.195135712623596
0.623173236846924
-0.985280156135559
0.68810248374939
-0.501112818717957
0.448735237121582
0.827584624290466
-0.119144201278687
0.526584267616272
0.0477728843688965
0.484084963798523
0.0505149364471436
-0.899873614311218
-0.420412063598633
0.631315588951111
-0.11920428276062
-0.706633925437927
0.447622776031494
0.18394935131073
-0.747320413589478
-0.411641001701355
0.830710411071777
-0.26951277256012
-0.974336385726929
-0.468386054039001
-0.285675525665283
-0.560491681098938
-0.680989503860474
0.890342831611633
-0.578170776367188
-0.534080147743225
0.292998552322388
-0.691289305686951
0.645729541778564
0.857207179069519
-0.569828271865845
0.464085698127747
-0.0210790634155273
0.959683775901794
-0.683410406112671
0.723289132118225
-0.0540604591369629
-0.675258755683899
-0.0769226551055908
0.298845410346985
-0.465787887573242
0.115099310874939
-0.613524198532104
0.905232071876526
-0.774693965911865
-0.988944172859192
-0.709108591079712
-0.0848702192306519
0.526179313659668
0.616736769676209
0.448946237564087
-0.984327673912048
0.000430583953857422
0.36634624004364
-0.816972017288208
-0.635303378105164
-0.200450897216797
0.930416464805603
0.106539964675903
-0.753007292747498
0.694164752960205
-0.877942204475403
-0.594848871231079
0.23055374622345
-0.394701957702637
-0.696791291236877
0.618046045303345
-0.177173972129822
-0.364389896392822
-0.709114193916321
0.919174909591675
0.626958966255188
0.600652694702148
0.763433814048767
-0.101496458053589
-0.001944899559021
0.0601181983947754
0.166775584220886
0.843263387680054
0.199420094490051
0.849089622497559
0.120662093162537
0.519201517105103
-0.941187262535095
-0.890709400177002
-0.675077557563782
-0.548169374465942
-0.87530505657196
0.820335388183594
0.965713858604431
0.707679033279419
-0.677518248558044
0.830978870391846
-0.378228306770325
-0.824459314346313
-0.889208674430847
0.390366554260254
0.670659422874451
-0.65227484703064
-0.862305045127869
-0.820715427398682
0.195018649101257
-0.39869236946106
0.396967053413391
-0.158590316772461
-0.611180901527405
0.979378938674927
-0.115664839744568
-0.985440731048584
-0.536391377449036
0.472295522689819
0.753729939460754
0.861941337585449
-0.945236802101135
0.798929452896118
0.973535180091858
-0.896595478057861
0.127736926078796
0.687918424606323
0.482837796211243
-0.453311920166016
0.384312033653259
-0.341084241867065
0.847677826881409
-0.881328105926514
0.168848872184753
-0.696159601211548
-0.582701563835144
-0.603373527526855
-0.125464081764221
-0.931873083114624
-0.0196040868759155
0.639462947845459
-0.150360226631165
0.531975507736206
-0.0786303281784058
0.31898307800293
0.803755164146423
0.191601991653442
-0.123427748680115
0.151129245758057
0.714054942131042
0.740487813949585
-0.109440684318542
-0.37276554107666
0.231540083885193
0.850630044937134
0.072339653968811
0.0452723503112793
0.587289690971375
-0.546208620071411
-0.248374819755554
-0.958892822265625
-0.0012890100479126
0.52275013923645
-0.864919066429138
-0.380256175994873
0.575789332389832
0.352550268173218
-0.537424921989441
-0.313422203063965
-0.272661805152893
-0.658248662948608
-0.336571097373962
0.0786452293395996
0.0672491788864136
0.273678541183472
-0.487333178520203
-0.90412712097168
-0.179257988929749
-0.902327299118042
-0.712733626365662
-0.467671871185303
-0.269385457038879
0.210340261459351
-0.0775917768478394
-97.1410082546335
0.226459457072169
-85.219803455735
-242.787749853439
-0.855865816158739
84.5339220715923
51.7928991725421
41.2533363144013
-8.85960820795154
-36.1683390290054
-2.31965806388916
80.7204400225878
21.7552168536974
221.633559469575
6.87288690217134
228.114882329229
-39.5111602162929
88.2290263406257
-48.9959053754377
0.0318811258154524
69.3916894401593
28.3477344382947
-14.2766633173287
34.8055322570426
-21.4840064385597
-48.5692656288291
-0.991710202898713
82.3499569549698
-129.601071138793
0.0145286607513694
96.9404030764288
80.8671811227034
41.6229369163063
15.2523400514158
17.3584963963563
36.8048334344063
76.8947736727408
3.6858913091044
30.7814714445424
57.2542324246285
-53.264030201326
19.1314762784367
131.223963156117
12.7512049497699
-0.396766187170802
62.9256075739125
64.466121440008
-130.991708075083
35.4706599993631
-75.8424300796999
-90.726877460475
31.2682875705497
19.6641744037543
-160.814853469759
19.724284130685
139.33469396484
21.1374297482064
37.1467808486027
29.8537347952709
-49.1484537438317
38.8591555633275
77.1937237021034
2.98041215607554
-90.9766800163801
55.1246348367263
-19.94997646418
24.7687795033222
70.5665414318076
-21.5181804169372
18.9058939868647
66.2497978768178
64.4569300867926
-143.653983888821
35.686427677912
-8.44294330921127
-122.196090908355
29.9626418368006
184.97005536783
-14.1088049018968
20.3956804578894
109.651826809996
151.44081062693
34.5815981499903
-81.9073448745515
58.1734447399031
40.0857271861719
75.6139611002654
37.3911045367512
-193.680403787116
-51.1757904456003
-153.343206740329
29.4500498909534
-37.0660836923876
73.4359221131425
19.4104141013548
-48.1194518855866
64.3573046081779
-256.655022574759
34.6070376319743
82.05089466175
23.431975253463
30.4176849454613
-39.5229510405013
17.454068607462
21.2528567797998
61.1407514799896
-6.9292167023841
-6.34070430865257
-98.4139980324892
-26.0630186703292
0.8637293169218
18.9987815174903
36.7773830474181
-77.1977378366203
-110.554020222956
97.1692896452504
35.639738790387
-119.247734875367
3.04716455665412
20.5317015753315
-112.490518833567
0.472610873287054
24.2761145770413
-1.15600782622252
76.2805349003914
-38.237417120072
-0.149877420957471
93.4254440491136
131.277706893584
2.18243719906087
-96.2111490654342
57.7371416103209
-2.27635088292432
-106.736118480345
56.6355201339944
-0.359688258166869
30.4532011383402
36.8364101055862
60.9372000866751
-107.994572902141
87.315321951042
29.2965212078956
-118.109372101411
-6.46739696298084
0.694461864669157
-60.0367961198614
23.1674679307159
95.887325124625
-1.42019239192286
-48.953628957064
0.00701587755692437
0.343314764253743
40.0964256809338
91.4840337581116
1.60010679194661
-145.677722920601
106.639697498713
-0.704330300195763
-105.962588419341
6.19717157758793
-0.922901823735678
24.7520509681209
94.6976273547666
81.7199827205481
-108.574836350301
7.99510209450092
27.7597795550366
-146.55033136136
26.9713692799351
0.274392509603015
-154.671084555308
-68.2758994144817
10.3469954778319
-0.888216265623809
7.17205199639247
-107.688812418057
0.620162168719597
14.809118194676
46.1177947533386
2.28903919809788
-132.57114662916
35.3138874459294
-2.17129455607954
-110.383515707283
25.3918779057287
-1.85659999175937
43.9465211526186
108.497861649422
86.4693828264735
-109.424675687861
-91.7280565465656
91.0666017397818
-148.526297103429
28.547004256095
1.39076267810956
-133.644121194902
-36.8070788577855
-68.3913905352784
0.392953578160763
23.6101060967634
72.7750790617894
-0.731232711308622
-21.3410579469301
-83.583363822133
-0.259135602553234
0.44280816808146
-20.8686836471546
42.7433078342774
15.5778871665753
36.255851419601
37.3875221295887
73.8705160965587
60.4811160213575
-3.78144424683196
58.3909535160159
4.84710173596682
19.1310370672295
59.038946110125
70.5263235933153
-0.460702636673979
-35.1437942270018
-57.8575268433947
-283.386012529765
34.8931935647847
-2.00727919677495
29.6952617819933
31.5116900003417
-82.1245410940008
-116.557267021781
18.390650442179
42.5380034258477
-81.7641364109644
37.453220778262
29.0541803441158
-28.6751104278932
39.6118285991776
74.4656654476682
59.9685818718382
-125.863059624533
55.9656343971994
38.3466599096055
23.8168074513862
-0.0788184982480171
37.0827910975495
19.529926268288
-31.8800921481262
-58.1955074307715
-296.03115892227
35.4652878233813
64.6000833023208
82.1489762280057
30.3808143632921
-187.25880727265
-44.4321247611456
20.7326783139372
20.9053817119343
-205.837498236513
37.0695236796006
80.4244812023815
6.48351638710934
39.1374116424274
-69.0607006991142
57.8658824879131
-116.185295367011
64.7224374433596
-62.9610595735335
-76.8577284612462
-0.553595605338605
36.6660073329906
20.6112411343997
-15.8163175821071
-59.9934629040369
-153.937061470002
35.6386990916574
76.7505194042812
43.3951917384489
31.2030301694903
-132.988073425573
-6.87741642173936
20.5233581873753
70.522541933754
-254.26871752174
36.564206178003
79.25870322611
56.9250247049446
39.4618978768347
-62.7056243947856
0.479654414529328
-138.453348262649
64.1894198799379
17.6562787083768
-74.83416825637
28.5423865141834
1.16573696447966
18.7551295068761
79.2785938792342
32.4217951291032
-68.1236831839123
35.9714149380908
21.2292488607521
51.6273467101498
-0.0252233047436361
-105.820889871161
70.6789941035153
1.95851072564762
-20.681204744614
-123.320228647791
-0.580268210340492
49.0315096070833
35.0954950057679
0.463475837858867
-143.200555952767
-2.7386150209414
9.19594701203854
7.38092793076554
-100.831132902863
-100.891198677182
-0.329099063725133
1.16909353474992
0.639929358528061
15.1991725963003
-1.00289340814092
142.115123467548
-0.223322730976293
11.6015866384977
-0.637903332710266
-0.280785799026489
-0.81417453289032
0.0471000671386719
-0.945048928260803
-0.868626356124878
-0.0228208303451538
-0.910457134246826
0.178110957145691
-0.48957085609436
0.0944072008132935
-0.525324821472168
-0.687735199928284
-0.260684728622437
-0.986294150352478
0.398908138275146
-0.00682079792022705
-0.164267778396606
0.806974530220032
-0.728456497192383
-0.882051110267639
-0.26660418510437
-0.201934218406677
0.746023654937744
-0.14875328540802
0.563287496566772
0.719035267829895
0.251181602478027
-0.96842634677887
0.434904336929321
-0.633608222007751
0.0224909782409668
-0.922491192817688
0.717509031295776
-0.242652773857117
-0.366683959960938
0.393959403038025
0.821379899978638
-0.213933348655701
-0.973838329315186
0.278410792350769
-0.520939111709595
-0.620081782341003
0.0439233779907227
0.327176451683044
0.526611566543579
-0.844276785850525
0.461137294769287
0.341647982597351
-0.815142869949341
-0.423993945121765
0.515230178833008
0.734545111656189
0.840638399124146
0.605244278907776
-0.0622305870056152
-0.563834309577942
0.328061819076538
-0.133881449699402
-0.514286994934082
-0.699364304542542
-0.290250539779663
-0.704237341880798
0.972659587860107
0.0121592283248901
0.558089017868042
0.302013516426086
-0.199901580810547
0.491268515586853
0.736483812332153
-0.580338835716248
-0.0113406181335449
-0.198926091194153
-0.319397211074829
0.4666987657547
-0.290637016296387
0.553513884544373
0.179630517959595
-0.799427390098572
-0.685129642486572
0.815605044364929
0.657517194747925
0.474432110786438
-0.129266738891602
0.515692114830017
-0.0457713603973389
-0.106620192527771
0.186644077301025
0.349697947502136
0.606996297836304
-0.0292786359786987
0.347685813903809
-0.812626481056213
0.631567239761353
0.784215569496155
-0.254417896270752
-0.0214520692825317
-0.196545839309692
-0.86767566204071
-0.390052795410156
0.159378409385681
0.439185380935669
0.190462708473206
0.0395359992980957
0.558600306510925
0.677554845809937
-0.332751154899597
-0.466506004333496
0.803777098655701
0.26087212562561
0.460754036903381
-0.977392673492432
-0.772449612617493
0.81621241569519
-0.185247302055359
0.400552749633789
-0.726110100746155
0.636666536331177
0.974972367286682
-0.444852352142334
0.404343485832214
-0.0374090671539307
-0.654656291007996
-0.100399971008301
-0.495712876319885
0.762857675552368
-0.855749487876892
0.403758525848389
0.789174914360046
-0.983895540237427
0.560779690742493
0.125362396240234
0.210789084434509
-0.508015394210815
-0.589028716087341
-0.758708477020264
0.363489985466003
-0.967582941055298
-0.705931544303894
0.578816413879395
-0.109533905982971
0.332836389541626
0.248767495155334
-0.353151798248291
-0.610015988349915
0.223442792892456
-0.0905321836471558
-0.83281135559082
-0.178361535072327
0.450452089309692
-0.837478041648865
0.105780124664307
-0.587397694587708
0.957345724105835
0.302485585212708
-0.79604434967041
-0.936123490333557
-0.333879232406616
-0.311632513999939
-0.990311145782471
0.256540179252625
0.758539915084839
0.899879574775696
0.408843994140625
-0.541999459266663
-0.5426185131073
0.393686890602112
-0.343574047088623
-0.971757054328918
-0.692310571670532
-0.340342402458191
-0.0921697616577148
0.626080870628357
-0.0419766902923584
-0.122887015342712
-0.74990701675415
-0.884594082832336
-0.558291673660278
-0.928922533988953
-0.76685905456543
0.971437811851501
0.958085298538208
-0.231471419334412
-0.0989584922790527
-0.813025593757629
0.153760671615601
-0.845353007316589
-0.67674732208252
0.678641676902771
0.903856515884399
-0.270933508872986
-0.37412691116333
0.193143725395203
-0.406739473342896
0.462123990058899
-0.477108001708984
0.713512778282166
-0.102123975753784
0.451109528541565
-0.652560710906982
0.36535918712616
0.0658719539642334
-0.923483729362488
0.583035469055176
-0.176878571510315
0.698932886123657
0.658290505409241
-0.10515832901001
0.216316103935242
-0.966490983963013
-0.38791835308075
-0.339090347290039
-0.46421205997467
-0.277933835983276
0.105492234230042
-0.996568202972412
-0.460040211677551
0.114335775375366
0.214327931404114
-0.680008888244629
-0.838917374610901
0.038564920425415
0.578847527503967
0.314811229705811
0.411485552787781
0.0827662944793701
-0.439987063407898
0.530006408691406
0.789825797080994
0.375968217849731
0.895739197731018
0.376831531524658
0.187338709831238
-0.130535364151001
-0.142855525016785
-0.333067893981934
0.294087767601013
0.118065118789673
-0.0951999425888062
-0.356405735015869
0.50521457195282
-0.438655138015747
-0.155019640922546
-0.487005233764648
0.327188849449158
0.304894685745239
-0.514087080955505
-0.524549007415771
0.284058451652527
-0.598428964614868
-0.205971598625183
0.256670951843262
-0.676300644874573
0.632745981216431
-0.44978940486908
-0.860996723175049
0.724065661430359
0.789557218551636
0.506046414375305
0.492687225341797
0.499439597129822
0.454158067703247
-0.959924101829529
0.807102680206299
0.306681513786316
-0.719032526016235
0.314042210578918
0.222020149230957
0.851479887962341
-0.222079992294312
0.929141640663147
0.558850765228271
-0.205398678779602
-0.412284135818481
0.0822736024856567
-0.148103713989258
0.158140540122986
0.269070863723755
-0.777709364891052
-0.620400905609131
-0.768229603767395
0.577966451644897
0.20624840259552
-0.804207801818848
-0.0210081338882446
0.248899698257446
-0.0443443059921265
0.160949230194092
0.943384051322937
0.276133298873901
-0.387275576591492
0.473434448242188
0.65485417842865
-0.305054426193237
0.196619629859924
0.700752735137939
0.535887598991394
0.86288046836853
0.759709477424622
-0.689200401306152
0.307797789573669
-0.759002447128296
-0.9561847448349
0.703111171722412
-0.103023648262024
-0.324877977371216
0.63646137714386
-0.259885787963867
-0.158856987953186
-0.822905302047729
0.627125382423401
0.77837610244751
0.195595622062683
0.206022024154663
-0.236512064933777
-0.800145149230957
-0.0605398416519165
0.449526071548462
-0.892317175865173
-0.556850910186768
0.881940722465515
-0.895005464553833
-0.807453036308289
-0.465251922607422
0.068569540977478
-0.339169263839722
-0.322129607200623
0.12028169631958
0.687456965446472
-0.822296380996704
-0.493353724479675
-0.00422954559326172
-0.524458527565002
0.0697977542877197
-0.438679099082947
0.138875484466553
0.624839663505554
0.38606333732605
-0.179956316947937
0.240148544311523
0.188696265220642
0.591466188430786
-0.987082839012146
-0.26571798324585
0.988034129142761
0.848237752914429
0.778246998786926
-0.668641090393066
0.0176042318344116
0.797125101089478
-106.290210343267
-1.14878447629434
-24.2490970942596
-46.2548337513629
-0.938411963737042
13.6279759086355
-72.173127748401
-0.0656739583755426
-4.31782913387338
19.224485404717
0.0947246644653189
20.2659021789358
15.5008175141835
2.66299351737108
-3.00166810342867
-100.024546070304
62.3665863315502
0.637916918796878
1.4894423682802
0.618562546550679
21.1745232416161
31.8237105455955
-78.5607841988403
0.0315297366297259
15.2224590934283
35.7097979568229
-0.781045613568481
33.0903176895828
-45.519247843223
0.154322328936938
48.3636312860574
-68.6018828317882
42.9419036637116
13.0314482987709
87.2711051073474
36.8204841683249
80.0360292457133
1.38098464005903
-25.4350088984126
57.7211362594868
84.3798439800126
20.0183707372623
89.3386517794898
36.1547507393384
-0.29751129998705
60.8020218182701
33.9035770082651
-197.180850410171
34.3875940435195
-58.8997120356454
-91.3185144758177
30.3963480306403
19.8455447812949
-160.930619875818
19.4115491691753
138.378001388432
21.3171998602441
37.8033933640522
28.9211286942349
-49.337329776661
40.0108666696278
77.1083413597649
3.75230625340372
-90.7146035193021
56.230128978305
-19.8166297873535
24.6442521681552
70.2385853513709
-20.8046979178146
18.7016037160593
65.6791970095464
63.8441477276695
-145.216881928638
35.703857148928
-7.85643777694656
-24.7852187324905
31.6030739704678
44.5857850825971
-112.178551269811
21.3676846797098
158.628317089224
75.2423153924948
36.1466833007844
-82.8475015679952
-8.00449766917558
39.6310267262808
96.9335692187802
39.3010337320945
-46.9379295810123
-51.2196237234296
44.7342630163881
55.3157362814015
10.6130881745492
15.0665385518723
18.909201392723
-49.8840093746218
64.7499462834795
-107.220974963
34.6610345526725
-1.85173695043435
23.3849749644997
31.0104680389137
-38.0316470005462
17.2961965266591
20.4033529050211
60.7836234558884
-6.51591368476783
-7.48137019743888
-97.6647298583178
-25.1676347162811
1.37301202508983
20.0096296820487
35.7537496865554
-77.0285711524696
-109.731320080095
98.8355886307317
33.8626435917557
-120.45685455291
2.92073940959754
20.2973295555637
-112.321460391451
0.692608398502202
24.0596034467084
0.288081228838821
75.1896007430199
-37.5636136713949
0.25070930332384
95.0826926653322
131.353934677741
1.93483294815297
-96.786573617398
57.5431271802749
-2.30844333497357
-105.672433897635
57.1672447061761
-0.998196935649475
31.1237320536005
37.6848027113677
60.437066214643
-108.504303121982
88.4999081183775
29.9015761824516
-117.775977454767
-7.78825961385212
1.24408595009549
-58.3217767745779
22.5557350901779
96.2475480603016
-0.450934441140083
-48.8861830828498
-37.6131786290136
0.439809449617481
93.7691764061388
131.408130916259
1.80630184978719
-95.6281531738631
59.1243844043579
-2.34677067128491
-105.298784896513
56.1452967262491
-0.854350066180788
31.3331826561319
37.5084772709609
60.4849634343009
-107.829757476268
87.8965592671736
29.8257584782508
-117.015931568727
-6.29117559228382
1.29616884632809
-59.7330303460882
23.4295104531463
95.0811780260838
-1.44169250254908
-48.0693044064353
-1.60543043057905
1.5590716574117
38.81390109521
91.7373692340333
1.12281520793172
-145.593992699806
105.932940430079
-1.71735987554367
-106.023597349548
5.18049133695682
-0.773740008092367
24.507202239941
94.3242633830563
83.6638051044287
-107.377494908193
8.81665198692652
27.5544072215099
-147.21204639203
28.2900104656956
1.81798067107152
-154.300384195963
-68.8923950237652
10.2096658994322
-1.01577831167484
8.67339047829553
102.101313178326
0.926270578270532
-31.0991720440423
8.61856793299741
1.01629680168535
-29.1277798275764
100.774356854031
-2.42612634348487
-110.956667245485
-10.8782017383039
-0.892857695736803
14.4120510927268
93.2403226642345
66.8704089971659
-108.109151448623
-15.9581064068947
27.4896169520788
-91.1117085215026
71.147625474329
1.80404119238617
-209.825196221325
-92.0349955376632
-48.6505688975466
-0.262147758561189
64.1034861376881
37.6870862960069
0.222445477294954
-55.1784371275254
-38.8754595295918
0.313137470273744
-48.4683228938625
48.863819902636
0.705158524089026
0.583306963202261
-50.3602707632851
-0.809691765527607
-6.54000043000014
57.8726032860532
21.899099429222
-0.370657873552062
-79.739723783772
-1.64618758238631
-29.8737676591491
34.5306106824224
-0.690879720743022
-95.0760455183861
-91.7205508779124
-85.8914340254935
1.01823487149253
56.6280485691562
124.685842877614
0.519673229705799
-124.87945792227
-13.4694529839221
0.787484973977875
-20.3162869726507
-145.524539254746
40.9928342692463
65.3912908614498
72.0568494122767
38.0709525773185
-69.3842750761637
57.3283401527522
4.75260415223058
66.4607400750548
-97.0450760983075
-82.8536003544973
58.6849032178171
70.1760481219083
0.134954537482135
-19.7646481476157
-58.1767921692602
-139.002399582198
35.0213005346599
8.80934323788818
80.980339429147
31.6010802286181
-188.562671274877
-46.0913335357123
19.9227069813872
20.1980886783345
-204.803998041963
36.7341598147019
78.6351626408275
5.73770254052118
39.2161617759418
-69.3208768809074
58.2181883770427
-116.45754506565
64.6851826330262
-62.7872834237838
-76.0650920667455
-1.37339932009078
35.9511020709972
19.7789061391299
-14.8881602525478
-60.5713919239649
-153.322903316468
36.6551113498056
76.6246224735866
44.5028629992826
31.190074980739
-133.379383640569
-6.91295843300035
19.7584021899083
68.9321560199051
-254.341798061443
36.8161626408631
77.9046893062797
58.2815000581856
41.0091710358618
-62.6975415281169
0.00569878327322338
-138.182360275131
64.3290926361329
17.8793502835416
-75.9296525131143
28.6076478781665
2.1335270912802
19.8610364702245
79.433040957939
33.0419499867387
-67.7346360380687
35.5557383443103
19.7218841108437
-42.3024195279882
29.7618879559435
-62.3838737005454
-30.6572663988819
19.9134608999644
41.2983955980373
-60.4777478239676
-3.74013907894948
15.6772415351226
-65.9512031080224
2.04719949307979
-1.77505676652056
-0.937353976599106
-121.565860677994
-1.68648819478241
34.3097610106291
5.43505572446587
-59.7703215045827
-33.7617785027315
18.1580976912016
3.88308410268685
0.0734888721568187
-13.6784206854498
-0.0465044409731822
66.878404011585
-0.981209397315979
-0.804090261459351
0.915406823158264
-0.12064790725708
-0.00479328632354736
0.499571561813354
0.805690884590149
-0.695308685302734
0.930614829063416
0.559069871902466
0.530027985572815
0.923183917999268
0.20062530040741
0.872573614120483
-0.281088709831238
-0.531649589538574
0.729676604270935
-0.708232641220093
0.942287087440491
0.85535192489624
-0.102714657783508
0.303101301193237
0.8658047914505
0.712240219116211
-0.0557037591934204
-0.190958738327026
-0.0929330587387085
-0.588792324066162
0.879132151603699
0.409318685531616
0.391879200935364
-0.400162696838379
-0.115955948829651
-0.817819356918335
-0.789499640464783
0.232352733612061
-0.778638958930969
-0.0343601703643799
0.973892331123352
-0.899131774902344
0.639740347862244
0.138724565505981
-0.330029845237732
-0.133361339569092
0.280417323112488
-0.097271203994751
0.819851994514465
-0.408690452575684
0.0834554433822632
0.0624620914459229
0.134109139442444
0.768167018890381
-0.30600368976593
0.307499647140503
0.669016003608704
-0.146612167358398
0.868509650230408
-0.00656771659851074
0.482800126075745
0.297289371490479
0.381043314933777
-0.576883554458618
0.791892170906067
0.0755796432495117
-0.570526719093323
-0.372075796127319
0.62717592716217
-0.279392719268799
-0.458246350288391
0.648993253707886
-0.00976169109344482
0.852611541748047
0.982166647911072
0.318476915359497
-0.490380644798279
-0.789027690887451
-0.342427372932434
-0.459205865859985
0.597062230110168
0.185460090637207
0.523660063743591
0.0738794803619385
0.103763222694397
0.847486019134521
-0.508804440498352
0.810433149337769
-0.523378252983093
0.481351852416992
-0.167726159095764
0.559170961380005
0.414490342140198
-0.384500026702881
