0.848839163780212
-0.996384382247925
0.598734498023987
0.510033130645752
0.0611714124679565
-0.572345972061157
-0.356486201286316
0.92501163482666
0.668286681175232
0.550155878067017
-0.0555347204208374
-0.483213901519775
0.909076571464539
0.279446363449097
-0.0983866453170776
0.710283279418945
0.633760809898376
-0.310133695602417
0.416935563087463
-0.575429439544678
0.210137248039246
0.303022146224976
-0.949387431144714
0.604105949401855
-0.070168137550354
-0.130964040756226
0.677278161048889
-0.750011920928955
-0.0854512453079224
0.647795438766479
0.642269253730774
0.951206207275391
0.522320151329041
0.190203905105591
0.41787588596344
0.915890216827393
-0.746243596076965
0.619430303573608
-0.240408778190613
-0.497439384460449
0.15829598903656
0.412159204483032
-0.637638449668884
0.251378536224365
-0.259544491767883
0.679840803146362
0.0168362855911255
0.415395736694336
-0.633920311927795
-0.0500590801239014
0.265617966651917
-0.00819540023803711
0.168591380119324
-0.552809000015259
0.559512257575989
-0.746811866760254
0.455241560935974
0.87483811378479
-0.0862220525741577
0.778769969940186
-0.386640667915344
0.695894956588745
-0.935623049736023
-0.0143356323242188
0.516601920127869
0.914389848709106
0.124224305152893
0.160126209259033
0.431204676628113
0.356616735458374
0.73943817615509
-0.0111989974975586
0.422231078147888
0.452385187149048
0.745589852333069
-0.410025119781494
-0.740177273750305
-0.483729600906372
-0.676046252250671
-0.955175399780273
-0.174550652503967
-0.471136808395386
0.65775740146637
-0.571332454681396
0.0181587934494019
-0.581979990005493
0.0884314775466919
0.342211723327637
0.160827040672302
0.840112924575806
0.771859765052795
-0.0571942329406738
0.906408190727234
0.461279630661011
0.83462917804718
-0.524311065673828
-0.355815529823303
0.738673448562622
-0.969720244407654
0.305241107940674
-0.593983769416809
-0.79828667640686
0.895554661750793
-0.553767204284668
0.272591948509216
0.233333826065063
-0.593349814414978
-0.404924869537354
-0.720321774482727
-0.648764848709106
0.135465741157532
-0.338930130004883
0.824369788169861
-0.0108668804168701
0.905853867530823
-0.202340602874756
-0.42866051197052
0.778009176254272
-0.050129771232605
0.933676719665527
-0.14091169834137
-0.672639608383179
0.564023613929749
0.804595470428467
-0.393804669380188
0.506449460983276
0.265525937080383
0.483779907226563
0.717567801475525
-0.774445295333862
0.448542237281799
-0.586265087127686
-0.00930893421173096
-0.282779932022095
0.540440678596497
0.937355995178223
0.521878600120544
-0.682494878768921
0.658042550086975
0.329179286956787
-0.387477993965149
0.747235059738159
0.763872265815735
-0.673368453979492
-0.824658989906311
0.893250703811646
0.322407364845276
-0.838719844818115
0.640633463859558
0.0896584987640381
0.456328511238098
0.090083122253418
0.362525343894959
-0.100919485092163
0.602769494056702
-0.573360919952393
-0.47477924823761
-0.606095552444458
-0.330432772636414
0.0724372863769531
0.549251914024353
-0.0624663829803467
-0.308488249778748
-0.451892375946045
-0.00227081775665283
0.465636968612671
-0.0134037733078003
-0.475329399108887
-0.0174089670181274
-0.732600927352905
-0.187733054161072
-0.145212650299072
0.0708540678024292
0.266770124435425
-0.478326678276062
-0.895990371704102
-0.309136986732483
-0.196284055709839
0.219917893409729
-0.417970180511475
-0.961459279060364
-0.0845320224761963
-0.0796936750411987
0.873930931091309
0.483638167381287
0.117773294448853
0.200597405433655
-0.128563404083252
0.475984454154968
-0.313855409622192
-0.64074695110321
-0.695838928222656
-0.0482631921768188
0.437110185623169
0.0716882944107056
0.770859241485596
-0.760369420051575
0.00946402549743652
-0.453478693962097
0.270676612854004
-0.532770752906799
-0.35448431968689
0.181823372840881
0.234399318695068
0.467174410820007
0.47234034538269
0.721368908882141
0.0557041168212891
-0.816564202308655
0.283028841018677
-0.0891145467758179
-0.877591609954834
0.577561259269714
0.817937612533569
0.654303669929504
0.347720146179199
-0.965073227882385
-0.454061269760132
0.670007348060608
0.201488018035889
0.270986437797546
-0.0543301105499268
-0.352916598320007
-0.758548736572266
-0.262477517127991
0.286784410476685
0.901571869850159
-0.855510234832764
-0.471104741096497
0.911201238632202
-0.467284083366394
0.237874031066895
-0.211706757545471
0.014354944229126
-0.920788168907166
-0.469484806060791
0.613983035087585
-0.0735542774200439
0.675459027290344
-0.75578498840332
0.465559363365173
-0.106310606002808
0.707810044288635
-0.155084133148193
-0.929804921150208
-0.640432596206665
0.970820546150208
-0.42604923248291
0.828891158103943
-0.253923177719116
-0.676500678062439
0.479293346405029
0.722726702690125
0.734980344772339
0.845558285713196
0.946807861328125
0.719108939170837
-0.9509437084198
-0.506337523460388
0.731499195098877
0.678023219108582
-0.266651391983032
0.257680058479309
0.488762855529785
-0.241716980934143
-0.0635831356048584
-0.183067679405212
-0.19436502456665
0.323779940605164
-0.808413743972778
-0.303556323051453
-0.26795768737793
0.349733710289001
0.198197603225708
-0.0768083333969116
-0.187947750091553
0.328942179679871
0.102857351303101
-0.817643046379089
-0.38487720489502
0.678031325340271
0.280687570571899
-0.526426672935486
0.76735258102417
-0.356294751167297
0.616575956344604
-0.732822299003601
-0.517269134521484
-0.291003823280334
0.286425828933716
-0.839539885520935
-0.405612468719482
0.49951446056366
-0.961593866348267
0.0339137315750122
0.0858430862426758
0.189698576927185
0.974201440811157
-0.292515158653259
-0.87774133682251
-0.590934872627258
0.830261945724487
0.0968228578567505
0.581686019897461
-0.35154116153717
0.759053468704224
0.869530320167542
-0.913682460784912
0.166302561759949
-0.389692544937134
-0.398587107658386
-0.466263771057129
-0.605152726173401
0.712270975112915
0.432729363441467
-0.871834278106689
0.846422076225281
0.15295672416687
-0.775558352470398
-0.0882797241210938
-0.480315804481506
-0.438606977462769
-0.785535216331482
-0.204345226287842
0.805868983268738
-0.611126184463501
-0.826083064079285
0.0916147232055664
-0.104960083961487
0.690208673477173
0.0633693933486938
-0.457113742828369
-0.31766140460968
-0.595027208328247
0.189096570014954
0.855646133422852
-0.825765252113342
-0.861243009567261
0.859326004981995
-0.269788265228271
0.394776225090027
0.444417715072632
0.540488362312317
0.392291069030762
-0.208160996437073
0.603327035903931
-0.48653256893158
-0.375767230987549
0.143377184867859
-0.0933773517608643
-0.970149874687195
-0.703723907470703
0.963672995567322
0.436457872390747
0.968176484107971
-0.602199077606201
-0.590413212776184
-0.652748346328735
-0.00981032848358154
-0.431422233581543
-0.313192963600159
0.646938562393188
0.197085976600647
-0.869982242584229
0.956100344657898
-0.521781206130981
0.285764813423157
-0.383577346801758
-0.260438561439514
0.899808168411255
-0.794921278953552
-0.193765163421631
0.826863169670105
-0.832311868667603
0.31208336353302
-0.746712684631348
0.681506514549255
-0.483644247055054
0.0282875299453735
0.318053722381592
-0.652929425239563
0.440073728561401
0.995903134346008
0.698898315429688
0.85346257686615
0.474120378494263
-0.265904784202576
0.463325977325439
0.123167872428894
-0.52396035194397
0.795231938362122
-0.420767784118652
0.377499938011169
0.406891107559204
-0.5788654088974
-0.0538468360900879
-0.957149624824524
-0.387500047683716
0.69932758808136
-0.0734844207763672
0.156938910484314
-0.395292997360229
-0.780711531639099
-0.62311315536499
-0.724936604499817
0.342618703842163
-0.771302103996277
-0.820775032043457
0.876349806785584
-0.986142873764038
-0.710310339927673
-0.727871417999268
0.270002245903015
0.315809965133667
-0.564899325370789
-0.817913055419922
0.00155293941497803
-0.763119459152222
0.824720978736877
-0.94527006149292
0.759112238883972
0.337737798690796
-0.0984562635421753
-0.813921928405762
0.779618620872498
-0.46743369102478
-0.951984763145447
0.0537924766540527
-0.244911313056946
0.37031626701355
-0.257715106010437
0.848424911499023
-0.761132836341858
0.815953493118286
0.214455246925354
0.50466775894165
-0.448123097419739
0.531709432601929
-0.397168040275574
-0.767395973205566
-0.811131119728088
0.658331155776978
0.61017382144928
0.548957347869873
0.724672198295593
0.0963313579559326
0.659942746162415
-0.191658020019531
-0.779555916786194
0.287238359451294
-0.447446227073669
-0.765487194061279
-0.87008011341095
0.494846105575562
-0.378374934196472
-0.548384666442871
-0.294336915016174
-0.413535833358765
0.390227913856506
-0.484564304351807
0.905315279960632
0.314167737960815
-0.272863268852234
-0.555349349975586
-0.20215380191803
0.0960476398468018
-0.496920943260193
-0.747922420501709
-0.530196309089661
0.297460317611694
-0.253014445304871
0.475924491882324
0.43156373500824
0.0122778415679932
-0.697759985923767
0.211040019989014
0.523580431938171
0.344137907028198
0.982929348945618
-0.359836578369141
-0.677363991737366
-0.81230616569519
-0.769906401634216
-0.934825420379639
-0.951909184455872
0.509864568710327
0.267975926399231
-0.56165599822998
-0.0318666696548462
0.131084680557251
0.760272622108459
0.393582820892334
0.30603015422821
0.00655436515808105
0.966383099555969
0.777692794799805
0.646376013755798
-0.992510557174683
0.39765989780426
-0.318383693695068
0.841343760490417
0.20237135887146
-0.0263413190841675
-0.0283136367797852
-0.583065629005432
0.638197183609009
0.678388237953186
0.320876598358154
-0.52077305316925
-0.378270387649536
0.716560482978821
-0.25994873046875
-0.879371285438538
-0.499253034591675
-0.830159544944763
0.609215259552002
0.326125025749207
0.945293188095093
0.153096318244934
0.20876407623291
0.379529356956482
0.728927850723267
-0.529350638389587
0.750733852386475
-0.230266690254211
0.00997614860534668
-0.227476000785828
-0.0899486541748047
0.596956610679626
-0.887221097946167
0.210697770118713
-0.144216060638428
-0.521002888679504
0.808942556381226
0.595351338386536
0.782389640808105
0.957480788230896
0.0985891819000244
0.0511184930801392
0.940967082977295
-0.595888257026672
0.491606473922729
0.173336148262024
-0.829494476318359
-0.573077797889709
0.788897752761841
0.68429434299469
-0.0708651542663574
0.776522517204285
0.363631963729858
-0.410513758659363
0.825375556945801
-0.24764883518219
0.942493677139282
-0.166141867637634
0.649388790130615
-0.891075253486633
0.886933088302612
0.458059430122375
-0.0957736968994141
0.462087988853455
-0.0255839824676514
0.254692673683167
-0.162919521331787
-0.804736256599426
0.679673910140991
-0.0754364728927612
-0.0294656753540039
-0.134297013282776
-0.04404616355896
0.732930779457092
0.133811473846436
0.110734820365906
-0.483731508255005
-0.334243655204773
0.994026184082031
-0.945983529090881
0.614646196365356
-0.914044737815857
-0.912566661834717
0.211783289909363
-0.672619104385376
0.88964569568634
0.350678443908691
0.899098753929138
0.334282159805298
-0.837601065635681
0.152047634124756
0.136104464530945
-0.800074815750122
-0.664510607719421
-0.177282333374023
-0.945729851722717
-0.845099210739136
-0.15785539150238
-0.311994075775146
-0.197356343269348
0.377065420150757
0.273795247077942
0.598620414733887
0.954100966453552
-0.227208852767944
0.0363250970840454
-0.0380902290344238
-0.588403820991516
-0.741784334182739
-0.49367892742157
0.273113250732422
0.814411520957947
0.540492296218872
-0.312676787376404
0.146610736846924
0.444407343864441
0.39903998374939
0.366074681282043
-0.152827262878418
0.632272124290466
0.466793298721313
0.768771767616272
-0.678789615631104
0.663772463798523
-0.488547563552856
0.717313885688782
0.728025436401367
-0.813996911048889
0.21673321723938
0.285553574562073
-0.528939723968506
-0.88636314868927
0.463617086410522
-0.044453501701355
-0.270852088928223
-0.96482527256012
-0.888398885726929
-0.726198554039001
0.487761974334717
-0.880804181098938
0.279947996139526
0.0075303316116333
0.0702667236328125
-0.479392647743225
0.128936052322388
-0.199101805686951
-0.830832958221436
-0.713105320930481
0.141109228134155
0.331273198127747
0.377358436584473
-0.235628724098206
0.902527093887329
-0.0345233678817749
0.219377040863037
0.504428744316101
0.384014844894409
0.916032910346985
-0.317350387573242
-0.330213189125061
0.722413301467896
0.897419571876526
-0.751256465911865
0.940743327140808
-0.498171091079712
-0.717682719230652
0.424616813659668
0.921424269676209
-0.465116262435913
-0.242140173912048
-0.226131916046143
-0.95396625995636
-0.856034517288208
-0.518115878105164
-0.552013397216797
-0.014896035194397
0.942477464675903
0.739180207252502
0.217602252960205
0.551745295524597
-0.883911371231079
-0.90225875377655
-0.996264457702637
-0.892103791236877
-0.796016454696655
0.0650135278701782
0.909047603607178
-0.529426693916321
0.380112409591675
0.244146466255188
-0.250909805297852
-0.681878685951233
0.234441041946411
0.990242600440979
-0.916444301605225
-0.903536915779114
0.0542008876800537
0.566607594490051
-0.252472877502441
-0.574650406837463
0.605139017105103
0.801000237464905
-0.117271900177002
-0.995390057563782
0.412768125534058
0.24188244342804
-0.531227111816406
-0.979598641395569
0.543616533279419
-0.185330748558044
-0.645583629608154
0.0514591932296753
-0.113521814346313
0.977978825569153
0.788804054260254
-0.524653077125549
0.93366265296936
0.379882454872131
-0.547277927398682
-0.625293850898743
0.0622451305389404
-0.985845446586609
-0.0101528167724609
0.943506598472595
0.315316438674927
-0.123477339744568
-0.962003231048584
-0.606703877449036
0.683233022689819
0.120917439460754
0.760378837585449
-0.640549302101135
-0.115133047103882
-0.284277319908142
0.876842021942139
0.807424426078796
0.648855924606323
0.600025296211243
-0.804874420166016
-0.561000466346741
0.494853258132935
0.339865326881409
0.642109394073486
-0.401463627815247
-0.985222101211548
0.284485936164856
0.795063972473145
-0.320776581764221
-0.345935583114624
0.222583413124084
-0.087099552154541
0.0293272733688354
-0.00708699226379395
-0.461442828178406
-0.53257942199707
-0.641557335853577
0.527539491653442
0.868759751319885
-0.825433254241943
-0.356257557868958
-0.048574686050415
0.257746815681458
0.52567195892334
-0.463772416114807
0.936567544937134
-0.185472846031189
0.818709850311279
0.266977190971375
0.414728879928589
0.868812680244446
-0.310455322265625
0.0533984899520874
0.35868763923645
-0.372731566429138
0.143181324005127
-0.994523167610168
-0.936512231826782
-0.670237421989441
0.0850152969360352
0.532025694847107
0.927688837051392
0.905616402626038
0.3520827293396
-0.753063321113586
0.734616041183472
0.129854321479797
-0.75568962097168
-0.624570488929749
0.433610200881958
-0.720546126365662
-0.444234371185303
-0.339697957038879
0.421277761459351
-0.710404276847839
0.10590648651123
0.768180251121521
-0.677259206771851
0.409913659095764
-0.22916841506958
-0.804231762886047
0.272886991500854
-0.639255404472351
0.0145301818847656
-0.323901772499084
-0.302380323410034
0.989378571510315
-0.0798678398132324
0.0847805738449097
0.595107793807983
0.426308751106262
-0.278841972351074
0.846253752708435
0.317035913467407
-0.258518576622009
0.83276891708374
0.840034365653992
0.849854230880737
-0.899453997612
0.383016586303711
-0.19303286075592
-0.403971433639526
0.421105027198792
0.244093418121338
-0.744525074958801
0.655290365219116
-0.471035838127136
0.563582420349121
-0.132191300392151
0.605886697769165
0.814382195472717
-0.204292774200439
-0.593702435493469
0.78583025932312
0.388321042060852
-0.767417907714844
-0.880401253700256
0.0741493701934814
-0.261304259300232
0.0354619026184082
0.648947596549988
0.172137975692749
-0.113375544548035
0.765992164611816
-0.565592408180237
-0.615394353866577
0.0426784753799438
-0.582540988922119
0.62112033367157
0.901127576828003
0.763132214546204
-0.0539608001708984
-0.534444451332092
-0.422705411911011
-0.393786787986755
-0.697949886322021
0.241761088371277
-0.784036874771118
-0.711647868156433
0.961199760437012
-0.352387070655823
0.348505258560181
0.34043276309967
0.955836772918701
0.711065173149109
0.516058683395386
0.264042019844055
0.406200408935547
-0.803599953651428
-0.949223279953003
-0.812280058860779
0.551670551300049
0.510477900505066
0.357078313827515
0.0232096910476685
0.282017707824707
-0.891012787818909
-0.307101964950562
-0.878292441368103
0.168653011322021
0.402694582939148
-0.549063920974731
-0.569887042045593
0.995878219604492
-0.836305260658264
-0.0600917339324951
0.147278428077698
0.792135715484619
0.431660532951355
0.665796041488647
0.88025963306427
0.361258506774902
0.920092940330505
0.113096475601196
0.300565361976624
-0.686279773712158
0.922571063041687
0.0260722637176514
-0.699592471122742
0.597885131835938
0.7190021276474
0.190001726150513
0.648951172828674
-0.468741893768311
-0.518128514289856
-0.28757119178772
-0.851435542106628
-0.668265342712402
0.682492613792419
0.804413080215454
0.29106867313385
-0.851149082183838
-0.00274288654327393
-0.938220262527466
-0.58601176738739
0.595033645629883
-0.286115288734436
0.246369600296021
-0.643199324607849
0.77685022354126
-0.362326741218567
-0.432710886001587
0.617186665534973
-0.173741340637207
0.497748732566834
-0.537839651107788
0.00727999210357666
0.931857585906982
-0.146684765815735
-0.121628999710083
-0.190082430839539
0.870136260986328
0.499904990196228
-0.945675611495972
-0.565110564231873
-0.96327543258667
-0.624371647834778
0.800689458847046
-0.424811244010925
0.977643013000488
0.967423796653748
0.28165078163147
0.863261818885803
0.420552730560303
-0.782692074775696
0.2961585521698
-0.972741961479187
-0.193994522094727
-0.0713745355606079
0.0591785907745361
0.547279953956604
-0.6813063621521
-0.327700734138489
0.482942342758179
0.811633229255676
0.418700218200684
-0.806919693946838
-0.0418031215667725
0.77307665348053
-0.127251148223877
-0.684202313423157
0.635454893112183
0.105072140693665
0.285453796386719
-0.648391366004944
-0.793755292892456
0.858034729957581
-0.869430065155029
0.00424849987030029
0.184360265731812
-0.384417414665222
0.282242774963379
0.776280760765076
-0.312888860702515
0.150786995887756
0.0462584495544434
-0.124652981758118
-0.283427476882935
0.582422375679016
-0.308706283569336
0.62041699886322
0.940835237503052
-0.968783736228943
0.480165958404541
0.348038554191589
-0.0247442722320557
-0.223900675773621
-0.798916816711426
-0.18141233921051
-0.836293935775757
-0.0895446538925171
0.198894023895264
-0.877481579780579
0.859823942184448
0.498371243476868
-0.0936622619628906
0.0866130590438843
0.20826268196106
0.230887055397034
-0.124705791473389
-0.819768071174622
0.425941228866577
-0.417754054069519
0.30803394317627
0.921563506126404
0.583294153213501
-0.533855795860291
0.088468074798584
-0.21612560749054
-0.114478349685669
0.391981244087219
-0.686601638793945
0.601759314537048
0.453839540481567
0.12110960483551
0.323767185211182
-0.522608876228333
0.60672926902771
-0.176915049552917
-0.764092445373535
-0.813229203224182
0.641187906265259
0.731916069984436
-0.0272068977355957
-0.914022564888
-0.886021852493286
-0.697685122489929
0.7952880859375
-0.482581734657288
-0.377121686935425
0.865946412086487
-0.666602611541748
0.716078639030457
0.0879323482513428
-0.212321162223816
0.11751651763916
0.215772032737732
0.532699823379517
0.121833443641663
0.609681606292725
0.755390048027039
-0.634494066238403
0.768434643745422
-0.265180587768555
0.685152411460876
0.160691499710083
-0.870540022850037
0.911997318267822
0.872856974601746
0.939862966537476
-0.734909892082214
-0.414326667785645
0.110129714012146
-0.0468575954437256
0.549958825111389
-0.743053913116455
-0.981325268745422
-0.0395824909210205
0.829403042793274
0.0148048400878906
0.456524252891541
-0.987408399581909
0.0757128000259399
-0.432620525360107
0.424288630485535
-0.267166376113892
0.544381260871887
0.773190498352051
-0.52859365940094
-0.902171850204468
-0.569645285606384
-0.327600955963135
0.602393984794617
0.719025373458862
0.0242825746536255
0.0180568695068359
-0.316903710365295
-0.376108884811401
-0.631232619285584
0.307356357574463
0.346936106681824
-0.462843179702759
0.414614796638489
-0.687119483947754
-0.598835587501526
0.66206955909729
0.677083611488342
0.113852977752686
0.733110308647156
-0.0383579730987549
-0.607864260673523
0.627388000488281
-0.283568978309631
-0.0600974559783936
-0.827313780784607
0.639740467071533
0.117361903190613
-0.076854944229126
0.16485321521759
-0.662444114685059
-0.499033570289612
-0.158820867538452
0.704208016395569
-0.660879611968994
-0.862613797187805
0.508579969406128
0.472025036811829
-0.774389266967773
0.408090949058533
0.405938386917114
0.15153181552887
0.572344303131104
-0.287871479988098
0.961110830307007
-0.415840983390808
-0.519970893859863
-0.127625107765198
0.330469369888306
0.425790429115295
0.606013774871826
0.0417841672897339
-0.319848299026489
-0.69698703289032
-0.304462432861328
0.109638571739197
-0.0326888561248779
-0.530633330345154
0.612980365753174
-0.392201542854309
-0.77863335609436
0.961594700813293
0.873112678527832
-0.883047699928284
0.325252771377563
-0.744106650352478
-0.327654361724854
0.172866702079773
-0.703330278396606
0.424162030220032
0.419981002807617
-0.327363610267639
0.0693333148956299
0.790253281593323
-0.230538845062256
0.78093421459198
-0.225775003433228
-0.913777232170105
-0.850380897521973
0.33626115322113
0.520841836929321
-0.891420722007751
0.795928478240967
0.757196307182312
-0.321553468704224
0.874534726142883
0.281753540039063
0.448646903038025
0.657317399978638
0.278254151344299
-0.450400829315186
0.708098292350769
0.189998388290405
-0.752894282341003
0.442360877990723
-0.868136048316956
0.112549066543579
0.397910714149475
0.734574794769287
-0.478664517402649
-0.354205369949341
0.193193554878235
0.663667678833008
0.289232611656189
0.176575899124146
0.597431778907776
-0.0387930870056152
-0.634146809577942
0.538999319076538
-0.766693949699402
-0.615849494934082
-0.394676804542542
0.795686960220337
0.0379501581192017
0.746097087860107
0.69184672832489
0.519026517868042
0.419201016426086
-0.551464080810547
-0.454043984413147
-0.427578687667847
0.911848664283752
-0.487903118133545
-0.769238591194153
-0.608459711074829
-0.6661137342453
-0.892199516296387
0.358201384544373
0.765568017959595
-0.557239890098572
0.588307857513428
0.995292544364929
0.118454694747925
0.091619610786438
-0.980829238891602
-0.929620385169983
0.290166139602661
0.885567307472229
-0.789918422698975
-0.720614552497864
-0.182066202163696
0.337908864021301
-0.753876686096191
0.492061018943787
0.717504739761353
0.526403069496155
0.519019603729248
-0.341764569282532
0.764391660690308
0.24951183795929
0.258384704589844
0.214065909385681
0.275122880935669
0.682650208473206
0.562973499298096
0.988287806510925
-0.611507654190063
-0.465563654899597
-0.0680685043334961
-0.391535401344299
-0.15319037437439
-0.297058463096619
-0.703955173492432
0.407237887382507
-0.72285008430481
0.431940197944641
0.548990249633789
0.828577399253845
-0.0273959636688232
0.967159867286682
-0.421414852142334
0.334030985832214
0.173528432846069
0.712531208992004
-0.201962471008301
-0.191025376319885
-0.151204824447632
-0.113561987876892
0.177196025848389
-0.531137585639954
0.977041959762573
0.677967190742493
-0.226200103759766
-0.734523415565491
0.327922105789185
0.903158783912659
0.764729022979736
-0.206822514533997
0.743354558944702
0.161255955696106
-0.0227460861206055
-0.304846405982971
0.918773889541626
0.490954995155334
0.920285701751709
-0.430328488349915
-0.315619707107544
-0.473344683647156
0.31562614440918
0.376325964927673
0.786389589309692
0.154709458351135
-0.870782375335693
0.342289805412292
0.168283224105835
0.669673085212708
0.10239315032959
0.368564009666443
-0.247941732406616
-0.569445013999939
-0.216873645782471
-0.0637723207473755
-0.280522584915161
0.0170670747756958
-0.942718505859375
-0.487311959266663
-0.7066810131073
0.885874390602112
0.179863452911377
-0.542069554328918
0.0186269283294678
-0.473154902458191
0.306267738342285
-0.569231629371643
-0.456039190292358
-0.880699515342712
-0.47646951675415
0.295093417167664
-0.0973541736602783
-0.311735033988953
-0.61842155456543
0.526125311851501
0.294022798538208
-0.239283919334412
-0.0755209922790527
-0.883338093757629
0.364698171615601
0.521834492683411
-0.77830982208252
0.983329176902771
-0.0102059841156006
0.471253991127014
-0.60068941116333
0.872831225395203
-0.445801973342896
0.579311490058899
-0.828670501708984
-0.231799721717834
0.733813524246216
-0.0567029714584351
0.870876789093018
-0.20495331287384
-0.223190546035767
-0.0562962293624878
-0.0185270309448242
-0.372191071510315
-0.715129613876343
0.900478005409241
-0.83172082901001
0.396003603935242
0.494446516036987
-0.77073085308075
0.809347152709961
0.0904754400253296
0.0580036640167236
-0.902320265769959
0.0268692970275879
0.469647288322449
-0.674726724624634
0.581515431404114
0.218428611755371
0.465770125389099
0.124502420425415
0.321035027503967
-0.911751270294189
0.0911730527877808
-0.95629620552063
0.677200436592102
-0.821556091308594
0.844513297080994
0.211905717849731
-0.612073302268982
0.900269031524658
0.617026209831238
0.580402135848999
-0.275668025016785
0.0653696060180664
-0.901224732398987
-0.295997381210327
-0.853012442588806
-0.0829682350158691
-0.31509792804718
0.0222823619842529
0.462167859077454
-0.338567733764648
-0.118123650550842
-0.359167814254761
-0.521899580955505
-0.501111507415771
0.213745951652527
-0.387491464614868
-0.838784098625183
0.155108451843262
-0.371613144874573
-0.281316518783569
0.29239809513092
0.912440776824951
-0.596246838569641
0.750494718551636
0.623233914375305
0.141124725341797
-0.445872902870178
-0.709904432296753
0.532263398170471
0.330540180206299
-0.263630986213684
0.991904973983765
-0.818770289421082
-0.379542350769043
0.656167387962341
0.363857507705688
-0.828670859336853
-0.167711734771729
-0.0257111787796021
-0.951346635818481
-0.300538897514343
-0.999666213989258
0.712828040122986
0.605008363723755
0.214478135108948
0.403036594390869
0.161457896232605
-0.211096048355103
0.57343590259552
0.0942296981811523
-0.716320633888245
0.334837198257446
-0.302156805992126
0.934386730194092
0.623071551322937
-0.762929201126099
0.729911923408508
-0.878128051757813
0.70954167842865
-0.469116926193237
0.688807129859924
-0.775809764862061
0.965575098991394
-0.42618203163147
0.626896977424622
-0.290762901306152
-0.887514710426331
0.826935052871704
0.2860027551651
0.976548671722412
-0.923336148262024
0.136059522628784
-0.74635112285614
-0.111448287963867
-0.604169487953186
0.513032197952271
0.619312882423401
0.80181360244751
0.125283122062683
0.416959524154663
-0.869324564933777
-0.901707649230957
0.244147658348083
-0.464536428451538
-0.150129675865173
-0.783413410186768
-0.438371777534485
-0.934067964553833
-0.690265536308289
-0.816814422607422
-0.876742959022522
0.496768236160278
-0.829942107200623
-0.35628080368042
0.117144465446472
0.888641119003296
0.373833775520325
-0.605792045593262
-0.719771027565002
0.65573525428772
-0.196491599082947
-0.587687015533447
0.804527163505554
-0.15299916267395
-0.562768816947937
-0.611413955688477
0.743383765220642
0.927403688430786
0.005104660987854
0.75771951675415
-0.0822783708572388
0.0591752529144287
-0.854565501213074
0.229796409606934
-0.677708268165588
0.883062601089478
0.0609794855117798
-0.178459644317627
0.0319231748580933
0.799578428268433
0.675201535224915
-0.612434387207031
-0.392226815223694
-0.249748945236206
-0.711484313011169
-0.348372936248779
-0.99642288684845
-0.501125574111938
0.734540104866028
-0.262129783630371
-0.0281015634536743
-0.587241888046265
-0.963653922080994
-0.797918796539307
0.970378756523132
0.743977308273315
0.562708020210266
0.562936782836914
-0.43201220035553
-0.589377164840698
-0.315646529197693
0.333254337310791
-0.648726582527161
-0.721948862075806
0.930213093757629
0.551241874694824
-0.66938841342926
-0.0598657131195068
-0.356329321861267
0.811748027801514
-0.153543591499329
-0.999490022659302
-0.861186861991882
0.797512054443359
0.975590109825134
0.85383152961731
0.356680512428284
-0.689586162567139
-0.562626957893372
-0.0329821109771729
0.021515965461731
-0.19727611541748
-6.31809234619141E-06
0.660503625869751
-0.702984213829041
0.408353328704834
-0.61328136920929
-0.610511064529419
0.942579388618469
0.474103927612305
0.682142615318298
-0.474810361862183
0.96955931186676
-0.409081935882568
0.238438487052917
0.63608717918396
0.797511219978333
-0.874871253967285
-0.918392777442932
0.269178628921509
-0.089556097984314
0.249709606170654
0.81772792339325
0.231226682662964
-0.986930727958679
0.47552490234375
0.0392078161239624
-0.629990339279175
-0.312947630882263
0.682579517364502
-0.768967747688293
0.855571508407593
0.547261357307434
0.65126895904541
0.177014708518982
-0.0385282039642334
-0.101982474327087
-0.906370639801025
-0.133953213691711
0.346035718917847
0.889345288276672
0.184587478637695
0.898348212242126
0.833604097366333
-0.826777815818787
0.593210697174072
0.391716837882996
0.695783376693726
-0.940171122550964
-0.986042976379395
-0.612221360206604
-0.567304372787476
0.173799157142639
0.197925090789795
0.758237719535828
-0.945771455764771
0.610469937324524
-0.515895843505859
-0.388873696327209
0.861285448074341
0.59213125705719
-0.169375896453857
0.197054743766785
0.727035284042358
0.624276280403137
-0.653994560241699
-0.68453848361969
0.878162622451782
0.151851296424866
-0.679590702056885
0.220863223075867
0.176117658615112
0.715505719184875
0.756887435913086
-0.970895409584045
0.898366212844849
-0.392157912254334
-0.597367763519287
-0.376391530036926
0.0196397304534912
0.0296660661697388
-0.719773292541504
-0.938374161720276
0.99318528175354
-0.253763556480408
0.718894481658936
-0.519514203071594
0.0320155620574951
0.243515133857727
0.885749816894531
0.503845572471619
0.890158891677856
0.384417176246643
0.817047595977783
0.147940516471863
0.143909215927124
0.56506073474884
0.949433326721191
0.227834105491638
0.973076105117798
-0.628982901573181
-0.848806858062744
0.263667941093445
-0.557765245437622
0.733560681343079
-0.746496200561523
-0.113088250160217
-0.718024015426636
-0.41408097743988
0.0816826820373535
-0.253386616706848
-0.829843759536743
0.0195227861404419
0.986437797546387
0.915648818016052
0.513147592544556
-0.0597442388534546
-0.124882221221924
0.796972155570984
-0.272912263870239
0.22470486164093
-0.257038116455078
-0.470134377479553
-0.980870008468628
0.376410126686096
-0.295650005340576
0.896189570426941
-0.33130669593811
0.682114720344543
0.524052619934082
-0.273367524147034
-0.191287755966187
0.868014931678772
0.648480892181396
-0.193039059638977
0.706887006759644
-0.743989825248718
0.736936569213867
0.284269690513611
-0.45306658744812
0.419952988624573
0.692862033843994
0.57323157787323
0.709832906723022
-0.658100962638855
-0.804909706115723
-0.23765242099762
-0.444917440414429
0.0683571100234985
-0.270905017852783
0.520196795463562
0.701945066452026
0.866539120674133
-0.881759643554688
-0.498313546180725
0.810698747634888
-0.119389891624451
0.555031299591064
0.254301905632019
-0.136112451553345
-0.712061762809753
-0.867636680603027
0.624356627464294
0.947571039199829
-0.0446552038192749
-0.125227451324463
0.663242220878601
0.532574415206909
0.595354199409485
0.269685745239258
-0.966321587562561
-0.744261503219604
-0.577556014060974
-0.701329708099365
-0.0840369462966919
-0.798830270767212
0.309294819831848
0.968684196472168
0.414222121238709
-0.318509817123413
-0.556959509849548
0.343326091766357
0.46265971660614
-0.480912446975708
0.481517910957336
0.0740852355957031
-0.768191933631897
-0.172634840011597
0.209517121315002
-0.568408489227295
0.0347775220870972
-0.708008050918579
0.69503128528595
-0.163134574890137
-0.266493439674377
-0.0478475093841553
-0.0544933080673218
0.892568111419678
0.645011782646179
-0.518203020095825
-0.935907244682312
0.914251327514648
0.947637915611267
-0.0291087627410889
-0.094107985496521
-0.0383925437927246
-0.412692189216614
-0.793333292007446
-0.765789866447449
-0.630280494689941
-0.316227555274963
0.454870462417603
-0.623194098472595
-0.219688892364502
0.436860918998718
0.741015195846558
-0.61785876750946
-0.327003479003906
-0.467269539833069
-0.368370771408081
0.675631165504456
0.396530628204346
0.0501164197921753
0.515506505966187
-0.784106135368347
-0.299941062927246
-0.133417725563049
0.38495659828186
0.151000618934631
-0.235632419586182
-0.435230374336243
0.11705470085144
0.974725842475891
-0.266866683959961
0.838648200035095
-0.745108366012573
-0.817202925682068
0.744173526763916
-0.600234150886536
-0.711176156997681
0.429144978523254
-0.539303779602051
0.383498549461365
-0.562276601791382
-0.817846655845642
0.102550029754639
0.255300402641296
0.930227994918823
-0.119090914726257
0.977474212646484
-0.783046364784241
-0.214009046554565
0.591452240943909
-0.487651348114014
0.112818598747253
0.0969312191009521
-0.836974024772644
-0.215556144714355
-0.163916230201721
-0.191516637802124
-0.115673422813416
0.552670955657959
-0.764984250068665
-0.999152421951294
0.639753460884094
-0.21116828918457
-0.480790734291077
0.670239686965942
0.565659165382385
-0.291131496429443
-0.834162831306458
0.010141134262085
0.206599354743958
0.30411434173584
-0.674099564552307
0.192548990249634
0.171582818031311
-0.627457141876221
-0.269521832466125
0.649225950241089
0.290321469306946
-0.949981689453125
-0.903022408485413
-0.14704966545105
-0.730519652366638
0.841545581817627
0.0353840589523315
0.598766088485718
0.848927617073059
-0.847479820251465
0.454511046409607
-0.214767217636108
0.457984566688538
-0.6800217628479
-0.531749844551086
0.695675611495972
0.371675610542297
0.14384651184082
-0.198178887367249
-0.220564603805542
-0.633021712303162
0.918192386627197
0.698021769523621
-0.0668814182281494
0.879073262214661
0.96247386932373
-0.676521897315979
0.281847238540649
-0.342405676841736
-0.34721040725708
0.674894213676453
0.460509061813354
0.922878384590149
0.953128814697266
-0.0146976709365845
-0.604992628097534
0.0222154855728149
0.446621417999268
-0.36968719959259
0.583511114120483
0.586098790168762
0.866787910461426
0.534364104270935
-0.122295141220093
-0.815525412559509
0.12878942489624
0.0769728422164917
-0.235961198806763
0.4829922914505
-0.139322280883789
0.49898374080658
0.144978761672974
0.899254441261292
0.434645175933838
-0.191180348396301
-0.379743814468384
0.759066700935364
0.498274803161621
-0.811268448829651
-0.731881856918335
0.952687859535217
-0.994209766387939
0.901048541069031
0.92657732963562
0.0910798311233521
-0.250694274902344
0.694427847862244
-0.0253379344940186
0.162157654762268
0.390076160430908
0.710104823112488
0.613666296005249
0.687039494514465
-0.0102529525756836
0.888142943382263
-0.351600408554077
-0.623703360557556
-0.958395481109619
0.87368381023407
0.768437147140503
-0.713796496391296
0.00182533264160156
0.423197150230408
-0.670630216598511
0.474987626075745
0.320726871490479
0.310730814933777
-0.365946054458618
0.159079670906067
-0.0259828567504883
-0.265839219093323
0.713861703872681
-0.63063657283783
-0.505955219268799
0.221441149711609
0.609930753707886
0.107425808906555
0.501049041748047
0.0368541479110718
-0.845585584640503
-0.998193144798279
0.734409809112549
-0.912739872932434
-0.748268365859985
-0.535750269889832
-0.416102409362793
0.328347563743591
0.659816980361938
0.345950722694397
0.120923519134521
-0.329116940498352
0.271370649337769
-0.906190752983093
-0.370210647583008
0.386961340904236
0.895108461380005
-0.593322157859802
0.638937473297119
0.016255259513855
0.537011861801147
-0.60838782787323
0.452200889587402
-0.227734208106995
0.181577920913696
0.220121026039124
-0.819946765899658
0.448572039604187
0.0730693340301514
-0.715583682060242
0.270858764648438
0.8250812292099
0.496764421463013
-0.146336913108826
-0.457877635955811
0.574278712272644
-0.93979287147522
-0.769770503044128
0.711739540100098
-0.332522034645081
0.474457025527954
-0.59406316280365
-0.570753574371338
0.281070590019226
0.835339307785034
0.21830952167511
-0.192930221557617
-0.797223687171936
0.404694795608521
-0.993174910545349
-0.54822301864624
0.737892985343933
0.891629934310913
0.769164204597473
0.995326042175293
0.115546584129333
-0.766233205795288
0.817460656166077
0.126315593719482
-0.605058789253235
-0.121506929397583
-0.0654486417770386
0.121234893798828
-0.128390908241272
-0.435787916183472
0.0302263498306274
0.87571382522583
0.983660578727722
0.601592779159546
0.297478795051575
0.435772895812988
-0.281965851783752
0.65481972694397
-0.131245017051697
-0.970926761627197
0.516746401786804
-0.9771568775177
0.972204327583313
-0.403833389282227
-0.316857933998108
-0.579371213912964
0.587929368019104
0.8217453956604
0.288143992424011
-0.739591836929321
0.604235768318176
0.665892601013184
-0.423496842384338
-0.567071676254272
0.47388231754303
0.395331859588623
0.873048663139343
0.588701963424683
0.370330929756165
-0.885322570800781
-0.0110622644424438
-0.0807425975799561
0.843996644020081
0.797684192657471
0.1279057264328
0.438388586044312
0.978497624397278
-0.181502342224121
-0.707483887672424
0.763405084609985
-0.953094840049744
0.982903957366943
0.190410494804382
-0.603617906570435
-0.332006335258484
0.0595798492431641
0.64055860042572
-0.494589567184448
-0.537509322166443
0.811342716217041
0.479508280754089
0.205846548080444
-0.790673136711121
0.526400566101074
0.96763551235199
0.341562509536743
0.501886010169983
0.0496020317077637
0.695394396781921
0.766196012496948
0.904255032539368
0.313686370849609
-0.0104328393936157
-0.87559962272644
-0.392526030540466
-0.629466533660889
-0.180485844612122
-0.866905450820923
-0.414214015007019
-0.0775861740112305
-0.796576142311096
0.362713098526001
0.252887368202209
-0.646761417388916
-0.88543713092804
0.518456220626831
0.618177533149719
0.259809494018555
0.887525916099548
0.221539735794067
0.94300901889801
-0.516931056976318
-0.875514149665833
0.29044508934021
0.896937489509583
-0.360650062561035
-0.898556351661682
-0.477830648422241
0.213971734046936
-0.848373889923096
0.6744784116745
0.973475217819214
-0.151176333427429
0.78076171875
0.685997366905212
0.742141008377075
-0.366841673851013
0.656761646270752
-0.129014134407043
-0.751789331436157
0.431843876838684
-0.18997859954834
0.263257384300232
-0.984756231307983
0.799201607704163
0.202577114105225
-0.898296475410461
0.951565504074097
0.135255932807922
-0.740644454956055
-0.763455986976624
-0.868483304977417
0.341984391212463
0.899424076080322
0.0355767011642456
0.0767037868499756
-0.0204323530197144
-0.932759284973145
0.790427565574646
0.537248849868774
0.922639489173889
-0.236095905303955
0.622800707817078
-0.226960420608521
-0.483463168144226
-0.421596527099609
0.890728354454041
0.334979295730591
0.23354971408844
0.718868732452393
0.0948208570480347
-0.653763055801392
-0.170828700065613
0.543820381164551
-0.71548330783844
0.283497095108032
-0.00165212154388428
-0.406580448150635
-0.0356675386428833
-0.741790056228638
0.531728863716125
0.120718002319336
0.500112891197205
-0.202158689498901
0.971916794776917
-0.877091884613037
-0.974719166755676
0.127122640609741
0.769717335700989
-0.127427101135254
0.847087264060974
0.94930100440979
-0.0596107244491577
-0.0510640144348145
0.352861285209656
-0.272610902786255
0.219894528388977
-0.230888366699219
-0.583739876747131
-0.534584760665894
0.721148133277893
-0.380645275115967
0.303519129753113
-0.010326623916626
0.0902682542800903
-0.813689231872559
-0.920298218727112
-0.270026922225952
-0.837173819541931
-0.411734104156494
-0.485050320625305
0.00088953971862793
0.120096325874329
-0.0936031341552734
-0.509267449378967
-0.216986417770386
0.14530622959137
0.216021060943604
-0.0939017534255981
-0.995798349380493
-0.420113444328308
-0.882153511047363
0.0839227437973022
0.320825815200806
0.579721093177795
-0.230778217315674
-0.322839856147766
-0.600976228713989
0.27139675617218
0.415386199951172
-0.924907326698303
-0.304051160812378
0.408453583717346
-0.579280376434326
0.309580683708191
-0.25898003578186
-0.472365260124207
0.799992561340332
0.461312651634216
0.917171716690063
-0.394863486289978
0.249616146087646
-0.433944821357727
-0.257895708084106
-0.787141680717468
-0.321107864379883
-0.979097008705139
0.64953351020813
-0.825347304344177
0.241262912750244
0.49052894115448
-0.729559183120728
0.722575306892395
-0.134438514709473
-0.68656599521637
0.214323282241821
0.153134942054749
-0.712738513946533
0.408197283744812
-0.649556398391724
-0.0164564847946167
0.579727172851563
0.679726004600525
0.589080095291138
0.607966065406799
0.185463428497314
-0.074494481086731
-0.837223291397095
0.453770756721497
0.447365760803223
0.241849303245544
-0.592406988143921
0.637778878211975
-0.360029697418213
-0.0698510408401489
-0.955645799636841
0.122514843940735
0.500703811645508
-0.096875786781311
-0.0400989055633545
-0.627543807029724
-0.738866329193115
0.591072916984558
-0.511659860610962
0.510283589363098
-0.821782112121582
-0.651878952980042
0.192293405532837
-0.0268691778182983
0.565555095672607
0.35847270488739
0.144148588180542
-0.331165194511414
-0.675365447998047
-0.957339882850647
-0.292690992355347
0.632185578346252
-0.0239138603210449
0.963793635368347
0.817443609237671
-0.8188236951828
-0.809069633483887
-0.766188263893127
0.763736963272095
-0.426746726036072
-0.178171634674072
0.419731020927429
0.470139265060425
-0.838434100151062
-0.565668106079102
0.949896216392517
-0.723383665084839
0.051216721534729
-0.661866664886475
0.0202301740646362
0.220399618148804
-0.744488596916199
0.118315696716309
-0.999516129493713
-0.182763814926147
-0.647791266441345
-0.333397388458252
-0.659513592720032
0.342638731002808
-0.36022937297821
-0.287391662597656
0.976395010948181
0.613135576248169
-0.206387877464294
0.855087757110596
-0.763054966926575
-0.732479333877563
0.0223513841629028
0.0931863784790039
0.249699950218201
0.54810357093811
-0.275940299034119
0.857690334320068
0.847301363945007
0.58195948600769
0.642511487007141
-0.457723617553711
0.973719000816345
0.162179231643677
0.523434281349182
0.534761905670166
0.590500712394714
0.0291192531585693
-0.729241251945496
-0.251645088195801
-0.916977524757385
0.651651620864868
-0.397131323814392
0.652904033660889
-0.833261609077454
0.508414030075073
0.208850979804993
0.806148529052734
-0.706569314002991
0.869059801101685
-0.595254302024841
0.884968280792236
0.557459712028503
-0.924492120742798
-0.710204005241394
0.216633796691895
0.102013945579529
0.323192834854126
0.402698159217834
0.810056209564209
-0.974640011787415
-0.0576851367950439
0.877851605415344
-0.11296272277832
0.787092566490173
0.179089784622192
0.101608872413635
0.913519382476807
0.114384531974792
-0.523000955581665
0.868525624275208
-0.86916446685791
0.408236861228943
0.258039712905884
0.037610650062561
-0.413040637969971
-0.350271344184875
-0.796025514602661
-0.311424136161804
-0.332244873046875
0.806267142295837
0.0375816822052002
0.778086304664612
0.128227710723877
0.737837672233582
0.803905248641968
-0.703989863395691
0.623772621154785
-0.396746277809143
-0.348495244979858
0.921668648719788
-0.25857400894165
0.766406893730164
-0.886294603347778
0.180086255073547
-0.46888542175293
-0.797483086585999
0.889847993850708
0.0982404947280884
0.536905765533447
0.404381632804871
-0.873461008071899
0.361312031745911
-0.67174243927002
-0.211372971534729
0.198900461196899
-0.0310653448104858
0.53126859664917
0.601957201957703
0.991820096969604
0.391445279121399
-0.640071868896484
0.327404379844666
-0.318798780441284
-0.773866057395935
0.647366046905518
-0.40942108631134
-0.984787225723267
0.353493809700012
0.377102851867676
-0.434080719947815
0.0955393314361572
0.593471169471741
-0.28570032119751
-0.117057919502258
0.658631086349487
-73.5620978717139
-14.8217534495836
-19.7287006143707
-0.256721164005183
18.3693463180953
14.1601771397827
45.9089343877423
-106.284102652582
0.133229327882235
20.8726336816083
53.2090774401512
-108.469358717927
54.599425213315
29.7333023394458
-39.0187552537257
-26.9588840706587
0.669522520750858
32.7433060345925
0.109746524901121
-0.640238675802714
-0.800678875208491
-2.0063081736355
-57.2204477197419
-135.670967077053
14.5792844135407
-78.9081603679051
-3.14242693124374
-30.0494919634116
0.741455759170943
19.4280826655889
9.79615939378064
105.68420187653
124.229487409381
0.985434186715236
72.5765754669603
-62.4487134776094
-94.1266029831297
42.8474093881622
43.2338794302793
-141.191527566646
29.1991099781416
26.3008487402484
31.7846585213098
-1.78641974887406
-0.481288104659658
-1.0397750316907
-3.07593207885802
-83.009939461198
7.62059309580711
-31.5436113152762
-191.51493840508
-14.0944865435548
-34.5137922005381
-0.600230571367444
19.1624507288674
-23.2827285269357
141.895815952544
31.8911055163383
0.193184718763081
50.7052213221499
-27.7069484151976
-88.5597671987057
-80.8030108631011
43.4752167920027
-109.378279542583
29.6424990647136
7.87070011595551
24.8176959659886
-1.07551425981068
34.1725256004039
4.87897372921014
5.2852512516325
-174.07045776809
82.3786405528179
-28.8190040395495
-259.599875064747
-55.4948543732734
-40.003646364044
44.4126698633852
16.1918450687854
-4.71724587178657
57.9393479533753
-44.9282578106879
-0.597077809972999
39.7224054818245
-27.9086383275186
-63.9475902319759
-68.386801160242
-78.2267166001203
-32.5389331275805
17.2458773315041
50.1473351962053
25.0267009531582
-1.03337269140102
34.7669727554153
3.66299069497526
8.12465861644892
-261.805596325675
118.287728353588
-4.2945296049651
-202.969836809976
-53.5761035835936
69.238658441789
44.8103646810976
14.8839048579691
56.7371728708422
74.9341346338833
8.05671508618711
54.1894547977004
39.27701702367
233.308456130965
-8.14616146361631
-65.4507265759495
-68.5693326566985
-37.14128499976
83.1324037347757
50.4434993783832
26.3755961471603
-1.43247165845375
35.1043779744238
5.55938047643444
7.2724406020605
-220.31120590782
60.9189914910693
16.6483910044693
-82.1363630034357
-105.328415236536
93.7544503630715
-0.166947474658008
18.8330626784979
64.9090896945822
26.3371741333371
-58.2567601617062
52.4700064350191
50.9722369967083
259.382549410943
-301.448918658485
-212.839148837665
80.2094926729863
-110.45273131142
38.1880996830682
7.42151546121351
24.3319556138562
22.7319078647374
34.0140865016558
3.8825618085471
4.6886032326342
-234.769678531752
59.8706703236497
-0.970534622261939
110.520533572319
-84.7376970071084
123.529607996547
0.901854649013281
0.735284900422198
86.3295772461726
-65.6122725936921
81.8856284970745
52.5094948659978
-0.265205574558502
273.376172491781
-45.2911919421586
-50.2764641285525
7.02014400179129
39.0900974073037
61.1819320760328
-0.173564370686404
1.22181548458966
0.671323560942532
-0.787155573068622
0.642943626889026
0.273195282694331
89.5634772860137
-99.102642387785
-70.4164784126387
55.5361616784036
-85.0053121137283
19.7278903343412
-0.299193239911944
-0.676354346998187
23.6728128938787
-82.6667704920803
31.3300333944651
-0.0659364645177577
0.298985168967435
11.7961021974966
-100.733917812493
-53.8479735787965
-2.8029568281509
44.6556643921695
-3.74243302467257
-0.661632382438813
-0.385108455063684
24.3027062386259
-0.704143721688444
-1.25371103761158
0.593248961831892
47.5144568270361
-40.3666462612732
-92.321284235925
0.121363759040833
0.778571128845215
-0.753719925880432
0.400160074234009
-0.357500433921814
0.678542613983154
0.65622889995575
-0.659276247024536
-0.190421938896179
-0.28900146484375
-0.542213082313538
-0.260727643966675
0.704264283180237
-0.744056224822998
0.635939478874207
-0.734150171279907
-0.558573603630066
-0.40622615814209
0.474500060081482
-0.305984258651733
0.825385689735413
-0.0634751319885254
0.462360262870789
-0.817904710769653
0.506166577339172
0.959123611450195
-0.300260186195374
-0.945570707321167
0.635746598243713
-0.169362545013428
-0.195563435554504
-0.917375802993774
0.0243064165115356
-0.254475593566895
0.318076491355896
-0.733197927474976
0.796479821205139
-0.0451169013977051
0.612363696098328
0.116850614547729
-0.452396273612976
0.297702789306641
0.295330405235291
-0.566326856613159
0.99996817111969
0.232113361358643
0.117586970329285
-0.409561395645142
0.159066319465637
0.366635322570801
-0.62142813205719
-0.686168432235718
0.969844460487366
0.491429805755615
-0.167198300361633
-0.0346977710723877
-0.527047991752625
0.109548568725586
0.0961211919784546
0.322316408157349
-0.539008498191834
-0.531816005706787
0.551953196525574
-0.140394449234009
0.634768605232239
-0.910080909729004
0.757548689842224
0.53041672706604
-0.740457892417908
-0.196022510528564
-0.649763226509094
-0.952237367630005
-0.678726077079773
-0.722526550292969
0.453674674034119
-0.334328413009644
0.182879090309143
-0.953338146209717
0.584097743034363
-0.539562463760376
0.74047577381134
0.0481882095336914
0.0565694570541382
0.111870050430298
0.0796352624893188
0.650338649749756
0.891231417655945
0.184544324874878
0.631631970405579
-0.815710067749023
-0.780446648597717
-0.0909488201141357
-0.17030656337738
0.975359439849854
0.190583109855652
0.463247060775757
0.265250325202942
-0.125744819641113
-0.622803330421448
-0.246495962142944
0.344186425209045
0.288325786590576
0.682348132133484
0.695959806442261
-0.55691134929657
-0.287189483642578
0.745319724082947
-0.00223231315612793
-0.434502959251404
-0.237910747528076
-0.152028203010559
-0.56165337562561
-0.501845240592957
-0.299067497253418
-0.679007172584534
-0.349368810653687
-0.532741904258728
0.475751399993896
-0.549850583076477
0.402321577072144
0.294706463813782
-0.754152297973633
-0.117463707923889
-0.62286639213562
-0.945647597312927
0.414663791656494
0.53282630443573
-0.543951272964478
-0.771748423576355
-0.838967323303223
0.98952043056488
0.498564004898071
-0.637087225914001
-0.529572010040283
0.421197772026062
-0.376057863235474
0.225547909736633
0.666213989257813
-0.0172344446182251
-0.0075385570526123
0.460322022438049
0.440895557403564
-0.278290867805481
0.0866658687591553
0.744603276252747
0.387368202209473
-0.0156580209732056
-0.507385015487671
0.445212960243225
0.0301680564880371
-0.677944302558899
-0.818866014480591
0.774675488471985
-0.643278121948242
0.897570013999939
0.289063692092896
0.447468400001526
-0.151402950286865
-0.608817219734192
-0.599489450454712
-0.163727641105652
0.012751579284668
0.407019972801209
0.328096628189087
-0.371778845787048
-0.587215900421143
0.37928569316864
0.394209623336792
-0.0188482999801636
-0.799816131591797
0.978512167930603
-0.787747144699097
0.179854035377502
-0.854419231414795
0.0178097486495972
-0.0321047306060791
0.79232132434845
-0.830004692077637
0.859116911888123
-0.799678564071655
0.325999855995178
-0.623911380767822
0.319450259208679
-0.916518449783325
0.384039044380188
0.579412460327148
-0.922845482826233
0.207341432571411
-0.678458571434021
-0.660340785980225
0.578152537345886
0.859132528305054
0.401812672615051
-0.508088111877441
0.442195296287537
0.804601907730103
0.452611565589905
0.177894115447998
0.369111895561218
-0.430737733840942
-0.97759997844696
0.377220153808594
0.545059561729431
-0.780358076095581
0.0365930795669556
-0.0613551139831543
0.548773646354675
-0.355465173721313
-0.0461910963058472
-0.888686180114746
0.757817625999451
0.33625054359436
0.422118782997131
0.576013088226318
0.254833102226257
0.67186427116394
-0.564702868461609
-0.0235805511474609
-0.766210198402405
0.694466829299927
0.989071488380432
0.950350284576416
-0.0937644243240356
0.394414663314819
-0.762627482414246
0.661013603210449
-0.0924535989761353
-0.509420156478882
-0.851415991783142
-0.171741962432861
0.203176379203796
-0.288399934768677
-0.338207125663757
-0.740177154541016
-0.505092263221741
-0.422871351242065
-0.656960844993591
0.882587909698486
-0.872899174690247
-0.320915460586548
0.541566014289856
-0.726176261901855
0.492944121360779
0.462902307510376
0.0460697412490845
-0.307558536529541
0.940704226493835
0.508782148361206
0.240949749946594
0.61024284362793
0.179975867271423
-0.687060117721558
0.762558579444885
0.743170261383057
-0.812068104743958
0.568856954574585
0.655451893806458
0.58255672454834
-0.384426712989807
-0.0514695644378662
-0.971361517906189
0.426375865936279
-0.306020855903625
-0.616276979446411
0.211830258369446
0.910491943359375
0.640556693077087
-0.15278697013855
-0.588307738304138
0.039909839630127
-0.434708714485168
0.634044408798218
0.868092656135559
0.720025062561035
0.876996397972107
-0.857223272323608
0.510352730751038
0.7878737449646
0.189563632011414
-0.843264818191528
-0.886503100395203
-0.45661735534668
0.728212714195251
-0.374739408493042
-0.0454972982406616
0.780619144439697
0.235741496086121
-0.0550405979156494
0.968550801277161
0.31904125213623
0.378775954246521
-0.259046316146851
-0.594725012779236
0.0347476005554199
0.654020190238953
-0.851868867874146
0.985012173652649
0.391727447509766
0.794506430625916
-0.407604932785034
-0.444947600364685
-0.526889324188232
-0.32415497303009
-0.928085565567017
-0.754111170768738
0.512417793273926
0.722474455833435
-0.0616261959075928
-0.872532248497009
-0.0751900672912598
-0.186088681221008
-0.821776628494263
0.365438580513
-0.161661148071289
-0.30899965763092
-0.806071043014526
-0.122596144676208
-0.874803066253662
0.862164378166199
-0.914777994155884
0.489169239997864
0.932967185974121
-0.990345597267151
0.430349588394165
-0.409006476402283
0.715873241424561
0.895799517631531
-0.43267560005188
0.293838620185852
0.766029357910156
0.769256949424744
0.375174760818481
-0.914380431175232
-0.755309581756592
-0.728737950325012
-0.444805383682251
-0.0125454664230347
-0.286498069763184
0.841878294944763
0.412193536758423
-0.790085196495056
-0.834249973297119
-0.37375271320343
-0.864253282546997
0.309274792671204
0.557611465454102
-0.119161248207092
-0.418555021286011
-0.156237959861755
-0.160596370697021
0.879700541496277
0.552144765853882
-0.470192790031433
-0.513165473937988
0.320708632469177
-0.420781850814819
0.89829409122467
0.532252788543701
0.231817126274109
-0.796197175979614
0.450809597969055
-0.904102325439453
-0.622691750526428
-0.241947889328003
-0.684106230735779
-0.582850933074951
0.164042353630066
0.646384954452515
-0.594710230827332
-0.614222526550293
0.0477079153060913
0.126735925674438
0.070193886756897
0.573194026947021
-0.560928463935852
-0.408194780349731
-0.742494463920593
0.763700485229492
0.110227942466736
0.350308656692505
-0.833922743797302
0.985739231109619
0.100849986076355
0.908227682113647
0.40296471118927
-0.956856727600098
-0.875561356544495
0.750059366226196
0.639676690101624
-0.453613758087158
0.474573016166687
0.620066404342651
-0.231574892997742
0.443832397460938
-0.5688396692276
-0.696472883224487
-0.441624999046326
0.0529866218566895
0.166685938835144
0.90798544883728
-0.188105463981628
0.591744422912598
-0.847536683082581
0.644500970840454
-0.97919499874115
0.209641933441162
-0.935115933418274
-0.891101121902466
-0.47736918926239
-0.480894088745117
-0.808332085609436
-0.936980009078979
-0.843150496482849
0.62670373916626
0.338112711906433
0.715970754623413
-0.578858256340027
0.664393424987793
0.233344435691833
-0.494626760482788
0.127641320228577
-0.179226398468018
-0.563432812690735
0.378615140914917
0.559185147285461
78.8285966528827
-11.3750303936077
0.468525989508809
-1.06439042679523
-0.591634678145374
-0.819701606305866
-130.158489714976
-65.7063485681076
0.480088693068035
0.964175720924402
33.3029998000739
81.4154648742191
14.2920518718709
61.4172231683244
-79.4111895870131
-16.7884369395253
-0.182809058032534
-0.228159077964411
-0.701040760734095
-1.09380400291744
1.0561666143176
0.0692361093753159
79.0430907258261
-103.249755663725
49.582044650312
125.284356355476
-16.3632843821594
2.09850162876346
-0.522142660649726
1.22222162387574
-1.68309465489225
-118.690819615202
-164.649233419169
-1.18300422408046
-0.870256427543146
-32.3128579809311
91.8882494405791
149.293194296818
51.0363995621786
-40.7479997240411
-5.74981333546677
0.291761700586714
0.293504843000431
0.665665158925658
0.23624528915305
-0.399201081918522
0.964169220480585
133.436000940403
-64.5783498090738
83.0708216144375
47.3411749162037
-19.2899048758165
-28.2011152005385
-0.817372031569806
19.8667872965683
8.02619622596137
-29.0345757569249
-39.523002611746
-0.272081160656873
73.0798880837318
-94.3517420284831
-3.0188300692855
190.778333699018
55.7989928502894
-182.905528663973
23.7048539909375
26.4065025648142
31.2575866391118
-1.53227839122464
0.722936608743445
-0.807718882120258
-0.762869500097168
50.4011886793533
-58.6172137890864
53.597865847915
-67.7535637467347
-31.3828256834713
-26.8114181809461
-0.651033119607146
18.2372069496015
-23.4380507805041
4.76602385963873
-132.896729828289
0.0223582822643569
49.2664827817065
-60.7389232594993
3.81628143679031
68.7392067391159
96.9234491759119
-151.134641548478
24.0585335120304
7.86495943269721
24.7919835144745
0.18633649147671
33.8223825038654
6.36726962827462
5.03007427295179
-38.8811801364405
17.7975628165255
55.6056899867564
-66.8418130450064
1.08201525224469
-26.8481805377042
-0.726414994645293
18.8953594106534
-22.3335286714725
5.0905190559812
-133.409399987629
0.0529224712215709
50.0721290820224
-60.9728787620094
3.34419774900802
67.5523083884002
96.6687348253599
-121.028988772026
23.2098915204151
7.0557828684806
23.6598208243119
-0.863098289597815
33.6834554017765
4.52412735367766
5.73456433852644
-39.6144013097269
17.2314792660723
55.4761818490535
-133.730260665656
-70.9713483774224
-32.0183156965323
43.7166703644487
15.7767704793404
-6.24880053885307
-77.0436919469006
-208.755799601567
0.270989071233881
39.0380304556247
-60.4354654482516
27.4953351014565
79.5657542473449
-27.1908414989848
-75.3024895038297
11.309972696421
50.2095914631723
25.6270038161857
-1.77799571283753
35.6965971257397
4.91716963943763
-26.819986969346
-128.898681975085
54.0852503220495
79.8978599740259
-79.4760618220653
-70.5014715318862
92.2896099824678
44.67314537549
15.3818451572875
56.1985071312354
-60.7233728300218
-157.160021670055
52.9629628426388
39.1606897866376
201.710303231271
82.09033105045
82.8823577584867
-15.4587357423611
-80.4420673119012
78.2625501060096
50.9672705951488
26.112350254542
-1.649436694203
34.1399932314364
6.92869222958214
8.67442014706548
-86.0721978415624
-4.47361534372352
101.49270996197
-78.4249826680507
-24.9574543838638
90.381488514364
43.5402240374086
16.284393351219
56.8545100103781
-60.4073238502626
-158.085341460895
53.0454407698467
38.8707787109551
203.094938560517
83.285424086148
82.6250815810804
-16.7959159992046
-79.7302307641791
78.9130124231921
50.1508494439876
25.2319017939631
-0.643955570278741
34.9061426331012
6.65746570427544
9.28807154706954
-100.823213371426
-4.10545521513007
102.093185630877
45.8644132230503
-112.768543029536
95.4347375536216
0.530011373177107
18.2184317912517
62.9054974608862
-59.9557528348216
-50.3875136394672
52.1693085837318
51.054308892819
213.202227341786
-42.1042154870313
17.3670370532518
104.875620396672
-112.656801737409
87.1882331640126
6.84413178096226
25.215312410207
23.5963958986717
34.2736935921911
5.67249631572587
6.23230500351173
46.6319466787004
-82.0081328321682
-16.0136176940548
-9.71567371679374
-116.265679016584
30.1863505241739
-0.410048617974334
18.840983198586
1.1808291130787
-77.4105426529182
-101.430221264201
-0.380820336658122
49.3506978747177
-49.4987540738658
-98.9112587745099
15.569632198192
94.186748749927
-106.363551208384
19.2837091851296
7.75229623436139
24.4008741845124
23.7034032576769
33.6287253067001
4.00030940558931
7.25737338830725
8.49705948967459
-23.6154809172349
-37.605676038856
70.3962256988368
-110.975246798024
21.6741672021516
0.783555886559293
0.828913167601745
-9.64494283352505
-166.31036089207
-228.296676194625
0.0917707657965902
-22.4885145248174
15.172909810341
-4.04924729023467
-27.5901175803657
49.8869284317256
33.3930385787455
-9.8619616277114
-18.8861688075878
-7.45832560972208
23.7319644740717
34.964315180366
4.74778869781221
9.28984535429676
92.944725895728
-30.6620711627616
-5.47914079883797
124.541296481895
-15.8047590582916
0.684888547785058
-0.817192089589545
0.965035926320194
-1.23453560910062
-117.817502611952
-165.676166850794
0.36874333642064
-0.688340905921441
-32.1200791551712
91.3443367914244
148.071660759907
51.5108146260366
-41.3506882749902
-6.15341760449448
-0.612415726705155
-0.398992171998959
0.208244094548827
-0.536755189591457
-0.394408630060001
2.14241881803003
133.57337128838
-65.7568182748789
84.1552992774777
79.8755989684039
-11.3309787464214
0.281195266699972
-0.836870914618717
-0.770775245924917
-0.292533809217244
-130.209231387492
-64.6464087068099
0.0771245779252127
-0.657498339897132
34.1597212012885
82.3702030143253
14.3531304203023
61.9581086167802
-79.7062092136305
-16.386288215923
-0.440524760089418
-0.801203378043757
0.556666358253942
0.0173519838684461
0.569866622709934
0.483185625122473
78.4150339614957
-103.74048704323
49.6741919306028
-0.178258061408997
-0.0923388004302979
0.918336033821106
0.956013679504395
-0.991125702857971
0.227611780166626
0.814441323280334
-0.800173282623291
0.981048464775085
0.700249433517456
0.729047894477844
-0.0415515899658203
-0.302140831947327
0.0717899799346924
0.548508286476135
-0.802178859710693
0.386479258537292
-0.714285135269165
-0.432621836662292
0.65927791595459
0.947909712791443
-0.735978841781616
-0.855333685874939
-0.109207630157471
-0.136770367622375
-0.811528444290161
-0.139915347099304
0.778228759765625
0.599846243858337
-0.7181556224823
-0.829701781272888
0.576591968536377
0.517744898796082
0.0891835689544678
-0.434824824333191
-0.558722496032715
0.275739073753357
0.259048700332642
-0.775963187217712
0.45932149887085
-0.262279629707336
0.824764966964722
-0.828092455863953
0.18065071105957
0.378908514976501
-0.014326810836792
0.935764908790588
-0.350667476654053
0.192101359367371
0.388379812240601
0.700789570808411
-0.0651750564575195
-0.906075119972229
0.908006906509399
-0.0333846807479858
0.16322660446167
0.831083178520203
0.929442167282104
0.703579068183899
0.0485267639160156
-0.613391518592834
-0.871411085128784
-0.991029143333435
0.923855304718018
-0.11388885974884
0.753616094589233
-0.736716151237488
-0.727267265319824
0.00402963161468506
-0.593791723251343
0.786464333534241
0.76032018661499
-0.130119442939758
-0.677184343338013
0.99416172504425
0.764669418334961
0.47450864315033
0.155904054641724
-0.946021437644959
-0.592027187347412
0.576336741447449
0.255204916000366
0.0417205095291138
-0.912186622619629
0.107615828514099
0.448965311050415
-0.402353644371033
0.508414745330811
0.0806750059127808
0.32519793510437
-0.917281985282898
-0.788108825683594
0.994171500205994
-0.987068891525269
-0.765149474143982
0.609497547149658
-0.260659337043762
0.463458776473999
0.325162053108215
-0.487120628356934
-0.993754029273987
-0.768409490585327
0.814223885536194
0.165322780609131
-0.80997097492218
0.756901502609253
0.508310437202454
0.773004531860352
0.797159552574158
0.144982576370239
0.215649247169495
0.536242008209229
-0.648314595222473
-0.551309823989868
-0.0973290205001831
-0.819256782531738
0.801482558250427
-0.550603628158569
-0.64974057674408
0.988856792449951
-0.575494885444641
-0.0617611408233643
-0.689998507499695
-0.669178009033203
0.235035300254822
0.497370958328247
-0.839562773704529
-0.303981304168701
-0.110066533088684
-0.218788385391235
-0.936690211296082
-0.775782585144043
0.0948880910873413
-0.702304601669312
0.619815468788147
0.736829280853271
-0.489334225654602
-0.310477495193481
0.0268536806106567
-0.731843948364258
0.159361243247986
-0.484591245651245
-0.266723036766052
-0.903359889984131
0.330647349357605
0.531335592269897
0.59614098072052
-0.723885536193848
-0.0119749307632446
-0.528199911117554
0.536954522132874
-0.332947254180908
0.675073504447937
0.331064939498901
-0.302070498466492
-0.532180786132813
-0.0783001184463501
-0.855591535568237
0.0982309579849243
0.245918750762939
0.150389552116394
-0.73062539100647
-0.209772944450378
-0.530753135681152
0.0824559926986694
-0.832977056503296
-0.4842609167099
0.537339687347412
0.644290804862976
0.683178663253784
-0.13770854473114
-0.687376022338867
-0.626386284828186
-0.170317411422729
0.919361710548401
-0.84833288192749
-0.674277424812317
0.0656411647796631
0.434630513191223
0.436427116394043
0.479743361473084
0.0786764621734619
0.470231652259827
0.605502605438232
-0.355119824409485
0.066176176071167
0.559002041816711
0.685382843017578
0.866665244102478
0.516543626785278
-0.639268279075623
0.32169771194458
0.333208918571472
-0.509552240371704
0.818413853645325
-0.689532279968262
-0.218550324440002
0.40207314491272
0.814494729042053
-0.370645999908447
0.403404116630554
0.30036997795105
0.327123761177063
-0.0310916900634766
-0.747583031654358
0.650304079055786
-0.913596510887146
0.76382303237915
0.149411082267761
0.614106893539429
-0.269360423088074
-0.275818824768066
-0.910862565040588
0.832525491714478
0.46259081363678
-0.133293628692627
0.146425127983093
-0.293927431106567
0.205719113349915
0.0460128784179688
-0.117568612098694
0.176276445388794
0.260439515113831
-0.0141444206237793
0.25089156627655
-0.993068933486938
0.460370182991028
-0.189620018005371
0.00436913967132568
0.565346002578735
-0.171417593955994
0.0753722190856934
0.600505709648132
-0.896403551101685
-0.266149401664734
0.299509048461914
0.60827100276947
-0.460226774215698
-0.453097701072693
-0.00439214706420898
0.614212870597839
0.739232778549194
0.796668171882629
0.201876640319824
0.62870728969574
-0.704152822494507
-0.173467993736267
-0.486835956573486
-0.00779163837432861
-0.186745882034302
0.950580716133118
0.612209320068359
-0.218501687049866
-0.31389307975769
0.109854340553284
-0.699107646942139
-0.284062504768372
0.381324529647827
-0.971403956413269
0.0314836502075195
-0.436285614967346
-0.780658483505249
-0.129497885704041
-0.062105655670166
-0.95190441608429
-0.344641923904419
0.394971966743469
-0.633073806762695
0.253675818443298
0.0605900287628174
-0.38664186000824
0.909521579742432
0.532627940177917
-0.99648118019104
-0.0547837018966675
0.932013511657715
-0.0890470743179321
-0.968858480453491
-0.125444769859314
-0.392624378204346
0.99472987651825
0.950220823287964
-0.893913149833679
-0.55352783203125
-0.623633980751038
0.608535051345825
0.221476197242737
0.329308032989502
0.540846705436707
0.176128149032593
0.835591435432434
-0.96372127532959
-0.728014588356018
-0.0734403133392334
0.252753853797913
-0.720579624176025
-0.441326260566711
0.518154859542847
0.622987866401672
0.233659744262695
-0.998868584632874
-0.224745512008667
0.598271012306213
-0.431935787200928
-0.282843708992004
-0.0305349826812744
-0.511216044425964
0.977091789245605
-0.251625657081604
-0.399091482162476
-0.0808395147323608
0.211841106414795
0.966489672660828
-0.320527315139771
0.984737515449524
-0.388698577880859
-0.520465493202209
0.506060838699341
-0.0921949148178101
-0.866397380828857
0.538119196891785
0.953841924667358
0.193856358528137
-0.112734794616699
-0.0583177804946899
0.249500513076782
0.287837624549866
0.162450313568115
-0.0552598237991333
0.254486799240112
0.730398297309875
-0.0377902984619141
-0.336862206459045
0.246266603469849
-0.185859084129333
0.0337357521057129
-0.0197020769119263
0.199571371078491
-0.260128855705261
-0.600388526916504
0.953471541404724
0.56764817237854
-0.727152228355408
-0.610939502716064
-0.280012249946594
0.563509702682495
0.899032711982727
0.169197082519531
0.903503775596619
0.941184282302856
0.481341004371643
-0.223723888397217
-0.479745030403137
-0.723034143447876
-0.58410918712616
-0.353056907653809
0.385304808616638
-0.249336004257202
-0.711746573448181
0.649484157562256
0.0187948942184448
-0.573146104812622
-0.970296740531921
-0.384923934936523
-0.947805047035217
-0.963873624801636
0.57346785068512
0.369036197662354
-0.865447163581848
0.256337881088257
-0.989022135734558
-0.737927436828613
0.338744521141052
-0.506139516830444
-0.751882910728455
41.3038923043143
-4.8507014873034
0.130294583449859
-1.10960074986806
0.497587747455071
0.558826215557199
-86.8774191116186
16.3892629696248
0.487275998613657
-0.707593035359306
55.738500952327
124.911641792477
39.4758427789334
36.4702635774902
-148.384466657376
36.216512474799
0.698853762411174
-0.567629720885976
0.907380792975491
-0.445397437442414
1.48711743583339
0.48824478067905
115.801696395753
-9.80904437933752
-49.9085274033268
47.7251430584321
-18.9791524582773
-28.2287413708222
-0.300471050341185
19.6470919519993
8.82560320050402
-63.97571879282
-40.423309563826
0.53074532151435
72.5326078811935
-94.6756012622446
-3.06916533616811
201.717670425115
94.4034074734806
-182.606044735946
24.139556805594
25.5552258568333
32.5846980401458
-0.195887431065538
-0.0942526348996622
-1.2966482684764
-0.30817048261091
49.4823804742781
-57.7868694869172
53.426981372687
-66.5222488537661
-18.0389591512475
-26.8127773397078
-1.04028048343239
18.7154504951158
-23.1718376368389
6.08134624215176
-134.00353665098
-0.1429612153894
49.9870599993737
-60.4346958806924
4.23442318680501
76.8915020027757
96.6940806243037
-149.69304520287
23.9480455960391
7.43846475364565
23.9440523422931
0.24970678655302
33.71350119582
4.57916333967936
6.40717640465498
-40.1935483274811
17.9448176869732
53.8490848816977
-67.4781962183111
-31.27642995041
-27.2717935269154
0.645813660656905
18.0995000630376
-22.7847111942409
40.8473631965277
-134.218448809818
-0.0387821742991404
50.8674415887888
-60.2875051438433
4.27839699032521
67.2343727115973
95.5983897778605
-150.606290046353
22.1637322749255
7.7385482716739
24.0773711241458
-0.875957566817648
34.1426182793695
5.51044001871836
4.83246257847547
-38.7517554817551
18.293601029182
53.8679544182108
-134.423758181861
-71.0203726162106
-55.4072910147678
43.9715117669569
15.9323575658028
-6.85877840230208
-43.4009572571079
-217.330087847522
-0.971974245231421
39.7269074434391
-59.1819343078799
25.8666555892418
79.6202800715472
-27.5343776223437
-74.8358378257704
11.6875017869018
51.1045000922908
25.4599689484591
-0.682576220291095
34.2672247585853
4.75538813854652
10.108932686808
-128.291513597928
54.1523230853728
80.0555412612924
-78.3167152729809
-69.9782774819994
70.8013206184737
43.9340779347956
16.2965951208098
57.4877354386438
-25.8187656317459
-157.580195326287
53.2424711212606
39.4831027313606
222.493149764755
83.2161191220247
83.8183513048916
-16.2872466181087
-79.1499716765449
76.532177129334
50.0622907350097
25.2148742598019
-0.475811391591255
34.3124624525007
5.95248408829998
9.068151174556
-86.3848323779396
-4.92376192375375
100.840003683812
-61.7181338810721
-70.5622557773256
71.4641006385174
43.5901385112345
15.2731155399307
56.099067735969
-26.4004431877838
-157.21712352182
53.1747114113049
40.0005305334465
202.279700151518
82.6207720751726
83.7951883438854
-15.4146082532437
-77.3577463272694
77.953109303063
50.7539619872604
25.6514571827374
-1.44535019946022
34.5754489932951
5.97604172919493
7.93869215108035
-85.9394484715751
-5.05593415065957
100.499581887967
-11.7384488984827
-154.0659547958
89.8705353788743
44.5688896760908
16.3060982794317
79.6272275720647
-108.270547770066
-126.647906021994
52.021345572047
38.7818311262212
213.708486971351
-18.3786529351315
29.197249645285
-19.0093028972496
-35.9076923338318
72.259165811892
50.131389418141
26.7103821135251
21.582087417303
35.3942583460031
4.5581604757457
9.43002620116578
-38.6103194269043
-45.089558438428
9.18523584469294
52.9791934540449
-113.905718581226
95.4852928159161
0.481268800710928
19.5498228709163
62.8567897245554
-24.8982994193903
-51.3083430608126
52.951917082668
47.2204052696533
212.567537850463
-41.4263709970547
18.219528651038
103.557595888124
-111.22293964953
84.1587802603326
8.07844312006015
24.8410618368005
22.2385353860027
35.2941017825398
5.25945769824158
4.99550578769069
50.11654265363
-80.8606733493094
-14.4656118874422
-9.28396041240414
-114.475071873167
-7.48755063209305
0.552187807051275
18.5418223640066
-0.179080205028818
-41.8013387944624
-101.731331912718
0.0993536875352
51.1446092786742
-49.0307888950406
-98.0268947167915
41.1457945468821
92.918519725396
-107.41471977161
18.2321946791397
8.61381344039977
24.1620935581572
22.8876996935792
34.1798559766706
3.52304819372437
6.64324163610905
8.17195740951756
-23.2697532209358
-37.2479488083293
-8.70427532043179
-115.782608594397
-8.984496132467
-0.323308699639703
20.1424000524395
1.47245709412737
-42.2399594809935
-101.588443485937
0.0646093056305986
49.4420817116741
-45.1790771279271
-98.7463891788047
40.1031154921966
93.3725129266518
-106.35836441444
18.1831208867465
-4.85111886389652
24.0053670786269
22.7430109681077
34.8335266452726
3.77822271135589
6.60415851290196
7.98488549007635
-23.4205735954246
-37.7843792864253
12.494896889
-26.0750440780314
1.84367131713268
-0.0093116453347299
-0.321012003486807
-32.920568779232
-82.5730953893913
-258.478813066603
-0.346398440289229
-23.2310680901783
4.1278779792129
97.8745624279677
35.382046131164
53.9061831222164
-11.1074596120929
-6.08618992115913
-17.4613862938134
-8.74053053454754
1.08065201498485
35.1524707718127
6.98609273903642
7.06262357240974
44.8405955732753
9.73719938544013
86.5535171535212
80.3913455875049
-11.8703025800436
-0.791475986294554
-1.05428883014061
-0.316960398753393
0.436220472571738
-131.08933418748
-65.8709682736345
-0.182873810246674
-0.323795775391547
34.0074760310082
81.8514520815805
14.4352167145838
61.5376203559543
-80.614327529659
-15.6242067848227
0.76460392503
0.686536603828366
0.293858692708456
-0.284189651242452
0.249688006359762
0.639786400957919
77.8835810990686
-104.465896719461
50.2926327338288
0.115017294883728
0.0839874744415283
0.720900177955627
0.0536923408508301
-0.300274968147278
-0.296600580215454
-0.757941126823425
0.852032661437988
0.719254851341248
0.90115761756897
-0.620258688926697
-0.253885746002197
0.615623354911804
-0.0237877368927002
0.362096905708313
0.676488876342773
0.692175269126892
-0.356470823287964
0.169228196144104
-0.6721510887146
-0.980166554450989
0.315339803695679
-0.310559153556824
0.660277366638184
-0.156651139259338
-0.117608785629272
-0.62450635433197
0.940497875213623
-0.512449383735657
-0.00480389595031738
0.400848507881165
0.273124694824219
0.763595938682556
0.845282793045044
0.315920472145081
-0.368087291717529
-0.1247798204422
0.446445226669312
-0.795672297477722
0.391007423400879
-0.175013184547424
0.415992975234985
0.339141488075256
0.356194972991943
0.320537447929382
0.256001234054565
-0.660863757133484
0.296152114868164
0.18084180355072
0.134560823440552
-0.174960494041443
0.973696231842041
0.242447733879089
0.167028188705444
-0.424218058586121
0.677035331726074
0.76573121547699
0.197275400161743
-0.815252661705017
-0.748981952667236
-0.658853650093079
0.0789401531219482
-0.783977389335632
0.628383636474609
-0.704524636268616
0.45667576789856
-0.139352202415466
-0.138988018035889
0.598078608512878
0.0474011898040771
-0.907133936882019
0.65117359161377
-0.732855439186096
-0.578449010848999
-0.673626303672791
-0.617220401763916
-0.72406017780304
-0.715674638748169
0.570570111274719
-0.347368240356445
0.959059119224548
-0.743059873580933
0.0868078470230103
-0.698327541351318
-0.0813246965408325
-0.84212327003479
0.544642567634583
-0.0537652969360352
0.430789351463318
0.784132242202759
0.678083062171936
-0.990707874298096
-0.6485196352005
0.192469358444214
0.441841244697571
0.251708984375
0.523155570030212
0.480666399002075
0.667582154273987
0.803490161895752
-0.319199681282043
-0.931232690811157
-0.779826045036316
0.69503116607666
-0.141771912574768
-0.519668340682983
-0.346062064170837
0.888368129730225
-0.705669522285461
-0.376315355300903
0.368898510932922
-0.191572189331055
-0.160672783851624
0.573167085647583
0.267033219337463
0.374277591705322
-0.138983845710754
-0.149614572525024
0.908522725105286
-0.469624519348145
-0.348976731300354
-0.794538259506226
-0.831999182701111
0.277820110321045
-0.668947339057922
0.898283720016479
0.390804409980774
0.205600738525391
-0.740863442420959
0.479754686355591
0.0492235422134399
0.521847248077393
0.935885310173035
0.0730435848236084
-0.101248621940613
-0.414919853210449
0.41073739528656
0.154834985733032
0.634334206581116
0.935460567474365
0.188209414482117
-0.163420915603638
-0.953378558158875
-0.173959732055664
-0.365853905677795
-0.354258298873901
-0.321784377098084
0.254011631011963
-0.118029713630676
0.807054281234741
0.979922413825989
0.491957664489746
-0.761067032814026
-0.97623610496521
-0.0329993963241577
-0.880897998809814
-0.907636761665344
0.758883237838745
-0.624587893486023
-0.447441101074219
0.315918326377869
0.0164406299591064
-0.681928038597107
-0.921416759490967
0.175833582878113
-0.377269983291626
-0.55890166759491
0.383820533752441
-0.262827515602112
-0.992439031600952
-0.419937491416931
-0.413443088531494
-0.229923367500305
0.485508680343628
0.916238903999329
0.767969131469727
-0.843984246253967
0.0371639728546143
-0.36714494228363
-0.996625423431396
-0.205962300300598
0.590383291244507
-0.928658366203308
-0.106518745422363
0.00701844692230225
-0.198461294174194
0.387582421302795
-0.404362201690674
0.447912096977234
0.336767911911011
-0.29183566570282
-0.644916534423828
0.506000876426697
0.653224229812622
-0.213372588157654
0.536198139190674
-0.786854863166809
0.28032660484314
0.159714818000793
0.153752326965332
0.650033354759216
-0.398990392684937
-0.196377158164978
0.904157161712646
-0.147567868232727
0.132973432540894
0.290250897407532
-0.303285598754883
-0.782563805580139
-0.69006609916687
-0.556548476219177
0.684866428375244
-0.59028160572052
-0.237127542495728
-0.504719614982605
0.797446250915527
0.76777970790863
-0.898713827133179
-0.257753729820251
-0.230072498321533
-0.789800763130188
0.194437742233276
-0.298438906669617
0.675674438476563
0.641884207725525
-0.0473945140838623
0.767389893531799
0.957191944122314
-0.139680027961731
0.608333349227905
0.367100834846497
-0.0426244735717773
-0.0381799936294556
-0.502319097518921
0.617515206336975
0.950761318206787
0.247775912284851
-0.658526659011841
-0.518842577934265
-0.325223922729492
0.630907416343689
-0.973448514938354
0.422505021095276
-0.639012813568115
0.541512370109558
0.887021780014038
0.564238667488098
0.266352653503418
0.333716750144959
0.485506296157837
-0.656507849693298
-0.295528888702393
-0.80827534198761
0.894392728805542
-0.331897616386414
0.576831817626953
-0.463931679725647
-0.522915601730347
-0.427140593528748
0.404064655303955
-0.0701419115066528
-0.830749750137329
0.3757563829422
0.857190132141113
0.485032439231873
0.260074853897095
-0.665760397911072
-0.211130619049072
0.768607974052429
0.673508405685425
0.801458477973938
-0.235345840454102
0.208929419517517
0.749516725540161
-0.117484450340271
-0.905763149261475
-0.998080372810364
0.525331258773804
0.590716481208801
-0.637299537658691
-0.482670426368713
-0.483300924301147
0.503820061683655
-0.538231372833252
0.204988360404968
0.999132871627808
-0.0797117948532104
0.121055603027344
0.00105321407318115
0.789160966873169
-0.484464049339294
0.939316272735596
-0.765740513801575
0.525577306747437
0.498181462287903
-0.0843038558959961
-0.967829346656799
-0.54930853843689
-0.733703970909119
-0.519018650054932
-0.772571682929993
0.69157862663269
0.563654065132141
-0.971151351928711
0.764002203941345
0.0413296222686768
-0.864016890525818
-0.052884578704834
0.603440165519714
-0.759699106216431
-0.112786173820496
-0.851010322570801
-0.868881821632385
-0.242635488510132
0.535730004310608
-0.895679950714111
0.0624903440475464
-0.928841829299927
0.770618557929993
0.370845794677734
0.849338889122009
-0.548664808273315
-0.0920804738998413
0.625446796417236
-0.413975834846497
-0.760185480117798
-0.953123927116394
0.195393562316895
0.415734648704529
0.632030725479126
-0.273815512657166
0.089597225189209
-0.563263058662415
-0.0418159961700439
-0.919755816459656
0.52985954284668
-0.891374230384827
0.464490175247192
-0.504592299461365
-0.0178771018981934
-0.841426014900208
-0.405569314956665
0.766230702400208
0.68772029876709
-0.0124174356460571
0.770002603530884
0.751721978187561
0.694625377655029
0.576730608940125
-0.327031373977661
0.531593441963196
0.388702392578125
0.893425345420837
-0.9738929271698
0.0625101327896118
-0.475043773651123
0.797652125358582
-0.125538110733032
0.334340214729309
0.758782386779785
-0.551775574684143
-0.633407354354858
0.0264049768447876
-0.32278299331665
-0.790966153144836
-0.964175462722778
0.663728833198547
-0.66981315612793
0.0553001165390015
-0.418501615524292
0.273289322853088
-0.738240718841553
0.479821085929871
0.150220632553101
-0.459732890129089
-74.9937883991498
-1.11183168721385
-18.5732388605724
0.166843087292856
19.0326279119924
14.2631228360894
111.500745718624
66.3863323039826
-0.609936456865787
22.4141424982401
38.0962254876164
58.349986586545
135.607987812273
2.9472210688926
1.88575013928414
25.1239897472193
0.658917506666121
32.7189209734432
3.56960150490271
-0.589416143396524
-0.180863530169036
-2.07734375661666
93.0516148609864
-212.784886833597
-83.3343949924704
-33.1555250208255
-7.61306065826025
-26.9558372644267
0.109707264398885
19.1175853671256
8.26122687887015
137.307574244012
24.3708663580954
0.300849827757117
72.8523013457941
-127.470582454782
-85.9487227214718
178.14762273981
34.3466498840646
-102.417272114113
39.4909448804511
25.7543823009368
31.1037221545121
-0.00747236075879197
-0.800495201016255
-2.33161186787859
-2.36426079699755
-26.7564090433779
46.4909828788104
2.68000107668971
-146.5389006165
-19.9826767139207
-27.6116868166863
0.579479206429748
19.5747779098759
-22.9513500109349
170.343462694189
-69.1317068441713
-0.181881981989938
50.4627950523066
-93.9125564150869
-78.1174098951482
54.1339253088829
35.304562798434
-70.5323725195697
39.4938013378504
7.80165387895841
23.7573127977287
-0.812528361329192
34.8953306714629
5.52839026093446
5.50000866192365
-116.82830310998
121.868749252974
5.460908716928
-264.365513285331
-59.8756165903993
-32.899919677758
45.2922391724595
15.4412656739473
-5.71903837363309
67.6393594225198
-233.790278705806
-0.986375481759478
40.5201316671909
-57.3196825181909
-180.209014863609
10.5499677866081
-84.2420814935558
-102.717917431243
28.2164565668599
50.70907676007
24.7149280229308
-2.1112643088504
35.856176696292
5.84418644398517
7.91845421711924
-317.222631465407
328.123209512857
26.2675659298308
-180.959124243156
-51.9845141336832
-4.25045151693232
44.9345847310036
-3.58969830455458
-16.0119814436917
-49.0358722862592
-168.41300861528
0.804337321310136
-33.4175086529378
35.5644355725552
29.5896935593566
-112.468805323948
-121.762805596885
106.677332388077
-12.135732197953
23.5850096125818
-6.26636667525743
0.287386507986359
35.1267656923213
7.02444373452918
10.1774717037313
-178.089636644234
112.078191429606
26.736111989345
-11.6713494401105
-39.9409533428304
98.7802548722715
44.0387547767967
-3.9016747975269
79.7393622464996
-65.7525518323331
-24.1888098155596
53.6493022889202
-10.1942472208931
262.221117799285
79.3151521189913
14.6697114968706
-113.522228319404
70.3119522735621
54.5282468118591
41.9346879513803
1.17555122525254
0.182182342731741
-0.487934410413804
1.11068485142141
1.82954427439005
-48.3211282722024
-21.754370342821
47.7470239688968
43.8591717429976
-124.858874099024
118.225745778812
45.01210629437
-2.68355634711026
103.705673706329
-148.36938902944
6.78027716298809
52.8642588699036
-9.71343112638981
273.634534798776
-21.3690887640721
-37.9675364073238
-116.522232446261
115.395571438004
50.3613973781057
42.7184386980141
1.55070293096954
22.1487402605331
0.341170187807363
-1.32860166868624
2.85253902375356
0.0314938698349797
-63.1018621243992
-45.5860373917817
1.61081313658773
-117.579778582669
118.058020308325
73.6097502085526
-2.84837347187165
102.600084365987
-104.101091570646
88.1288178330083
53.3733572418971
-9.57183609564682
295.527121050436
20.3135237815956
-13.4247548586146
-139.398410669579
46.0195169473617
100.471293773991
42.2539491563522
1.6108223627289
22.3440849832081
1.23886915643863
0.201889858755802
2.82374273779631
39.9799986268605
31.4330857403918
-145.137662718411
-24.2520533418729
-87.7828164403593
-9.1421657004244
1.32078128306129
17.9890929720573
32.9034457110822
40.349496375519
156.208090636992
-0.0765038994804112
72.6085483830889
-52.7084155639786
-196.034293222066
-11.2910447643006
39.3781595528813
-96.3422007218735
24.0744725243558
26.5120119486941
31.8052928785114
22.5901958221696
-0.290465145018828
-3.21787764203905
-2.26389996571076
-34.3712632033313
-33.3035744524214
-123.262718389155
-166.767000742984
-99.3498296267974
-9.29766557618122
-0.75476152715555
13.0589693570679
0.330083823420735
76.3926657706289
62.3740748245399
-0.128504014055893
50.1280289091533
-16.9794285728886
-188.909862075709
-133.103008129217
40.9862413629721
-64.6739210957447
25.0255287307481
8.31966474848694
24.8627984501642
23.0141317547743
33.8717571886871
2.2446184836045
6.02052588095455
-122.596689245255
42.4744638142898
-120.37526358923
-87.5303809113842
-111.458908413811
-10.2080319304918
0.148943865344828
18.4543275224216
0.811831487195294
-54.7681746173811
-2.7829572841362
0.597751677278701
49.687694598115
17.5269462995354
-106.950664205539
-120.152374666133
103.420404565177
-145.633280541374
6.97846769900722
7.75975416138513
23.3547311340097
23.3859806217762
33.9860810929714
4.14133290960382
6.31193775200402
-46.2677558963091
-62.6786551475268
-71.3234165733654
-113.318175972057
-25.3862241974583
-28.7299718872925
-1.50962927250017
19.2827892951259
-22.0161006372306
26.8566202766405
-32.7952044628031
0.820137024777392
49.2212687337905
5.3486795240003
-6.51142296961654
-66.8433602423928
105.84480639902
-189.059184623647
11.6294472768799
7.40178681051847
23.3176686552492
-0.191397827870274
35.0287447309105
6.09739479935564
4.59234061143599
-91.464208153373
-20.3275985502833
20.1623950409909
78.4254866511951
-10.0513390523642
-0.512526725582883
0.401343856474377
-0.0612998648483639
-0.697755777082378
-131.077445979784
-64.1568869117615
-0.765184485629213
-0.358019342929128
32.9454273350018
81.9690290602782
14.7001548377867
60.4835349215658
-78.9913014555553
-16.4147737678706
0.193755481005336
0.413134535094582
24.6344183142425
0.034638431608698
-0.618650126315464
0.45998119672344
78.826250946878
-103.553184687993
50.7874725400037
-0.0468999147415161
0.133703947067261
-0.62014377117157
-0.847492218017578
0.676227927207947
-0.544956922531128
-0.556329131126404
-0.622432231903076
-0.748463749885559
0.47765326499939
0.630234837532043
-0.445307731628418
0.00971353054046631
0.834469079971313
0.165744423866272
-0.369707584381104
0.236526370048523
-0.706809282302856
-0.127900958061218
-0.236330032348633
0.579069495201111
0.53753399848938
-0.176848769187927
-0.641732692718506
-0.04798424243927
0.448480367660522
0.500956654548645
0.592917442321777
0.94386613368988
-0.114473104476929
-0.547975897789001
0.453094005584717
-0.276800274848938
0.967936277389526
0.443565487861633
-0.737838745117188
0.444923758506775
-0.144013166427612
-0.880254149436951
-0.287375926971436
0.156523585319519
0.0322225093841553
-0.842066645622253
0.397377967834473
0.204312682151794
0.0827028751373291
0.924949288368225
-0.159040927886963
0.139682650566101
-0.0217468738555908
0.633318066596985
-0.969205856323242
0.125353217124939
-0.144285917282104
-0.00248277187347412
0.448450565338135
-0.158377766609192
-0.700807809829712
0.390227437019348
-0.399113655090332
-0.107384324073792
-0.878690481185913
-0.501417517662048
-0.948299884796143
-0.28746235370636
-0.355546236038208
0.480419278144836
0.952381134033203
-0.028079628944397
-0.517971754074097
-0.379472136497498
0.0735592842102051
-0.516125798225403
0.819701910018921
0.48690140247345
-0.663744926452637
0.610337615013123
-0.803340673446655
0.586986184120178
-0.156870365142822
-0.831672787666321
-0.213149309158325
0.523931622505188
-0.590265274047852
0.836187720298767
0.180241823196411
-0.347159743309021
-0.404237270355225
0.0598419904708862
-0.335935831069946
0.237017750740051
-0.763703346252441
-0.540959000587463
-0.995935201644897
0.104222893714905
0.473060131072998
-0.266386151313782
0.725756406784058
-0.19708240032196
-0.714332580566406
0.0697177648544312
-0.104332685470581
0.258516907691956
0.522873401641846
-0.953911900520325
-0.597408533096313
0.929638981819153
-0.566176414489746
0.0402883291244507
-0.26116156578064
0.464355111122131
-0.300695896148682
-0.865039944648743
-0.71851658821106
-0.143560290336609
-0.0370082855224609
-0.475926995277405
-0.926382780075073
0.101620316505432
0.862703800201416
0.419175028800964
0.105596303939819
0.353827595710754
0.561648368835449
0.455642104148865
-0.903707265853882
0.581445336341858
0.779674053192139
-0.401071667671204
0.774344205856323
0.723560452461243
-0.675479888916016
-0.449184060096741
0.659404039382935
0.346212983131409
-0.876933574676514
0.655665278434753
0.343391180038452
0.798646092414856
-0.247416496276855
-0.693335175514221
-0.728259801864624
-0.130443930625916
-0.528017520904541
-0.147918820381165
-0.975348711013794
0.943342328071594
-0.24693489074707
-0.998490929603577
0.0983402729034424
0.656357407569885
0.311773777008057
0.732121348381042
-0.813711404800415
-0.946843028068542
0.63944149017334
-0.305081009864807
0.960493326187134
0.242749810218811
0.0340418815612793
-0.879018902778625
0.352717161178589
-0.445152163505554
0.131439208984375
-0.772285103797913
-0.66426157951355
-0.803883910179138
-0.063361644744873
0.125105738639832
0.204601049423218
0.406422734260559
-0.644965171813965
-0.778032898902893
-0.642135381698608
0.115089058876038
-0.7763352394104
-0.867809414863586
-0.421145677566528
0.0971394777297974
-0.15754508972168
0.0809959173202515
0.816910982131958
0.629551529884338
0.00547266006469727
0.811180949211121
-0.531358957290649
0.647505879402161
0.53217601776123
-0.010628342628479
0.159166574478149
0.400636315345764
0.29866361618042
0.112272143363953
0.0233752727508545
0.609279751777649
0.768924713134766
-0.0870853662490845
-0.512829542160034
0.120726227760315
-0.973910808563232
-0.73309051990509
-0.451278924942017
0.0654689073562622
-0.696322441101074
0.598695158958435
-0.440288305282593
0.513454079627991
-0.98314905166626
0.787788271903992
-0.493407487869263
-0.369668841362
-0.706338882446289
-0.42496645450592
0.791829347610474
-0.666297316551209
0.00630044937133789
0.468853831291199
-0.484846353530884
-0.550625681877136
-0.697648048400879
0.151500105857849
0.254812479019165
0.367604851722717
-0.363960742950439
0.385301470756531
0.34881854057312
0.199356198310852
0.299476623535156
0.418915152549744
0.676200151443481
0.432543396949768
0.453918933868408
-0.106423497200012
0.938251256942749
0.0882846117019653
0.661011695861816
0.249348998069763
-0.560218572616577
0.377151131629944
0.914041042327881
0.63137423992157
-0.629634141921997
-0.144582629203796
-0.830816268920898
0.296121954917908
-0.414404630661011
0.0813108682632446
0.376757144927979
-0.482360005378723
-0.111673593521118
-0.228737711906433
0.0124692916870117
0.993804335594177
0.809931039810181
-0.54384458065033
0.108668804168701
-0.247430920600891
-0.108453035354614
0.637577176094055
-0.214405059814453
-0.441783547401428
0.465327501296997
-0.555932402610779
0.282627582550049
-0.182393193244934
0.935691595077515
0.787369847297668
0.489537239074707
0.986428618431091
0.560573816299438
-0.981319785118103
0.977735042572021
0.475448489189148
-0.267325639724731
-0.915101885795593
0.531522750854492
-0.943238854408264
0.760709047317505
0.184876084327698
-0.820657253265381
-0.229960560798645
-0.849340677261353
-0.07433021068573
-0.274971961975098
-0.671215653419495
-0.612977743148804
0.978788018226624
-0.220947742462158
0.026574969291687
-0.785939455032349
0.236442685127258
0.289779663085938
0.1433185338974
0.417052507400513
0.467798829078674
0.574715137481689
0.851500391960144
0.10354208946228
0.475224614143372
-0.148245811462402
-0.377565979957581
0.484588861465454
-0.24945867061615
-0.729567050933838
0.132511019706726
-0.843981981277466
-0.36872661113739
0.443178176879883
0.669451117515564
-0.120329618453979
0.956898331642151
0.47655725479126
-0.961447834968567
-0.135347604751587
0.225096821784973
-0.497471809387207
-0.0310598611831665
-0.451413869857788
0.248002648353577
0.709689617156982
-0.980180859565735
0.878859281539917
-0.691547274589539
0.874530792236328
0.986721396446228
0.0938751697540283
0.816237092018127
-0.60731840133667
0.807757258415222
-0.995697259902954
-0.535651087760925
-0.189837455749512
0.969865202903748
0.77432656288147
-0.114765524864197
-0.145365238189697
-0.584938168525696
0.2028968334198
-0.192956805229187
-0.0333499908447266
-0.0533081293106079
0.504979372024536
-0.290122389793396
0.3309006690979
-0.864321827888489
0.592805624008179
0.982043385505676
0.407469749450684
-0.273228287696838
0.857122659683228
-41.4630215329937
8.15719722154487
0.615285891654472
-0.631769713783074
0.288343876444062
0.61179416357226
45.5205281030202
81.3886859479969
-0.116868415344725
0.796068931537967
21.7478977681204
42.2512979580746
25.9391045143311
-24.612304050154
-68.8912255416674
52.8360358221171
0.700194038736634
0.796743791843899
0.428427017139131
-0.620433360355849
0.926525529746119
0.018171339660728
38.7373736611393
94.3890064881049
-100.890816524978
-78.6324552579153
-4.04531642458847
-29.3700883327852
0.521122528014596
18.1393986893304
9.0233708081965
124.385372930455
124.273127877128
0.619790054536545
73.9010993636776
-63.599341478328
-95.5994452001067
43.4692122484632
43.396696768548
-139.60473544384
29.6505451372501
26.7393320274767
32.557285164072
-0.865925663053886
0.544067537696082
-1.97161412172896
-3.18805876737941
-82.9159220167498
6.56023592049656
-30.8092156083266
-146.171141507286
-0.666077247899436
-27.3546468680088
-0.014594539877771
19.4336146110509
-22.7082709503595
171.31688519142
-68.1083877468447
7.59555576091836
50.4650677027548
-94.6187023699136
-78.8575932679861
53.7977572028667
34.0810471210684
-71.2696711929861
39.0470593936204
8.17766711400438
23.6773191096328
-0.108100168401939
34.449032806037
4.43350721343433
4.19713451047976
-119.764466579838
121.157740187624
4.85542222354354
-213.612864379396
-60.3354210139098
-32.7266219023157
43.6680879593435
15.2178538072677
-6.66353697975249
88.0725667550531
-144.852501851469
0.630055899997573
38.8162674539103
-92.943345643543
-55.4883773600993
64.691506373078
-87.4713101025801
5.04504770284085
28.0215481180888
50.9392836675776
24.6172721112844
-0.828442247792223
35.0271477922693
4.15859487723438
7.57684724775065
-208.890749323524
158.168826614481
29.7193748286992
-179.197401560269
-52.1900943954962
-5.68074517942738
43.3044102832433
-3.27181661072715
-16.1164582959414
-48.5455775101435
-169.781119158299
0.980601455845876
-33.0527502681606
34.4221123755845
31.308358916564
-110.938372389652
-121.53468068173
106.640355213927
-12.1407543577462
23.5712724901194
-7.01534543860564
-0.468136713231415
34.5286811131903
7.02723383406543
10.6259441843329
-178.770670960428
113.142454496949
27.5695100964228
-10.7586129814968
-39.3980125463245
99.754764053221
44.9134090690643
-2.78205416802972
79.8514686700267
-66.1593737933089
-24.5383218619127
53.4067595260487
-10.9901601184495
261.331697534793
79.4916322115828
14.7644220333011
-112.570447221462
70.2860417694043
54.9773246984559
42.4747140448219
2.4525973199188
-0.209624635856625
0.0300446862704997
0.67004451421813
2.45267439353495
-37.2998180398055
-22.2198584006638
47.742323628377
-11.5716056734905
-38.6686291969058
98.0703434503141
44.330154135707
-3.75048066450749
79.7728285666866
-65.616934928601
-25.210194120099
52.9310432927952
-11.2140123952515
262.331257294887
79.3839441422392
14.7895126085193
-112.876798048679
71.2733315557432
53.685743425377
43.7135936062462
1.51855140908354
-0.380265223663328
1.3353014106281
0.749269458332815
3.09673586525319
-36.5518814333983
-22.7035363839478
46.2879620704165
46.0203862813657
-124.735868825837
119.198171237571
45.5018764657018
-2.85690924261701
147.935249431684
-148.404830725174
7.02988151704674
52.6124953985873
-11.1541127867825
274.075320403067
-21.5226444022384
-37.5743475816161
-114.937112316626
113.843062390922
48.6459255050608
43.1026871469478
2.11960735720215
22.787961742751
0.930570088063459
-1.09434743820186
3.66066980475381
29.0820790045431
-62.3476515740942
-45.7132520863834
-8.82828213871816
-126.573903359695
14.8853475611246
44.0311332468031
-3.55882323507785
39.8899854936658
-164.92145369822
-44.2230941162482
0.615241159096286
-11.1628117317343
11.2463852780215
-77.6882970352988
-40.933860017993
-127.491296169253
119.590856189553
-16.2601183904598
43.477681982817
1.72652576554899
22.1605627255102
-0.101655055509588
-2.8266539895477
3.5528665746442
-38.97567928878
-4.85157133912606
-66.1237614572304
56.6616498766472
-84.4416647679554
19.2925443886288
0.990671277123545
0.257359999679505
24.2223135948714
-83.5644800641893
31.9988677990873
0.377938221247756
-0.813165863180124
11.2240615775327
-101.544009437193
-53.0993403794587
-2.27566441900856
43.4911476983129
-3.74510667803082
0.588170789274913
-0.110837610383586
24.1578737588262
-0.550589371957345
-2.11530905332636
0.141932209184216
49.1600398238484
-39.8882813259344
-91.1689000231558
56.4347733652976
-99.3709698839807
-11.0931485467412
0.129838951972994
18.6621007175316
33.5033986749705
-89.0259453895287
74.0894183144566
-0.499227575612013
73.5836424547721
-17.3761886458297
-114.866398104466
3.96510827155445
101.288103741052
-176.265939224637
8.73445243915581
27.0826146727081
31.755159896265
23.0146106073831
-0.618693991513303
-4.13092658051897
-1.36471288209221
36.0529685170668
-137.118607716646
-73.5079848264192
-56.0238378469718
-110.344934457244
-10.490764303568
0.429879785154025
18.8278560647056
1.55136696427398
-55.2874670846645
-1.87082002248097
0.758511359675065
50.0864267134995
17.1499481671215
-106.907072912996
-117.872623162794
101.891759930613
-165.848756802252
7.10799223963167
7.78587165339828
23.838513894532
23.7512592783969
34.9066607058488
2.80675494912908
5.51022859647921
-54.8434788017339
-61.7682559963466
-71.8577779964299
-113.482530689508
-25.8843730553767
-28.9633290740494
-1.01574945400565
17.9311222067003
-22.8493158074681
27.0582237975062
-33.720282823239
0.0861005179936881
49.7183549361588
4.44091280338403
-6.27395866933503
-61.1462689478789
104.54231063232
-188.213975953381
45.587732139314
8.08204001080382
23.0572033903885
-1.2573960946626
35.2271820844563
5.96170189000369
5.04288143337877
-105.223006068644
-20.5245246485802
20.6525549374733
-112.213059030072
-11.1333884013878
-0.642819993721232
-0.919488080316895
0.934596296358515
-32.449949934588
34.3245520610821
-93.6425703670474
0.625373827750763
-24.2448381413667
35.7115133378765
6.45793267980569
-123.905248049696
0.659016506791198
31.2275718359474
0.499268307392417
-17.2174439112474
-7.58185100356409
-0.00312567533782681
34.8358264705096
5.99280068648549
5.88496125777675
-89.9426577270112
76.9224168352749
2.39369049259463
-0.795479416847229
-0.173780202865601
-0.538023352622986
0.92714262008667
0.789335131645203
0.304686307907104
0.827846646308899
0.925724029541016
-0.994983315467834
-0.476635694503784
0.0746446847915649
0.976833820343018
-0.0228244066238403
-0.269577264785767
0.582863926887512
0.563992500305176
0.380250334739685
-0.472453832626343
0.672450661659241
0.35236120223999
-0.656242489814758
0.151184797286987
0.75905430316925
0.719991683959961
0.85854184627533
0.253804445266724
-0.989722609519959
0.789076328277588
0.683026194572449
-0.814863443374634
-0.498074412345886
-0.0428018569946289
-0.250538468360901
0.773428201675415
0.874257683753967
-0.0714192390441895
0.0701769590377808
-0.39330792427063
-0.511764407157898
-0.754661560058594
-0.856170296669006
-0.186043500900269
-0.918225646018982
0.318726062774658
0.861655116081238
0.346515417098999
0.925992131233215
0.960389137268066
0.913716673851013
0.759178400039673
0.481460213661194
0.413613796234131
0.69515597820282
-0.508479356765747
0.554453015327454
-0.115423202514648
-0.287557244300842
0.649132966995239
0.953198075294495
-0.426404476165771
0.489624857902527
-0.715128183364868
0.644126057624817
0.206377983093262
-0.0254217386245728
-0.819890737533569
0.40812075138092
-0.934727191925049
-0.554742932319641
-0.874017000198364
-0.00323092937469482
0.520519256591797
0.915943503379822
-0.295353651046753
-0.211388945579529
-0.938502788543701
0.0434979200363159
0.570518255233765
0.945389866828918
0.827977180480957
-0.466391205787659
0.231533288955688
0.068301796913147
-0.358629703521729
-0.952957272529602
0.330391645431519
0.354246258735657
-0.464021682739258
-0.394105553627014
0.425809144973755
-0.747924208641052
-0.209756374359131
0.499836802482605
