12.2801223146468
-159.266779182363
-23.3238689611242
31.6642641956562
34.5760248709456
21.6463499259814
-19.1934284761742
22.5989213322911
17.2293031215903
65.0553359665587
139.225311457075
4.04369181311487
32.8958526303171
21.6193408730109
-223.196571202539
-25.1068295980197
-75.8063543578838
16.2036702831855
-66.6722230382053
5.92152851995886
-36.6127096497119
17.676051038616
12.1283032790617
9.93824597679141
-35.1471343929783
11.2357439147979
-159.524391053129
-24.5037921378896
31.43731009314
33.4320580769316
21.9277376127109
-18.7110534504249
21.547181997231
18.0733639002082
64.8316253103926
138.846028386511
4.7077861419952
33.1998342921136
23.1936019423087
-223.502972574495
-25.0617709899645
-74.4440936586117
16.9995786150566
-67.8330193228809
6.09813124117316
-36.3501594149173
17.8863251389197
12.3787065640883
8.91835936389926
-34.4064442808644
11.3455827581435
-158.974635122228
-24.4158773134038
32.8370177681201
33.6175786066786
22.0922453594073
-18.9927846983269
22.6319997643742
17.4750385284659
64.5332176365568
138.396402775206
4.96620887434841
33.0709283997415
23.5162327053626
-223.903604121469
-24.6866585756045
-75.7140842220043
17.118510266172
-66.7416941590397
5.35479539808692
-36.3370708309711
18.3728162230185
11.7169628039793
9.3854021676636
-33.8780072624699
11.8465754138976
-160.361524222303
-23.728476614742
32.5696154768222
34.9103860665099
21.1170212221011
-17.9017070129707
22.2375508879933
17.8970326185462
65.9262929835036
139.115003882803
3.49192410624381
33.3242270399927
21.6400037767967
-224.050918312334
-25.5417130733233
-75.3829295179104
17.2020725210777
-67.3484600253193
5.61833030161322
-36.5823874556125
17.8479018391303
11.9492987290815
10.0906160720444
-34.3253140146748
10.5584907876998
-159.732255695272
-24.5363261411473
31.6282958919757
34.2039493132369
20.7025180053576
-17.6817569330528
22.5233793591771
16.5775110721824
64.1459660210326
139.047659574903
3.79393261587972
34.4932747532724
22.782640910395
-224.053170533441
-25.9369339490634
-74.6163342735027
17.0344889362922
-67.8673157162754
6.11471671041907
-36.5160046898426
17.8571275652579
10.6714994803861
9.54938002906802
-35.2027045185582
11.5689581977874
-160.523545620847
-25.0077932784841
31.9537080461734
33.3696806240813
22.1544207525119
-19.009755213578
21.7992443179402
17.7493058443305
65.0074127592757
139.207826196112
3.45491224444267
33.9608973910211
22.4030884268363
-223.109459371828
-25.8082285667163
-75.0069670221066
15.594936986791
-67.8393092818348
5.27764564928473
-34.870636233002
16.8935563744238
11.5196105138258
9.50785454593662
-33.7115509207264
10.3707659589797
-158.879774568487
-23.7116894433782
32.2581455642932
33.2531209994093
21.9888408374652
-18.5922391012504
21.659366879395
18.2059254646537
65.4015919842436
139.108174263395
3.38021081602927
34.6809733559488
22.6299454929908
-222.576285453104
-26.1739856744509
-74.235989644215
16.1358866890541
-67.6488038964359
6.14106601652564
-36.3907069050373
18.118197101467
12.2274021998839
9.11433788619998
-34.345576136829
11.591567193225
-160.123355029035
-24.3624177882955
32.7297397787326
34.1551108170287
20.7075540017947
-18.1474264458015
21.8970724677357
16.6513780355689
64.9645262636854
138.596495448507
3.75887519038077
32.8890964438318
22.3482275965293
-223.884085865282
-26.4167221332293
-75.1343671819424
16.0857800444236
-68.3877661891071
6.40079957422675
-35.4234476172031
18.352039355152
10.9940150872663
9.78508027873996
-35.3945464785115
12.2237077104598
-159.600465057302
-23.8140222738073
32.6083569462054
34.3228481817976
21.6685753059253
-18.0481905535057
22.5274653767857
18.3508975506064
63.9688729920103
138.64973944322
4.27529066717981
33.6864076306222
21.7916211845954
-222.345248074793
-24.7652911687594
-74.5174930831646
16.3966567715278
-66.4298934407322
5.73067254003943
-34.6485401474536
16.6087378443411
11.8546569243864
10.1859428533173
-35.170498460056
12.1466564285308
-159.779589531827
-24.1708138892934
32.7362269098514
33.6417529392973
21.9793170881137
-17.9077840641334
21.2633504008565
17.5469290018317
65.544719068022
138.305379926123
4.53383308565973
34.10938877362
22.3018525602897
-223.338466615938
-25.0230623031359
-75.1568994065975
15.9280349215139
-67.9885054297535
5.67494112429084
-35.4116437517704
17.0639422119788
11.866363157411
10.393866146431
-35.6483943159596
10.5177219259292
-159.829919813085
-24.833421678333
32.0398461754077
33.1585074473158
21.0212166499957
-17.434972007592
21.9243820046696
16.7004308700797
64.5494234242155
138.270636974729
4.57495158827661
33.5503643204568
23.1609327557166
-223.086727710031
-25.3902174974185
-75.8446183940624
17.2337455948463
-67.2582985825626
6.41730398115576
-35.0626825176776
18.1639090956381
10.5009107486203
9.56187864624027
-34.9923976356999
11.9446293460876
-159.920334456373
-24.2581006000325
32.7766514951938
33.4347858238951
21.1072985124453
-17.5629685715034
21.2926246260914
17.5179442167518
65.7051597513869
138.853598891653
4.05055314219354
33.3250977446435
23.607118225344
-222.861441345476
-25.382604911397
-74.0428711911892
16.7297491034141
-67.5750444598285
6.22874766764105
-35.205631741196
17.0936112583808
11.08424078383
9.0695789702988
-35.413569896938
11.2773599969894
-159.25116801064
-24.8926751325414
32.4366006786578
33.5612615156905
22.2839017104968
-18.3858689859703
21.5155983304295
17.961205720925
65.9138273873045
138.987239538587
5.24570053732753
33.3264475514291
21.7176928284248
-222.162037225031
-24.6992010617953
-74.0629313728069
15.5744755467046
-67.0878614850132
5.57811182913245
-35.3114634834827
18.4593242586783
11.2174484626249
9.85391589485172
-34.9434605534092
12.2726716148406
-160.079021809507
-25.0083569000051
32.9563754732364
34.3587486553923
22.1960057210788
-19.1608773067787
21.3317121600422
16.9145976305243
65.2234514631941
138.423967896856
5.21371370470882
33.4628133227228
22.5623796942313
-222.582450361513
-25.4039040351611
-75.1759953042721
15.9701858957876
-67.5695481963245
5.28183895525397
-36.3236458384098
16.573874253147
11.5147896901564
9.41391857944492
-34.1045477087513
10.5741703855544
-159.563230035711
-24.4415964792058
31.7886869842762
33.6390358019606
20.8984792423114
-18.523302753289
22.0590031480107
18.1876807213065
64.9143340267851
139.195924698271
4.23902982390284
33.7383053948282
23.5565821888526
-222.652093978189
-25.0588647866946
-75.2444382449841
17.1504903038612
-67.6603881783573
6.0791391747898
-34.9148873173297
16.8206211508444
11.7304816142515
8.77404495559695
-34.8315332825199
10.5699464427978
-160.620016215253
-25.1878639171407
31.1523672277683
34.0483612824217
22.5444041681155
-19.2077816322639
22.7275520896229
18.2116969824073
65.1282959856703
138.571006595053
3.43788081324454
34.0444623877405
23.3049813273032
-223.022901745103
-25.194610431264
-75.2176944753384
16.5867384871116
-67.6435712046711
6.42700368341864
-35.2784271322788
18.246079462879
11.3245900765852
9.75526937328342
-35.1908559496418
12.2698626863509
-160.710609672475
-24.5685493657872
32.1268210346454
33.0028074789778
20.9226427268847
-18.6922287538841
22.105087790421
17.6815068722007
64.7866153397276
138.767801462568
5.20723742163539
34.0321689297555
22.3295325996955
-223.684568257593
-24.5705728078585
-74.6319216033672
16.3307626446357
-68.0046719975559
4.77239102301062
-35.7258440338672
16.6970948160819
12.0202500716642
9.3971712239838
-34.9282070095555
10.7918523895293
-158.831388352323
-24.6667846153066
32.1782406503909
34.4534070301787
21.1312688779696
-19.1243816212013
21.1953696345601
17.9041916132209
65.0129702963545
139.280509053625
4.46879726565241
34.723441546142
22.2028583052238
-223.27097603824
-25.5370574737292
-75.6803435823177
16.6946565111747
-66.8772373862354
5.10773855623664
-35.0098407351078
16.757947224491
11.0861059323743
8.82936438404086
-34.2390687162892
11.142284189418
-159.261223791051
-24.8666581819341
32.1210009987109
33.9707070399062
22.4176256847247
-18.123222549279
22.4862039422307
16.5237541198966
65.5530864872648
138.838749348082
5.13330978072048
34.0872038056253
21.9146721127113
-223.440719218515
-25.0499226594668
-75.7004638454174
16.3061647614112
-67.9902045197574
6.15696710524024
-35.9135078274311
16.6118928373984
10.4704360858396
10.7128729470826
-34.6240914757267
10.3758436786681
-158.822375891614
-23.7267809818074
32.7071067030185
34.070178012921
20.9208485078677
-19.1627982452705
21.5696527098927
17.254242777848
65.7941156305983
137.693176566519
5.21248418009639
33.797312443435
23.3164506914695
-222.367368431352
-24.7310345912676
-75.3989493390774
16.0020851095787
-68.0043571658222
6.35359984812201
-35.0909304701389
18.2817340077094
11.9231928483442
10.3427618392563
-35.6032356913105
11.956708942607
-160.620269534993
-23.7922064969823
31.1557025844806
34.3424323607222
22.1249594879016
-17.4627532556847
22.4073839520726
17.3024504184958
64.8402886070921
138.357269941725
3.68736714041586
33.346174304664
22.6243328812202
-222.779418320917
-26.1546749616366
-74.773658110783
15.9381010731328
-67.8730740017978
6.01675719198645
-35.8764230095447
16.9012731493643
10.6503908530668
10.278721536026
-35.3887759144322
12.1213130104095
-160.163031933713
-24.1420687148854
31.5147374803775
34.211982946469
21.0513419103488
-17.9720030620888
21.5004409884724
18.2023564577338
64.9783390440657
139.304812966742
5.13465505755306
33.0095595766901
22.9934299948295
-222.089468450807
-25.2412482047778
-75.588767482922
15.9829164942373
-66.9309821791736
6.33586746630133
-35.3949110590519
18.5152089775733
10.5081683293775
8.98163422428134
-35.4512493307606
11.5449393140823
-160.267529008794
-23.9527229974553
32.1941368515247
33.806475262715
21.2447936725482
-19.1081444814995
21.451223645142
18.0979332924125
65.9228341259672
138.952650963224
3.62217134154197
34.6289199044107
22.7646214726051
-222.915860266946
-25.3486206079226
-74.1320067188
16.0837035378089
-68.2715513177005
6.34719890531958
-36.0227774464191
18.0554243506125
11.2926735774473
9.28766437850955
-34.9729774887577
11.7960368740112
-159.703560946393
-24.7214094112203
31.105542772507
33.1312174607054
21.4686871957644
-17.4991854027107
21.1574274634633
17.2550786733863
63.9991274752333
138.955582438864
4.29294234431146
34.4529106070398
22.1587382319053
-222.82147714641
-25.0869701648455
-74.6763574620937
17.3699540098777
-68.2148974604694
5.80602151331366
-35.4105978094638
17.6279430569342
11.2229446069196
8.92836984478
-34.3146495516316
11.4547200548202
-160.705611465383
-24.2622549245641
31.244070523476
34.5426605749861
22.6282787513598
-17.7847227648094
22.3093276356969
17.288513898873
64.3064145722105
138.185942827619
4.02019613898155
33.391144340217
21.8590516808112
-222.09246143844
-24.888885452817
-74.0510071059917
16.7100894650093
-66.5088633961765
5.38359803137244
-35.8553634964527
16.9733485163382
10.5284030333951
8.86197015129092
-35.2903772289769
10.7816833602935
-160.510842202115
-23.4985402534291
31.2838591272586
34.3054969120757
21.0681632947787
-18.4145570591286
22.5043725108418
16.6617532968757
65.6865743078902
137.420829831518
4.5644364944732
33.8867191721796
23.362439489611
-223.697961778902
-26.4113736892443
-75.5915746232723
17.0308886965385
-66.6935511298267
5.97953134951056
-34.8937738024295
17.2154104889563
12.2967239514784
10.4484868892289
-33.8493659193531
11.2319648611098
-160.306632993627
-24.401329011707
31.7377088005298
33.0824976969496
22.1965115260943
-17.8026535108879
21.5528171395573
18.2389535904166
64.6623708882048
137.746247707762
4.70476001417996
33.4910171677469
22.3487398388465
-223.679445834421
-24.5241724992495
-75.7064252635693
16.6101818283668
-66.7606541581241
5.04351133284033
-35.2987264477314
17.9443065107993
11.942921628137
8.88623663269046
-33.9166434700505
11.5708824741393
-159.359640715528
-24.2585411975667
31.7330514127964
33.7003516960875
20.9063040208682
-18.747094471772
22.2063304518971
16.6928423643348
64.4324184336378
137.9159634699
5.13103753245235
33.2809101988672
22.1478839876731
-223.708348007463
-25.1680568004351
-75.7079998990749
16.7895883520713
-66.9479215808002
5.92745715555609
-35.0419945799411
16.8234028996161
11.232756485124
10.610359991417
-33.9948973352925
10.8982954370528
-159.744833705831
-24.5190999219701
32.638140671944
32.9898446608321
21.898542900072
-18.9309644296959
22.2544002866063
18.4342529773948
64.4263262428953
137.654821096815
4.6277214876449
33.026087825477
23.0816626312812
-223.6426185086
-26.0914415860873
-74.384256674931
16.0325920780769
-66.9446329541294
4.59569186148108
-34.7060004555286
17.668325799816
10.5142719642118
9.19196101509097
-34.643142789127
10.4283589469939
-159.716005680967
-24.5876396606252
31.1649268800968
33.3209850598113
22.5456246328219
-17.9187184170082
22.7321886157307
17.3323088884589
64.1128958143904
139.327900468267
3.78511911547537
33.898987715423
22.8026846411308
-223.949849577211
-25.3622532630664
-75.1193069955563
17.2551990946403
-67.7898221678821
5.03836399492682
-34.8803303324283
18.1052558602027
11.3366604939893
10.7002592929459
-34.2194292242543
11.6863930570632
-159.202632425237
-24.6151861856267
31.5848467285388
34.4243846941725
22.0209481906756
-18.3262564733818
22.774504933289
18.1212534904715
64.87338134429
138.039485870756
3.54623693144676
34.3030121971963
22.4034774067481
-222.815826506876
-25.698526575635
-75.9328747531628
17.0380654533973
-66.7899105019657
5.86809677061499
-35.4829319798053
18.1282707632712
10.9969859019712
9.40617271743777
-34.0228384430424
12.0286275493652
-160.650356409955
-24.1339527080342
31.1019617254489
34.8655934143797
22.0946608972415
-17.8644111946419
22.7150189017567
18.1965621710059
65.3319035448744
137.48557454244
4.11800509608149
33.7326051642297
23.0550061228355
-222.7163355067
-24.7842310214739
-74.4390670797085
16.221559425222
-66.4601433940021
4.61304837641181
-35.0455455862583
17.1743879498175
11.6588052407698
9.39520200572971
-34.0383882219807
10.5956626283675
-159.037618873525
-23.5386936376378
32.8907694751971
33.1504152823225
21.1614599418506
-17.4536022737816
22.5239739751134
18.0205514431235
64.9823722519591
138.541858850874
4.80108088171842
34.5025916745065
23.1624049904426
-222.915607304834
-24.6801900411349
-74.8948667785381
16.8949887951484
-67.023522324094
5.80745762762488
-34.76659072271
17.6259755076102
11.8136861220793
10.2766286977387
-34.3458763058201
11.3827509033233
-159.617755768705
-23.2666667411611
32.8548401529544
33.7927491474883
21.0058206510409
-18.4257713154152
22.1327418422017
17.9924656152961
64.0469764151289
138.282006322302
5.15375858462215
33.6001982142328
22.7776664259513
-222.610634775423
-24.6723781371813
-74.8114909669613
15.6994267901052
-66.7255325980274
5.15457731661261
-34.6562163912357
18.2146523178748
11.163256277223
9.25611647449496
-35.4939343626515
10.8307094476722
-160.097983358312
-25.0419272553318
32.7034461433643
34.0534497309462
22.6791632366886
-18.4372324673352
22.0158231591735
18.171224595876
65.9016906895354
137.91988986627
3.50962969119115
34.1026247193216
22.4406749967701
-222.735524745248
-26.0151172550615
-74.256057336018
16.3264608729892
-67.1116396851627
4.70303222004413
-35.0962680661446
16.79493918024
12.016632882828
9.78607399106959
-34.9823583063355
10.8666599891684
-160.542871115613
-23.8211555849903
32.7578059370273
34.6153459358946
21.1935478640308
-17.7056060759243
22.3716031646285
17.3269070404485
64.1405759730055
138.960436164297
4.49138435179756
34.7221800734399
22.2625509266026
-222.367778511308
-25.2434780271944
-74.3206088086819
16.1440166581683
-66.5610111422626
6.41625889603137
-36.4562850081688
17.9110007485002
12.435415951485
10.6038214647863
-33.7828907665482
10.6851289583267
-159.373883960653
-23.8262929578484
32.142704003548
34.7271312285201
20.9337535095664
-17.7781951358157
21.0185613968775
18.4708712217695
64.3291668572142
138.906356627445
4.980966704707
34.6210709263681
23.3250336418243
-222.45769247558
-26.3913486180511
-74.2492192527508
16.9214251601386
-66.4921087617155
4.88645565539888
-35.514063009718
16.9020837827778
11.3834578366242
9.86805833153466
-35.5298033668458
10.663537652594
-160.147122738767
-25.117538537568
31.2243264848942
34.7336065579192
22.5352992010565
-17.5707472493487
21.734962854664
17.1804314968473
64.9991920866682
138.37516277502
4.51290275416836
33.0851993014215
22.1278389463516
-223.576679678224
-24.5276731429305
-74.4853872796749
16.9403540455985
-66.6051698321577
5.76946210891297
-34.9195520968228
16.7629602237797
10.742600974556
9.34031153492669
-33.7206108285844
11.9331084258471
-160.172251222539
-24.017876743412
31.7274181778188
33.1929594088332
21.1263568583664
-18.8771082839517
21.1235735763478
17.9734616582206
65.6185147442534
137.892778719727
4.67765529365682
33.7420275856852
22.5288140549706
-223.517445886818
-25.6076322649868
-75.1499720355724
16.5223651725781
-67.7400096431161
5.22113615763298
-36.0326556105937
18.2510744758279
12.2055388872116
10.0368172822273
-33.7027958438039
11.4327674617003
-158.955519793439
-23.9401703532667
31.6855693990941
34.6196532059448
21.3178330844263
-17.9925901557064
21.4598967187274
17.8574365780336
65.6627570070936
137.546335038153
3.72794503041905
34.4079601218104
23.4205428140064
-223.983621972375
-25.4456041720397
-74.0282842656826
16.7089376266081
-68.0804684266182
4.95500736394215
-35.5026064059928
17.8434219859951
10.7547212013242
9.77787050229672
-35.228282909606
11.291338235939
-159.502530334401
-24.0102093164373
32.9038319523092
34.3153294134872
21.054412860261
-18.3000582698682
21.5390658733552
16.5075023696846
65.9248399414732
137.499082788065
3.53140043600384
34.3870187451243
22.1780690939966
-222.965366292312
-24.4982396489911
-74.5023678085064
15.9020623606777
-67.596166489704
5.19448139448797
-34.9077679057861
16.9997023970687
11.8374868146787
8.74373692351345
-34.402321436993
10.5179179358387
-158.920683739591
-24.6655281840646
31.9741915399787
34.6661402989165
22.6913112589573
-19.4027333683307
21.8041104426908
17.7254301738427
65.6068719305708
138.325471291816
3.8421683065979
34.0211052348017
22.9768594293557
-222.58988671334
-25.5652135510501
-74.6047410508846
15.4942162594878
-68.3482590289831
5.77934834012335
-34.7336919423381
18.0652430591922
11.7526790991559
10.038431281506
-34.5311724903851
11.0137251607189
-158.860860822606
-25.111728859079
32.9879395897146
33.974383454396
21.5931198779713
-18.2131010909854
21.4230735654745
16.6770124966897
65.2017099537565
138.566929362866
4.91249267898602
34.7940967728495
22.5742666512693
-222.758232328696
-26.0686794096385
-74.7116647502636
16.5419160770348
-67.298718753169
4.91837657184144
-35.6528123748429
17.203829945984
11.5661362226561
9.77278023559944
-33.9022906815491
11.5063496400177
-159.101559279371
-25.2261744117923
31.2159405882118
33.5114497948424
22.6937128492929
-17.7750169758262
22.2656661620077
17.5558509055491
64.7203460612013
138.42132121221
3.50465067227606
34.4736611296534
23.6028343232911
-223.172808380388
-25.4758738038989
-74.6811120053982
17.3983779831337
-67.8423335173942
5.8176999949367
-36.3250126960494
17.5181603977085
10.6066345833541
10.0858761822887
-35.2553019297115
11.1814643982402
-160.100193736959
-24.9354495678962
32.3344316417927
34.5591748762862
21.2159428787018
-18.9600062617417
22.5680313447246
16.8078129397549
65.3622870125487
138.677016912855
4.07072255537993
33.1672564198374
23.2460474740458
-223.899444909357
-26.0299518258253
-74.4417880317425
15.824326824497
-67.1772589154331
5.86598376020511
-36.2332278586165
17.400398639258
11.865443052675
9.48765618929024
-34.5907498320913
11.4528238796766
-160.334312794614
-24.0979628674023
31.7915691072698
33.1539490032927
21.9080609271693
-18.5909097721228
22.4980215172526
16.7789508259575
65.5405481733992
137.741156686515
4.44870210568646
34.1785458971857
23.1378382216892
-222.476794691347
-25.2169744810417
-75.2485317727779
16.7229515983162
-67.4328582163398
5.68985076083317
-35.9959747887828
16.9385173631557
12.3768175922979
8.95353410472698
-35.1100675787699
10.7508900748273
-159.573846338201
-23.9683526744263
33.0447027618642
33.843644719197
22.3666837403559
-19.1748572829773
22.7494061332304
17.9016280358312
64.4170233883574
138.748921226035
3.36247064976171
32.958661382377
22.1025454770574
-222.91107759025
-26.4186439774966
-74.754978253529
16.4516416300937
-67.8713864804342
5.64134609418875
-36.3780030110429
17.5419994924099
10.5693640985481
9.2430303392087
-35.2032793492779
10.5797190562857
-159.332918284345
-24.9983907021032
32.4315611059423
34.6678108979003
21.3149615714327
-19.4081292287572
20.9828812224262
18.4652408577156
65.309070674391
139.204463778891
4.00947986706862
32.9096395422815
22.9633561149162
-222.759744854234
-25.6989344659483
-74.5602199575161
17.1807212464881
-67.1247380442707
5.96844955442208
-35.1948661908747
17.8743028997215
10.8031981199395
10.2296087109028
-35.3442945229933
10.9215866238632
-159.239994285512
-23.2577475818521
33.0264220173115
33.8079107809798
21.9956140707936
-18.3774485493952
22.5508923867873
18.160499348077
65.900419203253
137.774046121992
5.14501099120701
33.34618336457
23.0007705460333
-223.538125844263
-25.4903735870185
-74.4311273833965
17.4041612782732
-68.2522115178195
4.59722932844733
-36.4458872173885
16.5955056243125
11.1101727561529
9.77194122199062
-34.9860797846571
11.7662519561797
-160.156930802274
-23.4831260154531
33.0061711008304
34.8328969288603
21.4029554319247
-18.1699100330666
21.0233611201558
18.3459984064338
65.9102061667158
137.920832692541
4.55173259890436
34.4629167963861
23.0195888044914
-223.826636286043
-25.553670480321
-74.5797233125423
16.2404519518485
-68.0575924582569
6.27771002230109
-35.4064738833011
16.6080029190711
11.5554700986341
9.36267813526157
-33.6632287199513
10.8874204504043
-158.91460132401
-24.6526193330571
31.7171657020801
34.4673691797987
21.072170515047
-18.5204507902458
20.9786699151311
17.1440124511954
65.3993427433684
138.178886829771
4.47617858565211
33.9687536408304
22.539553857096
-222.123958201669
-24.5744244600039
-74.4043021938061
16.2497110565772
-67.3169371552555
4.62544626173438
-34.7837890469135
17.6172677458457
12.2707176104979
8.86280962310794
-33.7262452538029
11.6393362628967
-160.4839473943
-25.1287852237508
32.0732756788486
34.4912023354308
22.0991817903384
-18.0220168426826
22.119964752129
17.685337901139
64.2547365107252
139.049595176138
4.92838460123897
33.2941424300073
22.8923669817527
-223.294336052202
-25.3524754787188
-75.3275954267239
17.1669296225181
-67.6356094546405
5.65751296457709
-36.2331385695041
17.3997645558051
11.4948824540571
8.85034927211765
-34.7939667398945
10.532808338359
-159.360286472249
-24.5369994352147
32.2846126491779
34.2721084166304
22.386712570177
-18.4003562525108
21.6772241925511
18.1218359470603
64.4954132713988
139.052052198805
4.62255161917566
33.4820271183847
23.3925556900581
-222.61143049743
-26.0766071820956
-74.7539551994061
17.1172735890022
-67.1254352994053
4.91837233480872
-36.0148621880115
17.6173719347647
11.5997507468656
10.1376731046295
-35.0867243702427
11.5784396278411
-159.624255536008
-24.4888666580007
32.7465375597232
33.9423639584319
21.5828551244601
-18.7345114544228
21.2918724154744
18.316343426728
64.1715343870833
139.119758187689
3.50622564471122
34.4456290652154
23.0328777792533
-223.250780554079
-24.6284056449633
-74.8140139123653
15.8188120325674
-66.9191375441639
5.74173981127204
-35.936746843964
17.1133725823096
11.7957087651686
9.87291916690829
-34.3868229086415
11.1368162977248
-159.398628709722
-23.4930176446721
31.6158020431751
33.1391359377638
22.4538428974017
-18.35638590606
22.0592291688237
17.6840729713675
64.933946339102
138.61072057382
4.57374375975488
33.996858899772
21.9928357365211
-222.596596808695
-26.3181297326785
-75.1883230945324
17.1471839150062
-67.1455861992924
6.02008480009497
-36.1937788807453
18.025459903591
11.0114731685117
9.24454685531619
-34.1834686691777
11.4470416652709
-160.715169070173
-23.5108037898824
32.9463821584933
33.1907305527464
22.5440541696414
-18.4870050743416
21.4060427283558
16.6537641287085
65.3694773592665
138.145314036764
4.82140380061033
34.5745574881433
22.6727038385947
-223.000092716478
-24.6409672046405
-75.744835092709
15.7667931517232
-66.9796336360065
4.82288628992499
-36.6291608892978
17.7875385464362
11.2324393884138
9.43504175029758
-35.4401340181843
11.6475797044784
-159.733409164357
-23.8312055776403
31.9079537327045
34.6799171973006
21.8297901344165
-18.2291006639793
22.1619925832066
18.1719253063437
64.3319615997984
138.081957994856
4.41418188727259
33.9630933453439
22.8814859154304
-223.374607892297
-26.3979148412448
-75.4575126907085
16.7303874691596
-67.9721011586277
5.98034256872595
-36.2666908585132
18.0706118525199
11.6467692748503
10.2764026769257
-33.8422685558811
11.3631385910064
-159.032551644254
-23.6013806770131
32.5962866480106
33.3564955998198
20.9503234815463
-19.1665063694313
22.07662669175
17.9957720041511
65.532174436064
138.341060696997
4.43265014803767
34.3953594614862
23.4966748716911
-223.081136675142
-25.3204427505236
-75.6885861894344
15.7945796450246
-68.4025927252857
5.36056238588751
-35.7985856615604
18.2150023163489
10.4424797193006
10.5776258357621
-33.9360015089527
10.5895278799087
-159.672290800023
-24.4254493425176
32.1733510429614
34.6857272196547
22.6563542079791
-18.9907753065422
22.5429637765202
16.9911699295279
65.2377531208708
137.524007259764
4.8597626081741
34.5611656357645
22.5328256847938
-222.415297122263
-25.7658373857241
-75.6337743541454
17.3492603500953
-67.8489834733097
4.92178052839698
-34.7733777844013
17.887791770809
11.5538720981077
9.72916647277835
-35.4727767403141
11.3213135349303
-159.857027647901
-25.0280991504476
32.8268815214389
34.0633926201598
20.8835874986514
-17.8781636551216
21.1971942519459
16.9272822141883
64.1080051340773
137.752484618582
5.03163033640742
33.3486630370019
22.6360317232688
-223.24700996425
-26.3294146800738
-74.8918950101589
16.3451799353233
-67.6264150805561
5.99809390482367
-35.3593735777439
18.0919461430243
10.4779080048993
9.72256168209079
-33.8744711573139
12.1659231531173
-160.434435604024
-23.79013797739
32.4707860882037
33.4333146620528
20.7439141464099
-17.9944219187096
21.0268040036473
17.3709480762717
65.8545221962645
138.655389486708
3.77054756796713
33.1640158345102
21.9686598541816
-222.205953927301
-24.6944040799838
-75.6964629432415
17.3324921330085
-66.9341768689243
4.83385485586585
-36.2290831886829
16.6633552492789
12.2518398658232
9.81128856025699
-33.997219174625
10.9788707609409
-158.832380650449
-24.8439906416085
32.7503646547551
34.1154529858367
21.5098771049865
-18.854703857727
21.6682733632662
18.1373359053252
64.8579710402205
137.612206040777
3.37619749770738
33.8093003680109
23.0444029340246
-222.59297320392
-25.678989197616
-75.4308571359371
15.9750058192749
-67.3040733140781
5.64968176096753
-34.9127667043343
16.8002212334286
11.4572927200509
9.71276851320687
-35.3936502651427
11.6192158975646
-160.231559274602
-23.8370123330764
32.1760675842519
33.8733783770339
22.0059983921294
-19.2781984474101
22.6165192465766
17.6303668208365
65.2405726589873
138.246276660062
4.95822487039773
33.9318154503702
21.9740988984469
-222.898784728311
-25.3363936514638
-75.3591862460827
16.3365312825353
-67.742342697218
5.90633472074062
-35.1235379083463
17.6321198116352
10.7370361252667
9.41739613198909
-33.771293494902
10.4185297645292
-159.253639338422
-24.0233425295371
31.867727869248
33.2753262329833
20.7443686912409
-17.4513417323483
22.3827015504284
18.4630455076698
64.7238598742201
138.730096660929
3.62735944401359
34.6458780218958
21.8190938011249
-223.520317287706
-24.8371591291043
-74.8858406087612
17.3782863575356
-67.3758006900785
5.71932981341974
-35.4060764427588
17.3848867869171
11.6380822473976
9.61002878917045
-35.1632623434414
11.4117083759004
-159.809923408437
-24.2491922913032
32.1040911609887
34.2643564749497
21.557917612809
-17.8620503711235
21.3811555277355
16.5154131378202
64.2985686936095
138.175088812512
4.58784523745725
34.1020064999462
23.2274417679105
-223.700561375879
-24.5558794554618
-74.5766409179424
15.8660926903176
-67.7035245916824
5.21251981468937
-34.9746710258654
18.2384977125399
12.004179303688
9.57845881039289
-33.9347549607895
11.2001970805513
-160.222350953031
-23.9959743467048
32.6712959940198
33.4566628742953
22.6742357177274
-19.4177138817695
21.0312899749245
17.4726026294754
65.0792220511153
138.719240997654
4.90956472631769
34.4444097926024
23.5301879473499
-222.721839114592
-24.7670160667285
-75.2272281190609
17.0442948503879
-67.0453584791457
5.01782003777925
-34.8778007391749
16.7895616566565
11.692472100938
8.81321722949922
-33.7391393388109
12.2890389474178
-160.640765188146
-24.9099198450514
32.7949721748605
34.3140278864645
22.2919600168956
-18.470252063287
21.6325567227616
16.6686804792793
64.2761280682626
138.468005513963
4.79664826375974
33.0371530701527
22.1566212082147
-223.421858566096
-25.2203108554631
-74.6686359187817
15.64622865933
-67.2920091480736
6.06087639617453
-35.3745083283591
18.2741913078049
11.6110917682688
10.7011092783825
-35.1291899257147
11.5142796997695
-159.106542227674
-24.2672108166692
32.5050784284846
34.1430597115304
22.3018127799872
-18.1251124763383
22.7912999913623
18.3998483103232
65.8354326632562
138.141941410397
4.40036764975636
33.2085120131386
22.1199613775895
-223.844889959035
-24.8318164424989
-75.0995966932034
17.10988764833
-67.3075988584216
6.43491421240423
-35.4761787336357
17.9120883197588
11.5335377367703
9.55925873898435
-34.0661512633942
11.7889453176425
-159.446664569784
-23.3233044512504
31.7767410213745
34.3914264250549
22.2416491625623
-18.6355395248326
22.2036848671775
16.7944077800358
65.6316132691446
137.314811872602
3.87571142905597
33.593105380716
21.834711557436
-222.232661131818
-26.1406386397843
-75.4988034507488
16.1584605610904
-66.6022338639983
4.81714131580715
-35.4647581674068
17.3049506965432
10.4040343918427
9.40839713664606
-35.020476667326
11.7489881780657
-159.242867825437
-24.3113280846747
32.2454332048698
33.3460676480086
21.6705721733245
-17.9305344189545
21.4602322011968
17.7429055541864
63.1609546667948
138.649494854338
4.42560866544935
33.8486613680739
23.4351090272064
-222.272792859445
-26.0048996825314
-75.1918348809933
16.469854872664
-67.3548864213202
4.92797458136963
-36.4386829096454
17.5430092395298
11.6245222927884
10.3691506329254
-34.8170732987994
11.2578447542663
-160.251348970342
-23.464945944706
31.1171009476016
33.8715673495092
22.5475642780752
-17.5626438000523
22.1410029678385
17.5813308743828
64.8144414105131
138.187592101985
3.53350903878577
33.8699763466744
21.7269990623852
-223.833400584098
-26.3478979271394
-75.6454973956799
16.1534748089617
-67.0043460775385
4.51581062379681
-35.7795849289785
17.1988940956079
12.0586869803038
9.29450859852796
-35.5634338160494
11.2843986440874
-159.318446276594
-24.4263284315094
31.864543550714
33.9147620011125
21.9364129424418
-19.4100854654364
22.0974280360515
18.3393749459125
65.0333510317518
138.940160740626
4.51285509586789
33.2730152060414
22.9542838515634
-222.919821904906
-25.3220816484017
-75.8806974431728
16.7075857477799
-67.3340106253167
4.9017153443395
-35.2199489087879
16.7493561889497
10.5963088395825
9.50231768916448
-33.7548906797647
10.9377134481527
-160.640435455251
-23.999436097681
31.0767483646699
33.1754864264281
22.3372230640755
-17.7788147406096
22.6234203048472
16.9458461617174
65.5355920471861
137.849989251948
4.47112907035951
33.9084306408786
22.6021146879324
-223.155768148569
-24.8931055222794
-74.0023792525982
16.452879775577
-67.3585000367373
5.07660096500949
-35.8930699971407
18.0688902052068
12.1137128249996
10.4060609746122
-34.4461563523042
11.8253226038702
-160.369883416105
-23.7363703486991
31.4392069513612
33.5093753147869
22.4467624537773
-17.5559052785738
22.7359837892338
17.2305920481404
64.1890443243696
139.270295141974
4.80155492997603
33.3922943522352
21.7734483491429
-223.699797017757
-26.0133724854653
-75.8352975389217
16.9085433341552
-67.7391855102408
5.52394603319121
-36.4556425718441
16.7662514069122
10.6918946175697
9.98077773035247
-33.8060406882999
11.1860721841719
-160.420610425878
-23.3038797538777
32.1767556602758
34.5680914927268
21.3315270080677
-18.0082735898376
22.4203002967963
16.6579890331082
64.3408128895476
137.892904570882
4.60951004258732
34.3937862564931
23.4197294645363
-222.221828870929
-24.858160474142
-74.7461915752148
15.8525286866389
-66.8309640857825
6.44603926351864
-34.8088602495637
18.441505026835
10.1926063748948
8.76374967961572
-34.6515392959321
11.086190689364
-159.836983321119
-25.0318789226474
32.6674367124828
33.0514926720404
22.3899904631506
-17.8308884759275
21.2274772410161
18.1274493206646
64.6344581522658
137.785446206425
4.01767801540774
32.851228420914
22.4115387095239
-223.415061186346
-25.2523876246081
-75.7700364133572
15.9190580561158
-67.1541080363954
5.0781077504891
-35.9497647868145
17.9588230836863
10.1991878860567
10.2474162472745
-34.0320926467518
10.3907864978862
-160.364746807027
-24.2318072600025
32.4925165111797
33.2763265181323
21.4902692002361
-19.0727810384952
22.7010307736437
16.9127211745979
65.5358442940428
138.683800078296
4.39738474832973
32.9304285694961
23.5073122820648
-223.332042130755
-25.7646270668666
-75.109218909428
15.4399011357287
-66.8614525054404
5.44840276424223
-36.5295039782636
16.9650083729943
10.9070265559904
9.73339457483534
-35.5734883869881
11.1393388338658
-159.608646748472
-23.6305119634795
32.4553760225541
32.9633095074434
21.0776356635609
-17.8982758754674
21.7820066594322
16.7902767767911
65.9167269148543
137.38101341151
5.20778637207507
34.7990636278989
22.4989412821848
-222.226353067052
-24.9592848758202
-75.0334705850338
17.1129244355049
-67.7080461151035
5.83355402519994
-36.3728935958074
17.9169300859128
11.7097752515218
9.01713657058759
-35.1873648227895
10.6429486983235
-160.230458734441
-25.0571607724692
31.486753695703
32.9901481676835
21.5092046442164
-18.3524827346312
21.5086567767919
17.9090324334981
65.5393416561796
137.952042712756
4.05979454710738
33.9490369011761
21.8384501722264
-222.23988542106
-26.0689676620993
-74.8939362308239
16.138046902763
-66.7399607075238
5.67116592154918
-34.7429741816332
17.4689442831152
12.2047023116011
9.56213760166987
-34.6253184041855
12.2403689904423
-160.498457072187
-24.9509982825953
32.6370245153662
33.0084519196288
21.4219447561856
-19.115462241579
22.2660423860541
18.1352886259036
65.7403336443617
137.584784521647
3.83289917375614
34.5116331030726
22.9112816820085
-222.865240307115
-24.5972949218446
-74.2206165334438
17.2283172091286
-66.4664603842282
5.59219213322664
-34.8588638415658
17.245202106756
11.5535767168953
9.38802020535759
-35.0499791863773
10.7300448762923
-158.739593742299
-24.5362846563146
32.1940894062274
34.3088148642317
22.481183071123
-17.797537286599
22.7100758885655
17.9993550777671
65.4346332230284
138.019060312666
3.86752337134237
32.8091235806344
21.7252311470588
-223.051351399683
-24.931160881589
-74.1673448821758
16.7885949810615
-66.9328565068332
6.22100705084265
-36.0638796173633
17.6877640665701
11.1185548201993
9.89131947837833
-33.7778392727391
11.4423116790801
-159.087453720975
-24.9845260093496
32.3892773325198
34.046859483792
21.6712240171298
-18.7051845386818
21.8205908870015
18.3800903558967
64.5305865683272
137.891722737707
5.14296871340633
33.1774897028802
23.4110263350089
-222.606417627596
-26.3979202056628
-74.496192886517
17.3375169237724
-67.3917561240284
6.40910726961554
-36.1873843752445
18.1108906449011
11.5663381711439
9.77148016773227
-34.2138535673634
10.5119512426406
-159.706162450719
-24.5240297029302
32.0696780616992
33.1949883509413
21.5338442516192
-17.8390657499626
22.7352960442814
18.4717903137443
65.6230404057219
138.88670009271
4.21602004683374
33.1593855072855
21.7371895077308
-224.025458903574
-25.944141104291
-75.0724960109447
16.5863237579933
-67.3228690095035
5.63152307447852
-34.7668632351459
18.4610215605429
11.055862416406
10.5581564553833
-34.9646295006291
11.8115202533752
-160.371593115735
-23.3525668094442
32.4047766859286
34.5162305641905
20.9655033540591
-17.4452002838447
22.8621713256154
18.04074943068
65.4424081721022
138.724861442007
4.18774205363153
34.6606013228296
23.3593965532859
-222.394643516801
-24.95389683492
-75.8163001081203
16.5119499167076
-67.3073890872089
5.58300811228217
-34.7400927626194
17.1120333851508
11.78385721602
9.70608123622897
-34.5291313822285
11.2422085153609
-160.000205753255
-25.0820853421972
31.3144016201252
32.9991477537886
20.7563758087024
-19.161689718087
20.9182558392796
17.5276472568747
64.8912605919554
138.024666487135
5.22424000418544
33.1183682133554
22.159313655146
-223.939048142694
-25.0117229963046
-75.1947015067791
16.1777937611213
-67.5218395657627
5.75211638388098
-35.4496880852283
16.7226308764151
11.8816301719145
10.4990660794831
-33.7919970448033
10.5575389015228
-159.151397107053
-24.1379106948659
32.3850759203189
32.9525301266448
20.7750128698214
-18.9789534405067
22.0291046237263
18.0929280519721
64.8769367613508
138.898082314886
4.48765951311945
34.5521087099908
23.5610950949271
-223.3784012511
-24.6166373038989
-75.7360376855587
17.2450396021476
-67.1782890029041
6.46060043749274
-35.9175474726261
18.5284307182959
11.1325656072095
9.11625489078525
-33.8785488302723
10.8971503126174
-160.5350995044
-24.5171990106389
31.9891273910755
34.1168161440627
21.2278335285052
-17.7994515493706
21.7517073487553
16.5167946815726
64.7053124584868
138.488028465666
3.36760133421775
34.3379424263834
22.8016164066871
-222.519032569193
-26.0625412011843
-75.4199324390148
16.2365431984535
-67.5972577996341
4.92588085112036
-35.5635107838214
18.0916868628195
10.9416985408262
9.06715198837283
-34.4911278183476
10.8895503627807
-160.601288912702
-25.1766630122945
31.9166160757297
34.3620600510375
20.7839719247683
-18.4684770897224
21.1356150244984
18.1095784902808
65.0684405245497
138.849205790914
3.3073847881591
33.3236457754968
21.8043452265342
-222.531735630296
-25.6358822131854
-75.9905588170742
16.1953705748191
-67.3395846552936
5.12539559778632
-35.2046575628818
18.5179348171881
12.029531826158
10.0789206870652
-34.477239578487
12.0753032172381
-158.965796707082
-24.2863869601309
31.730528348183
33.841099600865
22.4595241737419
-18.45818179561
21.8686614369874
17.9933249964413
64.0435437836363
137.419867693342
4.98274308195596
34.5120931317209
22.4727678063611
-223.863297314905
-25.7873161800275
-74.7229049941753
16.8273456401591
-67.1653193898288
6.26704514664443
-35.2478424394114
17.3773478465825
10.6359657760739
10.5760906351504
-34.5499216017036
10.9118818288011
-159.956116555143
-23.9986647624099
31.2920149500127
34.757591943814
22.2821906994172
-17.768117542287
21.6962441543709
17.687700882712
64.8040440954878
137.473566616341
4.13485593815862
33.8947224070429
23.1587422856986
-222.547807665132
-25.4790357543007
-75.5370625993465
16.3126651789048
-66.874031571572
5.53137545728138
-36.5720498660027
17.3205511890818
10.7687682049684
10.6603910128493
-35.3834769457661
10.5296188776091
-160.28550720017
-24.20692179865
32.3809659416434
33.4730387736098
22.0639507962324
-18.5233256407743
21.0628955708795
17.6540308413594
64.5812017597868
137.488242565879
4.92158728355751
34.3935211350321
22.9302904389228
-223.291285128854
-26.0871350514631
-75.8223539134716
17.3720304561241
-68.28304555883
5.35401163805116
-35.407697094512
17.8102809807215
11.7208804889412
9.38316944924764
-34.9620154886156
11.3710798376917
-158.752363799024
-24.1038746651192
31.3391686613323
34.6710624504822
22.6269842568645
-17.8112148402206
21.0830775862551
16.97666356433
64.8387676157667
138.905691786011
2.93946422049345
34.4266697813869
22.5934177439457
-222.684402070259
-25.2677254950137
-74.2452237149929
16.9090726137235
-66.8210865046904
6.14478791064
-35.4008736801347
17.0328527579226
11.1958203037707
8.88611467957037
-35.4078535948058
10.8950379412141
-159.008314845968
-24.908586410865
32.3449354107163
34.2522729445241
20.9628205473742
-18.6886761575996
21.1610241383012
16.7221942762853
64.5390658058836
138.301424074999
4.67330152203683
32.8805571247942
22.6198172467473
-223.541995925434
-26.4202577966728
-75.140993430302
15.5293658030562
0.27541544685954
6.14933726689839
-36.4704276870965
18.3131701679582
10.4910589868828
9.3239361920013
-35.5304948670033
10.5670849138932
-160.561548588682
-24.7624199417449
31.8206657106683
32.9553310681133
20.8378991062439
-18.3989756869586
22.8782839136097
16.6205861593202
64.9781512167993
137.868894488226
5.02363628657467
33.6556481768506
21.9780157817408
-222.763542947349
-24.7692173920891
-74.923559620068
16.7382710665348
-66.4105936394581
5.65991329098339
-36.6185430148398
17.0152066928043
11.4622495225562
9.40588292403995
-34.108398833895
10.6738045499701
-160.048454023947
-23.9654432092206
31.9845735962236
34.170516591148
21.9466149925353
-17.6290701198148
21.0586312554461
17.8391882222466
64.0191960820933
137.46023110008
4.32515120884942
34.2368882347978
22.0159118401074
-223.801862692102
-25.7344718251749
-74.0076657077526
15.8015036283538
-66.6290656158845
6.45637051501984
-35.7597495082016
16.6227862491435
10.3767448707838
9.81070732405002
-34.163791909776
11.2408327381298
-160.610203291916
-25.0247776817789
-0.0809943165153871
34.6875004578404
20.8867522629501
-19.0650123888245
22.4844662855207
17.9272842852313
64.976858322893
137.160434694946
4.50253288240512
34.5772172858167
22.0289823220831
-222.075599588476
-24.8792031501376
-74.8692352315639
15.6448804290597
-67.0163401154431
5.83635626886596
-36.2329161518494
17.4943128556705
12.2314824656875
9.91632858485414
-34.0591330740836
12.041113058077
-159.474969014779
-23.644469957032
-0.639968426601779
34.230348448832
22.0797647842892
2.76712881223511
22.7329660627027
18.0263902401489
64.0161375512139
137.342545730541
2.70035216278339
34.0065971066431
-1.13783335941258
-222.639289565396
-25.1916409183093
-75.5406913752424
0.579106495156745
-71.7747990775116
4.56294238383051
-34.9244509272551
16.5761195897918
11.207929864966
9.40774239943952
-34.6012710876574
10.7510028469773
-159.413375196459
-24.1310882958956
-1.30752006329089
33.4862992573582
21.9270246649145
2.22355021361809
21.5553264800785
16.5762774255721
64.715443988381
138.542645649006
3.56146632474184
34.7949690272304
-1.75111803708076
-222.104687201224
-26.0534892993925
-75.6303197140562
0.246308699397838
-73.0789857244086
5.87198011313685
-35.9524128640874
18.4235554725759
11.1127847829391
8.90402678895938
-35.0795600383128
11.53347681656
-159.971284895805
-23.7091987083618
32.2144060438098
33.2118130732392
22.6746775542057
2.56354923454046
21.5447005389565
16.7799086389806
64.3867897668124
138.561175366434
3.80941034697163
34.6870134522432
-1.78821320953874
-222.513301612061
-26.2598041883687
-75.140834569441
-0.960060670095005
-71.8315369032711
4.36188650798261
-36.3592920274893
18.3730748767248
10.8361649410101
10.1948552949256
-34.5060029694493
10.3522833246892
-159.67084184256
-24.005867229982
32.6642431324015
33.0560273934223
21.9358578386473
1.25835185098246
21.3091414435561
17.6783586314053
65.5813501288307
0.376010411443634
4.31525724586686
34.3457228590967
-1.4900494296118
-222.369339793551
-24.5141111512742
-75.1589077706205
-0.188189052090043
-71.4380166336597
4.35460472342098
-36.0795690159123
17.1636666780536
10.3034188224341
8.77101430416445
-34.6125962709362
12.1826330645827
-158.888097522664
-24.215856077086
32.092906945482
34.5093349028439
22.6887049881569
-18.4827120392284
22.6412498103285
17.8606220696094
65.3864864983275
-0.884837060123502
4.17751185553416
34.7218781163207
22.3741747067002
-223.489034505909
-24.6229739274432
-74.0525868674969
15.808099424316
-67.424959055497
5.4909528942496
-35.0555903701954
17.128229648541
11.0612596164147
8.73388921931929
-35.3622248261813
11.887799164246
-158.998280880857
-25.0268356007069
32.3295282061171
33.26956389435
21.372739688139
-19.5259004180876
21.2875523596347
16.4992281882775
65.1494408691512
137.487530482333
4.4421679876498
34.3137835909798
22.1373986786124
-222.570416589684
-25.9275233756558
-74.0638098260616
16.9959409438346
-66.58810366898
6.06971426195975
-35.3655287321761
17.046203705565
10.2413585622228
8.90697877118901
-33.9384384352468
11.1572638767411
-159.554567811895
-24.7396235516878
32.4896938736477
33.1014448214352
20.8149631171048
-18.2749418126988
21.7741550086202
17.8420321454389
64.5881910169708
137.305703663756
4.6084181623114
32.8773196389142
22.7870004792452
-223.193626115066
-25.3321029454896
-74.9100657245373
16.5917143513686
-68.1930255721884
6.07634909323696
-35.8189947276806
17.5241552462159
9.78079012626266
9.9492182821028
-35.1149897867382
10.7086568255722
-159.899634478498
-23.7572104172422
31.0791622335851
34.6029372025294
20.8757935909657
-19.2508310692473
22.6221663569954
17.6596916662428
64.3888083376601
138.827669299873
4.52899393091931
34.046761696521
23.2619506413756
-223.701901051903
-25.2331168394922
-75.1291067144131
17.3942209819024
-68.1944884228575
6.03134247736186
-36.0129749317273
17.3823407350509
11.5597486811233
9.76978985017218
-35.4118694115715
10.4750621425535
-158.951680419851
-23.9680478182486
31.6896061832776
33.2158192206177
22.5795059354956
-17.5932715732812
21.343028610684
16.9784276090615
64.863629309149
137.501939491201
4.23919041048991
34.5631433178804
22.126257903208
-222.186601984692
-26.3868915148411
-75.70502741544
16.1116055409747
-68.0019994475508
5.9188862647988
-35.2919461766953
16.8788001394132
11.6014041592439
8.73435634651505
-33.9895027613735
12.1310966657163
-160.314688561368
-24.8197433813993
31.4437731439877
33.2339579869055
22.0581706930081
-18.7319430258746
21.3714703815168
18.1249133153433
65.1037362494185
137.717031893067
3.79313674646509
33.285456125916
23.504119268822
-223.118105324788
-25.0544820482861
-74.7860688707088
15.9835130503634
-67.6376501944654
5.20345266186675
-35.5149953992956
17.9794661370559
11.0160350288555
9.5323530954295
-35.4104984678438
10.8470508558793
-159.946668622899
-25.0965989344646
32.6687943870802
33.7521315623064
21.7989380531783
-17.4527742395244
20.9785621576527
18.4558594115576
64.5292322315886
138.576231958448
4.70492536000343
33.161932771385
23.2598211598873
-222.152007797785
-25.695661194996
-74.1356988689159
15.7280813136993
-67.5878440212997
6.04868542251402
-35.7183260040902
17.43943343154
10.7107794534956
10.5964703443153
-35.427643199615
11.2464743191071
-159.814106581617
-24.6119794222074
31.9436398679971
33.617414455487
21.5086313669136
-17.6175531951142
21.9905578253604
17.7952384422358
65.7599960245802
138.023009558561
4.40006622321421
34.0202996184229
23.345731355756
-223.520460949265
-24.899181542151
-74.7471444150661
16.6042876503089
-66.4720184519694
4.81123630487779
-36.5173878810698
17.7280984659683
11.0768962451485
9.3659552536536
-35.1814417663105
11.2176984005017
-158.982327220846
-23.9687433803932
32.4733552868123
33.0252164412276
21.1693806835737
-18.8756361871887
22.4770965916925
16.5884297091128
65.4969992317869
137.842624737568
3.85201020524833
33.9284640004038
22.563987232147
-222.631433813512
-25.3403757272653
-75.7527240058636
15.4836972262432
-67.3296896133539
5.87859489780961
-34.8877917627972
17.2156528577142
10.865839932601
9.15307665143266
-35.5791760414825
10.3946624815583
-159.089523671079
-24.04325932569
32.260296219086
33.8493301678435
21.5172299336821
-18.5037275359014
21.4961675739497
18.0110751419672
65.1644876875593
138.909452973761
4.83142761615591
33.3868665148614
22.4581888678974
-223.273784132265
-26.3181867424443
-75.4683117410397
15.9526039642396
-66.8332086272327
5.02212038708606
-35.3919022167374
17.3216121403161
10.6426684317857
9.91700029088344
-35.2739393411443
11.0628146946549
-159.970567224431
-24.3953679234455
31.1773397857899
34.8910461474196
20.8885419558913
-17.7320434853414
21.3992550707072
17.0223937063822
65.8437888302519
138.10677903787
4.40876094726398
34.5219319512247
23.3267962697453
-222.326017470621
-24.9472533289387
-74.8488121768688
15.7722058576645
-66.9513160653202
6.22934797478595
-36.1973008001496
17.1639553514901
11.2121964154512
8.79374348832454
-34.2851503787801
11.1143914806396
-158.804132578779
-24.9831710765645
31.5812574560398
33.6327843476073
21.1778537225589
-19.268286545594
21.3895355796132
16.7843402624366
65.7345848955824
137.779483615316
4.73041850245358
33.4129430701135
23.4612580301841
-222.276888103746
-25.0771826053363
-74.6363842031216
16.0420264204612
-67.6070912547199
5.11053258356513
-35.7079200827182
16.6712770641974
10.6388410226301
10.0429852851487
-34.7454099352375
11.007743393138
-159.146908042836
-24.5916855047033
32.1923232013934
34.8180197287337
21.4418497276172
-18.1443810060814
22.1451382970128
16.5105741024253
65.4517573990538
139.31534403459
3.9357034555709
34.7334895779489
23.5654144051154
-223.411744923853
-25.3304490590792
-74.5280740997051
16.5465638836494
-68.2341069645969
6.20678967413367
-36.2673212372364
17.0363701761893
10.8578927413419
9.31783696495059
-33.9909854824559
11.8825315582305
-159.810457108426
-24.608484596996
32.6400593454593
33.1577946949736
20.7485746335849
-19.167705138047
20.8995589350972
18.0689674616095
64.6866115011885
137.755679189123
4.55500560915827
33.9296602656244
22.1896708967765
-224.047820062898
-24.7573066497546
-75.3672523042416
15.798351426946
-68.3172283835498
5.81443029818
-36.2900722109378
18.0791104019812
10.6812101499036
9.36827048145297
-33.8284432585255
11.8283765661269
-159.073407171178
-24.1683892915532
32.2410380775684
32.9660645533339
21.3651468944415
-18.7665674284294
21.8185823296818
18.3195877075431
64.7866794743254
139.2746891369
3.41533416426535
34.4715994049905
23.0700790646156
-223.832721324228
-25.0965725923281
-75.8925452968334
15.8785028656591
-67.6955000825016
6.23769754347266
-35.0502303921283
16.7056542814902
12.1383705035643
9.86141344390872
-34.5267442162052
11.4548956501037
-160.172813055921
-23.3356257388875
32.5141097242587
33.7077626992003
20.8323131990298
-19.3698485687569
21.6087724303517
16.882977366471
65.6696306147291
137.781475364126
3.80305653727407
33.4591891219018
22.0300394060691
-223.605790825151
-25.7227986598712
-74.3025633832668
16.349645992147
-67.9571960635273
4.94258529123725
-35.0492930494846
16.7310404957465
10.8526171342328
10.7224577315903
-34.2462296183125
10.3974128391671
-159.477527378011
-24.6149739462287
31.8075694973225
33.8360503721968
21.2964492033612
-17.9345955122408
22.6929788927099
17.8323843676131
65.090330568762
138.073183564625
5.04919402591189
33.5676975895761
22.9871067769324
-222.947378528905
-26.3975337971225
-75.7833970329021
16.1821616217112
-68.2486857521775
6.080667526305
-34.8684007021389
18.2795499922852
11.3073471577027
9.92541374288638
-35.1920939404566
12.1211158875712
-159.931956646848
-23.5267146123753
31.7428525621648
33.3049814511077
22.4403151460421
-18.1434860531171
22.0246376139264
16.5946103595943
65.9070461668684
138.192430348667
3.37502858637745
33.3914985110163
22.3905819425732
-223.906898559469
-24.8934607782868
-75.2923388025021
17.0740992750999
-68.1446319403649
5.80523396305846
-35.2748129468359
16.5728834096074
11.0798021875825
9.0241635200331
-34.8639270999471
11.6384706666929
-160.114441392827
-23.712878284241
31.3766128952279
34.5520158816117
22.1292655670889
-19.1295643917538
21.5911581896665
17.4085985996578
64.7994324841215
137.872654816454
4.0514562953246
33.464670484245
21.753463489387
-222.363522334308
-25.5195043221752
-74.0143347522472
16.9142819052902
-68.3039508149753
5.12984521096288
-36.3194731724335
16.8166054036151
11.3787931388366
9.81811858231634
-35.0834549735999
11.686156098985
-160.049420473981
-23.6568859857651
31.8287445242215
33.2077059555796
22.5009404623447
-18.3954044546798
21.1586443687454
17.1850223335416
64.4085169710829
139.08606432827
3.05000085916664
33.2626754691019
21.8661624137509
-222.306517531236
-25.259694269527
-75.8510286351894
15.9681877464777
-67.1898717848981
4.53403318178637
-36.5745879086914
18.1316324359966
10.6134061419316
9.6729187496425
-33.8634663961896
12.0505855402583
-160.284992568017
-23.8161786027434
31.2742943699224
34.3387077856822
21.5799808688905
-17.6897338165026
20.9918342360269
18.0652141639126
65.6574462874151
137.79644041142
3.60932507360317
33.3506436993518
21.6953973921141
-222.570931447904
-25.4955838614502
-74.5346840163921
17.0634668941961
-0.832850848347227
4.82226348677839
-36.4863184453042
17.956057680793
12.1760135805224
9.32436156083628
-34.1008367737804
11.4908062752384
-159.333859136874
-24.1296850152003
31.7238542144622
33.571285944064
22.0578067899586
1.72089701718335
22.6757249788031
17.8000423585921
65.4947610110169
136.767372943332
3.29992263563043
33.4473080088582
-0.853642830832623
-222.310075782034
-25.5952682803842
-75.0760184521544
-0.20272953352798
-72.377393409959
4.66997076636542
-36.1516668520466
17.3445594779265
10.5223820110565
10.0109419786395
-34.1292931211201
10.865381580604
-159.460780227975
-23.4360576328481
-1.08364418303775
34.2569323588249
22.1633431308097
1.24533115830555
21.1751126520839
18.0400402272827
65.7515668151569
137.177871585488
3.01340164526748
33.8005836655645
-0.911150414371844
-222.6626589486
-25.4471364510558
-74.4611785406935
0.640620980330219
-72.5077667110947
5.28714283846912
-36.3891850931567
17.2742778907882
11.2792952124594
9.91344844983273
-34.5718611970558
12.283666312028
-159.686925396577
-24.4274372394143
-0.424284847116489
33.0858611870691
21.6305361457142
1.78896490579108
21.6764806463988
17.403492307443
64.6766081016948
137.300953558661
1.33505647752569
34.0774304320436
-0.682242402532428
-223.607965913164
-26.193132582778
-75.2070006127226
0.193400217150104
-72.0729696806107
5.08992414094532
-35.6039959108004
16.9586283425535
10.6965464214094
9.91763294523933
-34.0325468265394
11.3993137187739
-160.291670022013
-25.0665738236033
-0.683609040094305
34.7592195082624
22.7993039745441
1.02330386072304
21.2195609096297
16.8004985143035
65.222371646204
135.970023787601
3.46893157139594
33.4882116963546
-0.917149604762107
-223.396990935783
-24.7293442330235
-74.4068627352583
-0.914649776272899
-71.1037159516915
6.03072734126846
-36.1175351162756
16.6802770993507
10.1109524376138
10.2973830866482
-34.9304724001735
12.2569036388936
-159.966188923398
-24.7857896290622
31.7458741238476
33.9031193066619
21.6961841720219
2.16934063309167
22.6747205221706
17.8445678408771
65.1786274705257
136.313593263116
0.239808117564193
33.5005311419749
-0.598761164771301
-223.368817352392
-1.00988799246636
-74.498881777104
-0.242862687931274
-72.0320943210687
6.32499078303456
-35.9351607565322
16.5627199443951
10.1592974257329
10.0980941676522
-35.3011781381814
11.6641502917441
-159.196330682317
-23.6934072945398
31.130408840481
33.1282993365359
21.7592915533756
1.07514868302457
21.1633412225466
17.5602262620529
64.2915455484885
-3.04693501406193
1.49341672638308
33.0307305505136
-0.923368107530962
-222.744107110721
-0.519379451806375
-75.0297804673277
0.395126778128409
-72.6398449389661
5.52893000465338
-35.5790682991162
17.662778095531
8.18529196060403
9.6549307937966
-34.3878369825842
12.0593829326996
-159.327845986321
-25.080469499236
33.2577107411866
33.6646160889719
20.1883051667175
2.50479894056037
21.8328133428514
18.1517863427989
65.1162776509728
-2.66137736245113
1.112298540773
34.0891229560271
-2.01761266447641
-222.814642526573
-0.786104376117913
-74.7907182772719
-0.266514212487364
-71.9015485873053
4.70636326051962
-34.9635662042564
17.8151734067242
8.11244806487925
9.13233769551981
-35.1635036828394
11.7972292605042
-160.009633461186
-23.9144848949967
32.7814939326652
33.3608912039834
21.4264178267077
2.16661452526698
22.1419057126904
17.8659877306832
65.2590956390175
-2.61376016190261
3.03736934876863
34.5288634946214
-0.841350906660709
-222.631859686194
-24.9893971305306
-74.4714889521467
0.297309943328345
-71.2181787794068
4.80704156407689
-36.3034314023956
17.701345707785
-6.55680310164466
9.33061378550878
-35.0329269127297
12.0979588682393
-159.685299026468
-25.1096617486294
32.7677821489741
32.9441582966837
20.9557272371417
-19.3343025745759
21.017351381446
17.365991568762
65.8082853523245
-0.463362186783044
2.88371352966234
33.7143759181296
21.7906024701326
-223.271657655961
-25.0205071618624
-75.9147471747897
16.9191195626095
-67.3043763273228
-3.05798152950523
-34.81755322238
17.9291352060466
-4.68489412185469
8.84208665022818
-35.4526975361095
10.3762560149425
-159.704531796663
-25.1250285153968
31.9033172067158
33.559305291268
20.8451903338998
-19.2858835042215
21.8147545140237
18.3174073631352
64.6768836487109
138.073794669163
3.72375595384849
33.8647058655908
22.2130256125349
-222.88844921505
-25.0138135034368
-75.855609490559
16.8712343565995
-67.6589550968335
5.12533434848578
-35.2381189263915
16.6540882597929
10.3139793884626
10.3284465222255
-35.3002971078691
11.942518741165
-160.100759275644
-23.9707587325016
31.9268695052351
34.9167489815632
20.8635574955979
-18.6635780144884
21.7376273507167
17.7249341113276
65.2645359578035
136.752233483512
2.98671103279052
33.6963126113032
22.7893722897565
-222.064562717026
-26.4194345661387
-75.9314982434963
16.3634209290517
-67.1824876054711
5.4148660766275
-34.7039552265233
16.9782320601516
10.9916198410015
10.0486993507174
-34.8597247035203
12.1779684474562
-160.635682819295
-23.6874076923428
32.6537017758213
34.3933566618771
22.337420967713
-19.3424632579911
22.8937560450741
17.9820096327892
64.3856053032591
138.52388083715
3.69702792370696
33.319889133166
23.0059229148454
-222.695488688686
-25.2733672565907
-75.5980695029949
16.9328309211621
-68.3180080590591
6.39617698116131
-34.9740587909714
18.43441636382
10.2449827515644
10.403681404498
-34.2425463053067
12.1419752191113
-160.600861905027
-23.698823055519
32.7891114885905
34.566595296937
21.4543017388713
-17.6666743277526
21.5294232063865
16.5118962728107
64.860272256346
139.119385826022
4.39218357834913
34.5430659701287
22.047207772603
-222.147041128334
-25.9812485056735
-74.03881211488
17.3311040843364
-66.9130300027004
6.45672295009348
-35.6375890350296
17.0850406965019
10.6045922113264
9.26389823063177
-34.0222052175929
10.4435593954481
-160.487944670665
-24.5277403652933
31.8988023944922
34.6950918246069
22.4910533613833
-18.6279130783907
21.0855296289402
17.5680633499055
64.1992758032347
138.858998564704
3.4874268002682
34.5765574623973
22.2713182179153
-223.442653524315
-25.4961016966458
0.812993849357718
17.3995775445335
-68.1432537102635
5.93167969565697
-36.3383846737145
17.7893558992284
11.1022436866889
9.0617956565033
-35.5449630607135
11.2679435836123
-159.386584399152
-23.8698173130361
31.1419254476857
33.2466788101937
22.4484750209438
-18.434589214448
21.8466116641136
17.3808859156737
65.0416289248183
137.548341636217
5.11362815391285
33.2916995932472
22.6560431652687
-223.317524043972
-26.3654206374527
-74.2110120794033
16.0813413810961
-66.6513159128949
6.14634661926435
-35.3191843769139
18.0548748370624
11.517199332653
9.39219456202541
-34.6367188598069
11.2158804153064
-160.3737652282
-24.1035577434176
31.3049054081216
34.7488277960557
20.8437614621747
-18.9378272196771
21.260390795386
17.9177464425979
63.9714517273619
138.526521099253
4.92059524581564
34.6636567761303
21.8129987520463
-223.233857046725
-25.4167302405944
-74.2978122970318
16.9407398689714
-67.6648050146607
6.28494052254472
-34.791896485591
18.4919319389317
11.7486115249689
9.29105262694385
-33.7198606738607
11.4978735914525
-158.942599175382
-23.3536707589558
32.3003901178595
34.9023883152739
22.3380359600697
-19.4071664413003
21.0230702500321
18.4708944784614
64.1634477057173
138.276403092071
5.12682649946148
34.7630905558466
22.9813722144774
-223.291986586552
-25.3761530640017
-75.394555046246
16.5316269412963
-67.47095919971
5.13893388539726
-34.8492505647727
18.5173876681155
12.08158818771
10.006148268546
-35.2820460524293
11.8093046650005
-158.876535413671
-24.1779528277291
31.5265557701344
34.3390036631362
22.5578530025171
-19.2795366817075
21.1603591777026
17.8831243597729
64.3294679798796
138.945212386772
4.49487986266419
33.9110363175272
21.657041764809
-223.302515747051
-24.5189921496469
-75.0676866313671
16.7310753517859
-67.2344657314254
4.79962011688846
-35.5687097399363
17.7601157683135
11.4766482962781
9.33399847129989
-34.4181025929699
10.5498692142516
-158.720429060865
-24.904691786556
31.8570500547641
34.7717151451842
21.3621355485782
-19.1243546799019
22.3674079512868
17.1217192411658
64.4094596781447
138.19382411138
3.67050248301383
33.5433747221826
21.7179122927268
-223.490698547624
-24.6042083049517
-75.0499360105251
15.7665685614217
-66.732377833852
5.84137278971137
-36.465382107407
18.1384873570136
12.1527374879317
9.25471385799411
-34.1408495600239
11.9748239862472
-158.890434978414
-23.3342492292211
31.8394479686969
33.1183446455733
22.3157773208484
-18.590870817025
22.4587288235936
18.1474392414329
64.3082518257811
138.944591223158
3.95177048361656
33.4738627125619
22.4785723450263
-224.054050774835
-26.1950354123812
-74.0598033210491
17.0182163914314
-67.7784590191929
4.72802943167151
-35.9955912910999
18.2148326815299
10.8415481940702
10.3097417005158
-34.2953129704014
12.2813538658172
-159.964443562436
-23.773966641216
32.5188296968692
33.8745109844939
21.0393437337741
-17.8627663448646
21.9530042743001
17.5038462877509
64.0963304915144
137.883455811895
4.60087495959161
34.0044545580743
22.8280809881767
-223.051429243349
-24.9813423896533
-75.4905552407955
16.0544907053581
-67.2443376250354
4.57183224138678
-34.9905006968082
16.9650638283423
11.1693459645704
9.96587475620273
-34.3072912390248
10.8230259763747
-159.231671808172
-24.670646161823
32.1789610321277
33.3588386584059
21.0671956729754
-19.0138270452812
21.4837010239873
18.0542120933768
64.8928649105742
138.525957046904
4.4520577780044
34.4898465325235
23.1300837757667
-222.856973738931
-25.991100504468
-75.8071060916637
16.9166188439002
-67.1931487984745
5.38054603514136
-34.9284828983844
17.1895328940085
11.6393713847593
10.0005006440735
-35.3702753479496
10.7642976390868
-158.93744480412
-25.0324531505391
31.0767599279636
33.1033081818358
20.8951884698733
-18.8070095375374
21.1658608054432
17.9748958349463
64.6043244280531
137.846046267904
4.50338679468988
34.1760694434045
22.9257851603111
-223.932188244127
-26.3261259341937
-74.2450229665493
16.9343489607444
-66.4832776255695
6.33674794611396
-35.1795349203647
18.4650278271369
11.1208699838117
9.00705465160373
-34.8680867846028
11.0671977256357
-160.399437187124
-23.6115185446182
31.5836234028106
33.6480253744858
21.9401140403105
-18.6078432905791
22.4185796149984
17.0066565343386
64.0142917313292
137.431331106401
3.86532577021163
33.4317813565136
23.5838203235691
-223.80441368897
-25.1258378906547
-74.2008150359844
16.7405682374466
-68.3373762101014
5.11838401150633
-34.743712086458
17.7038240570189
11.1176847636988
9.61406539231715
-34.313018438794
11.1494748874614
-160.513440964628
-23.7927642313636
32.0710171396527
33.228202562406
21.4475072807893
-18.0074926404183
21.5727652763638
17.4751301483145
64.1907809652998
137.988733288012
4.56874760347743
33.7819284846194
22.168022502457
-222.572886099207
-25.3196156844008
-75.1304015657162
15.4354564113444
-68.2503701714773
4.81092386422935
-34.6520374306062
17.3251625846168
10.4144053142518
9.46580661790763
-34.4444978918378
10.6493388393682
-160.398553959847
-23.2737723608589
31.2937457496968
34.5930977869781
22.1285784432961
-18.0161104433803
22.2910287971426
16.4999055774262
65.6065451128699
137.36312693345
4.52597810536314
34.7178953339478
22.1007225570783
-222.195996549038
-25.96993815491
-75.0519500514721
16.6887506567203
-68.0547701762669
5.51775735826068
-34.8213906129342
17.913666794364
9.88512095456525
8.83570513481059
-34.600089631693
11.1322980541035
-159.519825689317
-24.0169364294553
31.2137747938614
33.6282987404648
21.0121113252459
-17.7906682385281
22.1722681313942
16.7745238364476
65.402689002297
138.629240576389
2.62519471185064
33.252405827231
22.2167956084465
-222.688231347006
-25.848356708049
-74.2238852521633
16.9925230590264
0.984162716709461
4.57535394394871
-35.5982397652306
17.5692879396466
9.65341664381428
9.71338387669075
-35.3827621476178
12.311478493508
-158.67135174238
-24.3254861286387
31.3669264619799
34.0953162718626
22.2509745955338
1.44365277605686
21.563893457925
17.3485506707421
64.243607017137
137.15663935555
-0.689732963068805
34.142515247058
-2.07634947928626
-223.28548368058
-25.6929209575755
-74.2090563769209
-0.407495014082662
-3.90059894202473
5.34273290965687
-34.9585005828217
18.3506325711996
10.4204193107225
8.98152688518857
-34.9745161779421
11.3327003658652
-158.988158525084
-25.0969690953433
32.1726776664994
33.0622179318354
22.5728037943613
2.60767237094567
21.5909715818249
16.883896494156
60.7639005967087
137.105866092046
-1.33618688433011
33.0262984683138
-0.680946124517133
-221.615445841396
-25.1696792742261
-74.4219318623411
-0.481874149479721
-72.8355593386382
4.99680196741094
-35.9460443257334
17.0592365419631
10.5760896283778
9.91333085511935
-34.2804599219752
12.1748121155313
-160.407550476204
-23.7734949042307
-0.159921845892888
34.2572351504333
18.7908649091281
2.14262214878689
22.6400819749034
17.1719936532623
68.6899682018895
136.073359139211
0.0752717135350258
33.189543073391
-0.603907356065744
-222.856311893344
-25.6515371967423
-74.0947204160997
0.142543459580211
-72.3476261858224
4.63613231407454
-34.6491676177691
16.7627240256809
8.69284325171328
10.5661712308632
-35.1479534933281
11.4013741298111
-159.461539940186
-24.8963551379026
0.516094424130334
34.2901682664014
18.1819499108946
0.857537662179274
22.2876311230438
17.4426071237852
68.6062585187901
134.960057669854
0.765112269441865
32.9541465690029
-0.844128828242832
-222.062256597863
-24.7260015017048
-75.6511569721762
-0.202603139199794
-70.72988324156
4.83344059857689
-36.1764539374718
16.9411421835784
10.5559961024451
9.03767925605315
-34.0363188245621
10.8883267829969
-0.0640735634484101
-24.6163572032241
31.6329098937994
34.4852417517873
22.4352021072473
0.83894527469712
21.094011397097
17.7001061368534
60.4608390329498
128.247510803571
1.63384828611476
34.7912450482918
-2.40290946472049
-221.768745668782
-25.9864103548805
-75.5818643565046
-1.09908835841141
-71.4130358854799
6.20158035010928
-35.6696213043328
16.8692536869699
9.05076554212059
10.0933882069476
-35.1825194106124
11.1648588116875
-159.61701266363
-23.4394104636505
32.6317658884602
34.8600776006028
21.899039777282
1.43582681665276
22.3275695614127
18.3953092199872
61.4281511305137
-11.1125225330098
-8.17845895543225
34.1156162669852
-1.69841068080361
-221.996256934834
-0.991601455210259
-74.2023772795759
-0.738299583119099
-71.5975389416001
5.57478078514517
-35.4749389030155
17.0995387772507
8.54300745913181
9.95149878556161
-34.1109550440957
11.4114183500267
-158.779419106943
-23.8057709199628
32.910505698492
33.849907975325
21.3263992551576
0.235985861143881
20.9421153256856
17.961708541908
61.3355919268869
-10.3805493441839
-7.64529909295575
33.5948532274039
-1.39942713294796
-220.475397089326
-0.416272107458937
-75.6971717675291
-1.08166662772711
-71.5563753963893
6.23824373805064
-34.9053435042787
17.8422918081136
6.46802052104987
9.39076288020935
-34.4898178099118
10.6227644107114
-160.327764720078
-24.9381227758587
32.4175060256335
34.8702888299342
22.0161111918863
1.73127958633206
22.7899035639913
16.7702735265537
59.6693091059074
-6.43707710260644
0.511393416216839
33.8634449889968
-1.84887912361115
-221.310690475393
0.0769219937465043
-75.1741492350661
-0.28854714581264
-69.8487646952199
6.02834789413708
-36.406241195713
17.181777149861
-8.51291595807419
10.634118996723
-35.186053030597
11.9915042636039
-159.39385027107
-23.4502486014798
32.990009309105
34.2666543532714
21.9527807571177
1.87984410659762
21.7649142933313
17.918360861223
59.8942141164771
-3.64641315281922
-0.976634829195256
34.2994795491984
-0.550171281352604
-221.728338404055
-25.0209402488205
-0.234370788316429
0.263722001724227
-70.5326656979806
6.34708226542785
-35.8579056718921
17.8271756280068
-8.25525556165721
9.29467638735232
-33.8846522861646
11.1097470871674
-160.404950036752
-23.3454391397302
32.1822240298154
33.0213177014654
21.0285497539706
-19.8152881118125
21.3700829309592
16.8717736927914
63.8363012014442
-2.92309266469411
1.48952443356336
33.4064492633566
23.1709258444299
-222.552370012025
-25.8864227814591
-0.161978526586017
15.6452374525509
-66.2779910800058
-4.25858100248716
-34.8001185490209
17.2552537222173
-7.74976333937602
10.0967072058815
-33.9094854641411
11.4001870832072
-160.016782347544
-23.6973324428724
31.9853944422732
34.5592266131625
21.9445475052068
-19.8076713570138
21.9931486405103
17.6059659996193
63.9309569292921
135.726078473848
2.55690857612557
34.1258423974608
21.7631125307138
0.320334134537405
-24.5662471337182
-0.776957665840036
15.481010054114
-66.5912702492637
5.46003007232584
-34.7689915933395
17.3145809935364
-6.79283906528384
10.0015249538113
-35.6309232296789
10.4332691070791
-160.415987514261
-24.1141352082565
32.8920968414688
34.7691731263278
20.8995468142285
-18.3978694873135
21.2402420658628
16.6990317270936
64.7810278729919
135.613250143844
2.67952827091994
33.7440950324458
22.0361620955669
-222.128109642232
-25.6809040802588
-0.251716886917001
16.7576922046455
-66.374433107852
6.36795724398361
-35.0355228996508
16.659949657696
7.84733803805744
10.0557503823273
-34.9138663586691
11.9892859612057
-159.351784700886
-25.2340772211059
31.2810600945996
33.968484740353
22.6603765933105
-18.2092355530241
21.1704738649367
17.3466863013811
64.5384276163882
138.235862559494
3.40975544059097
33.9813056637982
23.1793884220969
-221.926978613926
-26.3769764652478
0.887637222847098
17.0831463759585
-67.3770833599206
6.25445500442473
-34.7991087439384
16.6766579002597
9.6855518561896
8.8953503469252
-33.9172145122268
11.3008460783169
-158.886897189467
-24.3591234057027
31.6303236433872
34.8927399922276
21.3464731279597
-18.601407678964
22.7298641796059
17.9042291889792
62.97406223345
137.520445679967
2.99462319839855
34.2651304652278
22.9234949139935
-223.306215336857
-24.8323900804673
0.804692233642691
17.0740346352749
-66.8790464563818
4.61230870207531
-36.410718598145
18.1187860616577
10.0892537384879
9.92832922229464
-34.7960449753444
10.628207516189
-159.069090111105
-24.8395144512554
33.0362416454727
34.1690045405228
20.9106238067372
-18.9876625211421
22.5052183745516
17.0936669314514
61.9513049239276
139.007912675824
4.58588425856111
33.3827303101507
21.6784833474873
-223.606346966494
-25.4706502431609
-0.0608336080702607
15.9014384231776
-67.7339914086359
4.81150615770679
-35.1984871088312
16.6797226086847
10.5820954210884
9.15744120256837
-33.6995680578032
10.8467005348001
-159.874878747313
-25.0977853494697
31.217493528955
33.2877244759366
20.9420372402772
-18.3074932965271
21.8892576180874
17.1020701388342
65.6987301494164
138.715362333538
3.74771435934768
32.8227812697329
22.2263724024695
-223.005583253474
-24.7889137315297
0.0847589622346099
17.2760569354057
-66.4690591899771
5.89870234927202
-35.7868363486446
16.6682804520372
10.8145240621674
9.20162667490627
-34.2450341130695
12.0873162774691
-159.595457383143
-24.9268376643993
33.0127309509299
33.3559917021543
21.2502970869823
-19.3641857829926
21.5237036244711
17.4710701783186
65.5876661058928
139.154861972202
4.10616552183246
34.699638431253
21.7924561547067
-223.928225726735
-25.5287443454178
-0.878580485740549
16.5951492246612
-68.3559156177881
5.11151314763434
-35.9076635744321
17.2860107313856
10.3781277195265
8.98010992450924
-35.3489411456195
11.5741084386017
-159.238110897947
-24.7664976032061
32.9366830522801
33.299661855771
21.727758307409
-17.8263837156682
22.4983448157756
16.8434107488053
64.1508797087385
138.495917013106
3.38586689918627
34.5990085055234
22.9770363398295
-222.284418037638
-25.8537346781431
-74.0543417474483
16.2878430968342
-66.5677355820498
5.42932367826242
-35.192364002009
17.4720210090274
10.8718186526984
9.75321919316566
-34.0058739212102
11.9295216963793
-159.58336877625
-23.5188859221453
31.4336101944204
34.4650083590285
22.1383350084746
-18.3972329657584
21.1376269202047
17.5719266173507
65.9012448467924
137.816246925749
4.62954579318728
34.7801898171304
22.7424523604352
-222.144274802469
-25.7786266862727
-74.4963312885021
16.1395679628526
-67.3258756409763
6.18234391083847
-35.5252550939188
16.5569979326204
11.8030096380415
9.69638173367909
-34.0408543081592
10.5250579463988
-160.466796038556
-24.703188509731
31.8653331930393
34.4084868241087
20.9669572305545
-17.9842298820808
22.5832640265736
17.0654596090552
64.3043127932265
138.831042109884
4.29351645624994
33.5703288962244
23.4490614893516
-222.620181293749
-25.9076545978289
-75.5639135381435
16.0814503630271
-66.4958708949177
5.08839494165839
-36.576077469498
17.0794601620368
11.003158916612
9.18343004070285
-33.8669395144001
10.4729180681258
-158.8441898803
-24.5945665548131
32.485146039223
34.0870121527449
22.1924896430835
-19.0691523149803
21.9380069112095
17.076304197335
64.9215593018248
138.404961763777
5.16977995550991
34.522471015632
22.7248372795661
-223.469115109705
-26.4210338140231
-74.4682338973736
17.0027854641548
-66.509998268613
4.75614327368201
-36.0804210983814
17.9707869471243
10.5692908660367
9.63969727836612
-34.3247304852024
11.9882587539703
-160.441115258146
-24.7760804603383
32.3215578729861
33.577166299893
22.0988582563266
-18.0437513187721
21.0032834147725
18.3310362100837
65.1806786932661
137.43265730039
5.04653221285701
32.8876976420282
23.0177072050651
-222.638374300264
-25.6663080001574
-75.5982560655331
16.3653861483207
-66.6404028601734
5.6501646655506
-35.3959081255497
17.1925165833167
10.9532962933973
10.715097988472
-35.3581835920826
11.8853710042983
-160.647710798192
-24.2355174730107
31.8125398094409
33.1412077952162
21.1707718562945
-18.1766063764885
21.0281913613591
16.7522840500113
64.3040201344206
139.276378094114
4.74913448012234
33.4535968949197
22.173891282328
-222.293572039865
-25.2657782579165
-75.7296548625683
15.4240112503637
-67.4345642991153
5.76250738081397
-35.5475114666523
16.966052192562
12.0515127078489
9.03897901855472
-33.8104175026432
11.558857086779
-160.243450758863
-24.8473848808118
31.2201672727824
34.0768947411315
21.263003010169
-18.2780872489202
22.1705276125112
16.6693915864919
64.8953491129591
139.341548401985
4.12016934495475
32.9829537321925
22.8405815153101
-223.170112056574
-24.5549351723923
-74.1159111997341
15.7184006027258
-66.8451899661113
4.97904724440461
-36.2312474379447
18.5024896535793
11.8575065124076
9.72609859400522
-34.3478159716753
10.9746797747871
-159.026570079732
-23.5158780453057
32.1532945568347
34.8682111311694
20.9919591134928
-18.4067102210067
21.2084274711619
17.9022498978275
65.0321020760252
138.726738781095
3.90883180359767
32.8791247059707
23.3135676257451
-223.690450162185
-25.7662763591008
-75.7179568549847
17.1059590801663
-67.3525752157036
5.56064710848828
-36.5404025663153
18.0250479770574
10.8295388760814
9.76595640850147
-35.409399187108
11.8620707248236
-159.365624897004
-23.2607619373933
32.5434764559167
33.1013519573967
21.4564770645289
-19.4462302290076
21.4650167903337
18.331091240067
65.6785404904104
137.720209279449
3.39128199330503
34.7143277575407
23.4211176811358
-222.945739560113
-24.6370991297161
-74.0377010843014
16.2310874763978
-67.290586384998
5.80657563526349
-35.1061891742258
16.6597861140237
11.9259222364506
9.47688251576393
-35.2249208285058
10.7363970880044
-160.395990960122
-24.5718668322338
32.5541174347445
34.2060257006473
22.6076657987674
-17.9473841434262
22.8244946987734
17.8169896312838
64.4028550608374
137.899894774889
2.55274604862018
33.6652806450798
21.8108127697407
-223.412286353138
-26.139715880803
-74.9563179752087
17.133791650718
-67.9941427595887
5.21173261633029
-35.1240208087847
18.1081788553332
10.7740414720481
10.2462006548363
-35.068194015028
10.7532313055644
-159.530612222672
-25.0390272483439
32.9360319311878
33.9825234223239
20.8864489956736
-18.7899916285377
22.4075181873009
17.2694593465464
66.0593014663008
136.930450412242
2.42674029099791
33.3635122229595
21.617363219843
-222.550341435078
-25.5348449505617
-75.484032823727
17.2177960245987
0.613085847600178
5.13137017543489
-34.7112090165375
16.9389582107662
10.5278959806032
9.09535916076607
-33.8555111309895
12.2219950167735
-160.346183738623
-23.7875032557845
32.970800191731
33.1113318015035
21.2200178449836
1.87112116780615
21.0929000434334
16.8001087864184
61.9213469898958
136.904104847833
-1.14459325460068
33.2164989163516
-1.17183551281575
-222.755086015091
-24.7784747006253
-75.8745822901594
-1.16725460423394
-4.55993629151523
5.4282147700926
-35.1805532557427
16.7526317924026
8.94643899246364
10.3468732675592
-35.4314404263159
11.3073381344372
-159.140523197007
-23.9810565071974
0.99397031359624
33.3205830861139
19.6507478487825
2.46835834791303
21.1527102159097
16.6610879863059
70.4568737010271
134.350393883349
-0.824812721611016
33.7967943599036
-1.85620313229539
-221.770083886547
-24.7981367438525
-75.6588310528109
-0.539019753484415
-70.9477008974653
5.65713840580862
-36.210781809557
16.6615562485936
8.09056496193497
9.38331651456841
-33.9995212236041
10.7896367779468
-159.118343494545
-23.5357849715573
0.289620676633247
34.8885880519091
18.456864801812
1.71113739098795
22.2151358553521
16.8252565899525
68.4072945630106
133.924714958518
-2.11142104144854
34.7107732942121
-1.62316415408814
-222.461505752144
-24.5288292633114
-74.6739006567308
-1.02077316117078
-72.2419447350721
4.51177177965565
-35.2678463973721
17.6475709212317
7.40139453409268
9.55253545671919
-35.3721710793878
11.4088552200342
-159.96059791371
-24.3422544574803
31.8437964946211
33.8403386880213
16.8103460274805
-19.233709026896
22.3651588674562
18.277902711433
69.5712177821896
127.328626075225
-3.81347674890139
33.6027514388759
23.2321657775336
-220.25338558451
-25.5259228045407
-74.9036635407856
16.7531312277985
-66.5962527632045
5.45231220273336
-34.8244354861548
16.9392883421947
7.65698475616356
10.5017337037887
-35.3762346372353
11.2996499188314
-0.864029583064401
-23.409106988647
32.0020990428888
33.0894454528238
-3.83252489595573
-19.2368667717601
22.0934999768242
18.3886601382679
-2.7388633598106
125.959891407076
-2.60221802669207
34.1553211858623
23.0757994999755
-220.771924053162
-0.952032154651981
-74.0056436499345
17.2725218978517
-65.801012122455
5.76161006610975
-36.4074903422137
16.9983910294961
5.41802053088141
10.2406919915203
-34.8267695985225
11.2568031931672
-0.198356230645773
-23.2902237934067
33.4252832006686
34.2867395688502
-2.52999803880024
-20.1200950212081
21.0406067882211
18.0232953948705
-3.68246235239801
-14.0247328895323
-9.37320616246676
33.519008581922
22.20336538952
-221.855742033684
0.254837708520703
1.03538989532735
17.1908088799251
-65.9950626908601
5.95640782474957
-35.8687431166472
17.7999976727928
3.63179012054492
10.1040455388476
-35.0656508678443
11.3194070400448
-160.113003081211
-23.385467987739
31.9432516205571
33.0449739505285
21.7369056027442
-19.4130110916116
21.960978719128
16.6194812446067
-3.81434083023847
-12.4894487777005
-10.4756986031344
33.3250601938267
22.3363580846453
-220.573921409466
-0.00351751118635085
-0.0598001434691328
17.2849958597182
-64.8944205214513
6.02601077754727
-34.7400941822465
18.4925430802547
-12.1448143871907
10.3763113637498
-33.8721237604008
11.59676697847
-160.139865304471
-24.8256485537531
32.2681824444108
34.17194698348
20.9700234728213
1.40381790948726
21.3350750046017
18.4448250029104
61.7472041545854
125.985907827049
-3.07113379060233
32.9605590751673
-1.98445931797661
-220.608134460909
0.156229035194453
0.813996989677338
0.196255815312913
-70.022744828604
6.07593840539663
-35.4477540285002
17.2589558507993
-11.4839094267466
8.98157156467767
-35.4332935843851
11.8980865692324
-159.002862322933
-24.8612645055023
32.3320771770101
34.5932014991258
20.9179021475442
1.46477298103983
21.7376923010381
18.2104827016161
61.0422876206747
132.233464489174
-4.31115907162519
33.146397178458
-0.730084016991367
-220.420052561737
-25.5059646412529
0.491526276772245
-0.397098267990593
-70.1263952172483
-4.50732076893717
-36.4852472221849
17.1794183747595
-10.3566032810224
10.4336685918842
-34.4824614607701
11.9918111703392
-158.778849633227
-23.3478986027302
33.3606810883905
33.6864669133606
20.4758744591427
0.215729304181604
21.964277032374
17.5359754261717
60.5470933018727
132.714050080613
-3.94880180935018
32.9621471813136
-0.577846779293963
-221.977194589698
-26.2193276009982
0.0726476022651042
-0.081996081587203
-3.27726332752609
-3.52087353993329
-35.4793610213685
17.3979647869347
-10.0687762808671
9.77571744276312
-35.2659521909272
11.9743358901251
-159.733994691421
-24.98426748932
32.7602158099293
33.0644656230347
20.8678968242385
-19.1352471925774
22.4264026019964
17.2315047587019
63.9959540395222
133.298828431941
1.74343576476975
34.5888298204281
23.0279592029143
0.889849701925612
-24.9188457392089
-0.829007090676833
16.7675759667157
2.0262219043924
4.88081763712101
-36.1436669545107
17.0767940419081
-9.26750018184879
9.85420255110765
-34.9033736675394
10.9446480684238
-0.875440658807021
-24.5541160766786
32.0152329436064
33.5868453789999
20.6831185234037
-18.6711525175163
22.2358453377391
17.6394751811509
63.4304650577497
136.575675437167
1.23074239560532
33.3472134521207
22.4060063862307
0.090364072550505
-24.6311254901835
-0.70436256374386
15.7756268488644
1.27509793994555
5.37738373089719
-36.245104007628
17.0147696848779
-7.99728020320425
8.82334375938773
-34.3058601750924
10.9782044249786
0.338673909794159
-25.2291396246771
32.3448674907614
34.0870774794745
21.5900149686064
-19.0218954367119
21.359583350429
18.3882505917884
61.7621868150667
136.322383004056
3.18900269590162
34.6268606832032
21.7832510085045
-221.495524116735
-24.7165450662635
-0.151081375732691
16.1268744510131
1.24983123177226
6.29972933430126
-36.3790339522635
17.8163375925302
7.76371056886452
8.8546851546865
-34.0805228045005
12.1834443521393
-159.184106672336
-24.8654378735668
31.0720233681508
34.3724262524622
18.0182663808675
-19.3203165603992
21.2768704152846
16.7646793054432
70.2332501867863
136.687981453138
3.43800779190587
33.4359025408985
23.055221842899
-222.929929862599
-25.5564853989773
-0.853586046182498
15.4138374658202
-67.7808310372842
5.22097093598666
-35.1509122299012
16.905285950809
8.82871356482075
9.69586825538777
-34.8708114359354
10.6922574941686
-159.260084259255
-24.6596122176355
31.3450773717949
34.2757984209925
18.0155473164423
-17.8728260681543
22.6105532015578
16.7888953752526
70.9258654829054
138.700543047361
4.71509527134934
33.3347237755852
22.5934991669491
-223.135882884053
-24.8591866315212
-0.151116816484317
16.820453946738
-66.2835453350598
5.71628472899606
-35.517017209541
18.1406845639693
9.13081294984044
9.90433197431231
-35.0805453126947
11.9248573619964
-160.414016110747
-24.0652568130914
31.3720931955674
34.5636715699021
21.394957672595
-19.0534618673331
21.5192525096223
17.1315199411761
64.3031332708222
138.008098447454
3.33257030478742
34.1046335150665
22.4584524236836
-222.426056988273
-24.8033943476625
0.530025209030264
16.2288361492893
-66.6608432267348
6.17517097188172
-35.8862861141675
18.3411418030105
11.087076247877
9.49922519136655
-33.7477204180191
11.9309385917151
-159.572167856543
-23.7974176930727
32.0666474052552
34.3656290579599
21.2072248604877
-18.7153565285412
21.3811708126248
17.7809933582235
64.5973002029781
138.277796125993
4.23480893989992
34.6764236142074
21.9573154724748
-223.199610446699
-25.8315286461429
-0.0421837915571992
15.7983636707314
-67.5933001659061
5.26738984873898
-36.0989845498106
16.5645637045676
11.7837465859456
9.67007308057923
-33.9416370171057
10.424012572925
-159.503036377836
-23.3258163641081
32.1763771707832
34.394544344022
21.5012163104537
-18.8285006203035
22.0053652942804
18.253501834231
65.6271499075606
138.435343000224
3.87914181821717
33.5097326685793
22.4748443255124
-223.956517146883
-25.733930222549
-74.1235751649593
17.1239619518375
-67.4547120641071
4.76712775918779
-35.6694114689943
17.805018960821
10.5488085536585
9.48371099319204
-35.0471075054163
12.10352889878
-159.756228444982
-24.5476894787048
32.6620528633363
33.8534108210342
22.2519362157418
-18.0762059421887
21.6785924786299
16.9211979638315
64.4369270481779
137.955146002867
4.44478019318169
34.0535867859722
22.1854450489704
-222.758118568009
-25.5544180631022
-74.7750049373363
17.2934602121671
-68.2392037820739
4.78909951586552
-35.4278987820332
18.012487614383
11.6404146232869
8.75187517468252
-33.8913205739923
11.6287032817316
-158.934468863416
-24.329956098017
31.3349887068027
33.7314538765685
21.3022552918506
-18.4028425649401
21.5765325164589
18.3722752343157
65.0240026392653
138.251562415518
4.79275328499457
33.2876288344263
22.1482358935714
-222.770927162431
-25.795750442288
-75.3786341687893
15.4626239819912
-66.9504268832294
4.88520803884797
-35.7657141769993
17.5463195035771
12.4087345934719
10.0482520306709
-34.2060284315633
12.2240715372115
-158.799310443807
-25.1242243955419
32.7591781551593
34.7097400236861
21.48983337401
-18.9577655390098
21.0935926770482
16.6403086185691
64.6372608818724
137.534712492384
4.44996136343836
34.1736260105966
22.7962746384223
-223.258134217523
-24.8298553968173
-74.414132430241
15.8575709065069
-66.6256241269199
5.25682944235266
-36.5439053856433
17.7455171526602
11.5922682181791
9.02926131568912
-34.3689108784214
11.2472659983541
-160.097527859617
-24.6686611018813
32.0847428972478
33.5312635708586
22.0056094121323
-17.5714877191824
22.5068172550614
16.5562745373788
65.7974441923811
139.204919396795
4.36374525270954
34.5441111971735
22.7393845091374
-222.376160116457
-25.2346958760866
-75.0478987237667
16.6786696484334
-67.9681683897735
6.32827483526937
-35.9673540677225
18.0196473819105
10.6331144985968
10.6895536644151
-34.8269455135145
10.4278917187028
-159.183950899053
-24.4007299686538
31.129933589196
34.2236944247023
22.3193080615501
-19.3110441792047
20.9929468969094
16.6661229318479
64.6381871380522
137.544953255977
3.62162391435955
33.3007167031168
22.7629029532448
-222.950394462324
-25.1180127349974
-75.1930285236095
16.3741909609907
-66.4573532190254
4.89552419241721
-35.5671061368517
18.3895823101506
11.1856676677866
8.91619800752566
-33.7901638464823
12.0425488932529
-159.827769396711
-24.1945913359589
31.0618854696531
34.650861244275
20.743740219615
-18.8349057846826
21.6446234370039
18.2759128207818
65.3235624003543
138.78216209085
3.14838601130346
33.4451496054531
21.9535056232811
-222.505761076067
-25.0475119646568
-75.6253110906338
16.707050028475
-67.6780641739601
4.66698502479572
-35.2211542358098
16.7685968352819
10.6405786303109
9.95610043112821
-35.5400314355926
11.5587205760681
-160.300454376149
-23.6285609543032
31.7928280765863
33.5428722906858
21.6881904789785
-19.1740233061956
20.938376958157
17.7666010870957
66.0364567323087
138.913796416548
2.87759257241579
34.452086036386
21.9242735018969
-223.972851060413
-25.8376450038155
-74.9037922164654
16.3602441044229
-66.6543621616001
5.89711064596067
-34.8450200372136
18.377865407653
10.8865655427355
9.34294776125497
-34.4916122417212
11.6649619175353
-158.960010118321
-24.5253433739252
31.8197764093891
34.3207919407664
22.1531375837716
-19.1298189237639
22.6246099150778
17.767839861206
63.3429824418837
137.554046979468
2.77957428888707
34.721777384466
22.4256243121506
-223.503662521565
-24.6137352727743
-75.3346719285702
17.2972957919953
-66.4606472275269
5.06786225721541
-36.0924683166328
16.8173541827386
11.2898513072492
8.97257478400385
-35.5764115795303
10.8882435085971
-160.604686559585
-24.9587614985748
32.5892465050451
32.9712439585538
21.2001946164224
-18.943817661462
22.6445587994075
16.8758415055362
64.5442270887213
137.229019448948
2.95792207058479
34.6021145035733
22.3728698666835
-223.653752038977
-25.8761995727327
-74.3091035625195
16.3694000418446
-67.5834008810014
6.04069538014467
-34.8422316763673
16.6197455569769
11.4023895135367
9.77599041901036
-33.7920889687939
-0.493294058770185
-160.896135209893
0.87584961397071
32.6241199344215
-0.833676338275704
30.4316794652058
-19.095221598614
-0.682288748531414
-0.491669143917799
61.0406975045503
154.992038629535
16.0714085703994
0.0991172789309931
23.4293071582739
-226.003932482332
-24.9374981738949
-75.6865857285437
16.9662775329001
0.281264333294685
8.74588559912949
-0.615392103603382
0.598070388528746
29.5028218516594
0.832137597215418
-0.58446309614828
-0.798855433434873
-161.025680733048
0.550309671696187
32.8115030083226
-0.341813683578291
26.2385976547381
1.73246808072177
-0.606012916869926
0.67294028922195
68.7957337413795
153.31904490525
13.7173965425508
-0.345669388875229
0.51975669288862
-227.03870518688
-25.5110568707451
-74.6543907353909
0.403049309340449
-4.02257408052766
9.51487640408524
0.427365462028847
-0.825733317783605
27.4751478802409
0.326137614173011
0.0464416488890107
0.871217911823179
-161.271837498446
-0.690898088634959
-0.575315492949596
-0.336776495036022
27.5593015251043
1.43691177791504
0.449999740224346
0.0628908495330318
66.5033396656071
152.460202106295
12.7953937911383
-0.223433256234307
-0.561917305869138
-225.086766663218
-24.9933536927346
-74.2869553992779
0.88852945599146
-71.4886875066634
9.64358876888094
-0.0393770608759944
0.68374895700146
27.7120896559066
-0.993461170469583
-0.308952776092375
11.6180700855308
-159.713588995896
-24.7943758738856
0.345825732692437
33.24510727418
18.0654006010941
-18.8588148951226
22.4841365185126
17.1232398303146
2.44388586563319
127.442477007297
-3.61182901600918
33.8607342889507
21.9314839287633
-222.548476992864
-26.3384956978016
-75.3698456534794
15.9862786287347
-65.0937320157509
5.9463507278631
-34.9714170784055
18.4824053588762
7.98117257287088
10.6039311212861
-34.5664119483254
10.6462693740971
0.647295736869828
-24.9468194333618
33.5611378596526
34.8329300691031
-4.40195185456909
-18.8874327978868
21.9270081032356
18.2305429245802
-6.49896326488844
126.387724150071
-4.01059796070347
33.5377714088311
21.8484929221729
-222.030001912722
-0.562282120115546
-74.5936437264425
16.2049255697113
-65.4633193216871
5.45953363172012
-35.7404445953025
18.4055787815555
4.1185249312025
9.13063593033934
-34.1451879637275
11.7864606086552
0.691016432933384
-23.3099533236725
32.8726321823864
33.5204390098045
-3.17091570841133
-19.906531382021
21.7305997943815
17.2034380949816
-3.9158406949215
-13.6856000124868
-4.19721609862922
34.4001422574949
22.4053014269276
-221.710577535961
0.663434507422735
-74.0833399733293
16.6867863628901
-65.272656980728
6.29963891624643
-35.2653459695682
17.2452991542364
2.89186575847045
9.08593396258064
-34.0337544288908
10.4186965742367
-160.36772145717
-24.6072670136919
31.7917746683875
34.4974362660853
-4.01023265862895
-19.8746474222259
20.9518936389147
17.6893384351612
-3.96609189903444
-13.674041592006
-9.13906616379129
33.0367578914627
22.9738481338899
-220.88798300814
-0.484273097629101
0.0101933430507436
15.48858235536
-64.3149258345358
5.16152222633808
-35.9038044813715
16.9007878869842
-11.1797581613398
10.4336829493476
-34.4310117592674
12.0597425769502
-158.681275997875
-24.6307843500378
32.3015433964843
34.6650353480778
19.8742800049967
-19.4770882191624
21.6534030002777
17.1081264315591
-3.10945846424761
124.857676026169
-9.5336235357279
33.2627332857111
23.505272547433
-221.675651643934
0.69137742984194
-0.157107825506486
17.1135506638323
-65.1104248850199
6.65494653115119
-35.5770943427932
17.4698524655843
-14.5882328844646
10.0664775195417
-35.0304815118014
10.8428204512672
-159.64275807891
-25.2317904359614
31.7331785784513
33.9063825417939
20.9146660234803
1.54417306559375
21.9999437903304
17.9555887418862
-3.40238650414116
125.19481705563
-2.7659479058197
34.0727259567215
-1.62613565460142
-221.418467306739
0.388264122596548
0.858498771140961
-0.656482211421316
-69.7396207288244
5.95533312532309
-35.1653750098188
18.1535179630534
-14.9514858602848
8.88314819837674
-33.6641359979416
11.6683677370288
-159.936686804137
-25.0316206162208
31.8258371282703
34.1309379149853
21.1114219042423
0.907385409916473
22.8442973347949
17.2651793179561
-4.76546072800629
125.869486967598
-4.0434900773933
32.9186154058401
-1.5530862403691
-222.261246020485
-0.193768309549907
-0.235703159932779
-0.116921061607234
-70.9922155063697
-3.72772917016972
-35.9028633654925
18.2852946399272
-14.6125117161221
10.2415757450307
-34.436339967968
10.9489411448936
-159.477682134849
-24.5223186642807
31.332558661134
33.0410463620586
21.593387255813
-18.8243767114455
22.6860420826662
17.0752712261533
-5.63434541859804
133.10696697705
-2.18112553690158
32.9321288516916
22.8116609689727
-220.628085278175
-26.2048640200615
-0.101463122838459
17.1033762368962
1.80386698502835
-4.51575910235169
-34.9804027950502
16.6076342202767
-10.6373665676527
9.88181874888735
-34.1569857454489
11.877863707532
-159.665676347593
-25.2175271626186
32.7485995799611
34.7277322818181
20.4928429675124
-20.5095068301227
22.6163473833701
16.563528150767
-6.20019342076699
134.19763615096
-2.48538285955739
33.6837218454239
23.0924044138309
2.17248577370709
-25.5563086744637
-0.847831191171218
16.1028713311118
2.30716319944326
6.46003322542523
-34.7797472581652
16.5685327614742
-9.33201160990503
10.2849554955185
-34.443453498479
11.8287174505453
-0.895051626549434
-23.367655114233
31.8234504106852
33.4155421067584
21.6391508677985
-20.2084950437622
21.1134751836333
17.7541479927346
-3.15891861968642
134.291713928854
-0.285585176685618
33.8444129875005
22.7576697347424
1.40755625128339
-25.7898112722417
-0.551743780532724
16.4771544392731
1.2840125752199
5.7236680249521
-35.8259840924901
17.3975485684598
-7.25536367609129
10.2938009579768
-34.4918815523641
10.3879126449355
-0.923933550123247
-24.7293086766342
32.3763709111925
32.9750870276705
18.5036352392664
-19.8851994741205
22.4853764264521
16.908824204463
5.37203473718243
135.404989306392
2.2300421751047
34.7286000898037
21.7763728540513
-222.828084781117
-24.9104554004956
0.934931649984112
17.2318523614028
1.22559187219794
5.76909445950456
-36.6206941969988
17.949034292166
-7.09051550550582
9.89039155827649
-34.6881582994187
12.0318214706995
-159.28524779538
-23.2890825545892
32.6550586873797
33.1129538823269
19.2454139914659
-20.0710248942234
20.8983471795678
17.2845302757884
5.22974108635705
136.329675191153
1.9553402743581
33.0494007518267
23.3353328922879
-223.555682967449
-26.3667919354839
-0.185621587716922
16.1790031939781
-66.6573324083186
6.49295037878665
-35.1024325809615
17.0523280480134
7.5953599059917
8.78646865539462
-35.5317826736733
10.3663692762683
-159.932495661723
-24.6598605092269
32.1722575375979
34.7131053019505
22.4218762357691
-18.216633502373
21.6904745114569
17.6619266260915
65.0811174007625
136.949536020201
2.60558353825238
33.5950134446341
21.9039388693571
-223.771792462308
-24.9228018839991
0.00519403322612602
15.5500532717183
-67.0539565969271
5.932280375053
-35.2916553620152
16.5402829789804
7.56585490487101
9.36439108997286
-34.0000282170611
11.8138624545306
-159.971578461974
-24.2199131826872
31.8139929720485
34.7980308342793
21.5117041092699
-18.4333966983052
21.826806312374
16.5736057487222
64.324067871936
137.90925156096
3.87091825529906
34.0912358214385
23.3653447884722
-222.199437760047
-24.5414089062057
0.841296399673575
15.4976639318255
-67.1424811741817
5.75404122647367
-35.5580855573156
17.770114495645
8.38764036089834
10.3050575480547
-34.8294703922584
10.6757493044781
-158.865142174708
-23.6034768365019
31.4976772018602
33.5329888869092
20.8237977156965
-19.4329179775897
22.566068718087
16.5226865754938
64.7158853457726
138.755026614017
3.16605186911059
33.7828550984305
22.1160483747255
-222.594343431761
-25.298641231172
-1.04818669454182
16.5365882411388
-67.4127306560989
5.37685874193336
-36.3684228502664
16.7102810305453
8.39910899471373
9.55492809356897
-35.2055898198504
10.5454989667424
-159.356150029111
-23.8002385688063
31.2005027468061
34.0189449597145
22.0376824313036
-19.1737991658539
22.7075838310252
16.5858112239797
64.8133276381209
137.812404081201
4.33437038776732
33.6513909747016
22.8814123836307
-222.177660345334
-24.6071843693097
-75.4558929940914
16.4758966089388
-68.0325587242953
5.82495688427776
-34.9250462819898
17.3253414154196
12.0996950062233
9.22824549381052
-35.122665745746
10.3570592526988
-159.097384927678
-23.2825222663173
32.6414492065673
34.0905147600906
22.5147454923288
-18.2874510922663
22.0780556552851
17.9215389014276
64.3397128262236
139.032418621247
4.34628653721724
34.4698746849895
22.1450774457275
-222.765398822533
-25.6648044672292
-74.5732632419323
16.5764187351056
-68.2522659793866
4.82313321741658
-36.0106495781444
16.7036110995765
12.2250867762638
10.4436712031943
-33.9242132756031
12.099940240753
-159.965854762006
-24.8827714015914
31.4343515569919
33.6106114197508
22.6330443810518
-17.8000569998352
21.4823452567997
17.0117706079171
65.5347157396986
138.931825457968
3.61421193850822
33.7332384039758
23.5765439037063
-223.851261348985
-24.6685178863964
-74.9190246602749
16.0598696781835
-67.1703866190998
6.32977131353795
-34.9533596123772
17.1712675290959
10.8348794783165
10.2889961787691
-34.1025743186538
10.9366584169418
-160.505918739248
-23.7978565404699
31.6604456836933
34.8648241568343
21.9479208183154
-17.6020474031761
22.3364968632969
18.4814202785727
65.9044532456114
138.861553369917
4.58418482458947
32.9267173458932
22.5697154762824
-223.176601262354
-25.7800206685763
-75.9469373962139
17.1058881481758
-66.820282883176
4.68992680487097
-35.8905607544483
18.427573102825
11.1198308364347
9.22538205467227
-33.7936988766209
11.5309078213722
-159.476283905912
-23.4488975449618
32.6749619180913
34.5120713520781
22.3087915372139
-18.7179077065604
22.156354818424
18.4763141928974
64.9313681997969
138.620810568373
5.16115415398268
34.5106825281976
23.2571509849714
-223.680979688396
-24.5601499853757
-75.8435115358089
16.8814260617857
-66.5240745241668
5.33965100491581
-35.5311324681917
17.8003380535083
11.5229159376034
8.82417001567548
-34.1433865727443
10.6150147899884
-158.958678243566
-23.9364236581076
31.8165671760799
33.4250241328017
22.4316275307914
-19.2985038688299
21.3973768101071
17.6125011881107
64.6542509961261
137.433613565513
4.13557571118616
34.6897752930521
23.2964107804427
-223.151605267025
-25.2041601469951
-75.35311086385
15.6098093079249
-66.9111459738641
6.11356966155868
-35.1138538224531
18.2148839805531
11.6531198249783
9.17499701646485
-34.0630544166792
10.8509844871207
-158.722261069227
-24.6034494369812
31.0651713545117
33.8104371834536
21.2567116212248
-18.8546936376098
22.6119519877576
18.0980483557201
65.1847927737369
138.726814888773
4.78138857376336
34.653355305374
21.8674627499711
-223.356938348856
-25.6276473351621
-74.9266650220608
17.2356241116955
-67.6128024433811
5.16749089541588
-35.0780883148825
16.9248483419219
11.9137993863363
10.4005393336522
-34.1802067971002
10.9006516869433
-159.090352771688
-23.4664188130805
31.4288597042446
33.7671016264709
21.118529814434
-18.283336835349
22.1659231755158
17.8022242512281
64.2748023553251
138.709971018816
3.71501428793771
33.0543518711948
22.0798783580842
-222.831845808356
-24.6140602020343
-75.0597127219891
15.7825965562786
-68.2714961796335
6.38346848047535
-35.5702841289627
17.8754350372188
11.9588875346272
9.113175652821
-34.989955279526
12.2240316502977
-160.273604573158
-23.8431619709496
31.5457910235032
33.3239004422011
22.1003550471316
-18.363100431304
21.8673405402623
16.7129881606973
64.1413041007834
138.675905120733
3.95383541552769
34.4408740450807
23.1467523425841
-223.747671742225
-25.812424935597
-75.9569830438351
17.3160877313735
-67.2458166080956
6.47696326435106
-35.9000593089178
16.5404202860164
10.6906683700432
10.3857917229337
-35.4229201538475
-0.578521030350229
-160.584117649888
0.394326682702949
30.8377955525743
-0.145479559981972
29.5044182276823
-19.0597099954591
-0.180716078752381
0.170725029294206
63.2569231042796
154.558150802712
19.7099801885873
0.148218750826821
24.2982380577624
-227.120567362273
-24.4484206129601
-75.7127844733175
15.8599337100159
-67.604547069019
9.81529351569878
0.985654361275585
0.315071502855584
30.6649870453444
0.0215114612174905
0.6749870361494
0.0538446140804759
-160.982468007897
-0.0285908905506448
32.3227106899158
0.607172489092078
