-0.184089303016663
0.8836510181427
0.614878296852112
-0.507148265838623
0.0189656019210815
0.835521459579468
-0.423838496208191
0.658318519592285
0.874616026878357
-0.287582159042358
-0.886070609092712
0.0396437644958496
-0.753246426582336
-0.452334642410278
-0.746793627738953
-0.81324577331543
-0.389402031898499
-0.459395170211792
0.520969986915588
0.143717288970947
0.958947062492371
-0.662157297134399
0.102400898933411
0.97999095916748
0.208426833152771
0.814501047134399
0.497132897377014
-0.17832612991333
0.105741381645203
0.355467557907104
0.675502896308899
-0.617244720458984
-0.366077065467834
-0.363354444503784
-0.265199065208435
-0.00363492965698242
0.91858184337616
0.906203985214233
-0.944479823112488
-0.853976249694824
0.634156584739685
0.765827417373657
0.957606911659241
-0.50310754776001
-0.0898362398147583
0.451966047286987
-0.14328944683075
-0.572977066040039
0.73744809627533
0.617085695266724
-0.0795663595199585
0.0586075782775879
0.874432444572449
0.610917806625366
-0.775418162345886
0.789229393005371
-0.746632218360901
0.261709451675415
0.409413933753967
-0.676887989044189
-0.113416790962219
0.15747332572937
-0.164108157157898
0.202369689941406
0.272735953330994
0.427237749099731
-0.758069396018982
-0.161742687225342
0.303061366081238
0.022296667098999
-0.101351618766785
0.0424203872680664
-0.332377076148987
0.497459650039673
-0.733383536338806
0.0581450462341309
-0.23843777179718
0.292301893234253
0.152109265327454
-0.908391952514648
0.0913490056991577
-0.487585783004761
0.363354325294495
-0.656873226165771
-0.818968892097473
-0.789346933364868
0.866782307624817
-0.461590766906738
-0.0215154886245728
-0.831609487533569
0.44327700138092
0.959804058074951
-0.238336682319641
0.176764249801636
0.844425320625305
-0.0224494934082031
0.544849753379822
0.817927598953247
0.448767304420471
-0.918971538543701
-0.0150958299636841
0.746299505233765
0.418046116828918
0.410008430480957
0.787515044212341
0.469814538955688
-0.646541953086853
-0.214098453521729
0.613448977470398
-0.368827104568481
0.451902508735657
-0.756990432739258
0.484800696372986
-0.210909605026245
-0.837767958641052
0.0597748756408691
-0.308756947517395
-0.300451517105103
-0.65849769115448
0.290030479431152
-0.803722977638245
-0.902955770492554
-0.0887778997421265
0.794250011444092
-0.456518292427063
0.975840330123901
0.0136033296585083
-0.229202270507813
-0.73723566532135
0.371215105056763
0.667811036109924
-0.212821483612061
-0.223389744758606
-0.35928750038147
0.926213383674622
-0.688712120056152
0.806332945823669
0.245392084121704
0.5306316614151
0.742661952972412
0.278324007987976
-0.968920946121216
-0.93140971660614
0.943727493286133
0.730303168296814
-0.990385770797729
-0.370433211326599
0.27105188369751
0.217568278312683
0.640104055404663
0.961241841316223
0.106593132019043
-0.280754685401917
-0.389829397201538
0.125749230384827
0.888949871063232
-0.955461621284485
-0.882798433303833
-0.344074130058289
0.644611358642578
-0.761020302772522
0.649600267410278
-0.788438200950623
0.0192074775695801
-0.509320378303528
-0.731964349746704
-0.264349818229675
-0.191241264343262
0.536576628684998
-0.61330771446228
0.110637307167053
0.990926265716553
0.568687319755554
-0.94547963142395
0.314672589302063
-0.743738174438477
-0.359643578529358
0.736485719680786
-0.922141432762146
0.0394577980041504
0.572506785392761
0.594819784164429
0.0385009050369263
0.0505971908569336
0.359889388084412
0.270269632339478
0.39935839176178
-0.693596363067627
0.0773333311080933
-0.836652040481567
0.0838929414749146
-0.338508605957031
-0.714004158973694
-0.784416913986206
-0.607480406761169
-0.160384654998779
0.93961226940155
0.190768957138062
-0.841143488883972
0.964920997619629
0.790746092796326
-0.543784856796265
-0.594025015830994
0.593194484710693
-0.702961087226868
0.263996839523315
0.502649426460266
-0.756887435913086
0.0274604558944702
0.532204866409302
0.819607377052307
-0.572507381439209
0.568558573722839
0.126195669174194
0.885779500007629
-0.815457344055176
-0.0692907571792603
0.639841318130493
0.0445495843887329
0.109111309051514
0.454366564750671
-0.323220491409302
-0.389995455741882
-0.116062164306641
0.216312766075134
-0.36833643913269
0.523184418678284
-0.689097881317139
-0.0640918016433716
0.971412420272827
-0.491667628288269
-0.15772533416748
0.381341338157654
0.016460657119751
-0.270855307579041
-0.388033390045166
0.27587878704071
-0.777991533279419
-0.0549792051315308
-0.0332202911376953
0.704115271568298
-0.0407283306121826
0.16731321811676
0.497656345367432
0.0182236433029175
-0.20326828956604
-0.184422373771667
0.570929527282715
-0.755795121192932
0.281385660171509
0.373822808265686
-0.640427112579346
-0.0118619203567505
-0.780003786087036
0.546760678291321
0.37445068359375
0.842430472373962
-0.539658308029175
-0.0839437246322632
0.495567798614502
0.292067408561707
0.172466039657593
-0.903422236442566
-0.49668025970459
0.120862364768982
0.629928827285767
0.392646431922913
0.109742641448975
-0.682293057441711
0.491055250167847
0.954286694526672
0.489763259887695
0.482820868492126
0.580186128616333
0.433476090431213
-0.687551021575928
0.734001994132996
0.168927907943726
-0.859604716300964
-0.727742195129395
-0.887123703956604
0.757402658462524
0.699678063392639
-0.879711627960205
0.491147875785828
0.355498075485229
-0.793338656425476
0.195529937744141
-0.0231510400772095
0.264117479324341
0.88363516330719
-0.543887615203857
-0.179410099983215
0.356429815292358
0.236092686653137
-0.989443778991699
0.82180917263031
0.859119653701782
0.708980202674866
0.149022579193115
0.235023379325867
0.633637189865112
-0.157052874565125
-0.125436782836914
0.176077246665955
-0.0425517559051514
0.930595993995667
-0.0656294822692871
0.528393626213074
-0.194715738296509
-0.827267527580261
0.351027488708496
0.349223494529724
-0.36960768699646
0.334615349769592
-0.546242237091064
-0.224104046821594
-0.354214906692505
-0.0977934598922729
0.409675598144531
0.432068228721619
-0.394509077072144
0.738421082496643
0.255035877227783
0.333975672721863
0.085803747177124
-0.76062285900116
-0.573515892028809
-0.703318238258362
0.266533136367798
-0.00935399532318115
-0.207693576812744
0.840328097343445
0.212254285812378
0.923502087593079
-0.816320419311523
0.596384406089783
-0.346441984176636
0.97117292881012
0.425920963287354
-0.786101460456848
-0.731699228286743
0.225089192390442
0.869738578796387
-0.234253525733948
0.462854623794556
0.591134667396545
0.422481060028076
-0.345117688179016
-0.346642732620239
0.94589626789093
0.0793876647949219
-0.979411721229553
-0.953037977218628
0.792914032936096
0.954838275909424
-0.355275273323059
-0.0769121646881104
0.418931126594543
-0.186396598815918
0.357980132102966
0.414669275283813
-0.449856162071228
-0.897905826568604
0.946121096611023
-0.210593461990356
0.508451581001282
-0.520387649536133
0.556242346763611
-0.76898455619812
-0.132293105125427
0.849600315093994
0.60301673412323
-0.879522562026978
0.609965443611145
-0.109108924865723
0.17494523525238
0.817289590835571
0.781736016273499
0.0889582633972168
-0.059393048286438
0.940714597702026
0.650230526924133
0.267166137695313
0.554909110069275
0.151030778884888
0.359614014625549
-0.381980419158936
-0.434662938117981
0.430782079696655
0.0872546434402466
-0.765585899353027
0.818204283714294
0.866028070449829
0.699973702430725
0.140885829925537
0.364902377128601
-0.0724060535430908
0.910295605659485
-0.175138473510742
0.868151068687439
0.252320528030396
0.932697892189026
-0.732091426849365
0.508248209953308
-0.0756857395172119
0.639861226081848
0.476984977722168
0.389319777488709
0.256197214126587
0.218919396400452
0.515689373016357
0.44556987285614
0.070357084274292
-0.672290682792664
0.0355110168457031
-0.152469277381897
0.480197191238403
0.751021027565002
0.307079792022705
-0.0916873216629028
0.171386480331421
0.55684769153595
0.751416206359863
-0.510145783424377
-0.816890478134155
0.752635598182678
0.971181392669678
0.909171938896179
-0.810683488845825
0.441534161567688
-0.718072891235352
0.344610571861267
0.279973268508911
-0.521354079246521
-0.256654262542725
0.742092967033386
0.242311239242554
0.627276539802551
-0.309479713439941
-0.778629899024963
0.342077493667603
0.215184807777405
-0.234825611114502
0.982271075248718
-0.395215272903442
-0.70916736125946
0.446922302246094
-0.289046883583069
-0.403038740158081
-0.720364928245544
-0.915481090545654
0.486151576042175
-0.292598962783813
0.140210270881653
-0.572890281677246
-0.814570069313049
0.92841362953186
-0.979370474815369
-0.344519138336182
0.391429781913757
0.13707423210144
-0.585332751274109
0.913309097290039
-0.201879143714905
0.876473665237427
0.818050980567932
0.338411808013916
-0.882948994636536
0.636968374252319
0.884711384773254
0.593997001647949
-0.516403794288635
0.637430429458618
0.0830322504043579
-0.100086688995361
-0.636789441108704
0.106497526168823
0.852100491523743
0.563899993896484
0.957676291465759
-0.936177015304565
-0.742043852806091
0.0128369331359863
-0.888646245002747
-0.398674249649048
-0.850157618522644
0.323994636535645
0.717431426048279
-0.335559606552124
0.816455483436584
0.256284236907959
0.624175906181335
-0.666632890701294
0.142194867134094
-0.21849250793457
0.0411819219589233
-0.395678281784058
0.263413071632385
-0.884393215179443
-0.554377675056458
-0.329214334487915
-0.275334239006042
0.24991512298584
-0.0115019083023071
0.704756021499634
-0.865038275718689
0.982406139373779
-0.599111676216125
0.137995481491089
0.324012875556946
-0.551055908203125
0.400200247764587
0.44328236579895
-0.00151574611663818
-0.845466136932373
-0.403580784797668
0.415660619735718
-0.101755976676941
0.504570960998535
0.898358702659607
0.953689813613892
-0.547386527061462
0.8360915184021
-0.580089688301086
-0.659304857254028
0.936617016792297
0.94902229309082
-0.113706231117249
0.026017427444458
-0.872767806053162
0.137430667877197
-0.459693074226379
-0.0937368869781494
-0.540360331535339
-0.27922534942627
-0.451424241065979
0.106554269790649
0.683473229408264
-0.92484712600708
0.907804369926453
0.261778593063354
0.0190697908401489
0.164554595947266
0.851024985313416
-0.702160596847534
0.813719391822815
0.572109699249268
-0.24615204334259
0.712905645370483
0.697915196418762
-0.968661308288574
0.540711760520935
0.358661890029907
0.241603493690491
-0.54259729385376
0.591132998466492
0.721558332443237
0.1104336977005
-0.521646499633789
0.14595639705658
-0.295939207077026
0.722008347511292
-0.533616542816162
-0.786395192146301
-0.0940992832183838
0.402133107185364
0.0690755844116211
0.976329207420349
0.405325174331665
0.0410667657852173
0.240653514862061
-0.303541302680969
-0.95965313911438
0.249771237373352
-0.226768493652344
-0.877349495887756
-0.810005903244019
-0.983838438987732
0.328064441680908
-0.603860020637512
-0.944439172744751
-0.138644099235535
0.966797828674316
0.456990599632263
-0.558143377304077
0.495925545692444
0.182717800140381
-0.0496560335159302
0.0384566783905029
-0.0238550901412964
0.432001113891602
-0.367330193519592
0.200951814651489
0.360241532325745
-0.835034847259521
0.278015971183777
0.232198476791382
0.864646077156067
0.357317924499512
-0.915741562843323
-0.836431264877319
0.52024233341217
0.541408061981201
-0.420648694038391
-0.963799715042114
-0.671382784843445
-0.662525177001953
0.0275768041610718
-0.317753553390503
-0.0816892385482788
0.484898090362549
0.335795283317566
0.00612616539001465
-0.298933863639832
-0.626551628112793
-0.540304780006409
-0.234225988388062
-0.471920371055603
-0.925463199615479
-0.689956784248352
-0.146109819412231
0.846250653266907
0.872465133666992
-0.841066002845764
-0.920809507369995
-0.645568251609802
-0.704324245452881
0.546040415763855
-0.552343606948853
-0.84032142162323
-0.351998329162598
0.684863448143005
-0.0562150478363037
-0.566500067710876
0.0399165153503418
0.368982195854187
0.811838865280151
-0.431892275810242
-0.0802154541015625
0.3783038854599
0.337096452713013
0.832666993141174
-0.894889354705811
0.385313868522644
0.12710165977478
0.529545903205872
-0.686209678649902
0.361325621604919
0.892914056777954
0.65056574344635
0.195359706878662
0.482730746269226
0.730358839035034
-0.96674907207489
-0.137754440307617
-0.462751030921936
-0.0987231731414795
-0.982921004295349
-0.0789847373962402
-0.169821858406067
0.114774465560913
-0.400269389152527
-0.996373176574707
0.590644240379334
0.308473825454712
0.0933395624160767
0.798678874969482
-0.122148633003235
0.929762601852417
-0.719257235527039
0.582660675048828
0.987331748008728
0.717044115066528
-0.928269743919373
0.25120210647583
-0.642804265022278
-0.0190126895904541
0.659295201301575
-0.149676322937012
-0.0256181955337524
0.38577675819397
-0.824116110801697
-0.392313480377197
-0.719093441963196
-0.7696373462677
0.849645733833313
0.463842391967773
-0.419885277748108
0.229710817337036
0.660683274269104
-0.8965163230896
-0.0570708513259888
0.796052694320679
0.497302174568176
-0.513306617736816
-0.385899186134338
-0.179864645004272
-0.18773877620697
0.880195140838623
-0.0815411806106567
-0.0475285053253174
0.779022336006165
0.388603210449219
0.667160391807556
0.384589433670044
-0.0519994497299194
-0.0143275260925293
-0.9360591173172
0.130283117294312
0.402814030647278
0.0455484390258789
-0.888636231422424
-0.193137884140015
0.416534066200256
-0.625982761383057
-0.482929348945618
-0.0835983753204346
0.607935070991516
-0.260244369506836
0.10003125667572
-0.373007535934448
-0.402255415916443
0.905580997467041
0.696793437004089
0.0539910793304443
0.164893269538879
0.159701347351074
0.56773316860199
0.0412695407867432
-0.0972350835800171
0.346965312957764
0.303304553031921
0.442465543746948
0.375446438789368
0.400112152099609
0.230289816856384
0.90223240852356
0.773977875709534
0.371021747589111
-0.681950688362122
-0.862510919570923
0.072602391242981
0.96196460723877
0.584771513938904
0.718670129776001
-0.314983725547791
-0.443148136138916
-0.99627697467804
-0.649024248123169
0.620618939399719
0.752485275268555
-0.0905014276504517
-0.344378232955933
-0.85923707485199
-0.610192775726318
-0.0957289934158325
0.45108962059021
0.915003895759583
0.0851507186889648
0.264041304588318
0.534376382827759
-0.322649359703064
-0.738510608673096
0.8448885679245
0.962244749069214
0.382515072822571
-0.3203125
0.489220023155212
-0.167526960372925
0.862162232398987
-0.530250072479248
-0.0679789781570435
-0.434894800186157
-0.0188397169113159
-0.33792781829834
-0.792894959449768
0.683700799942017
0.293830513954163
0.218690395355225
-0.446636319160461
0.0965850353240967
-0.799802660942078
0.564531326293945
-0.178983330726624
-0.121901273727417
0.602238297462463
0.618662357330322
-0.622138142585754
0.549848318099976
-0.939865946769714
0.325541496276855
-0.484474778175354
0.861955881118774
0.448518395423889
-0.313732624053955
-0.644289135932922
0.0743091106414795
-0.887271761894226
-0.710170745849609
0.256451010704041
0.737811326980591
-0.47494637966156
-0.655642986297607
0.718356013298035
-0.0243685245513916
0.440987706184387
-0.791628837585449
-0.20913565158844
-0.735545873641968
-0.444523215293884
-0.577967166900635
0.978492617607117
0.715729475021362
0.659170269966125
0.238393783569336
0.647085547447205
-0.143076658248901
-0.705329298973084
0.654646396636963
0.930065989494324
0.912767171859741
0.912783741950989
-0.0566263198852539
-0.865315079689026
0.58650803565979
-0.471231818199158
-0.316200733184814
-0.351728558540344
0.341158628463745
0.878585934638977
0.293037414550781
0.344482779502869
-0.819252729415894
0.0751520395278931
0.0573430061340332
-0.510445713996887
0.931567907333374
-0.23541533946991
0.663361549377441
-0.851450562477112
0.0234301090240479
0.782455086708069
-0.770620822906494
-0.908390164375305
-0.229090929031372
-0.689962267875671
0.836572647094727
-0.799794793128967
-0.845404386520386
0.53056013584137
-0.439740657806396
0.373383402824402
0.102346181869507
0.785452961921692
0.00114727020263672
-0.0659795999526978
-0.729467153549194
0.230599999427795
-0.683414936065674
-0.464929699897766
0.325293302536011
-0.00741183757781982
-0.248188018798828
-0.434184670448303
0.723780870437622
-0.175042510032654
-0.328792095184326
0.0581158399581909
0.99541449546814
0.264451146125793
-0.910456657409668
0.0926603078842163
0.523128747940063
-0.712734580039978
-0.296770572662354
-0.294784665107727
-0.175376176834106
-0.534700274467468
-0.578432083129883
0.292875647544861
-0.66638445854187
-0.377593398094177
-0.601998805999756
-0.47968590259552
0.681085348129272
0.990641713142395
-0.438637733459473
0.72603166103363
0.476530313491821
-0.133486151695251
0.647124767303467
0.828607439994812
0.589213132858276
0.767234921455383
0.728652954101563
0.732948660850525
0.929412126541138
0.0869699716567993
0.248451709747314
0.236540675163269
0.729671239852905
0.253087162971497
-0.450583457946777
-0.564303040504456
0.326050043106079
0.382407784461975
0.906083583831787
0.631809115409851
-0.560626268386841
-0.562543749809265
-0.944120407104492
0.737596869468689
-0.0435168743133545
-0.117289900779724
0.230371952056885
0.183358073234558
-0.788515329360962
-0.159150004386902
-0.313481330871582
0.323218703269959
-0.232999563217163
-0.250990271568298
-0.262081623077393
-0.65861713886261
-0.304581880569458
-0.484973788261414
0.286060333251953
0.658382773399353
-0.639858961105347
0.173689484596252
-0.148425579071045
-0.162671208381653
0.696838140487671
0.0429927110671997
-0.894518852233887
-0.00984060764312744
0.994693994522095
-0.619617819786072
0.900441646575928
-0.316108822822571
-0.822341203689575
-0.460992693901062
0.802007675170898
-0.653131127357483
0.585698366165161
0.623970627784729
0.119871616363525
0.175015330314636
0.256044149398804
-0.351422190666199
-0.560883522033691
-0.461918473243713
0.704443216323853
-0.809412360191345
0.651465892791748
0.885896563529968
0.206408262252808
0.54846203327179
-0.513465881347656
0.154617667198181
-0.421532392501831
-0.602383971214294
0.543076038360596
0.672980189323425
-0.540584802627563
-0.0533322095870972
0.820237159729004
0.568547606468201
0.0915606021881104
-0.406311392784119
-0.251196384429932
0.673961520195007
-0.39802098274231
0.0824528932571411
-0.277547836303711
0.933191657066345
0.783761262893677
-0.841311812400818
-0.870999813079834
-0.692214131355286
0.377263784408569
0.726325154304504
-0.118344306945801
-0.816879868507385
0.851358652114868
-0.496252417564392
-0.549732685089111
-0.725351452827454
0.684683561325073
0.180042386054993
-0.607425689697266
0.0341533422470093
-0.853108167648315
-0.928750395774841
0.385456562042236
0.555994868278503
-0.420097589492798
0.276612401008606
-0.243815422058105
-0.0166383981704712
-0.820850133895874
0.334827065467834
-0.486330509185791
-0.585479855537415
-0.725165605545044
-0.619706988334656
0.87971305847168
0.309065222740173
0.113171815872192
0.799362778663635
-0.679742336273193
-0.605830311775208
0.137643575668335
-0.613407969474792
0.0766363143920898
0.0708345174789429
-0.229753255844116
0.000989556312561035
0.196822643280029
0.320138812065125
-0.307255983352661
0.722267270088196
-0.933319091796875
-0.890510201454163
-0.3720862865448
0.507090210914612
-0.558784008026123
-0.701127171516418
-0.379200220108032
-0.654673457145691
0.975823402404785
-0.952898621559143
-0.180038213729858
0.916297554969788
0.25753927230835
-0.281932950019836
0.758724927902222
-0.254972338676453
-0.66370964050293
0.286989569664001
0.136430025100708
0.858494400978088
0.756144046783447
0.246666789054871
0.0996835231781006
-0.0581215620040894
-0.91344165802002
-0.986275315284729
-0.976392507553101
-0.00518643856048584
0.95363187789917
-0.165132641792297
-0.206910371780396
0.487636685371399
-0.428646087646484
0.193127036094666
0.584033250808716
-0.982362151145935
-0.227145671844482
0.71411406993866
0.144607305526733
-0.534689784049988
-0.458346366882324
0.572266936302185
-0.423503637313843
0.650600075721741
0.0429129600524902
-0.602897763252258
0.616150617599487
-0.51084315776825
0.154684066772461
-0.32053530216217
0.416035890579224
0.648583054542542
-0.500840663909912
-0.322222828865051
0.825883626937866
0.704684376716614
-0.0260782241821289
0.824290633201599
0.173940896987915
0.797719597816467
-0.216804981231689
-0.368665814399719
-0.45177960395813
-0.211349368095398
-0.0309066772460938
0.0975650548934937
-0.422249555587769
-0.0846074819564819
-0.557128429412842
0.614218592643738
-0.286175012588501
0.949063420295715
0.516175270080566
-0.628641724586487
0.0112535953521729
0.850234627723694
0.932290554046631
0.26412570476532
-0.590388536453247
0.925180554389954
0.397394180297852
-0.701009392738342
0.514489412307739
-0.517871260643005
-0.388196468353271
-0.499999165534973
0.878743886947632
-0.0124901533126831
-0.198773384094238
0.315032362937927
0.783746957778931
-0.27779233455658
0.748012065887451
-0.477960705757141
-0.479363679885864
0.937809109687805
-0.677600860595703
-0.364696145057678
0.171565294265747
0.512854218482971
0.513767719268799
0.811686396598816
0.890952825546265
0.109086155891418
0.961888313293457
0.256875395774841
0.686733484268188
0.827701210975647
0.988172054290771
0.131637454032898
-0.298392534255981
0.365598797798157
-0.873079299926758
-0.0419327020645142
-0.00570940971374512
0.671631455421448
-0.843423366546631
-0.474162220954895
0.820764303207397
0.10285484790802
-0.369027137756348
0.298449873924255
0.415525674819946
0.0807777643203735
-0.0894169807434082
-0.680517315864563
0.272837400436401
0.247612118721008
0.693771362304688
-0.38115656375885
-0.0720221996307373
0.122522950172424
-0.951957225799561
-0.880982518196106
0.23849081993103
-0.742121577262878
-0.0587072372436523
0.0413182973861694
-0.834563970565796
-0.1045001745224
0.273057460784912
0.812137484550476
0.0546386241912842
0.12291157245636
-0.594236373901367
0.469194769859314
0.417939424514771
-0.470408797264099
0.19597864151001
-0.432211995124817
-0.785555124282837
-0.636780619621277
0.525660514831543
-0.412956833839417
0.631777048110962
-0.814070105552673
-0.666592121124268
0.836164355278015
0.367323637008667
0.0305596590042114
-0.854290008544922
0.860683798789978
0.409487962722778
0.0568987131118774
-0.89180326461792
-0.651288151741028
0.318938970565796
0.707940220832825
0.516888618469238
-0.462813019752502
-0.99013876914978
-0.633869528770447
0.849446773529053
0.118125796318054
-0.96879506111145
0.509618878364563
0.296422958374023
-0.355126976966858
-0.652064085006714
-0.631492018699646
0.79250955581665
-0.561648488044739
0.622285604476929
0.0811034440994263
-0.452210426330566
0.993312239646912
0.995001077651978
0.35016405582428
-0.921013355255127
-0.115415692329407
0.366595029830933
0.599151730537415
-0.259284973144531
0.173324942588806
-0.821404218673706
-0.371518492698669
0.756729602813721
-0.68673050403595
-0.305202722549438
0.771771550178528
-0.248824119567871
-0.443018555641174
-0.217490911483765
0.552093148231506
0.779839992523193
-0.137897610664368
-0.806193590164185
-0.161779284477234
0.861398696899414
0.29760205745697
0.346780061721802
-0.499118208885193
-0.991330623626709
0.950028300285339
-0.393213510513306
0.569007039070129
-0.240139961242676
-0.67024290561676
-0.932302236557007
0.885980248451233
-0.790180683135986
0.277242541313171
0.833151578903198
0.265888333320618
-0.458713531494141
0.369266867637634
-0.20219874382019
0.149771332740784
0.0561413764953613
0.825190424919128
0.928565740585327
-0.238127589225769
0.70665454864502
0.913201689720154
-0.954120397567749
0.765887856483459
0.126737117767334
-0.14343273639679
-0.895056962966919
0.421217083930969
0.163190841674805
-0.760118126869202
0.976971864700317
-0.76078736782074
0.906958103179932
-0.0846816301345825
0.73044753074646
-0.860569834709167
0.224371910095215
-0.591122269630432
0.412367105484009
0.105878472328186
-0.211594104766846
-0.17336094379425
0.329493284225464
-0.656730532646179
-0.39007568359375
0.261009573936462
-0.170395612716675
0.933268189430237
-0.931067943572998
-0.303025364875793
0.582744359970093
-0.00925719738006592
0.44582462310791
0.418347716331482
0.362472772598267
-0.679985404014587
0.952638149261475
-0.0859795808792114
-0.672885179519653
0.571107983589172
-0.735700607299805
-0.715787529945374
0.801011323928833
-0.103999495506287
0.549875736236572
0.146721720695496
0.555768728256226
0.104872822761536
0.00382518768310547
0.043174147605896
0.591509103775024
-0.677641272544861
0.877246379852295
0.345273852348328
-0.581879854202271
0.143795132637024
-0.990871429443359
0.661053061485291
0.836505174636841
-0.70852792263031
-0.142398357391357
-0.258877873420715
-0.780166864395142
-0.229117274284363
0.0311861038208008
0.88491952419281
-0.705211400985718
-0.473026633262634
-0.679956912994385
-0.153038144111633
0.422821760177612
0.600393414497375
-0.772775650024414
-0.756906151771545
-0.618601560592651
0.783745408058167
-7.77244567871094E-05
-0.543261647224426
-0.354749917984009
-0.222164988517761
0.160719871520996
0.0451463460922241
-0.83237624168396
-0.152078986167908
0.538840770721436
-0.354353070259094
0.661532163619995
0.979965329170227
0.801399230957031
0.381897330284119
0.381003618240356
0.536882996559143
0.484650135040283
0.770132899284363
-0.597667932510376
-0.58520781993866
0.525238990783691
-0.874582886695862
-0.594672918319702
0.699264168739319
-0.708548069000244
-0.532108426094055
0.954563856124878
0.821573376655579
-0.885534286499023
-0.0709739923477173
0.280633211135864
-0.78505265712738
-0.680402278900146
-0.342131733894348
0.561391592025757
0.470816731452942
-0.242444038391113
0.227294325828552
-0.296788930892944
0.995065331459045
0.835689067840576
-0.459741711616516
0.622229337692261
0.16428005695343
0.0492362976074219
0.236042380332947
0.0255997180938721
-0.0179990530014038
-0.987422466278076
0.596506953239441
-0.30725884437561
-0.765028834342957
0.990483283996582
-0.0476595163345337
0.256588220596313
0.149387001991272
0.929364681243896
0.589309573173523
-0.515158891677856
-0.452852129936218
-0.0114765167236328
0.154508948326111
-0.93878436088562
0.502106308937073
0.571402072906494
0.56261146068573
-0.133306741714478
0.496317982673645
-0.143166542053223
-0.59788191318512
-0.239228963851929
0.0762916803359985
-0.169708728790283
-0.158392071723938
-0.137288331985474
0.0092393159866333
-0.184860229492188
-0.964011788368225
-0.667206525802612
0.939325928688049
-0.496116161346436
-0.967255711555481
0.653560400009155
-0.456080317497253
0.489418983459473
0.178189635276794
-0.588927984237671
-0.810158133506775
0.296281337738037
-0.976284146308899
0.576153516769409
-0.910383105278015
0.911897659301758
0.732042670249939
-0.714354276657104
-0.0422776937484741
-0.182164669036865
-0.0165320634841919
0.123655080795288
0.166838765144348
-0.478947639465332
0.382117629051209
0.902803659439087
0.404100060462952
-0.414852619171143
0.36219584941864
0.945479154586792
0.827343106269836
-0.838390350341797
-0.405765175819397
-0.134915113449097
0.721357941627502
0.0210690498352051
-0.108655095100403
0.847289800643921
0.65413773059845
0.0845460891723633
0.615464568138123
0.431278467178345
-0.866871237754822
-0.545298099517822
0.583610415458679
0.791001081466675
-0.238519549369812
0.947088241577148
0.474127173423767
0.516423463821411
0.894295334815979
-0.878602504730225
-0.267062306404114
-0.105222940444946
-0.205120921134949
-0.187287330627441
-0.0202070474624634
0.691808938980103
-0.709009528160095
0.162757396697998
0.914522051811218
0.433031797409058
0.93109142780304
-0.848854064941406
0.723282217979431
-0.815026044845581
0.640596985816956
0.626633167266846
0.984808802604675
0.836429357528687
0.878125309944153
0.838364601135254
0.0766652822494507
0.87970757484436
-0.708252310752869
0.467126369476318
-0.918506741523743
0.69188380241394
-0.124761462211609
-0.843404769897461
0.193262457847595
0.316048860549927
0.624325394630432
0.544588565826416
-0.376479268074036
-0.257440805435181
-0.307061076164246
-0.205685615539551
-0.992355942726135
0.690286874771118
0.0494629144668579
-0.374378681182861
-0.688913464546204
0.887869596481323
0.632984280586243
0.846248626708984
-0.764369606971741
0.854960680007935
0.00954306125640869
-0.616923809051514
0.125635981559753
-0.816520929336548
0.528382420539856
-0.186625480651855
-0.625708222389221
0.318859338760376
0.978198647499084
-0.603945255279541
0.329864382743835
0.841301679611206
-0.256608843803406
0.60291862487793
0.701948523521423
0.247021913528442
0.460312485694885
0.149908542633057
-0.532282948493958
0.229501485824585
0.173518300056458
0.52835750579834
0.278170943260193
0.460737466812134
-0.00798261165618896
0.0362391471862793
-0.635610699653625
0.872492551803589
0.245521664619446
-0.690582275390625
-0.0562206506729126
0.43754506111145
0.140696167945862
0.352898120880127
-0.873673558235168
0.450938940048218
-0.0825909376144409
0.0720758438110352
-0.679155945777893
0.311233758926392
-0.495018362998962
0.3039870262146
0.141223788261414
-0.198245286941528
-0.321561694145203
0.34855842590332
0.812685370445251
-0.128157377243042
-0.285243391990662
-0.000142574310302734
-0.921973347663879
-0.0818960666656494
-0.450882792472839
-0.92265796661377
0.603873610496521
-0.434339284896851
0.431153893470764
-0.54288911819458
0.886930346488953
0.949400663375854
0.0812035799026489
-0.396846771240234
-0.339770913124084
-0.504772901535034
0.346556305885315
-0.401401042938232
-0.20061981678009
-0.798691034317017
-0.642294764518738
0.676968574523926
0.728822112083435
0.419330835342407
0.184596657752991
-0.74657678604126
0.328071475028992
0.135742902755737
-0.00712001323699951
-0.543985366821289
-0.66202700138092
0.753010988235474
-0.299842238426209
0.156935214996338
0.266949534416199
-0.629133462905884
0.132235646247864
0.503767967224121
0.797252058982849
-0.432443380355835
0.679372429847717
-0.0492634773254395
-0.308790326118469
-0.31890606880188
0.452530026435852
0.789955139160156
-0.802520394325256
-0.409493207931519
-0.0603765249252319
-0.817321300506592
-0.0427027940750122
-0.00291085243225098
-0.838229060173035
0.690552711486816
0.410725951194763
0.205650568008423
0.329543709754944
0.306863307952881
0.70290744304657
0.405766248703003
0.999216198921204
0.987787246704102
-0.909688591957092
0.453027009963989
-0.270984053611755
0.683641910552979
0.846985697746277
-0.849710702896118
0.235373616218567
-0.129864692687988
-0.329193711280823
0.0289251804351807
0.0491729974746704
-0.420383930206299
-0.410272717475891
-0.369927644729614
-0.327998995780945
-0.0676765441894531
-0.631969094276428
0.285884141921997
0.232397675514221
-0.832362651824951
-0.587422490119934
-0.599220514297485
-0.357893824577332
-0.824671745300293
-0.820944428443909
-0.767307043075562
-0.747677206993103
-0.473192691802979
-0.921768307685852
-0.825675249099731
-0.990053057670593
0.00637626647949219
0.882200598716736
0.534390687942505
-0.886168837547302
-0.357522487640381
0.630635142326355
-0.181127786636353
0.17103111743927
0.238944053649902
0.0370362997055054
0.512266397476196
-0.146944403648376
0.406249523162842
0.394983172416687
-0.641164064407349
0.0521165132522583
0.0927581787109375
0.9843829870224
-0.856140851974487
0.537378907203674
-0.384025096893311
-0.022278904914856
-0.0251200199127197
-0.888789057731628
-0.806204795837402
-0.153689026832581
-0.937041997909546
0.26543390750885
0.975755214691162
-0.733455777168274
-0.996081590652466
0.33757221698761
-0.425718307495117
-0.473859429359436
0.559602022171021
-0.832896590232849
-0.90405797958374
-0.569602131843567
-0.0608847141265869
0.251708149909973
0.672694206237793
0.708442091941834
0.580080270767212
-0.596479773521423
0.493136882781982
-0.0805226564407349
-0.570115327835083
-0.0946234464645386
0.333759307861328
0.859035849571228
-0.273068189620972
0.167067170143127
0.59019136428833
-0.534772038459778
0.281890630722046
-0.118414759635925
-0.191546440124512
-0.775007843971252
-0.74105429649353
0.681377053260803
0.716207027435303
-0.919654965400696
0.4570472240448
-0.705407977104187
0.754003524780273
-0.165368676185608
0.0911610126495361
-0.798667311668396
-0.8934645652771
-0.941226124763489
0.0735185146331787
0.789904713630676
0.233885765075684
0.497523665428162
-0.205133199691772
0.0130668878555298
-0.097221851348877
-0.0242902040481567
0.405718564987183
-0.455718874931335
-0.282173156738281
-0.195510506629944
-0.402397871017456
0.433962464332581
0.152786731719971
-0.3124018907547
0.884311437606812
0.265729069709778
0.0818033218383789
0.127599120140076
-0.616843938827515
-0.187347769737244
0.810662746429443
0.332134127616882
0.0962111949920654
0.193506360054016
0.608041763305664
0.62017285823822
0.691567659378052
0.529018998146057
-0.263242244720459
-0.671736836433411
0.784581899642944
0.0981208086013794
-0.0149812698364258
0.21678102016449
-0.280874013900757
0.994195580482483
0.697673320770264
0.376180529594421
0.848837614059448
-0.718669772148132
-0.692539215087891
0.633243918418884
0.31837010383606
0.650564789772034
0.366261005401611
0.457331538200378
0.344642400741577
0.576142430305481
-0.92365550994873
-0.633368134498596
0.998089075088501
0.971759438514709
-0.678377628326416
0.83441150188446
0.483910322189331
-0.653184771537781
0.198896408081055
0.695265173912048
-0.0766780376434326
0.46266233921051
-0.950891017913818
0.0513657331466675
0.63480544090271
0.488856434822083
0.988593101501465
0.678714156150818
-0.0846421718597412
-0.340593695640564
0.940322399139404
0.933389544487
-0.678258180618286
-0.570976138114929
0.1651611328125
0.157799124717712
-0.548264265060425
0.129374146461487
-0.706885814666748
-0.413071751594543
-0.774616479873657
-0.874674677848816
-0.14542293548584
-0.245409607887268
-0.333755254745483
-0.528801321983337
0.311585903167725
0.399677157402039
0.182644605636597
-0.932981371879578
0.589067459106445
0.872408270835876
-0.651076078414917
0.314762711524963
-0.893910884857178
-0.959418416023254
0.186689138412476
0.274611592292786
0.307108879089355
0.695823073387146
-0.0539376735687256
-0.678800940513611
0.693225383758545
-0.540163159370422
0.386931180953979
0.299862027168274
-0.646572113037109
-0.809344887733459
0.560199022293091
0.18289053440094
0.995846271514893
0.888888239860535
0.0890347957611084
0.225777745246887
-0.520998954772949
0.10397469997406
0.950123071670532
0.623469948768616
-0.156946659088135
0.840431094169617
-0.245085954666138
-0.333383440971375
0.841054916381836
-0.0358978509902954
0.530873537063599
-0.602179884910584
-0.0298018455505371
0.108410716056824
0.00273299217224121
-0.232113718986511
-0.996933937072754
-0.919392228126526
-0.62626051902771
-0.707926154136658
0.0188822746276855
-0.231977581977844
0.606905698776245
0.206344723701477
-0.0652389526367188
0.544311881065369
-0.793740034103394
0.123613953590393
-0.463042736053467
0.175711512565613
-0.501903772354126
0.18999969959259
-0.987883567810059
-0.772715210914612
0.412224054336548
-0.258926749229431
-0.0214753150939941
-0.0308266878128052
-0.236781358718872
-0.541890978813171
0.0173587799072266
0.782846808433533
-0.968329191207886
-0.97566545009613
-0.296063899993896
-0.932646870613098
0.645437002182007
-0.718819499015808
0.138964653015137
0.645568251609802
-0.239110708236694
0.884530663490295
0.979793071746826
-0.329553723335266
0.544165372848511
-0.53902804851532
0.971660614013672
-0.968730568885803
0.952418565750122
-0.735955595970154
0.978947162628174
-0.740101933479309
0.0150678157806396
-0.669508814811707
-0.483576774597168
-0.0629793405532837
-0.384952306747437
0.136508584022522
0.780499935150146
-0.401596188545227
0.770058393478394
0.753996014595032
-0.819520950317383
0.141142249107361
0.41381573677063
0.506806015968323
0.369802951812744
-0.27009117603302
0.677301168441772
-0.873005747795105
0.777304649353027
0.20320451259613
0.670011758804321
-0.588930487632751
-0.361542224884033
0.979608416557312
0.761210203170776
0.376243710517883
-0.473373413085938
-0.535972237586975
-0.638825178146362
0.916681885719299
-0.615684032440186
-0.046052098274231
0.202449560165405
-0.0402477979660034
0.0544214248657227
-0.954317688941956
0.121093988418579
-0.877724051475525
0.311479091644287
-0.459377408027649
-0.662066698074341
-0.133222460746765
-0.607084274291992
0.851488471031189
0.239808320999146
-0.842265486717224
0.0302987098693848
-0.0914222002029419
0.660825490951538
-0.382172465324402
-0.019413948059082
0.566016554832459
-0.336393117904663
0.184190392494202
0.0573763847351074
-0.49199116230011
-0.179459810256958
-0.735339999198914
0.662158966064453
0.655086874961853
-0.00497126579284668
0.394026398658752
0.815563678741455
0.0703610181808472
0.622741460800171
0.3902827501297
-0.311388969421387
-0.634230256080627
-0.507137060165405
0.0108753442764282
0.633962154388428
-0.391670346260071
0.0293433666229248
-0.891046404838562
-0.282831192016602
-0.273614525794983
0.0721485614776611
0.289620041847229
0.747923374176025
-0.584139943122864
-0.841490030288696
-0.933819651603699
0.811308860778809
0.546504378318787
0.304174661636353
0.516393303871155
0.299048900604248
-0.931852459907532
0.284655332565308
0.43872082233429
-0.559242248535156
-0.583053231239319
0.416480302810669
-0.991422057151794
-0.664809703826904
-0.578362584114075
-0.161556482315063
0.934582829475403
-0.518507957458496
-0.290217041969299
-0.70714545249939
0.114806771278381
-0.189550876617432
-0.385975003242493
-0.59321141242981
0.793024182319641
-0.784261703491211
-0.421666741371155
-0.526663541793823
-0.785037398338318
0.585176944732666
0.0642555952072144
0.732854604721069
-0.215447306632996
0.331973075866699
0.957167983055115
0.154215097427368
-0.279821753501892
0.425975322723389
-0.527475476264954
0.716055631637573
0.210926175117493
0.924922943115234
0.562107443809509
0.188029527664185
0.0728365182876587
-0.994304180145264
-0.179722905158997
0.412055730819702
-0.094847559928894
0.495564460754395
0.890221953392029
-0.916431188583374
0.746570229530334
-0.096560001373291
-0.629791378974915
0.0327689647674561
-0.768510699272156
0.95112419128418
-0.780168175697327
0.00587201118469238
-0.753737807273865
-0.395440578460693
-0.333735585212708
-0.053640604019165
0.0854445695877075
-0.39492130279541
0.610507369041443
0.776228189468384
-0.891954779624939
0.500655651092529
0.533639788627625
-0.322758913040161
0.893776059150696
0.177154541015625
0.903068900108337
0.8721764087677
0.899302124977112
-0.110419750213623
-0.921219944953918
0.906078100204468
-0.385508418083191
-0.206671714782715
-0.280413269996643
0.427505731582642
-0.781334280967712
0.97543478012085
0.689380526542664
0.469784498214722
0.736848950386047
-0.0141735076904297
-0.536618828773499
-0.767744779586792
-0.303981184959412
-0.131429195404053
0.0343865156173706
-0.638475656509399
0.281355977058411
-0.30687427520752
0.319022536277771
-0.267286062240601
-0.00750577449798584
0.58558988571167
0.0639933347702026
-0.269288301467896
0.799770474433899
0.259952545166016
-0.747668862342834
0.0314209461212158
0.800474762916565
0.0493435859680176
-0.99035370349884
-0.116989374160767
0.375100255012512
0.437283515930176
-0.989622712135315
0.887165307998657
0.843593239784241
-0.91106653213501
-0.615959286689758
-0.719664812088013
-0.37839686870575
-0.617654800415039
-0.87851870059967
0.714986085891724
-0.123267531394958
-0.560288906097412
0.981121897697449
-0.459150552749634
0.684786915779114
-0.341385841369629
0.895213484764099
0.586172342300415
-0.313974738121033
0.743278026580811
-0.123914837837219
-0.56103253364563
0.241409420967102
0.235816955566406
0.422394156455994
-0.771736860275269
-0.911145567893982
-0.452514171600342
-0.574624180793762
-0.094646692276001
0.499478459358215
-0.510069847106934
-0.424906373023987
0.0250475406646729
0.933852791786194
0.306436061859131
-0.73331081867218
-0.973078966140747
0.198251843452454
0.203180313110352
-0.993367791175842
0.0165646076202393
-0.899096846580505
0.380480289459229
0.318970561027527
-0.953165292739868
-0.391762614250183
0.564043998718262
-0.848419785499573
0.899103403091431
-0.49886167049408
-0.963779926300049
-0.217584729194641
-0.635491609573364
-0.468807101249695
-0.832752227783203
-0.774242043495178
0.0252029895782471
-0.923058867454529
0.446506977081299
0.138468623161316
-0.464393854141235
0.300126194953918
0.013768196105957
0.226235747337341
-0.596347570419312
0.801944375038147
0.690442562103271
0.149825930595398
0.272042036056519
0.779295086860657
-0.489168167114258
-0.0686661005020142
0.699490785598755
0.681030869483948
0.753378391265869
-0.139567494392395
0.441980123519897
-0.63579261302948
-0.528084754943848
-0.0993772745132446
0.234007120132446
0.750333428382874
-0.473083972930908
-0.404516339302063
0.0698344707489014
0.981620907783508
0.116744995117188
0.47492253780365
-0.0152595043182373
0.0772348642349243
0.808907032012939
0.961424708366394
-0.66373085975647
0.0895434617996216
-0.928702354431152
-0.223696351051331
0.585479974746704
-0.2396320104599
0.303452968597412
-0.154049038887024
-0.421801805496216
-0.32276713848114
0.367799758911133
0.708086371421814
0.326264619827271
-0.0703843832015991
0.62090539932251
-0.581992268562317
0.288785696029663
0.265196919441223
-0.555272102355957
-0.0451589822769165
0.153383493423462
0.746110558509827
0.277865886688232
-0.872209668159485
0.117445707321167
0.905193448066711
0.146808624267578
0.982387900352478
0.669375658035278
-0.597764372825623
0.69718599319458
-0.293255925178528
-0.130157709121704
0.180230259895325
-0.274981498718262
-0.962202668190002
-0.86696982383728
-0.878376364707947
-0.792032718658447
0.167564272880554
-0.49211049079895
-0.795434832572937
-0.163415908813477
0.149389624595642
0.459386110305786
0.159157395362854
0.0455613136291504
0.804196238517761
-0.850248575210571
0.623705983161926
-0.455018043518066
0.126735091209412
0.219732522964478
0.80096971988678
-0.648430347442627
0.191835284233093
0.0698421001434326
-0.385589480400085
0.319938659667969
-0.439345955848694
-0.358391523361206
0.364443421363831
0.173843860626221
0.18692672252655
-0.301174402236938
0.884686589241028
-0.962569236755371
0.823216795921326
0.608803033828735
0.198211312294006
-0.533514499664307
0.927165865898132
0.623615980148315
-0.326207995414734
0.979684829711914
-0.93225634098053
0.661355257034302
0.682156205177307
-0.910153865814209
-0.168501973152161
-0.412622690200806
0.752234578132629
0.835177421569824
-0.77119505405426
-0.00444579124450684
0.227410912513733
0.810527324676514
0.600118517875671
0.489523649215698
-0.578227877616882
-0.301364898681641
-0.977779030799866
0.46393895149231
0.276358246803284
-0.698619365692139
0.214472651481628
-0.614280939102173
0.515412449836731
0.0710344314575195
-0.0549379587173462
0.575298547744751
0.302631020545959
-0.858492374420166
-0.0627442598342896
-0.512122392654419
-0.602586627006531
0.859601974487305
0.275648474693298
0.494672060012817
0.81111204624176
-0.183740139007568
0.312413096427917
0.16416335105896
0.963282704353333
0.377814292907715
0.0735505819320679
-0.956651449203491
0.337934136390686
0.717238903045654
0.16514003276825
-0.0610096454620361
0.639778256416321
-0.65460205078125
0.179588675498962
0.698867082595825
0.450480103492737
0.142296314239502
-0.398118138313293
-0.506977319717407
-0.615092158317566
-0.11167049407959
-0.784166932106018
0.595016717910767
0.747382760047913
0.295533657073975
-0.989666104316711
0.663174390792847
0.687929272651672
0.538835525512695
0.585604071617126
-0.478163480758667
-0.141475081443787
0.287302494049072
0.0594414472579956
-0.557390451431274
-0.430649638175964
-0.764607429504395
-0.526528000831604
0.925615549087524
0.445039391517639
-0.865795612335205
0.699399828910828
0.980742216110229
-0.419071078300476
0.322727203369141
-0.154742836952209
-0.0911071300506592
0.19930899143219
0.759090900421143
0.161654353141785
0.583236455917358
-0.194327235221863
-0.448184013366699
-0.55197012424469
0.230457544326782
0.844966530799866
0.991063594818115
-0.0410996675491333
0.712006330490112
-3.60140335248019
-0.951174671676571
0.419063697992435
-31.0668480665112
90.4182633479946
0.336965674028772
-108.043581892307
61.7360549147399
0.9062795194976
-93.6130221931831
63.2611028483242
-4.70722957199694
14.202047423449
-0.229760655727863
-41.3409211297254
0.13779940673221
-54.3771957809443
21.5643417091905
-12.2547926812623
-0.425829414528244
-48.963880875779
-69.7110442625021
-17.7300953470504
-0.6021370658768
-0.098699854036193
92.1757893198647
-0.480722028555296
-1.07464480801343
-0.43726509267098
-2.26865653798395
0.582941677868726
-72.8381404557258
45.7875568347823
-0.497676150571229
-51.9235208929551
103.126427166273
42.9413213962458
89.7884781293071
-0.282786741204995
2.73517625716183
-0.841022510510586
12.9088940600989
125.620596843284
115.326589251187
-0.27965466862665
-11.8907509913232
-51.9306243493524
20.5489048360356
-0.474230010724489
0.677104531032529
63.3069387465407
-0.737642742203773
11.0024494139898
-19.2015702015609
-15.9259680505355
-1.74496278989755
-173.97348576364
66.0613821341321
23.9397828780607
-4.55791107729947
20.213297291354
41.3355770690052
52.1791440531255
-3.02695087942961
-83.5803687962803
36.1580983768582
-31.9863785765063
136.014516036087
21.0410073107549
20.0249805137345
48.4474239672628
-21.3536881576629
15.8717224718695
-0.238944653233844
-2.25014679761244
48.0959298165147
29.448300130789
11.4646296287803
8.40724730756126
-116.280987269561
26.1421594132381
-177.939931902189
-12.8532497090665
22.7448428785379
13.0871810759147
-56.1399001879486
-46.8150775683163
-11.3120732183888
20.5117085946151
-150.940855856112
35.0476322076569
-6.53695909458334
69.6511130108312
56.816310415574
19.0788456915703
3.52324705453175
-105.735041453588
-85.68240351382
20.4104303507605
14.6865866737228
49.3843242421608
30.2913735826992
11.3413754344228
13.8600564042235
-115.730038104055
25.6029408005449
-156.222315976498
39.8171717683215
22.8194597587239
-27.8576849488163
-25.5346836937736
-42.8452814193719
-65.8494408907104
21.9666928895912
-151.204908922317
34.7676819563886
57.082999594938
132.180925200561
154.95263973555
18.8633552778028
28.6949220917101
-70.9920925674657
-113.574980926157
21.3509561071613
13.2283046686206
-36.795656226977
-0.0184718372126415
11.3800633186424
-42.5123162561413
-21.0698015006707
-3.24340331940168
-315.262691744133
-90.6385781172071
24.9428588868132
-85.6172736034796
11.4678603556542
19.5272306975829
-63.4112435097997
-2.91213777672675
-187.823029701306
36.0172513662078
10.5854544788117
49.5888602250211
-222.32387405395
18.0057444812985
43.1039187362161
-166.72681127435
-19.1859995103069
0.281816091801788
-1.63883678652479
-9.45496417744367
0.163588410738861
-0.60293117007029
7.46770732134071
-29.3300012477877
-1.08096875064295
52.4022966373476
-20.0882286604532
0.250965592641127
-14.215952825244
29.7179894753636
2.58002225206035
-41.7544276251755
0.959414752860118
-20.7342522419046
-0.782594485209432
16.6618136354528
-1.90079992513918
-1.2144539581765
-0.777719301087997
47.4802538068487
-41.7382972291181
-27.4403697632631
-0.0510938199476567
-0.839465939068386
-10.2790887266097
0.765840095013399
-1.08005668114188
1.85925023159071
-29.2936451059052
-1.41475004448964
30.8869323844018
-72.8651610154504
-0.754851076592105
26.5247098322538
-1.03120871398652
0.561946579266475
14.6184524468193
0.175871774488546
-22.7684586723888
0.493940896750368
-48.0033203680181
-63.8788264073957
-99.0049196974494
-0.353481738806717
22.193323652254
-76.418439747366
-0.637334501423773
0.230376015768894
-0.657278132193096
-0.877629160881042
-0.69320011138916
-0.932156205177307
0.716718912124634
-0.650926947593689
-0.409927845001221
-0.172109723091125
0.106989622116089
0.667030453681946
-0.330108642578125
-0.0126415491104126
0.93180775642395
0.782908082008362
0.051262378692627
-0.843766331672668
0.986217260360718
0.436574101448059
0.139580726623535
0.243329405784607
0.168777704238892
0.0573498010635376
0.2718825340271
-0.637462735176086
0.762814283370972
0.920259594917297
0.24809455871582
0.239076972007751
0.217667818069458
0.802281022071838
0.362284183502197
-0.884253621101379
0.429944753646851
0.138594746589661
0.93390941619873
0.159171462059021
-0.475232839584351
0.678834557533264
0.33906888961792
-0.633943676948547
0.137022733688354
0.643337368965149
-0.458248138427734
0.969433188438416
0.192614793777466
0.379393219947815
-0.874911785125732
0.34491240978241
0.189712285995483
0.517495274543762
0.822598457336426
-0.583067536354065
0.979999780654907
0.627589821815491
-0.45055627822876
0.565009951591492
0.0499274730682373
0.3753262758255
-0.0663242340087891
-0.97001039981842
0.301961183547974
-0.821692824363709
-0.652513027191162
-0.179705739021301
-0.664167642593384
0.362338185310364
-0.561539649963379
-0.881825089454651
-0.770211935043335
-0.182321906089783
0.160819530487061
0.185960650444031
0.82184100151062
-0.844711184501648
0.306678771972656
-0.227691292762756
0.491019487380981
-0.636914610862732
0.537292957305908
-0.981545567512512
-0.561382532119751
0.962185978889465
0.914307594299316
0.864461302757263
-0.530555486679077
0.663161873817444
0.931008815765381
-0.0445290803909302
-0.726924180984497
0.522287487983704
0.0435733795166016
-0.952046990394592
-0.794897794723511
-0.402209639549255
0.702318668365479
-0.0840445756912231
0.568380117416382
0.106101155281067
-0.117047309875488
0.757354140281677
-0.605718374252319
0.0781036615371704
-0.882175922393799
0.100103259086609
0.723944425582886
0.515384793281555
-0.972827911376953
-0.791514992713928
-0.610478162765503
-0.953515410423279
0.350376605987549
0.989359736442566
-0.704567193984985
0.0831462144851685
-0.522791862487793
-0.601584076881409
-0.800388097763062
-0.523434042930603
0.479077816009521
-0.653579831123352
0.994759321212769
-0.326356768608093
-0.359712600708008
-0.894532799720764
0.489590883255005
-0.626769423484802
0.489279270172119
-0.784770131111145
0.690088033676147
-0.31761634349823
-0.670113563537598
-0.110790848731995
-0.419252157211304
0.772611260414124
-0.727417469024658
0.920984148979187
0.405833005905151
-0.963874697685242
0.765731811523438
0.0904620885848999
0.450621843338013
0.742090821266174
0.626839160919189
0.070128321647644
0.32265830039978
0.192875981330872
-0.426199913024902
-0.168703675270081
-0.266998052597046
0.38030207157135
0.256150722503662
0.550357699394226
-0.222522020339966
0.14189350605011
-0.213682174682617
0.015032172203064
-0.282072782516479
-0.182872176170349
0.77086877822876
-0.469382405281067
0.263456106185913
-0.596314311027527
0.841761589050293
-0.673760056495667
-0.648313283920288
-0.786299109458923
0.687594890594482
0.461103320121765
0.430006742477417
-0.969989657402039
0.584857940673828
-0.769260048866272
-0.763180494308472
-0.237595915794373
-0.57081937789917
0.0732601881027222
-0.917206048965454
-0.396124720573425
0.266583442687988
0.975602507591248
0.63211464881897
0.686870217323303
0.324727535247803
-0.620216488838196
0.1837317943573
0.239538311958313
-0.455835342407227
0.589147925376892
0.452611207962036
0.241982102394104
-0.3904128074646
0.674618601799011
-0.149015665054321
-0.417492747306824
-0.518921852111816
-0.119053483009338
0.269598245620728
0.71387255191803
-0.574638843536377
0.532960772514343
-0.641034364700317
0.809539914131165
-0.452949523925781
-0.558181405067444
-0.689385175704956
-0.580075621604919
0.819900989532471
0.8112553358078
0.138339757919312
0.628644108772278
0.618058204650879
-0.356165528297424
-0.540549993515015
-0.291229605674744
0.747308254241943
-0.352802395820618
0.776020765304565
0.279077649116516
-0.0236721038818359
-0.35968554019928
0.256142854690552
-0.0397065877914429
-0.932065486907959
0.459732890129089
0.0151727199554443
0.531348347663879
0.310336112976074
0.36582887172699
-0.103017568588257
0.585626244544983
-0.451618671417236
0.949056506156921
-0.244790315628052
0.687214016914368
0.714809417724609
-0.463801980018616
0.23450779914856
-0.972848296165466
0.861500263214111
0.0966137647628784
0.0517957210540771
-0.420317530632019
-0.30927562713623
0.648492217063904
-0.222491979598999
0.758502602577209
-0.413607120513916
-0.83490002155304
0.116844892501831
0.573011517524719
0.145307540893555
-0.0189682245254517
0.691022157669067
0.28456175327301
-0.791589260101318
0.698460459709167
-0.68147873878479
0.562708973884583
0.392035484313965
-0.406612992286682
-0.203660726547241
0.141461968421936
-0.880844593048096
-0.4781094789505
0.181238889694214
0.975532650947571
-0.849365234375
0.326378226280212
-0.429001569747925
-0.103413939476013
-0.383521556854248
-0.258164525032043
-0.614338159561157
0.769490361213684
0.54708194732666
0.802075743675232
-0.851211309432983
-0.851433157920837
0.904481410980225
-0.254009366035461
0.768704175949097
-0.566160082817078
-0.886396408081055
0.423799872398376
-0.680250883102417
0.527287125587463
0.0935158729553223
-0.796698689460754
0.323529958724976
-0.0109108686447144
0.788676261901855
0.376120924949646
-0.469831228256226
0.693879723548889
0.200183391571045
0.0639628171920776
-0.800446748733521
-0.0130041837692261
-0.0829734802246094
0.624859213829041
0.882586717605591
-0.65927255153656
-0.852664470672607
-0.440579533576965
0.702438116073608
0.510567784309387
0.249630928039551
0.91708505153656
-0.864207983016968
0.191463112831116
0.764073848724365
-0.797630429267883
-0.705901384353638
-0.825937151908875
-0.0562839508056641
-0.218881249427795
-0.295176267623901
0.000969529151916504
-0.214250087738037
-0.213244557380676
-0.407301187515259
-0.877011179924011
0.562758445739746
-0.473469376564026
0.66097092628479
-0.444620490074158
0.853965282440186
0.387773394584656
-0.627347230911255
0.0341035127639771
0.0764846801757813
-0.755859017372131
-0.268227338790894
0.672075867652893
-0.483428478240967
-0.638131260871887
0.564624547958374
-0.88458526134491
-0.139128684997559
-0.193979859352112
-0.698982000350952
-0.800308585166931
-0.772329807281494
-0.653263211250305
0.255528211593628
0.106180310249329
-0.301855087280273
0.865488409996033
-0.591253995895386
0.0181089639663696
0.347612857818604
0.261322855949402
-0.311472177505493
0.276908040046692
0.776782035827637
-0.142883896827698
0.751245737075806
0.0384613275527954
-0.856998920440674
0.305822253227234
-0.736962556838989
-0.57064425945282
0.691509246826172
0.996723532676697
-0.318943738937378
-0.796868681907654
0.786686420440674
0.961680293083191
-0.46527886390686
0.896531224250793
0.443303108215332
0.281381011009216
-0.793033361434937
-0.514248251914978
0.357770442962646
-0.00840771198272705
0.215492963790894
0.542692303657532
-0.560609817504883
0.489408850669861
-0.00598406791687012
-0.108794569969177
-0.158395290374756
0.43950355052948
-0.826483011245728
-0.236653208732605
0.493247032165527
0.18037736415863
-0.636506795883179
-0.544374823570251
-0.870209217071533
-0.369390606880188
-0.566792726516724
0.485252499580383
0.824600219726563
0.695106863975525
0.292937517166138
0.246393799781799
-0.979819774627686
0.171355128288269
0.175227880477905
0.166417241096497
-0.940573692321777
-0.844332337379456
0.416137933731079
0.362144112586975
0.216874599456787
0.949436068534851
-0.263507127761841
0.796098828315735
0.229951858520508
-0.534619927406311
-0.976866483688354
0.932758927345276
0.330225467681885
0.133797526359558
0.610166311264038
-0.105194926261902
0.774653434753418
-0.691185593605042
0.0602133274078369
-0.880628943443298
0.876834392547607
0.17463481426239
0.445662260055542
-0.485706210136414
12.0765406385866
-0.980005576092449
-0.951804694760792
25.3509888592014
60.4913208016107
0.630988638581574
74.4338614773381
-107.468514839824
0.783154133602458
53.5583723035927
-84.9380913810204
7.10773908665017
72.001681063322
-0.198319078718045
70.7868475454433
-0.763707415724606
-2.9367363727739
-52.7618753092437
-46.5000806787716
0.48493278463081
-34.2101224863183
108.999319177877
-27.1524713874403
1.04075146697738
0.697035803329157
10.4964524336654
0.0380196161481195
0.0621571636780141
26.2599521656851
50.7127291861116
0.34084324791651
129.572617875413
-53.6032702854195
-0.86624359360434
-10.7791228590248
-72.9867057746055
8.69240051688971
8.61177026507583
0.611193092268909
71.5421636432224
0.690263309416145
-26.2645064719115
-149.611189192568
-148.670915127265
0.47512850940038
-151.969883525514
45.4435595993654
-33.7604006150288
-0.687621098398821
0.32398273448257
103.156232303571
-0.529523968498484
0.142546063283298
24.7888981535652
48.991522117694
-1.19179229513151
54.9909148405318
-7.69912366601509
-0.131375918072359
-61.7821954487573
31.5141564588439
51.2180961025124
96.2641069749722
-0.249093515421681
74.4576311954358
-0.419988851591875
-12.1228368428505
-24.5991595871379
-31.7978832481711
-0.491057464539381
-162.919411014678
-6.09060469368201
-13.5712483148133
0.0435429204940008
-0.753484768367043
73.4552808620222
0.185443860028332
10.8772168462606
6.33213679925298
34.5707590289096
-2.70688109669906
-45.1502602784785
12.2943395041234
24.0407241856938
-15.3011729210045
-50.7032193648663
50.3991130591463
58.672418734667
-3.17998422377569
-11.896366960118
35.4903897796124
-57.1395780234621
-14.6777488248163
-127.155197709661
19.4965487184931
-102.033469370607
25.0529923790499
-19.5782961346068
0.158073082366969
-1.98741582265899
74.6349119760282
-1.2490793648023
11.74267616919
7.42508988515234
34.098906607149
-1.33734433922988
-46.2458090274485
11.916801180721
24.0408928668385
-15.5293400972511
-50.4607344376888
50.3727080823015
58.5234842511389
-3.67373253100378
-10.7184667649962
34.2417233739346
-58.3736813454912
-13.6601312415415
-127.278973311048
18.4556440773417
-100.799061111215
25.3896845930621
-17.8331237532057
0.0318088678512833
-1.06138196817443
60.126321850171
29.3799000644344
10.7248678089989
33.4265098379696
-63.7918300992117
25.7306607946614
-49.9760953645142
-65.5427358481771
23.4899457681642
2.65594132216783
-128.351003621856
-37.9172197216765
-2.79844867665591
21.6026793806324
-80.529027543853
35.6919275805572
-32.7376206472903
-80.6894149468811
-91.6881570722259
18.1093565719194
-148.161940130422
-60.2580819146853
-120.340451509678
21.2981134029431
14.2525902536186
61.0989179931938
28.2226144579644
10.9459525085318
38.3165170967107
-65.4631199511926
25.0900928281779
-28.1502321587029
-13.1096538674017
23.5143741069378
-38.3517379845761
-99.417210562892
-35.8535634233486
-59.3561663283779
21.8350222075605
-79.7740819871633
35.8017588043561
32.8726615857797
-18.1095772940466
7.73510757718814
19.2220250135902
-121.041636190808
-25.6603361421192
-147.399470362597
22.0441158248407
11.9594212207758
60.3144258581459
29.5666914490456
10.3169197774755
38.8690205633169
-65.7418461713236
25.6649189495081
-28.7156529055062
-14.0155644785543
23.4136244950833
-37.719044813075
-97.931623085208
-35.5863268329631
-58.9548731698467
20.8971339429044
-79.3833908260077
34.7736062193265
32.900356645556
-19.1473743874381
6.0876345995499
19.3220367199424
-121.439449630177
-24.2985608630741
-147.614801082544
21.9551226331216
13.8063568506205
63.924185340737
-0.214039814613362
10.9529196044893
13.0357086406666
7.08288462743535
-1.97337228443765
5.90104868606338
-8.27824186419264
24.2217144022058
-29.2480797972662
-22.354707876792
52.0146090155447
19.3954700905097
-1.41468737462498
-32.648203287487
34.3003802620161
-42.0099981030668
-15.2283918466886
-126.065470330481
18.9823485853052
-53.5069432859258
-15.3445917067194
-46.3643759370087
-0.145159471444518
-2.33763968485359
63.179638714392
-0.214291430051959
10.8746125863071
7.95687029099841
5.85216189282251
-1.97124898004826
-14.7260332678405
-59.9080093975651
23.8383681118483
10.9332771923543
-51.8503054687606
51.008680769356
73.9130602264386
-2.67581757604954
-33.6192769550623
34.9964040739991
-107.260257552857
-76.9710615212364
-224.50194789913
18.6644458544652
-79.0269252174065
-50.4471609255594
-19.4293144796432
0.645993496443663
-0.901786430743196
-28.5281684325067
-0.0146289050519608
10.1837555375167
9.15166273504879
8.47515171232349
-2.61295583087536
58.5356793705406
-107.573132093096
23.2992704615696
61.3605143157019
-154.90808513118
7.75700895501941
-14.6211622504408
-1.24043030803485
-36.298376566373
34.2625426466741
-120.714557120044
-204.760289202915
-341.148121877604
20.0142671109214
-66.6709305289169
1.9454826288864
-39.6775471421788
-0.707001701114316
-1.8116085950231
9.89133201320945
-0.567273419359082
0.389999160824621
25.9905375023703
50.6286391916811
-0.479884815666865
128.503796206788
-53.5537877014199
-0.293744079978241
-10.4094631967781
-71.1071593707206
8.33818513336004
7.07114493128982
-0.707116453248059
70.5676489203983
0.652137556013435
-26.0151194460784
-150.514379566942
-148.246256113517
0.305887796280872
-151.526370370531
46.5556470875398
-33.1745439389271
0.038451451421126
-0.0551626493522689
13.1914140478579
0.36043278984383
0.47170442618037
26.2459888401279
59.8097388275812
0.165480654420197
74.8611471485723
-106.342657009776
-0.317563887790364
53.5299599615212
-85.3611551360558
7.40183269550637
71.5446932055034
-0.603234411512235
70.8292302625758
0.126234276627689
-1.15783098108078
-53.944782890573
-45.9127837160335
-0.892680759833302
-33.730113884176
110.0177894652
-28.0833705306593
0.959913740384364
-0.93984554814179
0.103754878044128
0.342872381210327
-0.231047511100769
-0.0645856857299805
-0.523077607154846
0.604717493057251
0.339374184608459
0.656278133392334
0.51794421672821
0.370812177658081
0.873609662055969
0.0560131072998047
-0.188584923744202
0.512372255325317
0.88301146030426
-0.774438381195068
-0.790492177009583
0.09787917137146
-0.712864756584167
-0.968743324279785
-0.761776566505432
0.174329996109009
-0.930010199546814
0.146071910858154
-0.99635899066925
0.0484874248504639
0.436287045478821
-0.41912841796875
0.598167777061462
0.0681297779083252
0.467692017555237
-0.284339427947998
0.00678908824920654
0.903301000595093
-0.720927119255066
-0.16916561126709
0.513318419456482
-0.672439336776733
0.674750924110413
0.138429164886475
0.606647372245789
0.499233961105347
-0.695249438285828
0.313371658325195
0.386995673179626
0.742661714553833
0.321049332618713
0.524729251861572
0.472161173820496
0.829450368881226
-0.466172099113464
0.966959953308105
-0.596230149269104
-0.240278005599976
0.0677200555801392
-0.108837604522705
-0.446474194526672
-0.956635713577271
-0.481937289237976
0.136325836181641
-0.470538735389709
-0.518719434738159
-0.39285409450531
0.160580158233643
-0.917813420295715
0.446639776229858
0.340462803840637
-0.427554130554199
0.51114022731781
-0.333873510360718
0.662959694862366
-0.837915897369385
0.570838809013367
-0.498809099197388
-0.384714007377625
-0.567453384399414
0.877127051353455
-0.270701169967651
-0.0099557638168335
-0.368974208831787
0.813427805900574
0.825181722640991
0.488040089607239
-0.719895362854004
0.936992049217224
-0.25791335105896
0.374532341957092
0.209006786346436
0.885148882865906
0.193026304244995
0.635482907295227
-0.915153503417969
-0.218444466590881
-0.567970991134644
-0.366193175315857
0.443878650665283
-0.857552647590637
-0.464611291885376
-0.73437774181366
0.222748756408691
0.282887816429138
-0.817085027694702
-0.383499503135681
-0.210257053375244
0.223018527030945
-0.0608170032501221
0.117715954780579
0.476037979125977
0.0943092107772827
-0.965216398239136
-0.79750382900238
0.606951236724854
0.0458077192306519
0.647573232650757
0.462271809577942
-0.966809272766113
0.650390028953552
-0.316076040267944
-0.697073340415955
-0.837894916534424
0.811010241508484
0.0599734783172607
0.10104763507843
-0.511066436767578
0.166950583457947
-0.517124891281128
-0.139825224876404
0.628056049346924
7.1406364440918E-05
0.73204779624939
0.367051243782043
0.844243049621582
0.641061186790466
-0.559573888778687
0.847873330116272
0.0839056968688965
-0.624313473701477
0.375710248947144
-0.875459551811218
0.506345748901367
0.851042151451111
0.22161602973938
-0.729094862937927
-0.484994411468506
-0.01819908618927
0.859124898910522
-0.230976939201355
-0.711281776428223
-0.64353621006012
-0.852266073226929
0.165403008460999
0.812957286834717
-0.856390118598938
-0.793294191360474
0.227256894111633
0.411087036132813
-0.501853585243225
-0.803681135177612
-0.401250243186951
0.775612354278564
-0.532441258430481
0.599117040634155
-0.0427502393722534
0.499428749084473
0.398160338401794
0.0011599063873291
-0.330421805381775
0.107072353363037
-0.158657193183899
-0.626727342605591
0.948259472846985
0.585969924926758
-0.040174126625061
0.852296113967896
-0.492228865623474
0.417688846588135
0.433907389640808
0.0223367214202881
0.720793843269348
-0.890812873840332
-0.132286667823792
-0.303983449935913
0.274461388587952
-0.775936603546143
-0.30455219745636
0.195723295211792
-0.673389315605164
0.913806915283203
0.587643027305603
0.134860277175903
0.162031769752502
0.949047565460205
-0.642590641975403
-0.300903558731079
0.34871780872345
0.250805854797363
0.366685271263123
0.427616357803345
-0.605884909629822
-0.0782570838928223
-0.567512631416321
-0.505629777908325
-0.098626971244812
-0.222589492797852
0.233160376548767
0.489323854446411
-0.774405837059021
-0.622498989105225
-0.785372853279114
0.699708700180054
-0.369915843009949
-0.442902565002441
0.996638655662537
0.891271829605103
0.942601799964905
0.457923412322998
0.279024004936218
-0.410474061965942
-0.28839099407196
0.0595932006835938
0.247940421104431
-0.139000654220581
0.862520813941956
-0.789138317108154
-0.517876744270325
0.594485998153687
-0.146044611930847
-0.839125633239746
-0.640864014625549
0.28229546546936
-0.666015982627869
-0.409582614898682
-0.0383797883987427
-0.69849705696106
0.296381115913391
-0.856832504272461
0.483545660972595
0.695199251174927
-0.263125777244568
0.456942081451416
0.136460185050964
-0.546259164810181
0.809394001960754
-0.305050849914551
-0.444260239601135
0.295999765396118
-0.517675757408142
0.577037334442139
0.706838488578796
-0.0493862628936768
-0.305248141288757
0.910945892333984
-0.708461403846741
-0.0627639293670654
-0.987283110618591
-0.376445293426514
-0.345799565315247
-0.152214288711548
0.785462498664856
0.292134284973145
0.188012480735779
-0.872302770614624
0.801684975624084
-0.824404239654541
-0.758758664131165
-0.642829179763794
0.445783734321594
-0.25425910949707
-0.476518273353577
-0.967577695846558
0.354111313819885
-0.281487941741943
-0.988093495368958
0.846933126449585
0.571223378181458
0.58524227142334
0.357516646385193
-0.527299642562866
-0.793871283531189
-0.356094837188721
0.791391253471375
-0.158513307571411
-0.411460757255554
0.530364990234375
0.530937552452087
-0.0739295482635498
-0.0748800039291382
0.249626636505127
-0.313859105110168
0.0214955806732178
-0.544260859489441
0.707085609436035
-0.334185242652893
0.526321649551392
-0.890282034873962
0.7397780418396
-0.916149258613586
0.223873853683472
0.662080883979797
0.64763069152832
0.165468573570251
-0.936506986618042
0.389805436134338
-0.775289058685303
-0.346533894538879
-0.558214426040649
-0.771927714347839
-0.70952320098877
0.214469313621521
-0.0161263942718506
-0.573484778404236
-0.27897310256958
0.345182299613953
-0.175355195999146
-0.294528841972351
-0.0196495056152344
0.778637290000916
-0.609997510910034
0.912230134010315
-0.848422527313232
-0.60955536365509
-0.321884393692017
0.177285313606262
-0.531771659851074
0.605042815208435
0.0406687259674072
-0.429417014122009
0.34546422958374
-0.698051571846008
0.464112043380737
-0.742227435112
0.911336898803711
-0.77799379825592
0.350911378860474
-0.843543410301209
-0.961961269378662
-0.126361012458801
-0.199201822280884
-0.907559275627136
0.873152732849121
-0.0609022378921509
-0.607980489730835
-0.544016242027283
0.870902538299561
-0.819288372993469
0.46258807182312
0.358047604560852
0.323402404785156
0.847137808799744
-0.108467817306519
-0.713452696800232
0.391907215118408
0.579611659049988
-0.619854211807251
-0.737398982048035
-0.361937522888184
-0.181803345680237
-0.766761541366577
-0.503219962120056
0.0551543235778809
-0.29196560382843
0.640385389328003
0.545358777046204
-0.400640487670898
-0.494405388832092
0.457177400588989
-0.0334352254867554
-0.779004573822021
-0.515074849128723
0.486470937728882
0.476828694343567
0.395770072937012
0.343901991844177
-0.740361928939819
0.60703432559967
92.8427271371922
-1.00846977814852
0.394330538726633
26.1636571884325
32.9922008422536
-0.667326765200516
134.479372854984
3.47077204160077
-0.0236616712637471
89.9660358728603
-84.7594585558972
31.6964085995443
71.4511251104279
-0.0595382841078015
151.072878123423
0.236778826994741
14.707115624221
1.33487338458598
14.9980456262896
0.832184256844069
-72.1509312556072
62.4217674286943
-12.4958525615763
-0.0616605618896828
0.0490317714664718
102.793145245504
-0.23945713023402
-0.705071443697598
26.3890016510704
49.644458695491
-1.38534323945982
55.9007913063292
-6.29142396184486
-0.14146233527054
-62.2659742831002
32.1326072196853
50.9864010465507
96.7132204631695
-0.733518940951161
72.9471623548368
0.127653021767804
-11.1894685176171
-25.0031463987758
-32.149277305445
0.378188183844714
-162.347338389518
-5.22125128010016
-12.3110224227463
-0.216993154144366
0.0926986508605578
72.8480050184019
-0.161551851298268
11.5496737068029
6.04535703793859
34.3643258519152
-1.26226418290359
-44.8350631683024
12.0266046189077
22.9353595054036
-16.6343708723213
-51.6307495343533
50.5880756379198
60.0114147874091
-3.28962374918921
-12.1644942823149
34.7109094415157
-57.9245500951098
-13.3275933520609
-127.066381901364
19.437254613917
-102.352047017816
25.1231052034899
-18.0067742563643
-1.27707360704801
-1.39523259035155
73.6231327869184
-1.38305332091039
10.2775326078268
7.5467168583045
34.180436820505
-1.79616837773544
-45.6016367166193
12.306183662296
23.532047179926
-14.855708309951
-51.2979139792767
49.4580992461275
59.1707531424734
-2.20086635344488
-10.7560838523604
35.3366303000896
-56.979569116144
-14.7539669530207
-126.637969106298
18.579140252154
-101.684076002839
24.7133083694979
-19.1847323872008
0.353846683898951
-1.20413115850493
59.209476647725
28.7907139920848
10.63659106511
34.8838449524487
-64.6163500910864
26.186764715598
-49.1670389632615
-66.8770095441228
23.3390803325639
2.19459719928117
-128.100149964133
-37.6452445620314
-3.56298255402865
20.3671062080631
-80.1097836120827
35.9216225430587
-32.7639858082323
-81.9734786437424
-91.6214884425796
18.890918065793
-146.32632676048
-59.6808155791979
-120.199569852077
20.8824264379544
12.6037771251472
59.3579794489204
29.632563879847
11.7797028756964
39.7494700967794
-64.9395912560861
25.1773436569209
-27.7604953871194
-13.1083319555898
24.6238116918148
-36.8952607001447
-98.5160125333739
-35.2440471603404
-58.4990461720897
21.3316549027586
-80.842959564945
35.8703300142636
32.7061325263696
-19.6025438267539
5.81666830812229
19.2943594223503
-121.584689221776
-24.9280276351536
-147.280844125681
21.8665818406564
12.5819889936411
60.3018250786125
29.6641861704583
10.9703584648001
38.6959359466558
-64.4592866572778
25.1523234151835
-28.0581153259698
-14.7224301468511
23.8619802890362
-38.4223885621213
-98.6217627365065
-34.4903951837551
-59.1942062034084
20.0947473014021
-79.290073674938
36.06018308643
32.4660410833078
-18.4956728178809
7.21126524244083
19.3399387365821
-121.534537516034
-24.2641516976917
-147.840465102129
21.6244242621881
11.9465232524836
49.2207073383691
28.9070739472802
9.98629613695257
40.5508102436457
-93.1006060137858
25.4780216071593
3.75521521650556
-86.4449949174896
22.9039876423529
-11.8471761911864
-99.3876932303163
-34.1096214522364
-43.3862013302509
21.3788794690333
-101.174047221785
34.6378890130876
-16.0102162725873
-82.1757432457385
-92.9897381199028
19.23917449274
-98.6027465280791
-99.7728335925033
-147.342533418746
21.2204018175688
13.8682595407999
64.1573620489583
-0.179683220527669
10.1481896659822
13.0548789249379
5.71043236837162
-2.41119128849649
6.3800330419899
-7.71177696322218
24.0120657930444
-29.5883722510321
-22.9261156717444
52.0056878691518
18.0916671234381
-2.01157925466038
-33.8326253036307
34.2789392791975
-41.7215540608609
-15.266087254556
-126.935294263128
20.0405508519983
-52.5277414922551
-15.2436228689814
-46.2830051064728
-0.0421039943021837
-2.1883100225306
62.856161446173
-0.117394781644977
10.7045281098362
9.60530731416125
6.99230004208399
-2.14801108408268
-14.4267039869873
-60.6131261463749
22.8751050770278
10.558906140566
-51.4347118446457
49.384458490761
75.4180512809735
-1.58776339590427
-34.192521526748
36.1433838828065
-107.482935260529
-78.45781355447
-226.077336330679
18.9975447428624
-79.3470226638482
-50.0244662424844
-19.5846055601181
-0.726512168381777
-1.76913271751688
62.5802557178328
-0.98315904193703
10.2572652266498
8.45576295590777
6.78993214028193
-3.21290444898899
-14.3410326813308
-61.1681136961567
24.3089886248106
10.3254928019048
-51.0641837427246
49.6370099271853
75.4429897451383
-2.63535710871097
-34.2564054273904
34.3300307019212
-107.152861069436
-76.7430800730629
-225.461404938963
18.2443550599019
-79.4962670915292
-50.975292529754
-18.6614479873718
0.666978980566893
-1.56349776592539
-17.4234393851191
-0.474590837681327
10.5077610359116
7.46079681704146
36.3229322600087
-2.40349658075828
26.9032534549117
-34.5024120623711
24.7901899061198
36.7043438167916
-154.202747050319
7.71841285297156
-29.6869011838858
-2.80775677917867
-13.1456306558632
35.8709512696533
-72.5239383349343
-139.791418297075
-241.85917424608
19.2381614378476
-89.8830004379992
76.2776673027051
-38.3439852094577
0.546534035817593
-1.06386718215221
13.1027142302004
-0.366143538433758
-0.870539245236866
26.3386378231296
60.834037972326
0.685844938935578
76.0202691387761
-106.480667511638
-0.421598788455648
54.8962638822671
-85.1226645545434
7.17415391971902
70.2643506266155
0.627930043901583
70.4653267400844
0.729175312852054
-2.00034549600388
-52.8161651270537
-45.6018596628414
0.584215049340282
-33.8898052179468
109.183875185263
-28.142662847096
0.320896158444667
0.927890791427302
0.148495078086853
0.764804124832153
0.334700226783752
0.243542194366455
0.0364254713058472
-0.0254518985748291
0.5848628282547
0.354870796203613
-0.383009552955627
-0.0107991695404053
0.771861672401428
-0.398996829986572
0.957206606864929
-0.767287492752075
-0.251153826713562
-0.952508926391602
-0.0145813226699829
0.545048952102661
-0.879081130027771
-0.495973110198975
-0.602450489997864
0.463441610336304
-0.598614573478699
-0.944306373596191
0.0633500814437866
-0.996362447738647
0.668004631996155
-0.905785083770752
0.932649493217468
-0.0588505268096924
-0.28076159954071
0.849205017089844
-0.558395028114319
-0.407494306564331
-0.269498229026794
0.419418811798096
0.418951869010925
0.0965001583099365
0.410412907600403
0.304001808166504
-0.507746338844299
-0.80455756187439
0.657043099403381
-0.566259860992432
0.994151949882507
0.51640772819519
-0.285833239555359
-0.297689437866211
0.368616461753845
0.352486848831177
0.827511429786682
0.997530460357666
-0.922804951667786
0.944036245346069
-0.598992228507996
0.732607841491699
0.00526368618011475
0.259927988052368
-0.346960425376892
-0.122608661651611
-0.631723523139954
0.278799772262573
-0.227306246757507
-0.510379791259766
-0.881984353065491
-0.229695081710815
-0.423989653587341
-0.253825664520264
-0.151158452033997
-0.423637628555298
0.662232518196106
-0.525675773620605
0.203942656517029
0.392406702041626
-0.929943442344666
0.182981014251709
0.781585574150085
-0.951361894607544
0.433881878852844
0.59394645690918
0.541365027427673
-0.708727598190308
-0.359938979148865
-0.326837062835693
-0.289546132087708
-0.936208963394165
0.983149647712708
0.16196346282959
-0.810146927833557
0.288191080093384
0.822156548500061
0.608321666717529
0.460641741752625
-0.853764772415161
0.736793637275696
-0.101898193359375
-0.0097728967666626
0.8607017993927
-0.816274046897888
0.286308765411377
0.138594508171082
0.976634740829468
-0.347178339958191
0.928338050842285
0.564557433128357
-0.857406377792358
-0.676597952842712
-0.0887742042541504
0.132007479667664
-0.608096361160278
0.220491528511047
0.78489875793457
-0.683835625648499
0.923905611038208
0.871067643165588
-0.406575679779053
-0.890174031257629
-0.614794015884399
0.460311055183411
0.40626049041748
0.429618239402771
0.650926828384399
-0.512144446372986
-0.65049409866333
0.0222452878952026
-0.894044160842896
0.924038052558899
-0.862850189208984
0.870739340782166
0.426196336746216
-0.133851408958435
0.102322101593018
-0.89928925037384
0.859817266464233
-0.305319666862488
-0.271456718444824
-0.613402009010315
-0.991496801376343
0.729579567909241
0.68097448348999
0.857917666435242
0.108704328536987
-0.61350429058075
-0.662332534790039
-0.49448549747467
0.812886476516724
-0.166968703269958
0.820814609527588
-0.912188649177551
0.470781087875366
0.144991993904114
0.527998924255371
0.537059187889099
0.910635232925415
0.962636590003967
0.163444042205811
-0.134412884712219
0.72046160697937
0.646926999092102
0.269264221191406
0.572052359580994
0.0292885303497314
0.935778260231018
-0.743285655975342
0.547690272331238
-0.211590051651001
-0.899691462516785
0.937439918518066
-0.517435669898987
-0.447364568710327
0.601089119911194
0.554727077484131
0.77181613445282
-0.238459825515747
0.244394421577454
-0.685247421264648
-0.0780845880508423
0.520714998245239
-0.161548018455505
-0.582166194915771
-0.543089985847473
0.883016347885132
0.349692463874817
-0.410321235656738
0.324675917625427
0.629816293716431
0.55899965763092
-0.887363910675049
-0.196832776069641
0.552252531051636
0.217960476875305
0.356945037841797
-0.0933338403701782
-0.767521619796753
-0.294885039329529
-0.188014507293701
0.292033076286316
0.324912786483765
0.182206273078918
-0.382472038269043
-0.335043549537659
0.337490320205688
0.250430703163147
-0.405016422271729
-0.313797116279602
0.912911176681519
-0.893312335014343
-0.221345901489258
-0.622132897377014
-0.390108823776245
0.199829697608948
-0.553018093109131
0.029621958732605
-0.815588235855103
-0.61308753490448
0.653800010681152
0.604968428611755
-0.629029989242554
-0.410555243492126
0.259582042694092
-0.352514386177063
-0.836171388626099
-0.0503615140914917
0.462692260742188
-0.31291925907135
-0.401734113693237
-0.513341307640076
-0.169364452362061
0.146239161491394
-0.96817421913147
-0.747126460075378
0.831307411193848
0.746274352073669
0.925567865371704
0.9901043176651
-0.135756015777588
-0.586422085762024
0.125317335128784
0.28587543964386
-0.208127975463867
0.685869574546814
-0.357084989547729
0.229664444923401
0.97075891494751
0.618447184562683
-0.0625326633453369
-0.430848002433777
0.782862663269043
0.190436720848083
0.696596384048462
-0.633528113365173
-0.333218097686768
-0.788957715034485
-0.882310152053833
0.154461026191711
-0.350994110107422
0.725796103477478
0.689151048660278
-0.407090544700623
-0.62483549118042
-0.0771914720535278
0.471648931503296
0.624810338020325
-0.358721733093262
-0.460981965065002
0.87936806678772
0.132609963417053
-0.574991703033447
-0.233558773994446
-0.0387413501739502
0.094457745552063
0.416906356811523
0.658422827720642
0.182286500930786
-0.759543776512146
0.0516648292541504
-0.964114308357239
-0.295316934585571
-0.791088938713074
-0.960633277893066
-0.106419205665588
0.169195413589478
-0.79741895198822
-0.603264331817627
0.306337237358093
0.976336240768433
-0.855071902275085
0.978385925292969
-0.164687752723694
0.0676338672637939
-0.663632750511169
0.508072376251221
-0.56575882434845
-0.793117761611938
0.610516667366028
-0.890059471130371
0.855687499046326
-0.238609075546265
0.990447640419006
0.339776515960693
0.557292819023132
0.983235120773315
0.844934582710266
0.716257095336914
0.10802686214447
0.790505647659302
0.544705033302307
0.752199649810791
-0.905562520027161
-0.951441049575806
0.618689656257629
0.485812187194824
0.52690064907074
-0.648732900619507
0.410272240638733
-0.488056659698486
0.745870471000671
-0.697732210159302
-0.766460299491882
-0.486667633056641
-0.171870827674866
-0.70378565788269
0.0295320749282837
-0.708140850067139
0.493037104606628
-0.199974298477173
-0.477507472038269
0.29979419708252
-0.491217255592346
-0.865863561630249
0.876117348670959
0.671048641204834
-0.40136730670929
-0.246253252029419
0.849805951118469
-0.247575759887695
-0.152818322181702
-0.969927549362183
-0.54508912563324
-0.865136623382568
0.606602549552917
0.53159499168396
0.110987782478333
0.184699058532715
0.902896285057068
-0.194688558578491
0.302045464515686
0.0749049186706543
0.34214198589325
0.657984495162964
0.732795834541321
0.31634521484375
-0.483253121376038
-0.0626075267791748
0.984903931617737
-0.210975170135498
0.911696314811707
0.813579320907593
-0.326762080192566
0.27333927154541
0.310803771018982
0.560104608535767
-0.897880911827087
0.481324672698975
0.702960848808289
0.835293531417847
0.421571850776672
0.587907791137695
0.688387274742126
0.463486909866333
-0.716426253318787
-0.737843990325928
-0.615119099617004
0.716291189193726
-0.00169456005096436
86.8901749733866
0.0357788543500898
-1.17220594509751
-0.141852141456883
65.8393806922869
0.906862980462579
83.007820604036
198.681576807903
0.402347704651167
-28.6477774988844
100.99993120927
20.2972317333704
88.8528530423891
0.295952091765206
42.4872291401079
-0.687378262681472
-82.5742891706505
107.077532489297
229.789310410195
0.923638481065366
5.15910933372433
36.2718534386505
-11.1542352326674
-0.192666004486797
0.426018699782683
89.3991812632589
0.484284593738984
-0.973892864735756
-1.57187516570387
-11.5669186399332
-0.197020378445753
-19.083449685703
100.365545148342
0.0330542197561522
-115.756478473175
116.429434400495
43.8754148180625
26.1373807313296
-0.0510428960237044
1.30778170735799
0.909127032379189
-10.5515531172858
28.901736069701
15.5671298484701
0.068212793813818
-129.498917868532
-115.614994538826
15.3482918163328
0.510995675242082
-0.643383916842379
61.0803933463374
-0.650851432867257
11.9219293273908
-18.8446102787137
-25.0422018588751
-2.54122457079089
-121.25925128863
119.528805738982
22.9980081557672
-69.060755723407
33.2881727544888
42.1674447103348
-12.305412722141
-2.37441874613186
-83.5313586791835
35.7627253252961
-55.3613321892854
38.5923972249363
-80.7683459480109
19.5015334505707
-66.9838110518832
-83.7578187650748
9.89728523723137
0.367070083788634
-1.83095161740508
37.3417025070724
29.3092343876638
11.6797611028331
-22.2286465504505
-127.383521428006
25.1737988661826
-258.938704792099
13.960610864903
24.6231984970886
-81.5103785081284
-79.6345463609857
-46.1338408012241
-148.63002217176
21.558044148527
-154.555102215423
34.5531254140759
13.443049665232
-57.5733709145882
-226.974634334674
18.0151776874709
-206.948227492303
-321.623937559958
-83.3672208051732
20.9452390443018
14.2842459013586
-43.1058278165671
30.056938137776
11.1404740637164
7.59605151136963
-114.547381362147
25.765650197108
-104.889949863211
-59.7597675204494
23.9346913180038
65.188297703466
-159.426471683292
-87.8839139229437
-100.509181957208
21.1538942968872
-153.519769715508
34.7264703605244
-20.9941279101602
-56.960195402239
-60.4965559390372
19.7025477873743
14.6111880921653
-54.3240035481365
-107.253519424685
21.7041854841276
14.1772117588554
-14.0447376265951
29.3871691912664
-0.200902399252302
31.4622020051832
-100.589085994186
28.0878013184088
17.3869075638978
-25.8327358994868
-1.05082922952811
-21.2850267287251
-46.9519281715976
-85.7049189761243
-118.288716660564
22.9059591376731
-68.7472662088384
0.0200824370285324
90.9709004502299
-4.80223354716459
133.119768864119
-1.30767878855927
-18.9894278351398
-51.2673860000738
-129.530499541558
21.6384926125833
15.2010463234489
-23.3061403437978
30.238782992716
0.285243917767133
33.5172902113223
-128.163566609391
27.7105418802271
49.3164352155955
-98.4258646540425
-0.331211955709749
4.55960197445456
-48.9328459433921
-85.9589685669018
-102.236886351768
23.9405485921391
-89.8284123974398
-0.473291367301421
41.1956752560476
-67.5487793664102
34.5083283946895
0.152458132607156
3.77089012653948
-126.295340222309
-128.873676657156
21.4545739086561
13.8721393584387
57.3380873029935
29.6024404632902
-0.748721218198873
33.4564657036012
-157.125826221954
27.4274999282502
107.313562761264
11.041264153003
0.00537517349844747
41.7312706086864
-46.7538699147242
-60.8734038599539
-103.896902300886
24.6390326176072
-10.0404612385961
-0.146657687486433
57.2403574026931
-13.4173385043448
97.0658303434807
-0.793773771682576
-34.0683991773029
-173.465658375643
-114.699134595398
21.9545201017968
15.8236768714903
82.2967595780115
-1.01340977034152
-1.59904600972416
0.764822114971057
-29.5052034936359
-0.519910731161011
-40.4714579149215
-26.2731645167812
-0.781897296667119
-25.2225282972201
102.166871818375
43.4768222290904
104.035744081299
0.0982350414851504
-19.0584846895495
-0.552198720197899
-35.0218838789489
62.3925891414472
16.1288947810937
-0.34383680015645
11.4167672925074
-126.897909030228
21.0419075729236
0.403746298203891
0.576208816518266
53.0543013691894
0.338773672504146
10.1858919927966
-16.7284830854716
-44.1591084815293
-2.30725352290189
-143.880832000912
-7.22022163320278
23.4471152292792
20.3817022764921
19.6980359192864
43.0577272243596
67.3078682875882
-2.61452269415157
-103.495592700755
34.8936422904619
-81.5034106354272
72.2835519438688
-76.8626617381961
18.7232533687769
71.5339835413765
-95.8573154593883
15.5714093213063
-0.77398943195195
-0.733072999187252
65.8547131196459
-0.0443748326654528
11.1281241871121
10.0015901224084
16.7513935477655
-1.7380920670901
-67.3586191546694
-113.047380720082
24.8269918465166
75.9525572232125
-65.6954343517716
49.9004151845296
137.738285441571
-3.13477885706762
-32.1457281446231
34.2642858898282
-84.0733868735041
19.4769760120665
-124.405360572447
19.9812200107533
37.8092406317413
14.137440863722
-12.4320818062386
0.0289654899967459
-1.71006094330225
74.9073014542955
-0.732191970830707
11.7885273333647
6.84303516707805
44.8777294886698
-1.49076384038
-99.2252574688272
-40.4122070875199
23.5391012668053
48.3891644533365
-64.0374724267636
50.8110764562916
122.903387667946
-2.1304686514231
-12.0003727332283
35.2723074164024
-34.7139310179295
83.3363083627605
-24.4787152442374
19.8647751538722
15.3999265553311
90.2161431957744
-12.3024283169685
-0.71270703646856
-1.65589395898971
13.2848045126406
0.508972332995686
-0.260047015775196
26.2996416034946
61.0735852249811
-0.90047260027951
74.8822491001714
-105.875689427074
-0.309286948398275
54.2775900808449
-84.921428306527
7.03480064441994
70.7893440462627
0.232149003709933
71.6150722044093
0.892731888627201
-1.82939412957932
-53.8138825075774
-45.6541176775204
-0.622780437872852
-34.6775101625574
110.273064237844
-28.0884526610914
-0.307066430819249
-0.292225347030951
0.620855212211609
0.411688566207886
-0.297847628593445
0.716869354248047
0.389393210411072
-0.903202772140503
0.174658417701721
0.215855121612549
-0.357075810432434
0.584739446640015
0.465226292610168
-0.419032096862793
-0.662863373756409
0.633449792861938
-0.574947714805603
-0.116381168365479
-0.617202877998352
0.135628461837769
0.501035809516907
0.408109664916992
-0.947999596595764
-0.100008726119995
-0.607970595359802
-0.317117214202881
-0.115580677986145
-0.0674803256988525
0.20508873462677
-0.988228797912598
-0.906445145606995
-0.782289266586304
0.111722588539124
0.505248546600342
-0.527013897895813
-0.000172853469848633
0.504142880439758
-0.388320922851563
-0.1973797082901
0.564147233963013
0.651514649391174
0.148567676544189
-0.245057225227356
0.51821494102478
-0.143793940544128
-0.166190147399902
-0.698732972145081
0.573089838027954
0.11003839969635
0.316941738128662
0.617984652519226
0.824597120285034
-0.74946391582489
-0.289609909057617
0.492815375328064
-0.465422391891479
0.617176651954651
-0.37927770614624
-0.768942952156067
0.412137746810913
-0.792359232902527
0.679896354675293
0.0618356466293335
0.394899606704712
0.334062218666077
0.576510906219482
-0.955644726753235
-0.069749116897583
0.779277920722961
0.587055206298828
-0.525851845741272
-0.243405103683472
0.453077912330627
0.60715913772583
0.789324641227722
0.184600591659546
0.548455357551575
0.682843208312988
-0.0231767892837524
0.87845253944397
0.197856545448303
-0.958231449127197
-0.521339535713196
-0.8628990650177
-0.370569109916687
0.624486923217773
-0.401818871498108
0.675511598587036
-0.176719069480896
0.1156907081604
-0.593691945075989
0.905915975570679
0.667712330818176
-0.524537086486816
0.147792220115662
0.719061136245728
-0.38451611995697
-0.029472827911377
-0.852537274360657
0.765459775924683
0.840057492256165
0.705497741699219
0.216476798057556
0.236640214920044
0.891848206520081
-0.345870494842529
0.5585697889328
0.146396398544312
0.854474186897278
-0.809432029724121
0.176305174827576
-0.887962102890015
-0.998993277549744
0.120599269866943
-0.222675442695618
-0.364360094070435
-0.0497797727584839
0.212900161743164
-0.81940233707428
0.885293245315552
0.322842240333557
-0.769711971282959
0.222672343254089
-0.0236456394195557
0.897803425788879
0.460970878601074
0.16392457485199
-0.247304677963257
-0.731512427330017
0.749797344207764
-0.405191540718079
-0.932046175003052
0.998981595039368
-0.970493316650391
0.842106223106384
-0.43321681022644
-0.719674468040466
-0.648021221160889
0.875178217887878
0.966102361679077
-0.913237452507019
0.41948413848877
0.712212920188904
0.836345911026001
-0.168011069297791
-0.384066104888916
-0.67352306842804
0.882714033126831
0.525404095649719
-0.461870193481445
0.0525649785995483
-0.273577451705933
-0.57163941860199
-0.972985744476318
-0.507350087165833
0.18595290184021
0.210414052009583
0.698920249938965
0.922732710838318
-0.941697835922241
0.605573296546936
0.976821422576904
0.1988924741745
-0.599766969680786
-0.431449770927429
0.62158203125
0.163536429405212
-0.690476179122925
0.931009888648987
-0.236793041229248
-0.448350071907043
-0.793781518936157
-0.442179560661316
-0.56790828704834
0.397046446800232
-0.386123418807983
0.0033031702041626
-0.409727573394775
-0.0613824129104614
-0.559176683425903
-0.332517504692078
-0.337324142456055
-0.973416924476624
0.761399507522583
0.452335953712463
-0.431630611419678
-0.971259236335754
0.0972115993499756
0.918044209480286
-0.748188972473145
-0.763283371925354
0.198381662368774
0.939241051673889
0.714099407196045
0.772214770317078
0.324797391891479
0.861263394355774
0.544223785400391
0.993267416954041
-0.972637891769409
-0.84359872341156
0.950314044952393
0.400484919548035
-0.570755243301392
0.580147862434387
-0.709109306335449
0.0433057546615601
-0.992870092391968
0.827449440956116
0.106114864349365
-0.573753476142883
-0.127532243728638
-0.311044573783875
-0.350961685180664
0.915151953697205
-0.447275876998901
0.707268357276917
0.916853427886963
0.643444895744324
0.272630453109741
-0.666806101799011
-0.817856788635254
-0.0816236734390259
0.73543381690979
-0.418009161949158
0.0241312980651855
-0.872724652290344
0.404146909713745
-0.810378909111023
-0.140068054199219
0.143799185752869
0.282798051834106
-0.731000304222107
0.975800037384033
-0.765816807746887
0.197681188583374
0.46624481678009
-0.941618919372559
0.463490843772888
0.578605890274048
-0.383072257041931
-0.774038791656494
-0.398136258125305
0.740147352218628
0.902322888374329
0.559717178344727
0.530771613121033
-0.337103605270386
-0.49434220790863
-0.865033626556396
0.149262309074402
-0.725290536880493
-0.231636881828308
-0.447583198547363
-0.219788193702698
0.231958627700806
-0.153677344322205
0.969417095184326
-0.923425793647766
0.200781583786011
0.86612331867218
-0.368793487548828
0.427631735801697
0.638331651687622
0.581305146217346
-0.0978350639343262
-0.134755253791809
0.0740277767181396
-0.471388697624207
-0.202937126159668
0.470101714134216
-0.109195470809937
-0.315761923789978
-0.987688541412354
0.277969241142273
0.606362104415894
-0.379915118217468
-0.542787551879883
0.685942053794861
0.65441632270813
0.160004258155823
0.285208225250244
-0.64130699634552
-0.334051370620728
0.536051869392395
-0.574868202209473
-0.36527693271637
0.250456094741821
-0.955263495445251
-0.387543201446533
0.432611346244812
0.277201414108276
0.203270077705383
0.920547485351563
0.657265067100525
-0.343537092208862
0.405817627906799
-0.208091259002686
0.106169581413269
-0.379215478897095
0.0797473192214966
0.569436073303223
0.875638365745544
0.506225824356079
0.341880440711975
-0.472334384918213
-0.732936978340149
0.0336120128631592
0.154741406440735
-0.595975875854492
0.193163275718689
0.0897839069366455
-0.0171922445297241
0.430078983306885
0.0842369794845581
0.00884795188903809
-0.0512398481369019
-0.137211799621582
0.294410109519959
0.353426218032837
0.489732384681702
0.0157504081726074
-0.99211323261261
-0.804093599319458
-0.486438632011414
0.790454864501953
-0.354800820350647
0.899691820144653
0.0550371408462524
0.707531452178955
-0.230542302131653
-0.599548578262329
0.4321528673172
0.438000679016113
0.492600798606873
-0.0126302242279053
0.902354836463928
0.834523677825928
0.381645083427429
-0.415602922439575
0.818792462348938
-0.537347793579102
-0.135064721107483
-0.468500852584839
0.286568284034729
-0.367921352386475
0.138394236564636
0.865907430648804
0.318987965583801
-0.0721139907836914
0.571772933006287
0.103368997573853
80.6422223081224
0.25464546286092
0.773135636891661
-0.412340396888859
-28.7320905547169
0.259567382015029
58.3049306996603
109.746806555726
0.773272929760564
37.294434771355
1.64718767951623
24.6813802463078
0.936166635645047
0.519029341210586
80.1340166800839
-0.124686610750502
17.5229948774346
55.5834277709781
61.6757465967711
-0.213601293823727
-37.9142941198977
-46.5539840726388
14.7865616006367
0.290802912157715
0.583202027593186
92.0055026644387
-0.60120971852722
0.680861230652342
-0.385912114918294
-0.876328752492019
-0.733201834857104
-73.9722294487983
45.9373824077498
0.310171349276183
-52.6190360487473
103.528890602399
42.2861771816156
89.5971724919474
-1.73865498537614
2.69213645842526
0.020030479449132
13.6299343089698
127.044878440422
115.791537428525
-0.387878106889589
-11.9259439577843
-51.2454556062188
20.254629075385
0.624905864977415
0.230771122676816
61.4959584794322
-1.16939741808912
10.9181190408688
-19.0298346925855
-24.2715627969473
-1.37303921751177
-121.579114965655
118.059319621619
23.3186979531687
-69.6345194515488
33.4695469467267
41.3680731101838
-12.5165508513753
-1.78824556936642
-83.5231545766673
35.5629421193101
-55.6114698760148
40.0162721991871
-79.4353566129508
19.8137226719529
-68.2288503957171
-84.9722856945105
8.01444090835106
-0.280661578007935
-2.37396268670286
46.5568325602705
28.7653495473109
10.4405276034377
8.47837589820177
-125.564995635968
25.0500269706093
-124.31550243416
40.9408398932885
24.2763172340414
-51.0701520145213
-41.7723357590162
-45.7239477228164
-74.3614039108535
20.3445243935698
-151.265582478174
35.3971266001331
-30.392486719165
-27.4663687258484
-44.8706991837908
18.2046030017662
-112.279307139381
-168.629096372638
-91.750422305732
21.1122532361671
13.9981669790904
-42.423946269593
28.838075723416
10.941714627109
7.88336986025422
-114.857456525988
26.1652360401943
-103.871788447157
-59.3400086045482
23.8776850781128
64.8775048997017
-160.423658701686
-88.9786565786978
-99.3410428571336
21.1227435982254
-153.22111742421
35.3399129006932
-21.737653772854
-56.8950230875951
-59.5708570626563
19.6868036972941
15.9993627452186
-53.3863546557338
-106.74798465658
22.3571368438764
13.3346906874214
-13.7411734357306
29.7734736889852
0.874192896653765
31.1598897502775
-99.3260701279065
27.8555164148825
17.5384741885392
-25.0265715155986
-0.12691515463034
-21.4589906331059
-48.0983714193927
-85.6355843499265
-117.261735187595
24.7450586640785
-68.8996966239919
0.00776919030154275
89.5416536669734
-5.4909336270825
132.240190392935
-0.206907242195441
-20.5528508726688
-51.1687916921743
-127.926258051194
20.7506948993035
15.2146591898505
-14.3243077292868
29.1882818430914
1.00855261402284
31.4954580591078
-100.17371743721
28.7962854912298
16.8976855141847
-25.7737611565974
0.498320760553681
-21.6106993552205
-47.4402423233615
-84.3439804270825
-118.559520588939
23.7823357665489
-68.0682906267156
-0.441160715589876
91.1275791268352
-4.09111723323027
132.942962891066
-1.14688977565034
-20.8629081551166
-49.9736051963934
-128.931861483849
21.902637033207
13.7284372803275
-23.3477858706838
29.242137542124
0.139926363293256
32.8590045934939
-127.405994912156
26.5896822572718
48.7234476782114
-97.2802028231404
-0.368295104666048
3.97114439007345
-47.5683520964987
-85.3498133888317
-102.672262042228
24.5704061322697
-90.1891764240816
-0.477425068625884
41.967353703771
-68.6416467408304
33.6204266117
-1.18432479967434
3.28270376713397
-125.835175675342
-129.740986704305
22.0169532688551
13.8036536215918
-23.9707247165723
28.7628047728158
-1.15836375578004
28.411795233999
-128.446643679789
26.7667008482213
28.3363283021273
-150.923803402472
0.17169368035487
43.7369883410588
-77.8808871350616
-88.7144996077376
-47.6496870506471
24.5081885513896
-89.8985895157903
-1.14157829674299
-23.4767886882192
-129.979425401279
-64.5004505617465
-0.0398490286223068
-22.851952732523
-161.411104002153
-101.433699485526
21.8349836400026
15.7282106034244
-10.3370904832778
-1.14535971310733
-0.340842022404698
2.37476055225416
-28.2896389585205
-0.328379814768567
32.0826556796136
-72.0668328542108
0.443670299064024
25.8986281271604
-1.31141086433137
-0.372105172823978
15.4945823124657
1.07555834942446
-21.3017469128216
-0.653508835076414
-49.5690278131628
-64.4075341500867
-98.9913062350013
0.0732071707239228
22.260669033037
-74.9127122178403
0.472191894373953
-0.228330124749294
0.85922114873647
94.0434785107799
-0.482550134947151
-1.65762729960061
28.2737029629267
30.7397740529318
0.0331288603319402
33.1372064617771
-133.47393600753
0.0615899696791748
28.9291743896734
17.115819264297
50.0373742258205
176.077217563102
-0.549135417390366
51.5545586919611
-0.616599409466818
-37.3502038136201
10.0514739869276
-29.3814754475055
-0.468988787635625
-23.3002212912612
-17.501610997218
-7.44062274682109
0.467060984251707
-0.651584982394094
65.3584396020373
-0.341198811089524
10.8755297161343
9.68857275409172
16.4028479964654
-3.32966244443995
-67.1722869288698
-114.34124067873
24.4131615662127
75.5802785328743
-66.2372896870072
50.0020554089864
137.50514211195
-3.15068089945654
-32.4520259237064
35.745190945828
-82.7021371977533
19.4213324535643
-124.912746303191
19.0263264217336
37.6050737425506
13.4564845000441
-13.0088416214547
-0.881868345605062
-1.55421959274683
75.6697578713792
-1.20950262833193
11.2902835246184
7.62829393706706
44.1503711474527
-2.69394272297888
-99.9599591022806
-41.6753873434098
23.230497503225
49.1094093378274
-64.0815078614865
50.0930851042103
123.10765469294
-3.3941486326548
-10.7566960707832
34.6833672728172
-34.8733801184239
83.0934642579937
-26.0866087111869
19.1977328984706
15.3732212902859
89.8797550846599
-12.543752264875
-0.737270348999078
-1.83659855264815
-29.144534333967
0.628320317998252
11.7567825564682
-18.4246237219423
-14.0526141658642
-1.37824035186052
-102.265625444976
19.3935097571289
23.1518541940753
47.137059381543
-82.4614030806758
-0.874170507126473
-38.304337466494
-2.52332749882032
-85.3755536984997
35.2566236816346
-46.6402309181223
9.68112441207129
-93.7942080438334
20.1565255079074
61.5644486144774
32.1872620049829
-6.36561946839126
0.757956341758833
-1.60736261766932
0.764365553855896
0.927934885025024
0.813081383705139
0.905078411102295
0.761777758598328
0.668608427047729
0.892330288887024
-0.736476898193359
0.397869467735291
0.126055955886841
-0.0771802663803101
0.463558673858643
0.423251032829285
-0.326553583145142
0.910042881965637
-0.886294364929199
0.13736093044281
0.0374643802642822
-0.201053977012634
-0.995874881744385
-0.705284237861633
0.579560041427612
0.630178570747375
-0.362131118774414
0.511160254478455
0.0771992206573486
-0.803656935691834
-0.737870693206787
0.170117259025574
0.00511336326599121
-0.801754832267761
0.399489402770996
-0.171162247657776
0.31654953956604
0.901143670082092
-0.120827198028564
0.124650835990906
-0.275479555130005
0.291000485420227
-0.631706237792969
-0.818786263465881
0.483054399490356
0.730730652809143
0.403107166290283
-0.485238194465637
-0.331554651260376
-0.88354766368866
-0.0797414779663086
-0.559641480445862
0.960502862930298
0.533736824989319
0.288033962249756
0.978145480155945
0.923802137374878
-0.586141467094421
-0.162389755249023
0.259592413902283
-0.211066007614136
-0.80995500087738
-0.105695247650146
0.433747172355652
0.733754873275757
0.453726887702942
0.308825492858887
-0.926514267921448
-0.335363149642944
-0.389212012290955
-0.511478900909424
0.0817621946334839
-0.502282381057739
0.0378152132034302
0.928630828857422
0.0978587865829468
0.940150499343872
-0.261651396751404
0.243534564971924
-0.596364140510559
-0.22864556312561
-0.500868678092957
0.698002815246582
-0.670218110084534
0.624264001846313
-0.453640341758728
-0.761553287506104
0.162063479423523
-0.733420610427856
0.701933026313782
